,REL,SEC,FRAC,SOUR,SOURSTAT,STAT,READ,VOLTAGE
0,0.0,1657948356.0,0.972806,-69.99937,136,8,-5.34762e-07,-70
1,0.2221612,1657948357.0,0.194967,-69.99904,136,8,-4.946801e-07,-70
2,0.2913782,1657948357.0,0.264184,-69.99893,136,8,-4.855671e-07,-70
3,0.3606015,1657948357.0,0.333407,-69.99896,136,8,-4.792407e-07,-70
4,0.4298204,1657948357.0,0.402626,-69.99888,136,8,-4.741884e-07,-70
5,0.49904,1657948357.0,0.471846,-69.99892,136,8,-4.712983e-07,-70
6,0.5682621,1657948357.0,0.541068,-69.99896,136,8,-4.677818e-07,-70
7,0.6374813,1657948357.0,0.610287,-69.9989,136,8,-4.671419e-07,-70
8,0.7066956,1657948357.0,0.679501,-69.99892,136,8,-4.665346e-07,-70
9,0.7759136,1657948357.0,0.748719,-69.99892,136,8,-4.613481e-07,-70
10,0.8451332,1657948357.0,0.817939,-69.99896,136,8,-4.616063e-07,-70
11,0.9143558,1657948357.0,0.887161,-69.99894,136,8,-4.606864e-07,-70
12,0.9835648,1657948357.0,0.95637,-69.99892,136,8,-4.599654e-07,-70
13,1.052782,1657948358.0,0.0255881,-69.99897,136,8,-4.56906e-07,-70
14,1.121993,1657948358.0,0.0947983,-69.99892,136,8,-4.558561e-07,-70
15,1.191212,1657948358.0,0.164018,-69.99886,136,8,-4.577126e-07,-70
16,1.260448,1657948358.0,0.233254,-69.99886,136,8,-4.567571e-07,-70
17,1.329674,1657948358.0,0.302479,-69.99892,136,8,-4.55115e-07,-70
18,1.398885,1657948358.0,0.37169,-69.99886,136,8,-4.542443e-07,-70
19,1.468112,1657948358.0,0.440917,-69.99893,136,8,-4.529804e-07,-70
20,1.537335,1657948358.0,0.510141,-69.99888,136,8,-4.524024e-07,-70
21,1.606562,1657948358.0,0.579368,-69.99902,136,8,-4.537263e-07,-70
22,1.675787,1657948358.0,0.648593,-69.99904,136,8,-4.52113e-07,-70
23,1.745008,1657948358.0,0.717813,-69.99896,136,8,-4.499475e-07,-70
24,1.814216,1657948358.0,0.787022,-69.99892,136,8,-4.524525e-07,-70
25,1.883433,1657948358.0,0.856239,-69.99897,136,8,-4.492084e-07,-70
26,1.952662,1657948358.0,0.925467,-69.99895,136,8,-4.493234e-07,-70
27,2.021878,1657948358.0,0.994684,-69.99902,136,8,-4.490777e-07,-70
28,2.091099,1657948359.0,0.0639048,-69.99892,136,8,-4.499289e-07,-70
29,2.160327,1657948359.0,0.133133,-69.99899,136,8,-4.501495e-07,-70
30,2.229551,1657948359.0,0.202356,-69.99899,136,8,-4.498047e-07,-70
31,2.298774,1657948359.0,0.27158,-69.99892,136,8,-4.502831e-07,-70
32,2.367998,1657948359.0,0.340804,-69.99895,136,8,-4.491631e-07,-70
33,2.437206,1657948359.0,0.410012,-69.99892,136,8,-4.487371e-07,-70
34,2.506431,1657948359.0,0.479237,-69.99905,136,8,-4.461482e-07,-70
35,2.575654,1657948359.0,0.548459,-69.99895,136,8,-4.458392e-07,-70
36,2.644871,1657948359.0,0.617676,-69.99911,136,8,-4.455586e-07,-70
37,2.714081,1657948359.0,0.686886,-69.99903,136,8,-4.459663e-07,-70
38,2.783303,1657948359.0,0.756109,-69.99896,136,8,-4.467234e-07,-70
39,2.852534,1657948359.0,0.825339,-69.99886,136,8,-4.474124e-07,-70
40,2.921744,1657948359.0,0.89455,-69.99899,136,8,-4.471055e-07,-70
41,2.990961,1657948359.0,0.963767,-69.99895,136,8,-4.462963e-07,-70
42,3.060191,1657948360.0,0.0329965,-69.99895,136,8,-4.46002e-07,-70
43,3.129417,1657948360.0,0.102222,-69.99892,136,8,-4.448775e-07,-70
44,3.19863,1657948360.0,0.171436,-69.99882,136,8,-4.452003e-07,-70
45,3.267842,1657948360.0,0.240648,-69.99886,136,8,-4.440586e-07,-70
46,3.337058,1657948360.0,0.309864,-69.99886,136,8,-4.462467e-07,-70
47,3.406282,1657948360.0,0.379088,-69.99892,136,8,-4.455252e-07,-70
48,3.475504,1657948360.0,0.44831,-69.99896,136,8,-4.446726e-07,-70
49,3.544732,1657948360.0,0.517538,-69.99895,136,8,-4.45234e-07,-70
50,3.613961,1657948360.0,0.586766,-69.99881,136,8,-4.441148e-07,-70
51,3.683176,1657948360.0,0.655982,-69.99889,136,8,-4.42451e-07,-70
52,3.752394,1657948360.0,0.725199,-69.99907,136,8,-4.450272e-07,-70
53,3.821612,1657948360.0,0.794418,-69.99889,136,8,-4.446174e-07,-70
54,3.89083,1657948360.0,0.863636,-69.99894,136,8,-4.447928e-07,-70
55,3.960051,1657948360.0,0.932857,-69.99894,136,8,-4.436348e-07,-70
56,4.029279,1657948361.0,0.00208504,-69.9989,136,8,-4.442145e-07,-70
57,4.098503,1657948361.0,0.0713087,-69.999,136,8,-4.430021e-07,-70
58,4.16772,1657948361.0,0.140526,-69.99895,136,8,-4.420014e-07,-70
59,4.236941,1657948361.0,0.209747,-69.99897,136,8,-4.424945e-07,-70
60,4.306161,1657948361.0,0.278966,-69.99894,136,8,-4.428667e-07,-70
61,4.375389,1657948361.0,0.348195,-69.99892,136,8,-4.434462e-07,-70
62,4.4446,1657948361.0,0.417405,-69.99883,136,8,-4.431961e-07,-70
63,4.513815,1657948361.0,0.486621,-69.99896,136,8,-4.421164e-07,-70
64,4.583013,1657948361.0,0.555818,-69.9989,136,8,-4.41764e-07,-70
65,4.652224,1657948361.0,0.62503,-69.99889,136,8,-4.41621e-07,-70
66,4.721461,1657948361.0,0.694267,-69.99888,136,8,-4.414012e-07,-70
67,4.790685,1657948361.0,0.763491,-69.99892,136,8,-4.421854e-07,-70
68,4.85991,1657948361.0,0.832715,-69.9989,136,8,-4.427151e-07,-70
69,4.929127,1657948361.0,0.901933,-69.99887,136,8,-4.428394e-07,-70
70,4.998353,1657948361.0,0.971159,-69.99892,136,8,-4.416542e-07,-70
71,5.067575,1657948362.0,0.0403804,-69.99894,136,8,-4.415652e-07,-70
72,5.136797,1657948362.0,0.109603,-69.99905,136,8,-4.437147e-07,-70
73,5.206015,1657948362.0,0.178821,-69.99892,136,8,-4.428849e-07,-70
74,5.275229,1657948362.0,0.248035,-69.99894,136,8,-4.415642e-07,-70
75,5.344452,1657948362.0,0.317258,-69.99902,136,8,-4.421366e-07,-70
76,5.413677,1657948362.0,0.386483,-69.999,136,8,-4.413578e-07,-70
77,5.482892,1657948362.0,0.455698,-69.99902,136,8,-4.440023e-07,-70
78,5.552109,1657948362.0,0.524914,-69.9989,136,8,-4.421569e-07,-70
79,5.621326,1657948362.0,0.594132,-69.99897,136,8,-4.419797e-07,-70
80,5.690553,1657948362.0,0.663358,-69.99899,136,8,-4.422966e-07,-70
81,5.759776,1657948362.0,0.732582,-69.99901,136,8,-4.421644e-07,-70
82,5.828991,1657948362.0,0.801796,-69.99892,136,8,-4.416414e-07,-70
83,5.898205,1657948362.0,0.87101,-69.99891,136,8,-4.405616e-07,-70
84,5.967418,1657948362.0,0.940224,-69.999,136,8,-4.405422e-07,-70
85,6.03664,1657948363.0,0.00944614,-69.99894,136,8,-4.394493e-07,-70
86,6.105869,1657948363.0,0.0786748,-69.99897,136,8,-4.401624e-07,-70
87,6.175087,1657948363.0,0.147892,-69.99899,136,8,-4.40231e-07,-70
88,6.244314,1657948363.0,0.21712,-69.99889,136,8,-4.415592e-07,-70
89,6.313543,1657948363.0,0.286349,-69.9989,136,8,-4.414534e-07,-70
90,6.382768,1657948363.0,0.355574,-69.99888,136,8,-4.407894e-07,-70
91,6.451988,1657948363.0,0.424793,-69.99889,136,8,-4.413916e-07,-70
92,6.521209,1657948363.0,0.494015,-69.99892,136,8,-4.413548e-07,-70
93,6.590436,1657948363.0,0.563241,-69.99897,136,8,-4.414898e-07,-70
94,6.65966,1657948363.0,0.632465,-69.99897,136,8,-4.409981e-07,-70
95,6.728869,1657948363.0,0.701675,-69.99886,136,8,-4.39181e-07,-70
96,6.798094,1657948363.0,0.770899,-69.99899,136,8,-4.405908e-07,-70
97,6.867309,1657948363.0,0.840114,-69.99897,136,8,-4.402291e-07,-70
98,6.936543,1657948363.0,0.909349,-69.99897,136,8,-4.422046e-07,-70
99,7.005747,1657948363.0,0.978552,-69.99883,136,8,-4.383297e-07,-70
100,7.074973,1657948364.0,0.0477784,-69.99892,136,8,-4.386471e-07,-70
101,7.144193,1657948364.0,0.116999,-69.99892,136,8,-4.415505e-07,-70
102,7.213413,1657948364.0,0.186218,-69.99888,136,8,-4.399953e-07,-70
103,7.282642,1657948364.0,0.255448,-69.99892,136,8,-4.395144e-07,-70
104,7.351865,1657948364.0,0.324671,-69.99887,136,8,-4.400011e-07,-70
105,7.421086,1657948364.0,0.393892,-69.99884,136,8,-4.416899e-07,-70
106,7.490298,1657948364.0,0.463104,-69.99886,136,8,-4.413853e-07,-70
107,7.559518,1657948364.0,0.532324,-69.99899,136,8,-4.410114e-07,-70
108,7.628745,1657948364.0,0.601551,-69.99892,136,8,-4.391381e-07,-70
109,7.697973,1657948364.0,0.670778,-69.99895,136,8,-4.394718e-07,-70
110,7.767187,1657948364.0,0.739993,-69.99893,136,8,-4.396973e-07,-70
111,7.836416,1657948364.0,0.809221,-69.99897,136,8,-4.367389e-07,-70
112,7.905623,1657948364.0,0.878429,-69.99886,136,8,-4.405968e-07,-70
113,7.974852,1657948364.0,0.947657,-69.99897,136,8,-4.388815e-07,-70
114,8.044064,1657948365.0,0.0168697,-69.99894,136,8,-4.390251e-07,-70
115,8.113293,1657948365.0,0.0860991,-69.99888,136,8,-4.405374e-07,-70
116,8.182518,1657948365.0,0.155324,-69.99895,136,8,-4.39934e-07,-70
117,8.251736,1657948365.0,0.224542,-69.99892,136,8,-4.411288e-07,-70
118,8.320968,1657948365.0,0.293774,-69.99901,136,8,-4.415967e-07,-70
119,8.390182,1657948365.0,0.362987,-69.99891,136,8,-4.383402e-07,-70
120,8.459409,1657948365.0,0.432215,-69.99892,136,8,-4.405946e-07,-70
121,8.528621,1657948365.0,0.501426,-69.99899,136,8,-4.381011e-07,-70
122,8.59785,1657948365.0,0.570655,-69.99894,136,8,-4.409094e-07,-70
123,8.667069,1657948365.0,0.639875,-69.99895,136,8,-4.384445e-07,-70
124,8.736289,1657948365.0,0.709095,-69.99889,136,8,-4.380687e-07,-70
125,8.805524,1657948365.0,0.778329,-69.99887,136,8,-4.405724e-07,-70
126,8.874746,1657948365.0,0.847551,-69.9989,136,8,-4.400771e-07,-70
127,8.943957,1657948365.0,0.916762,-69.99899,136,8,-4.390246e-07,-70
128,9.013175,1657948365.0,0.985981,-69.99907,136,8,-4.400343e-07,-70
129,9.082383,1657948366.0,0.0551889,-69.99894,136,8,-4.380203e-07,-70
130,9.151612,1657948366.0,0.124417,-69.99889,136,8,-4.377753e-07,-70
131,9.220824,1657948366.0,0.19363,-69.99889,136,8,-4.394012e-07,-70
132,9.290043,1657948366.0,0.262849,-69.99892,136,8,-4.373217e-07,-70
133,9.359264,1657948366.0,0.332069,-69.99889,136,8,-4.397025e-07,-70
134,9.428494,1657948366.0,0.4013,-69.99891,136,8,-4.400442e-07,-70
135,9.497712,1657948366.0,0.470517,-69.99897,136,8,-4.386769e-07,-70
136,9.566933,1657948366.0,0.539738,-69.99895,136,8,-4.416498e-07,-70
137,9.636168,1657948366.0,0.608974,-69.99899,136,8,-4.399457e-07,-70
138,9.705378,1657948366.0,0.678183,-69.99901,136,8,-4.387092e-07,-70
139,9.774602,1657948366.0,0.747408,-69.99891,136,8,-4.385992e-07,-70
140,9.843821,1657948366.0,0.816627,-69.99899,136,8,-4.383247e-07,-70
141,9.913044,1657948366.0,0.88585,-69.99892,136,8,-4.399998e-07,-70
142,9.982269,1657948366.0,0.955074,-69.99888,136,8,-4.385179e-07,-70
143,10.05149,1657948367.0,0.0242916,-69.999,136,8,-4.397178e-07,-70
144,10.12072,1657948367.0,0.093522,-69.99892,136,8,-4.407527e-07,-70
145,10.18991,1657948367.0,0.162717,-69.99905,136,8,-4.365508e-07,-70
146,10.25914,1657948367.0,0.231947,-69.99892,136,8,-4.400446e-07,-70
147,10.32836,1657948367.0,0.301165,-69.99887,136,8,-4.393874e-07,-70
148,10.39758,1657948367.0,0.370389,-69.99897,136,8,-4.396177e-07,-70
149,10.46679,1657948367.0,0.439597,-69.99884,136,8,-4.375867e-07,-70
150,10.536,1657948367.0,0.50881,-69.99904,136,8,-4.397127e-07,-70
151,10.60523,1657948367.0,0.578036,-69.99902,136,8,-4.391956e-07,-70
152,10.67446,1657948367.0,0.647264,-69.99897,136,8,-4.388451e-07,-70
153,10.74367,1657948367.0,0.716479,-69.99892,136,8,-4.374947e-07,-70
154,10.8129,1657948367.0,0.785706,-69.99886,136,8,-4.387428e-07,-70
155,10.88211,1657948367.0,0.854918,-69.99901,136,8,-4.38317e-07,-70
156,10.9513,1657948367.0,0.924108,-69.99905,136,8,-4.377269e-07,-70
157,11.02054,1657948367.0,0.993344,-69.99897,136,8,-4.390195e-07,-70
158,11.08977,1657948368.0,0.0625728,-69.99895,136,8,-4.391194e-07,-70
159,11.15899,1657948368.0,0.131799,-69.99903,136,8,-4.37403e-07,-70
160,11.22822,1657948368.0,0.201027,-69.99889,136,8,-4.371528e-07,-70
161,11.29745,1657948368.0,0.270253,-69.9989,136,8,-4.387257e-07,-70
162,11.36666,1657948368.0,0.339462,-69.99884,136,8,-4.37704e-07,-70
163,11.43586,1657948368.0,0.408662,-69.99871,136,8,-4.369699e-07,-70
164,11.50507,1657948368.0,0.477877,-69.9989,136,8,-4.379864e-07,-70
165,11.57428,1657948368.0,0.54709,-69.99894,136,8,-4.38336e-07,-70
166,11.6435,1657948368.0,0.61631,-69.99887,136,8,-4.376756e-07,-70
167,11.71272,1657948368.0,0.68553,-69.99892,136,8,-4.402148e-07,-70
168,11.78194,1657948368.0,0.75475,-69.99892,136,8,-4.370268e-07,-70
169,11.85115,1657948368.0,0.82396,-69.99882,136,8,-4.385529e-07,-70
170,11.92037,1657948368.0,0.893178,-69.99889,136,8,-4.361799e-07,-70
171,11.9896,1657948368.0,0.962405,-69.99888,136,8,-4.38757e-07,-70
172,12.05882,1657948369.0,0.03163,-69.99886,136,8,-4.385243e-07,-70
173,12.12805,1657948369.0,0.100854,-69.99892,136,8,-4.383294e-07,-70
174,12.19726,1657948369.0,0.170071,-69.9989,136,8,-4.382048e-07,-70
175,12.26649,1657948369.0,0.239296,-69.99897,136,8,-4.386667e-07,-70
176,12.33572,1657948369.0,0.308521,-69.99892,136,8,-4.379769e-07,-70
177,12.40494,1657948369.0,0.377744,-69.99894,136,8,-4.364599e-07,-70
178,12.47416,1657948369.0,0.446969,-69.99892,136,8,-4.368943e-07,-70
179,12.54339,1657948369.0,0.516196,-69.99901,136,8,-4.377201e-07,-70
180,12.61261,1657948369.0,0.585415,-69.99899,136,8,-4.37255e-07,-70
181,12.68182,1657948369.0,0.654624,-69.99899,136,8,-4.381771e-07,-70
182,12.75101,1657948369.0,0.72382,-69.99871,136,8,-4.365721e-07,-70
183,12.82024,1657948369.0,0.793046,-69.99876,136,8,-4.362847e-07,-70
184,12.88946,1657948369.0,0.862266,-69.99889,136,8,-4.385417e-07,-70
185,12.95866,1657948369.0,0.931464,-69.99888,136,8,-4.368876e-07,-70
186,13.02788,1657948370.0,0.00068746,-69.99883,136,8,-4.375035e-07,-70
187,13.0971,1657948370.0,0.0699043,-69.9988,136,8,-4.384984e-07,-70
188,13.16632,1657948370.0,0.139127,-69.99883,136,8,-4.394879e-07,-70
189,13.23554,1657948370.0,0.208346,-69.99878,136,8,-4.385523e-07,-70
190,13.30477,1657948370.0,0.277575,-69.99884,136,8,-4.374109e-07,-70
191,13.37398,1657948370.0,0.346788,-69.99886,136,8,-4.38201e-07,-70
192,13.4432,1657948370.0,0.416011,-69.99882,136,8,-4.370124e-07,-70
193,13.51243,1657948370.0,0.485236,-69.99881,136,8,-4.376836e-07,-70
194,13.58166,1657948370.0,0.554463,-69.99881,136,8,-4.369885e-07,-70
195,13.65089,1657948370.0,0.623691,-69.99886,136,8,-4.371348e-07,-70
196,13.7201,1657948370.0,0.69291,-69.99875,136,8,-4.371448e-07,-70
197,13.78931,1657948370.0,0.762116,-69.99875,136,8,-4.380359e-07,-70
198,13.85854,1657948370.0,0.831348,-69.99873,136,8,-4.364251e-07,-70
199,13.92776,1657948370.0,0.900569,-69.99872,136,8,-4.367332e-07,-70
200,13.99699,1657948370.0,0.969798,-69.99874,136,8,-4.392569e-07,-70
201,14.06621,1657948371.0,0.0390153,-69.99875,136,8,-4.387933e-07,-70
202,14.13543,1657948371.0,0.108234,-69.99875,136,8,-4.384034e-07,-70
203,14.20466,1657948371.0,0.177464,-69.99884,136,8,-4.370103e-07,-70
204,14.27389,1657948371.0,0.246691,-69.99887,136,8,-4.37369e-07,-70
205,14.34311,1657948371.0,0.315919,-69.99878,136,8,-4.384899e-07,-70
206,14.41234,1657948371.0,0.385147,-69.99886,136,8,-4.360717e-07,-70
207,14.48157,1657948371.0,0.454379,-69.99881,136,8,-4.374062e-07,-70
208,14.5508,1657948371.0,0.523602,-69.99888,136,8,-4.392147e-07,-70
209,14.62003,1657948371.0,0.592832,-69.99886,136,8,-4.386822e-07,-70
210,14.68924,1657948371.0,0.662048,-69.99884,136,8,-4.380866e-07,-70
211,14.75843,1657948371.0,0.731238,-69.99876,136,8,-4.37276e-07,-70
212,14.82765,1657948371.0,0.800459,-69.99884,136,8,-4.369418e-07,-70
213,14.89687,1657948371.0,0.869676,-69.99887,136,8,-4.362394e-07,-70
214,14.9661,1657948371.0,0.938906,-69.9989,136,8,-4.395731e-07,-70
215,15.03532,1657948372.0,0.00812692,-69.99881,136,8,-4.379942e-07,-70
216,15.10455,1657948372.0,0.0773604,-69.99893,136,8,-4.371916e-07,-70
217,15.17377,1657948372.0,0.14658,-69.99879,136,8,-4.37206e-07,-70
218,15.24299,1657948372.0,0.215798,-69.99871,136,8,-4.344715e-07,-70
219,15.3122,1657948372.0,0.285008,-69.9989,136,8,-4.387304e-07,-70
220,15.38142,1657948372.0,0.35423,-69.99891,136,8,-4.375614e-07,-70
221,15.45065,1657948372.0,0.423459,-69.99884,136,8,-4.383667e-07,-70
222,15.51987,1657948372.0,0.492674,-69.99889,136,8,-4.387139e-07,-70
223,15.58909,1657948372.0,0.561898,-69.99883,136,8,-4.369533e-07,-70
224,15.65832,1657948372.0,0.631125,-69.99892,136,8,-4.360044e-07,-70
225,15.72753,1657948372.0,0.700336,-69.99888,136,8,-4.357413e-07,-70
226,15.79676,1657948372.0,0.769566,-69.99891,136,8,-4.364654e-07,-70
227,15.86597,1657948372.0,0.83878,-69.99889,136,8,-4.343315e-07,-70
228,15.93519,1657948372.0,0.907995,-69.99892,136,8,-4.377116e-07,-70
229,16.00441,1657948372.0,0.977213,-69.99886,136,8,-4.360453e-07,-70
230,16.07364,1657948373.0,0.0464466,-69.99884,136,8,-4.345363e-07,-70
231,16.14285,1657948373.0,0.115659,-69.99886,136,8,-4.378447e-07,-70
232,16.21208,1657948373.0,0.184881,-69.99883,136,8,-4.374841e-07,-70
233,16.2813,1657948373.0,0.254104,-69.99884,136,8,-4.369526e-07,-70
234,16.35053,1657948373.0,0.323332,-69.99881,136,8,-4.371932e-07,-70
235,16.41973,1657948373.0,0.392539,-69.99872,136,8,-4.365652e-07,-70
236,16.48896,1657948373.0,0.461765,-69.99881,136,8,-4.38076e-07,-70
237,16.55817,1657948373.0,0.530973,-69.99876,136,8,-4.349926e-07,-70
238,16.62738,1657948373.0,0.600189,-69.99879,136,8,-4.375177e-07,-70
239,16.69661,1657948373.0,0.669414,-69.99889,136,8,-4.382239e-07,-70
240,16.76584,1657948373.0,0.738641,-69.99886,136,8,-4.364651e-07,-70
241,16.83505,1657948373.0,0.807858,-69.99886,136,8,-4.363179e-07,-70
242,16.90427,1657948373.0,0.877077,-69.99883,136,8,-4.379713e-07,-70
243,16.97349,1657948373.0,0.946296,-69.99879,136,8,-4.369083e-07,-70
244,17.04271,1657948374.0,0.0155128,-69.99889,136,8,-4.378911e-07,-70
245,17.11191,1657948374.0,0.0847198,-69.9988,136,8,-4.351699e-07,-70
246,17.18113,1657948374.0,0.153935,-69.99887,136,8,-4.363569e-07,-70
247,17.25035,1657948374.0,0.22316,-69.999,136,8,-4.349893e-07,-70
248,17.31957,1657948374.0,0.292378,-69.99884,136,8,-4.352891e-07,-70
249,17.3888,1657948374.0,0.361601,-69.99884,136,8,-4.367571e-07,-70
250,17.45801,1657948374.0,0.430811,-69.99886,136,8,-4.35307e-07,-70
251,17.52724,1657948374.0,0.500047,-69.99887,136,8,-4.363686e-07,-70
252,17.59647,1657948374.0,0.569273,-69.99892,136,8,-4.376838e-07,-70
253,17.66568,1657948374.0,0.638489,-69.99876,136,8,-4.377437e-07,-70
254,17.73489,1657948374.0,0.707697,-69.99873,136,8,-4.356382e-07,-70
255,17.8041,1657948374.0,0.776905,-69.9988,136,8,-4.381171e-07,-70
256,17.87331,1657948374.0,0.846113,-69.99874,136,8,-4.3692e-07,-70
257,17.94253,1657948374.0,0.915332,-69.99891,136,8,-4.373603e-07,-70
258,18.01175,1657948374.0,0.984553,-69.99886,136,8,-4.371473e-07,-70
259,18.08097,1657948375.0,0.0537716,-69.99882,136,8,-4.364558e-07,-70
260,18.1502,1657948375.0,0.123002,-69.99882,136,8,-4.366632e-07,-70
261,18.21941,1657948375.0,0.192212,-69.99892,136,8,-4.364285e-07,-70
262,18.28864,1657948375.0,0.26145,-69.99887,136,8,-4.378033e-07,-70
263,18.35786,1657948375.0,0.330661,-69.99884,136,8,-4.356855e-07,-70
264,18.42708,1657948375.0,0.399884,-69.99886,136,8,-4.354782e-07,-70
265,18.49629,1657948375.0,0.4691,-69.99889,136,8,-4.362594e-07,-70
266,18.56551,1657948375.0,0.538319,-69.99882,136,8,-4.357898e-07,-70
267,18.63474,1657948375.0,0.607544,-69.99886,136,8,-4.378197e-07,-70
268,18.70396,1657948375.0,0.67677,-69.9989,136,8,-4.369371e-07,-70
269,18.77318,1657948375.0,0.745987,-69.99887,136,8,-4.357863e-07,-70
270,18.84239,1657948375.0,0.8152,-69.99889,136,8,-4.362955e-07,-70
271,18.91161,1657948375.0,0.884419,-69.99884,136,8,-4.368449e-07,-70
272,18.98084,1657948375.0,0.953647,-69.99876,136,8,-4.358568e-07,-70
273,19.05007,1657948376.0,0.0228714,-69.99881,136,8,-4.356138e-07,-70
274,19.11928,1657948376.0,0.0920876,-69.99889,136,8,-4.370439e-07,-70
275,19.1885,1657948376.0,0.161302,-69.99881,136,8,-4.353707e-07,-70
276,19.25772,1657948376.0,0.230522,-69.9988,136,8,-4.374418e-07,-70
277,19.32693,1657948376.0,0.299737,-69.99884,136,8,-4.371032e-07,-70
278,19.39615,1657948376.0,0.368959,-69.99878,136,8,-4.359097e-07,-70
279,19.46537,1657948376.0,0.438177,-69.99873,136,8,-4.359667e-07,-70
280,19.53459,1657948376.0,0.5074,-69.99875,136,8,-4.34212e-07,-70
281,19.60381,1657948376.0,0.576621,-69.99889,136,8,-4.362819e-07,-70
282,19.67304,1657948376.0,0.645848,-69.99878,136,8,-4.374091e-07,-70
283,19.74227,1657948376.0,0.715072,-69.99883,136,8,-4.356972e-07,-70
284,19.81148,1657948376.0,0.78429,-69.99886,136,8,-4.344317e-07,-70
285,19.88071,1657948376.0,0.853514,-69.99886,136,8,-4.355907e-07,-70
286,19.94993,1657948376.0,0.922738,-69.99888,136,8,-4.343771e-07,-70
287,20.01915,1657948376.0,0.991951,-69.99876,136,8,-4.341128e-07,-70
288,20.08837,1657948377.0,0.0611773,-69.9989,136,8,-4.346155e-07,-70
289,20.1576,1657948377.0,0.130409,-69.9989,136,8,-4.341817e-07,-70
290,20.22681,1657948377.0,0.19962,-69.99887,136,8,-4.362928e-07,-70
291,20.29604,1657948377.0,0.268845,-69.99881,136,8,-4.373472e-07,-70
292,20.36525,1657948377.0,0.338055,-69.99883,136,8,-4.356648e-07,-70
293,20.43447,1657948377.0,0.407277,-69.99886,136,8,-4.363808e-07,-70
294,20.50371,1657948377.0,0.476512,-69.99893,136,8,-4.379798e-07,-70
295,20.57292,1657948377.0,0.545729,-69.99889,136,8,-4.358258e-07,-70
296,20.64214,1657948377.0,0.614941,-69.99889,136,8,-4.370429e-07,-70
297,20.71135,1657948377.0,0.684156,-69.99894,136,8,-4.35728e-07,-70
298,20.78057,1657948377.0,0.753377,-69.99891,136,8,-4.348069e-07,-70
299,20.84979,1657948377.0,0.822595,-69.99887,136,8,-4.362543e-07,-70
300,20.91901,1657948377.0,0.891818,-69.99887,136,8,-4.354773e-07,-70
301,20.98824,1657948377.0,0.961041,-69.99886,136,8,-4.357145e-07,-70
302,21.05746,1657948378.0,0.0302638,-69.99886,136,8,-4.354184e-07,-70
303,21.12668,1657948378.0,0.0994831,-69.9989,136,8,-4.360556e-07,-70
304,21.19589,1657948378.0,0.168695,-69.99897,136,8,-4.367645e-07,-70
305,21.26509,1657948378.0,0.237891,-69.99876,136,8,-4.361009e-07,-70
306,21.33432,1657948378.0,0.307122,-69.99878,136,8,-4.372538e-07,-70
307,21.40353,1657948378.0,0.376331,-69.99883,136,8,-4.361935e-07,-70
308,21.47275,1657948378.0,0.445557,-69.99884,136,8,-4.352466e-07,-70
309,21.54197,1657948378.0,0.514774,-69.99886,136,8,-4.351967e-07,-70
310,21.61118,1657948378.0,0.583984,-69.99896,136,8,-4.342083e-07,-70
311,21.68039,1657948378.0,0.653198,-69.99886,136,8,-4.342904e-07,-70
312,21.74961,1657948378.0,0.722415,-69.99876,136,8,-4.349547e-07,-70
313,21.81882,1657948378.0,0.791629,-69.99883,136,8,-4.33997e-07,-70
314,21.88805,1657948378.0,0.860854,-69.99895,136,8,-4.347316e-07,-70
315,21.95726,1657948378.0,0.930065,-69.99887,136,8,-4.368427e-07,-70
316,22.02648,1657948378.0,0.999288,-69.99884,136,8,-4.364414e-07,-70
317,22.09572,1657948379.0,0.0685256,-69.99879,136,8,-4.376266e-07,-70
318,22.16493,1657948379.0,0.137735,-69.99888,136,8,-4.33735e-07,-70
319,22.23416,1657948379.0,0.206961,-69.99897,136,8,-4.354602e-07,-70
320,22.30337,1657948379.0,0.276172,-69.99884,136,8,-4.363523e-07,-70
321,22.37259,1657948379.0,0.3454,-69.99884,136,8,-4.357767e-07,-70
322,22.44181,1657948379.0,0.414618,-69.99881,136,8,-4.340562e-07,-70
323,22.51104,1657948379.0,0.483845,-69.99876,136,8,-4.374669e-07,-70
324,22.58025,1657948379.0,0.553054,-69.99871,136,8,-4.357588e-07,-70
325,22.64947,1657948379.0,0.622276,-69.99881,136,8,-4.361077e-07,-70
326,22.71869,1657948379.0,0.691498,-69.99878,136,8,-4.366506e-07,-70
327,22.7879,1657948379.0,0.760706,-69.99881,136,8,-4.360349e-07,-70
328,22.85711,1657948379.0,0.829916,-69.99883,136,8,-4.335995e-07,-70
329,22.92632,1657948379.0,0.899127,-69.99881,136,8,-4.355677e-07,-70
330,22.99554,1657948379.0,0.968347,-69.99895,136,8,-4.350439e-07,-70
331,23.06475,1657948380.0,0.0375571,-69.99884,136,8,-4.351527e-07,-70
332,23.13398,1657948380.0,0.106781,-69.99888,136,8,-4.351646e-07,-70
333,23.2032,1657948380.0,0.176009,-69.99892,136,8,-4.3629e-07,-70
334,23.27242,1657948380.0,0.245224,-69.99884,136,8,-4.357245e-07,-70
335,23.34165,1657948380.0,0.314458,-69.99886,136,8,-4.34127e-07,-70
336,23.41087,1657948380.0,0.38368,-69.99895,136,8,-4.348487e-07,-70
337,23.48011,1657948380.0,0.452912,-69.99897,136,8,-4.336343e-07,-70
338,23.54933,1657948380.0,0.52214,-69.99891,136,8,-4.357588e-07,-70
339,23.61855,1657948380.0,0.591354,-69.99881,136,8,-4.344081e-07,-70
340,23.68778,1657948380.0,0.660584,-69.99886,136,8,-4.369784e-07,-70
341,23.75699,1657948380.0,0.7298,-69.99883,136,8,-4.340747e-07,-70
342,23.82621,1657948380.0,0.799011,-69.99881,136,8,-4.343082e-07,-70
343,23.89543,1657948380.0,0.868236,-69.99886,136,8,-4.343602e-07,-70
344,23.96466,1657948380.0,0.937466,-69.99879,136,8,-4.346923e-07,-70
345,24.03388,1657948381.0,0.00668416,-69.99896,136,8,-4.338743e-07,-70
346,24.1031,1657948381.0,0.075905,-69.99891,136,8,-4.333322e-07,-70
347,24.17231,1657948381.0,0.145116,-69.99884,136,8,-4.355664e-07,-70
348,24.24152,1657948381.0,0.214329,-69.99879,136,8,-4.353117e-07,-70
349,24.31074,1657948381.0,0.283548,-69.99879,136,8,-4.346205e-07,-70
350,24.37995,1657948381.0,0.352761,-69.99879,136,8,-4.342108e-07,-70
351,24.44917,1657948381.0,0.421971,-69.99892,136,8,-4.349376e-07,-70
352,24.5184,1657948381.0,0.491207,-69.99884,136,8,-4.36484e-07,-70
353,24.58761,1657948381.0,0.560419,-69.99878,136,8,-4.331088e-07,-70
354,24.65684,1657948381.0,0.629643,-69.99886,136,8,-4.347326e-07,-70
355,24.72605,1657948381.0,0.698851,-69.99883,136,8,-4.347001e-07,-70
356,24.79526,1657948381.0,0.768067,-69.99883,136,8,-4.341355e-07,-70
357,24.86447,1657948381.0,0.837278,-69.99872,136,8,-4.346024e-07,-70
358,24.93371,1657948381.0,0.906513,-69.9988,136,8,-4.350494e-07,-70
359,25.00293,1657948381.0,0.975733,-69.99874,136,8,-4.3477e-07,-70
360,25.07215,1657948382.0,0.0449556,-69.99873,136,8,-4.36558e-07,-70
361,25.14138,1657948382.0,0.114181,-69.99884,136,8,-4.34538e-07,-70
362,25.21059,1657948382.0,0.183391,-69.99884,136,8,-4.343448e-07,-70
363,25.27981,1657948382.0,0.252612,-69.99873,136,8,-4.351218e-07,-70
364,25.34902,1657948382.0,0.321827,-69.99879,136,8,-4.354104e-07,-70
365,25.41824,1657948382.0,0.391042,-69.99883,136,8,-4.32661e-07,-70
366,25.48746,1657948382.0,0.460263,-69.99881,136,8,-4.348278e-07,-70
367,25.55668,1657948382.0,0.529488,-69.99879,136,8,-4.338021e-07,-70
368,25.62591,1657948382.0,0.598714,-69.99881,136,8,-4.355395e-07,-70
369,25.69513,1657948382.0,0.667934,-69.99886,136,8,-4.360433e-07,-70
370,25.76435,1657948382.0,0.737153,-69.99884,136,8,-4.333127e-07,-70
371,25.83357,1657948382.0,0.80638,-69.99872,136,8,-4.346172e-07,-70
372,25.90279,1657948382.0,0.875595,-69.99884,136,8,-4.338396e-07,-70
373,25.97201,1657948382.0,0.944813,-69.99879,136,8,-4.341949e-07,-70
374,26.04121,1657948383.0,0.0140165,-69.99875,136,8,-4.34457e-07,-70
375,26.11043,1657948383.0,0.0832382,-69.99875,136,8,-4.344939e-07,-70
376,26.17966,1657948383.0,0.152462,-69.99876,136,8,-4.359644e-07,-70
377,26.24887,1657948383.0,0.221679,-69.9987,136,8,-4.36473e-07,-70
378,26.31809,1657948383.0,0.290891,-69.99886,136,8,-4.338544e-07,-70
379,26.38731,1657948383.0,0.360114,-69.99879,136,8,-4.33747e-07,-70
380,26.45653,1657948383.0,0.429338,-69.99879,136,8,-4.360088e-07,-70
381,26.52577,1657948383.0,0.498574,-69.99883,136,8,-4.344796e-07,-70
382,26.59499,1657948383.0,0.567793,-69.99879,136,8,-4.335671e-07,-70
383,26.66418,1657948383.0,0.636984,-69.99873,136,8,-4.345425e-07,-70
384,26.73341,1657948383.0,0.706213,-69.99883,136,8,-4.323956e-07,-70
385,26.80262,1657948383.0,0.775427,-69.99875,136,8,-4.348946e-07,-70
386,26.87185,1657948383.0,0.844651,-69.9988,136,8,-4.350434e-07,-70
387,26.94106,1657948383.0,0.913861,-69.99886,136,8,-4.342475e-07,-70
388,27.01027,1657948383.0,0.983078,-69.99879,136,8,-4.35297e-07,-70
389,27.07948,1657948384.0,0.0522861,-69.99882,136,8,-4.362317e-07,-70
390,27.14872,1657948384.0,0.121522,-69.99878,136,8,-4.345789e-07,-70
391,27.21794,1657948384.0,0.190748,-69.99882,136,8,-4.354434e-07,-70
392,27.28717,1657948384.0,0.259975,-69.99884,136,8,-4.365644e-07,-70
393,27.35639,1657948384.0,0.329201,-69.9988,136,8,-4.342434e-07,-70
394,27.42561,1657948384.0,0.398411,-69.99872,136,8,-4.338944e-07,-70
395,27.49482,1657948384.0,0.467621,-69.9987,136,8,-4.335586e-07,-70
396,27.56404,1657948384.0,0.536841,-69.99879,136,8,-4.34767e-07,-70
397,27.63327,1657948384.0,0.606071,-69.9988,136,8,-4.339705e-07,-70
398,27.70248,1657948384.0,0.675284,-69.99881,136,8,-4.34444e-07,-70
399,27.7717,1657948384.0,0.744504,-69.99879,136,8,-4.351738e-07,-70
400,27.84092,1657948384.0,0.813726,-69.99882,136,8,-4.37108e-07,-70
401,27.91015,1657948384.0,0.882953,-69.99888,136,8,-4.352258e-07,-70
402,27.97935,1657948384.0,0.952158,-69.99876,136,8,-4.332757e-07,-70
403,28.04858,1657948385.0,0.0213836,-69.99876,136,8,-4.356171e-07,-70
404,28.11779,1657948385.0,0.0905948,-69.99884,136,8,-4.355251e-07,-70
405,28.18701,1657948385.0,0.159815,-69.99886,136,8,-4.3284e-07,-70
406,28.25622,1657948385.0,0.229027,-69.99887,136,8,-4.350925e-07,-70
407,28.32542,1657948385.0,0.298223,-69.99884,136,8,-4.353904e-07,-70
408,28.39464,1657948385.0,0.367441,-69.99886,136,8,-4.35061e-07,-70
409,28.46386,1657948385.0,0.436664,-69.99883,136,8,-4.338197e-07,-70
410,28.53309,1657948385.0,0.505891,-69.99889,136,8,-4.336317e-07,-70
411,28.60231,1657948385.0,0.575113,-69.99892,136,8,-4.343761e-07,-70
412,28.67152,1657948385.0,0.644323,-69.99886,136,8,-4.336587e-07,-70
413,28.74075,1657948385.0,0.713558,-69.99881,136,8,-4.336731e-07,-70
414,28.80997,1657948385.0,0.782774,-69.99895,136,8,-4.337404e-07,-70
415,28.87918,1657948385.0,0.851986,-69.99887,136,8,-4.344063e-07,-70
416,28.9484,1657948385.0,0.921208,-69.99889,136,8,-4.347899e-07,-70
417,29.01763,1657948385.0,0.990435,-69.99886,136,8,-4.336335e-07,-70
418,29.08687,1657948386.0,0.0596707,-69.99895,136,8,-4.340294e-07,-70
419,29.15608,1657948386.0,0.128886,-69.99902,136,8,-4.335646e-07,-70
420,29.22529,1657948386.0,0.198098,-69.99894,136,8,-4.347394e-07,-70
421,29.2945,1657948386.0,0.267308,-69.99887,136,8,-4.336585e-07,-70
422,29.36372,1657948386.0,0.336528,-69.99895,136,8,-4.33402e-07,-70
423,29.43294,1657948386.0,0.40575,-69.99896,136,8,-4.32605e-07,-70
424,29.50217,1657948386.0,0.474974,-69.99888,136,8,-4.354592e-07,-70
425,29.5714,1657948386.0,0.544205,-69.99881,136,8,-4.343046e-07,-70
426,29.64063,1657948386.0,0.613431,-69.9988,136,8,-4.327082e-07,-70
427,29.70984,1657948386.0,0.682644,-69.99895,136,8,-4.349382e-07,-70
428,29.77905,1657948386.0,0.751852,-69.99892,136,8,-4.362514e-07,-70
429,29.84826,1657948386.0,0.821068,-69.99887,136,8,-4.347647e-07,-70
430,29.91747,1657948386.0,0.890279,-69.99888,136,8,-4.359399e-07,-70
431,29.98671,1657948386.0,0.959513,-69.99892,136,8,-4.338102e-07,-70
432,30.05593,1657948387.0,0.0287324,-69.99895,136,8,-4.327809e-07,-70
433,30.12514,1657948387.0,0.0979408,-69.99892,136,8,-4.326733e-07,-70
434,30.19436,1657948387.0,0.167163,-69.9989,136,8,-4.339374e-07,-70
435,30.26357,1657948387.0,0.236377,-69.99892,136,8,-4.339955e-07,-70
436,30.3328,1657948387.0,0.305604,-69.99892,136,8,-4.349622e-07,-70
437,30.40203,1657948387.0,0.374831,-69.99886,136,8,-4.324926e-07,-70
438,30.47125,1657948387.0,0.444058,-69.99886,136,8,-4.332971e-07,-70
439,30.54046,1657948387.0,0.513265,-69.99884,136,8,-4.350682e-07,-70
440,30.6097,1657948387.0,0.582502,-69.99892,136,8,-4.348928e-07,-70
441,30.67892,1657948387.0,0.65173,-69.99879,136,8,-4.339278e-07,-70
442,30.74815,1657948387.0,0.720957,-69.99886,136,8,-4.332791e-07,-70
443,30.81738,1657948387.0,0.790186,-69.99884,136,8,-4.344026e-07,-70
444,30.8866,1657948387.0,0.859409,-69.9988,136,8,-4.355345e-07,-70
445,30.95582,1657948387.0,0.928626,-69.99891,136,8,-4.353932e-07,-70
446,31.02504,1657948387.0,0.997844,-69.99889,136,8,-4.35394e-07,-70
447,31.09425,1657948388.0,0.0670565,-69.99879,136,8,-4.348373e-07,-70
448,31.16344,1657948388.0,0.136248,-69.99873,136,8,-4.351144e-07,-70
449,31.23266,1657948388.0,0.205468,-69.99886,136,8,-4.313258e-07,-70
450,31.30189,1657948388.0,0.274695,-69.99888,136,8,-4.342248e-07,-70
451,31.37111,1657948388.0,0.343919,-69.99884,136,8,-4.339256e-07,-70
452,31.44032,1657948388.0,0.413127,-69.99879,136,8,-4.344397e-07,-70
453,31.50953,1657948388.0,0.482341,-69.99892,136,8,-4.336599e-07,-70
454,31.57877,1657948388.0,0.551579,-69.99886,136,8,-4.343628e-07,-70
455,31.64799,1657948388.0,0.620794,-69.99895,136,8,-4.354919e-07,-70
456,31.71721,1657948388.0,0.690012,-69.99876,136,8,-4.338237e-07,-70
457,31.78643,1657948388.0,0.759238,-69.9987,136,8,-4.345375e-07,-70
458,31.85565,1657948388.0,0.828453,-69.99884,136,8,-4.324594e-07,-70
459,31.92486,1657948388.0,0.89767,-69.99879,136,8,-4.339e-07,-70
460,31.99408,1657948388.0,0.966888,-69.99884,136,8,-4.337435e-07,-70
461,32.0633,1657948389.0,0.0361094,-69.99883,136,8,-4.334528e-07,-70
462,32.13252,1657948389.0,0.105324,-69.99883,136,8,-4.340731e-07,-70
463,32.20175,1657948389.0,0.174552,-69.99876,136,8,-4.33332e-07,-70
464,32.27096,1657948389.0,0.243762,-69.9989,136,8,-4.336782e-07,-70
465,32.34015,1657948389.0,0.31296,-69.99876,136,8,-4.336245e-07,-70
466,32.40938,1657948389.0,0.382184,-69.99886,136,8,-4.342719e-07,-70
467,32.4786,1657948389.0,0.451401,-69.99892,136,8,-4.340971e-07,-70
468,32.54783,1657948389.0,0.520639,-69.99882,136,8,-4.335169e-07,-70
469,32.61705,1657948389.0,0.589853,-69.99891,136,8,-4.327959e-07,-70
470,32.68627,1657948389.0,0.659073,-69.99883,136,8,-4.327626e-07,-70
471,32.75549,1657948389.0,0.728292,-69.99888,136,8,-4.348855e-07,-70
472,32.82473,1657948389.0,0.797532,-69.99879,136,8,-4.335177e-07,-70
473,32.89395,1657948389.0,0.866754,-69.99884,136,8,-4.343374e-07,-70
474,32.96317,1657948389.0,0.935978,-69.99875,136,8,-4.323333e-07,-70
475,33.03238,1657948390.0,0.00518954,-69.99883,136,8,-4.322599e-07,-70
476,33.10161,1657948390.0,0.0744131,-69.99888,136,8,-4.372481e-07,-70
477,33.17084,1657948390.0,0.143643,-69.99886,136,8,-4.327607e-07,-70
478,33.24006,1657948390.0,0.212861,-69.99886,136,8,-4.345503e-07,-70
479,33.30927,1657948390.0,0.282076,-69.99889,136,8,-4.340172e-07,-70
480,33.3785,1657948390.0,0.351308,-69.99889,136,8,-4.339309e-07,-70
481,33.44774,1657948390.0,0.420543,-69.99887,136,8,-4.334944e-07,-70
482,33.51696,1657948390.0,0.489762,-69.99887,136,8,-4.343143e-07,-70
483,33.58617,1657948390.0,0.558978,-69.99883,136,8,-4.325024e-07,-70
484,33.65539,1657948390.0,0.628196,-69.99886,136,8,-4.332292e-07,-70
485,33.72459,1657948390.0,0.697396,-69.99889,136,8,-4.330752e-07,-70
486,33.79381,1657948390.0,0.766617,-69.99892,136,8,-4.33442e-07,-70
487,33.86303,1657948390.0,0.835834,-69.99887,136,8,-4.360416e-07,-70
488,33.93226,1657948390.0,0.905068,-69.99897,136,8,-4.355979e-07,-70
489,34.00149,1657948390.0,0.974295,-69.99891,136,8,-4.362674e-07,-70
490,34.07072,1657948391.0,0.0435247,-69.99886,136,8,-4.337917e-07,-70
491,34.13994,1657948391.0,0.112749,-69.99888,136,8,-4.321175e-07,-70
492,34.20916,1657948391.0,0.181967,-69.99882,136,8,-4.35316e-07,-70
493,34.27838,1657948391.0,0.251185,-69.99879,136,8,-4.347671e-07,-70
494,34.34759,1657948391.0,0.3204,-69.99883,136,8,-4.345873e-07,-70
495,34.41683,1657948391.0,0.389635,-69.99889,136,8,-4.33339e-07,-70
496,34.48604,1657948391.0,0.45885,-69.99884,136,8,-4.321464e-07,-70
497,34.55526,1657948391.0,0.528068,-69.99886,136,8,-4.331145e-07,-70
498,34.62448,1657948391.0,0.597286,-69.99892,136,8,-4.336425e-07,-70
499,34.69369,1657948391.0,0.666498,-69.99887,136,8,-4.337163e-07,-70
500,34.7629,1657948391.0,0.735706,-69.99878,136,8,-4.347165e-07,-70
501,34.83212,1657948391.0,0.804925,-69.99878,136,8,-4.348441e-07,-70
502,34.90135,1657948391.0,0.874154,-69.9989,136,8,-4.334372e-07,-70
503,34.97057,1657948391.0,0.943371,-69.99884,136,8,-4.344686e-07,-70
504,35.03979,1657948392.0,0.0125985,-69.99881,136,8,-4.347462e-07,-70
505,35.10901,1657948392.0,0.0818194,-69.99887,136,8,-4.350234e-07,-70
506,35.17822,1657948392.0,0.151028,-69.99883,136,8,-4.335375e-07,-70
507,35.24745,1657948392.0,0.220253,-69.99886,136,8,-4.336123e-07,-70
508,35.31666,1657948392.0,0.289471,-69.99892,136,8,-4.315972e-07,-70
509,35.38588,1657948392.0,0.358688,-69.99892,136,8,-4.333489e-07,-70
510,35.45509,1657948392.0,0.4279,-69.99876,136,8,-4.359581e-07,-70
511,35.52431,1657948392.0,0.497114,-69.99894,136,8,-4.341725e-07,-70
512,35.59352,1657948392.0,0.56633,-69.99905,136,8,-4.345476e-07,-70
513,35.66275,1657948392.0,0.635558,-69.99897,136,8,-4.332535e-07,-70
514,35.73198,1657948392.0,0.704781,-69.99887,136,8,-4.328241e-07,-70
515,35.80119,1657948392.0,0.773999,-69.99886,136,8,-4.333916e-07,-70
516,35.87042,1657948392.0,0.843226,-69.99883,136,8,-4.345585e-07,-70
517,35.93964,1657948392.0,0.912445,-69.99892,136,8,-4.328798e-07,-70
518,36.00887,1657948392.0,0.981675,-69.99883,136,8,-4.32685e-07,-70
519,36.07809,1657948393.0,0.0508993,-69.99884,136,8,-4.350852e-07,-70
520,36.14731,1657948393.0,0.120113,-69.99882,136,8,-4.333652e-07,-70
521,36.21653,1657948393.0,0.189337,-69.99884,136,8,-4.344953e-07,-70
522,36.28576,1657948393.0,0.258565,-69.99883,136,8,-4.345714e-07,-70
523,36.35498,1657948393.0,0.32779,-69.99886,136,8,-4.340052e-07,-70
524,36.4242,1657948393.0,0.397005,-69.99876,136,8,-4.344268e-07,-70
525,36.49343,1657948393.0,0.466231,-69.99888,136,8,-4.340264e-07,-70
526,36.56266,1657948393.0,0.535463,-69.99899,136,8,-4.331828e-07,-70
527,36.63187,1657948393.0,0.604672,-69.99892,136,8,-4.334018e-07,-70
528,36.70109,1657948393.0,0.673897,-69.99884,136,8,-4.355787e-07,-70
529,36.77031,1657948393.0,0.743118,-69.99889,136,8,-4.32705e-07,-70
530,36.83953,1657948393.0,0.812337,-69.99881,136,8,-4.329576e-07,-70
531,36.90876,1657948393.0,0.881568,-69.99888,136,8,-4.337666e-07,-70
532,36.97798,1657948393.0,0.950784,-69.99888,136,8,-4.332876e-07,-70
533,37.0472,1657948394.0,0.0200063,-69.99886,136,8,-4.334526e-07,-70
534,37.11642,1657948394.0,0.0892272,-69.99888,136,8,-4.330537e-07,-70
535,37.18563,1657948394.0,0.158438,-69.9989,136,8,-4.317696e-07,-70
536,37.25485,1657948394.0,0.227656,-69.99893,136,8,-4.332056e-07,-70
537,37.32408,1657948394.0,0.296884,-69.99894,136,8,-4.355995e-07,-70
538,37.39329,1657948394.0,0.366095,-69.99883,136,8,-4.336375e-07,-70
539,37.4625,1657948394.0,0.435307,-69.99888,136,8,-4.328542e-07,-70
540,37.53172,1657948394.0,0.504529,-69.99886,136,8,-4.343354e-07,-70
541,37.60093,1657948394.0,0.573739,-69.99886,136,8,-4.329296e-07,-70
542,37.67016,1657948394.0,0.642964,-69.99887,136,8,-4.328247e-07,-70
543,37.73937,1657948394.0,0.712175,-69.99879,136,8,-4.334011e-07,-70
544,37.80858,1657948394.0,0.781384,-69.99879,136,8,-4.33245e-07,-70
545,37.8778,1657948394.0,0.850604,-69.99886,136,8,-4.335405e-07,-70
546,37.94701,1657948394.0,0.919814,-69.99881,136,8,-4.336957e-07,-70
547,38.01624,1657948394.0,0.989046,-69.99887,136,8,-4.329034e-07,-70
548,38.08545,1657948395.0,0.0582553,-69.99874,136,8,-4.328903e-07,-70
549,38.15467,1657948395.0,0.127478,-69.99886,136,8,-4.333525e-07,-70
550,38.22388,1657948395.0,0.19669,-69.99886,136,8,-4.335035e-07,-70
551,38.2931,1657948395.0,0.265907,-69.99889,136,8,-4.327974e-07,-70
552,38.36231,1657948395.0,0.335116,-69.99891,136,8,-4.331073e-07,-70
553,38.43153,1657948395.0,0.404338,-69.99886,136,8,-4.330123e-07,-70
554,38.50076,1657948395.0,0.473564,-69.99889,136,8,-4.321967e-07,-70
555,38.56997,1657948395.0,0.54278,-69.99886,136,8,-4.326802e-07,-70
556,38.63918,1657948395.0,0.611989,-69.99886,136,8,-4.322409e-07,-70
557,38.70839,1657948395.0,0.681197,-69.9988,136,8,-4.326538e-07,-70
558,38.77761,1657948395.0,0.750413,-69.99892,136,8,-4.332095e-07,-70
559,38.84684,1657948395.0,0.819646,-69.99889,136,8,-4.34182e-07,-70
560,38.91606,1657948395.0,0.888865,-69.99876,136,8,-4.344696e-07,-70
561,38.98528,1657948395.0,0.958081,-69.99883,136,8,-4.338387e-07,-70
562,39.05449,1657948396.0,0.0272918,-69.99892,136,8,-4.339126e-07,-70
563,39.12371,1657948396.0,0.096517,-69.99883,136,8,-4.341038e-07,-70
564,39.19294,1657948396.0,0.165742,-69.99892,136,8,-4.318027e-07,-70
565,39.26216,1657948396.0,0.234961,-69.99875,136,8,-4.330755e-07,-70
566,39.33138,1657948396.0,0.304185,-69.99879,136,8,-4.328447e-07,-70
567,39.4006,1657948396.0,0.373405,-69.99871,136,8,-4.339024e-07,-70
568,39.46982,1657948396.0,0.442628,-69.99872,136,8,-4.326391e-07,-70
569,39.53904,1657948396.0,0.511847,-69.99882,136,8,-4.332929e-07,-70
570,39.60827,1657948396.0,0.581075,-69.9989,136,8,-4.327086e-07,-70
571,39.67749,1657948396.0,0.650292,-69.99892,136,8,-4.341353e-07,-70
572,39.7467,1657948396.0,0.71951,-69.99879,136,8,-4.31166e-07,-70
573,39.81592,1657948396.0,0.788725,-69.99886,136,8,-4.32895e-07,-70
574,39.88514,1657948396.0,0.857947,-69.99884,136,8,-4.327032e-07,-70
575,39.95436,1657948396.0,0.927167,-69.99886,136,8,-4.339992e-07,-70
576,40.02358,1657948396.0,0.996388,-69.9989,136,8,-4.326657e-07,-70
577,40.09281,1657948397.0,0.0656165,-69.99888,136,8,-4.333123e-07,-70
578,40.16201,1657948397.0,0.134819,-69.99876,136,8,-4.325091e-07,-70
579,40.23124,1657948397.0,0.204041,-69.99889,136,8,-4.328017e-07,-70
580,40.30045,1657948397.0,0.273259,-69.9989,136,8,-4.335242e-07,-70
581,40.36966,1657948397.0,0.34247,-69.99892,136,8,-4.324586e-07,-70
