,REL,SEC,FRAC,SOUR,SOURSTAT,STAT,READ,VOLTAGE
0,0.0,1657948256.0,0.538351,-30.00081,136,8,-4.974136e-07,-30
1,0.2221499,1657948256.0,0.760501,-30.0003,136,8,-4.691707e-07,-30
2,0.2913738,1657948256.0,0.829725,-30.00023,136,8,-4.662522e-07,-30
3,0.3605782,1657948256.0,0.898929,-30.00027,136,8,-4.620526e-07,-30
4,0.4297836,1657948256.0,0.968135,-30.00029,136,8,-4.597145e-07,-30
5,0.4990037,1657948257.0,0.0373547,-30.00031,136,8,-4.565333e-07,-30
6,0.568209,1657948257.0,0.10656,-30.00031,136,8,-4.552481e-07,-30
7,0.6374242,1657948257.0,0.175775,-30.00028,136,8,-4.528389e-07,-30
8,0.7066433,1657948257.0,0.244994,-30.00032,136,8,-4.498939e-07,-30
9,0.7758527,1657948257.0,0.314204,-30.00028,136,8,-4.497477e-07,-30
10,0.8450664,1657948257.0,0.383417,-30.00028,136,8,-4.489463e-07,-30
11,0.9142867,1657948257.0,0.452638,-30.00033,136,8,-4.485187e-07,-30
12,0.9834994,1657948257.0,0.52185,-30.00025,136,8,-4.485718e-07,-30
13,1.052713,1657948257.0,0.591064,-30.00025,136,8,-4.478064e-07,-30
14,1.12193,1657948257.0,0.660281,-30.00028,136,8,-4.441825e-07,-30
15,1.19115,1657948257.0,0.729501,-30.0003,136,8,-4.451149e-07,-30
16,1.260357,1657948257.0,0.798708,-30.00027,136,8,-4.442996e-07,-30
17,1.329575,1657948257.0,0.867926,-30.0003,136,8,-4.441716e-07,-30
18,1.398796,1657948257.0,0.937147,-30.00024,136,8,-4.443111e-07,-30
19,1.468024,1657948258.0,0.00637466,-30.00032,136,8,-4.44625e-07,-30
20,1.537243,1657948258.0,0.0755944,-30.00021,136,8,-4.428753e-07,-30
21,1.606466,1657948258.0,0.144817,-30.00031,136,8,-4.431118e-07,-30
22,1.675674,1657948258.0,0.214025,-30.00019,136,8,-4.410165e-07,-30
23,1.744881,1657948258.0,0.283232,-30.00031,136,8,-4.414273e-07,-30
24,1.814082,1657948258.0,0.352433,-30.00028,136,8,-4.433503e-07,-30
25,1.883301,1657948258.0,0.421652,-30.00026,136,8,-4.423456e-07,-30
26,1.95251,1657948258.0,0.490861,-30.00029,136,8,-4.409164e-07,-30
27,2.021716,1657948258.0,0.560068,-30.00021,136,8,-4.404058e-07,-30
28,2.090946,1657948258.0,0.629297,-30.00027,136,8,-4.409296e-07,-30
29,2.160163,1657948258.0,0.698515,-30.00022,136,8,-4.407121e-07,-30
30,2.229372,1657948258.0,0.767723,-30.00024,136,8,-4.420593e-07,-30
31,2.298574,1657948258.0,0.836925,-30.00023,136,8,-4.400867e-07,-30
32,2.367786,1657948258.0,0.906137,-30.00031,136,8,-4.394662e-07,-30
33,2.436996,1657948258.0,0.975347,-30.0002,136,8,-4.404597e-07,-30
34,2.506212,1657948259.0,0.0445629,-30.00022,136,8,-4.395099e-07,-30
35,2.575426,1657948259.0,0.113777,-30.00027,136,8,-4.391744e-07,-30
36,2.644633,1657948259.0,0.182984,-30.00023,136,8,-4.373379e-07,-30
37,2.713853,1657948259.0,0.252204,-30.00029,136,8,-4.376067e-07,-30
38,2.783063,1657948259.0,0.321414,-30.00025,136,8,-4.382842e-07,-30
39,2.852283,1657948259.0,0.390634,-30.00029,136,8,-4.35895e-07,-30
40,2.921474,1657948259.0,0.459825,-30.00031,136,8,-4.367524e-07,-30
41,2.990664,1657948259.0,0.529016,-30.00025,136,8,-4.394043e-07,-30
42,3.059842,1657948259.0,0.598193,-30.00025,136,8,-4.38551e-07,-30
43,3.129054,1657948259.0,0.667405,-30.00026,136,8,-4.387889e-07,-30
44,3.198267,1657948259.0,0.736618,-30.00034,136,8,-4.36714e-07,-30
45,3.26747,1657948259.0,0.805821,-30.00024,136,8,-4.385742e-07,-30
46,3.336688,1657948259.0,0.875039,-30.00029,136,8,-4.366222e-07,-30
47,3.405913,1657948259.0,0.944264,-30.00033,136,8,-4.343629e-07,-30
48,3.475129,1657948260.0,0.0134796,-30.00026,136,8,-4.363247e-07,-30
49,3.544342,1657948260.0,0.082693,-30.00034,136,8,-4.352403e-07,-30
50,3.613544,1657948260.0,0.151895,-30.00029,136,8,-4.372757e-07,-30
51,3.682762,1657948260.0,0.221113,-30.00029,136,8,-4.358521e-07,-30
52,3.751981,1657948260.0,0.290332,-30.00036,136,8,-4.353358e-07,-30
53,3.821195,1657948260.0,0.359546,-30.00034,136,8,-4.36419e-07,-30
54,3.890408,1657948260.0,0.428759,-30.00026,136,8,-4.351623e-07,-30
55,3.959625,1657948260.0,0.497976,-30.0004,136,8,-4.354741e-07,-30
56,4.028836,1657948260.0,0.567187,-30.00033,136,8,-4.356708e-07,-30
57,4.098046,1657948260.0,0.636397,-30.00029,136,8,-4.358192e-07,-30
58,4.167256,1657948260.0,0.705607,-30.00037,136,8,-4.351786e-07,-30
59,4.236475,1657948260.0,0.774826,-30.00028,136,8,-4.344203e-07,-30
60,4.305691,1657948260.0,0.844042,-30.00036,136,8,-4.355366e-07,-30
61,4.374901,1657948260.0,0.913252,-30.00038,136,8,-4.347677e-07,-30
62,4.44412,1657948260.0,0.982471,-30.00029,136,8,-4.342025e-07,-30
63,4.513332,1657948261.0,0.0516833,-30.00032,136,8,-4.339813e-07,-30
64,4.582535,1657948261.0,0.120886,-30.00032,136,8,-4.342468e-07,-30
65,4.651747,1657948261.0,0.190098,-30.00038,136,8,-4.34945e-07,-30
66,4.720974,1657948261.0,0.259325,-30.00032,136,8,-4.343424e-07,-30
67,4.790191,1657948261.0,0.328542,-30.00032,136,8,-4.33554e-07,-30
68,4.859409,1657948261.0,0.39776,-30.00033,136,8,-4.359916e-07,-30
69,4.928609,1657948261.0,0.466961,-30.00037,136,8,-4.339317e-07,-30
70,4.997814,1657948261.0,0.536165,-30.00032,136,8,-4.35013e-07,-30
71,5.067028,1657948261.0,0.605379,-30.00032,136,8,-4.355879e-07,-30
72,5.136238,1657948261.0,0.674589,-30.00029,136,8,-4.351188e-07,-30
73,5.205447,1657948261.0,0.743798,-30.00031,136,8,-4.351933e-07,-30
74,5.274666,1657948261.0,0.813017,-30.00037,136,8,-4.35737e-07,-30
75,5.343879,1657948261.0,0.88223,-30.00035,136,8,-4.333534e-07,-30
76,5.413094,1657948261.0,0.951445,-30.00035,136,8,-4.332174e-07,-30
77,5.482298,1657948262.0,0.0206489,-30.00034,136,8,-4.330109e-07,-30
78,5.551499,1657948262.0,0.0898498,-30.00035,136,8,-4.330867e-07,-30
79,5.620713,1657948262.0,0.159064,-30.00035,136,8,-4.347506e-07,-30
80,5.689917,1657948262.0,0.228268,-30.00039,136,8,-4.340329e-07,-30
81,5.759132,1657948262.0,0.297483,-30.00045,136,8,-4.320742e-07,-30
82,5.82834,1657948262.0,0.366691,-30.00048,136,8,-4.317176e-07,-30
83,5.89755,1657948262.0,0.435901,-30.00041,136,8,-4.325231e-07,-30
84,5.966767,1657948262.0,0.505118,-30.00039,136,8,-4.32195e-07,-30
85,6.035996,1657948262.0,0.574347,-30.00033,136,8,-4.325529e-07,-30
86,6.105217,1657948262.0,0.643568,-30.0004,136,8,-4.3666e-07,-30
87,6.174419,1657948262.0,0.71277,-30.00032,136,8,-4.338346e-07,-30
88,6.243623,1657948262.0,0.781974,-30.00035,136,8,-4.341119e-07,-30
89,6.312843,1657948262.0,0.851194,-30.00031,136,8,-4.346962e-07,-30
90,6.382055,1657948262.0,0.920406,-30.00028,136,8,-4.331285e-07,-30
91,6.451244,1657948262.0,0.989595,-30.00023,136,8,-4.324436e-07,-30
92,6.520449,1657948263.0,0.0588003,-30.00031,136,8,-4.335214e-07,-30
93,6.589663,1657948263.0,0.128014,-30.00032,136,8,-4.319178e-07,-30
94,6.658889,1657948263.0,0.197241,-30.00028,136,8,-4.327868e-07,-30
95,6.728095,1657948263.0,0.266446,-30.00027,136,8,-4.320106e-07,-30
96,6.797313,1657948263.0,0.335664,-30.0003,136,8,-4.324728e-07,-30
97,6.866521,1657948263.0,0.404872,-30.00036,136,8,-4.338204e-07,-30
98,6.935723,1657948263.0,0.474074,-30.00042,136,8,-4.321651e-07,-30
99,7.004932,1657948263.0,0.543283,-30.00031,136,8,-4.321888e-07,-30
100,7.074149,1657948263.0,0.612501,-30.00031,136,8,-4.318421e-07,-30
101,7.143363,1657948263.0,0.681714,-30.00037,136,8,-4.306196e-07,-30
102,7.212567,1657948263.0,0.750918,-30.00037,136,8,-4.313196e-07,-30
103,7.281774,1657948263.0,0.820125,-30.00042,136,8,-4.3144e-07,-30
104,7.351004,1657948263.0,0.889355,-30.00042,136,8,-4.343829e-07,-30
105,7.420214,1657948263.0,0.958565,-30.0003,136,8,-4.331132e-07,-30
106,7.489417,1657948264.0,0.0277676,-30.00033,136,8,-4.313574e-07,-30
107,7.558634,1657948264.0,0.0969849,-30.00033,136,8,-4.308198e-07,-30
108,7.627847,1657948264.0,0.166198,-30.00034,136,8,-4.314832e-07,-30
109,7.697074,1657948264.0,0.235425,-30.00029,136,8,-4.316476e-07,-30
110,7.766281,1657948264.0,0.304632,-30.00033,136,8,-4.32619e-07,-30
111,7.835498,1657948264.0,0.373849,-30.00026,136,8,-4.298748e-07,-30
112,7.904708,1657948264.0,0.443059,-30.00032,136,8,-4.316405e-07,-30
113,7.973909,1657948264.0,0.51226,-30.00027,136,8,-4.319664e-07,-30
114,8.04313,1657948264.0,0.581481,-30.00032,136,8,-4.317663e-07,-30
115,8.11235,1657948264.0,0.650701,-30.00037,136,8,-4.315675e-07,-30
116,8.181563,1657948264.0,0.719914,-30.00024,136,8,-4.324681e-07,-30
117,8.250783,1657948264.0,0.789134,-30.00034,136,8,-4.327682e-07,-30
118,8.320002,1657948264.0,0.858353,-30.00031,136,8,-4.320916e-07,-30
119,8.389209,1657948264.0,0.92756,-30.00033,136,8,-4.315378e-07,-30
120,8.458412,1657948264.0,0.996763,-30.00031,136,8,-4.307687e-07,-30
121,8.527616,1657948265.0,0.0659666,-30.00031,136,8,-4.326176e-07,-30
122,8.596826,1657948265.0,0.135178,-30.00029,136,8,-4.31127e-07,-30
123,8.666036,1657948265.0,0.204387,-30.00032,136,8,-4.310614e-07,-30
124,8.735241,1657948265.0,0.273592,-30.0003,136,8,-4.318073e-07,-30
125,8.804459,1657948265.0,0.34281,-30.0004,136,8,-4.284239e-07,-30
126,8.873678,1657948265.0,0.412029,-30.00031,136,8,-4.304664e-07,-30
127,8.942892,1657948265.0,0.481243,-30.00035,136,8,-4.281432e-07,-30
128,9.01212,1657948265.0,0.550471,-30.00031,136,8,-4.326113e-07,-30
129,9.081332,1657948265.0,0.619683,-30.00024,136,8,-4.322702e-07,-30
130,9.150542,1657948265.0,0.688893,-30.00032,136,8,-4.317579e-07,-30
131,9.219745,1657948265.0,0.758096,-30.00034,136,8,-4.319664e-07,-30
132,9.288967,1657948265.0,0.827318,-30.00035,136,8,-4.313132e-07,-30
133,9.358173,1657948265.0,0.896524,-30.00027,136,8,-4.328747e-07,-30
134,9.427378,1657948265.0,0.965729,-30.00031,136,8,-4.321457e-07,-30
135,9.496591,1657948266.0,0.0349421,-30.00036,136,8,-4.316611e-07,-30
136,9.565803,1657948266.0,0.104154,-30.00032,136,8,-4.314637e-07,-30
137,9.635013,1657948266.0,0.173364,-30.00025,136,8,-4.288018e-07,-30
138,9.70423,1657948266.0,0.242581,-30.00032,136,8,-4.294245e-07,-30
139,9.773436,1657948266.0,0.311788,-30.00038,136,8,-4.313032e-07,-30
140,9.842642,1657948266.0,0.380993,-30.00035,136,8,-4.296868e-07,-30
141,9.911856,1657948266.0,0.450207,-30.00025,136,8,-4.30701e-07,-30
142,9.981069,1657948266.0,0.51942,-30.00033,136,8,-4.30159e-07,-30
143,10.05027,1657948266.0,0.588623,-30.00022,136,8,-4.309867e-07,-30
144,10.11949,1657948266.0,0.657845,-30.00023,136,8,-4.31039e-07,-30
145,10.1887,1657948266.0,0.727054,-30.00031,136,8,-4.320316e-07,-30
146,10.25791,1657948266.0,0.796264,-30.00035,136,8,-4.298497e-07,-30
147,10.32713,1657948266.0,0.865476,-30.00032,136,8,-4.325779e-07,-30
148,10.39633,1657948266.0,0.934684,-30.00033,136,8,-4.29356e-07,-30
149,10.46555,1657948267.0,0.00389848,-30.00032,136,8,-4.290654e-07,-30
150,10.53476,1657948267.0,0.073107,-30.00035,136,8,-4.288443e-07,-30
151,10.60397,1657948267.0,0.14232,-30.00024,136,8,-4.299502e-07,-30
152,10.67319,1657948267.0,0.211539,-30.00021,136,8,-4.315078e-07,-30
153,10.74241,1657948267.0,0.280757,-30.00034,136,8,-4.29384e-07,-30
154,10.81162,1657948267.0,0.34997,-30.00037,136,8,-4.30915e-07,-30
155,10.88082,1657948267.0,0.419173,-30.00026,136,8,-4.295494e-07,-30
156,10.95004,1657948267.0,0.488396,-30.00024,136,8,-4.306811e-07,-30
157,11.01926,1657948267.0,0.557615,-30.00034,136,8,-4.30681e-07,-30
158,11.08847,1657948267.0,0.626817,-30.00027,136,8,-4.285671e-07,-30
159,11.15767,1657948267.0,0.696019,-30.0004,136,8,-4.2917e-07,-30
160,11.22688,1657948267.0,0.765235,-30.00032,136,8,-4.28833e-07,-30
161,11.2961,1657948267.0,0.834448,-30.00037,136,8,-4.304164e-07,-30
162,11.3653,1657948267.0,0.903654,-30.00042,136,8,-4.284515e-07,-30
163,11.43452,1657948267.0,0.972876,-30.00039,136,8,-4.29447e-07,-30
164,11.50373,1657948268.0,0.0420776,-30.00035,136,8,-4.274029e-07,-30
165,11.57294,1657948268.0,0.111291,-30.00025,136,8,-4.299724e-07,-30
166,11.64215,1657948268.0,0.180501,-30.00026,136,8,-4.298508e-07,-30
167,11.71136,1657948268.0,0.249716,-30.00029,136,8,-4.291068e-07,-30
168,11.78057,1657948268.0,0.318921,-30.00027,136,8,-4.305348e-07,-30
169,11.84977,1657948268.0,0.388125,-30.0003,136,8,-4.314167e-07,-30
170,11.91899,1657948268.0,0.457343,-30.00034,136,8,-4.309122e-07,-30
171,11.98821,1657948268.0,0.526558,-30.00034,136,8,-4.290897e-07,-30
172,12.05741,1657948268.0,0.59576,-30.00037,136,8,-4.283693e-07,-30
173,12.12661,1657948268.0,0.664964,-30.00032,136,8,-4.283312e-07,-30
174,12.19583,1657948268.0,0.734184,-30.00029,136,8,-4.295656e-07,-30
175,12.26505,1657948268.0,0.803398,-30.00024,136,8,-4.310854e-07,-30
176,12.33425,1657948268.0,0.872605,-30.00029,136,8,-4.286501e-07,-30
177,12.40347,1657948268.0,0.941817,-30.00039,136,8,-4.302638e-07,-30
178,12.47267,1657948269.0,0.011025,-30.0003,136,8,-4.290805e-07,-30
179,12.54189,1657948269.0,0.0802378,-30.00029,136,8,-4.293607e-07,-30
180,12.6111,1657948269.0,0.149447,-30.0003,136,8,-4.29882e-07,-30
181,12.68031,1657948269.0,0.218659,-30.00036,136,8,-4.296149e-07,-30
182,12.74952,1657948269.0,0.287869,-30.00031,136,8,-4.285835e-07,-30
183,12.81872,1657948269.0,0.357074,-30.00035,136,8,-4.282726e-07,-30
184,12.88794,1657948269.0,0.42629,-30.00028,136,8,-4.285789e-07,-30
185,12.95715,1657948269.0,0.495504,-30.00038,136,8,-4.288824e-07,-30
186,13.02636,1657948269.0,0.564714,-30.0003,136,8,-4.287094e-07,-30
187,13.09556,1657948269.0,0.633915,-30.0003,136,8,-4.282677e-07,-30
188,13.16478,1657948269.0,0.703135,-30.00034,136,8,-4.292296e-07,-30
189,13.234,1657948269.0,0.772356,-30.00038,136,8,-4.29793e-07,-30
190,13.30321,1657948269.0,0.841562,-30.00033,136,8,-4.303181e-07,-30
191,13.37241,1657948269.0,0.910762,-30.0003,136,8,-4.292321e-07,-30
192,13.44162,1657948269.0,0.979968,-30.0003,136,8,-4.287449e-07,-30
193,13.51084,1657948270.0,0.0491869,-30.00032,136,8,-4.308007e-07,-30
194,13.58006,1657948270.0,0.118414,-30.00029,136,8,-4.30095e-07,-30
195,13.64927,1657948270.0,0.187619,-30.00029,136,8,-4.290597e-07,-30
196,13.71849,1657948270.0,0.256843,-30.00032,136,8,-4.293883e-07,-30
197,13.78772,1657948270.0,0.326068,-30.00025,136,8,-4.317647e-07,-30
198,13.85693,1657948270.0,0.395278,-30.00033,136,8,-4.28749e-07,-30
199,13.92614,1657948270.0,0.464487,-30.00031,136,8,-4.273232e-07,-30
200,13.99535,1657948270.0,0.533697,-30.00026,136,8,-4.268803e-07,-30
201,14.06456,1657948270.0,0.602911,-30.00034,136,8,-4.279655e-07,-30
202,14.13376,1657948270.0,0.672115,-30.00033,136,8,-4.275235e-07,-30
203,14.20297,1657948270.0,0.741323,-30.00023,136,8,-4.28707e-07,-30
204,14.27217,1657948270.0,0.810523,-30.00039,136,8,-4.28623e-07,-30
205,14.34137,1657948270.0,0.879723,-30.00027,136,8,-4.29704e-07,-30
206,14.41058,1657948270.0,0.948927,-30.00035,136,8,-4.277403e-07,-30
207,14.47979,1657948271.0,0.0181412,-30.00033,136,8,-4.267274e-07,-30
208,14.54899,1657948271.0,0.0873458,-30.00034,136,8,-4.282522e-07,-30
209,14.6182,1657948271.0,0.156554,-30.00032,136,8,-4.267799e-07,-30
210,14.68742,1657948271.0,0.225775,-30.00033,136,8,-4.28265e-07,-30
211,14.75663,1657948271.0,0.294979,-30.00019,136,8,-4.290572e-07,-30
212,14.82584,1657948271.0,0.364189,-30.00032,136,8,-4.277063e-07,-30
213,14.89507,1657948271.0,0.433418,-30.00033,136,8,-4.283845e-07,-30
214,14.96427,1657948271.0,0.50262,-30.00023,136,8,-4.295877e-07,-30
215,15.03348,1657948271.0,0.571829,-30.00028,136,8,-4.269779e-07,-30
216,15.10269,1657948271.0,0.641043,-30.0003,136,8,-4.286925e-07,-30
217,15.17191,1657948271.0,0.710256,-30.00022,136,8,-4.272965e-07,-30
218,15.24113,1657948271.0,0.779482,-30.00031,136,8,-4.269087e-07,-30
219,15.31034,1657948271.0,0.848693,-30.00034,136,8,-4.261925e-07,-30
220,15.37956,1657948271.0,0.917907,-30.00031,136,8,-4.265903e-07,-30
221,15.44876,1657948271.0,0.987111,-30.00033,136,8,-4.276814e-07,-30
222,15.51797,1657948272.0,0.0563259,-30.00039,136,8,-4.274918e-07,-30
223,15.58718,1657948272.0,0.125533,-30.00043,136,8,-4.278783e-07,-30
224,15.6564,1657948272.0,0.194755,-30.00029,136,8,-4.272234e-07,-30
225,15.72561,1657948272.0,0.263964,-30.00035,136,8,-4.263082e-07,-30
226,15.79483,1657948272.0,0.333182,-30.00031,136,8,-4.28561e-07,-30
227,15.86404,1657948272.0,0.402391,-30.00033,136,8,-4.277849e-07,-30
228,15.93326,1657948272.0,0.47161,-30.0003,136,8,-4.282869e-07,-30
229,16.00246,1657948272.0,0.540816,-30.0003,136,8,-4.275078e-07,-30
230,16.07169,1657948272.0,0.610037,-30.00022,136,8,-4.264983e-07,-30
231,16.14091,1657948272.0,0.679257,-30.00026,136,8,-4.268723e-07,-30
232,16.21012,1657948272.0,0.748476,-30.00024,136,8,-4.297329e-07,-30
233,16.27934,1657948272.0,0.81769,-30.00033,136,8,-4.28105e-07,-30
234,16.34854,1657948272.0,0.886895,-30.00021,136,8,-4.264045e-07,-30
235,16.41776,1657948272.0,0.95611,-30.00027,136,8,-4.262774e-07,-30
236,16.48696,1657948273.0,0.0253146,-30.0003,136,8,-4.278412e-07,-30
237,16.55618,1657948273.0,0.0945357,-30.00032,136,8,-4.276515e-07,-30
238,16.6254,1657948273.0,0.163755,-30.00027,136,8,-4.254749e-07,-30
239,16.69461,1657948273.0,0.232957,-30.00035,136,8,-4.273265e-07,-30
240,16.76381,1657948273.0,0.302164,-30.00031,136,8,-4.255615e-07,-30
241,16.83302,1657948273.0,0.371376,-30.00037,136,8,-4.272553e-07,-30
242,16.90222,1657948273.0,0.440576,-30.00035,136,8,-4.251823e-07,-30
243,16.97144,1657948273.0,0.509788,-30.00036,136,8,-4.263914e-07,-30
244,17.04065,1657948273.0,0.579003,-30.00028,136,8,-4.263545e-07,-30
245,17.10986,1657948273.0,0.648207,-30.0003,136,8,-4.271888e-07,-30
246,17.17908,1657948273.0,0.717432,-30.00037,136,8,-4.275544e-07,-30
247,17.24829,1657948273.0,0.786642,-30.0003,136,8,-4.267625e-07,-30
248,17.3175,1657948273.0,0.855853,-30.00034,136,8,-4.299488e-07,-30
249,17.38672,1657948273.0,0.925069,-30.0003,136,8,-4.277316e-07,-30
250,17.45593,1657948273.0,0.994284,-30.00027,136,8,-4.276717e-07,-30
251,17.52516,1657948274.0,0.0635126,-30.00033,136,8,-4.272045e-07,-30
252,17.59437,1657948274.0,0.13272,-30.00037,136,8,-4.284522e-07,-30
253,17.66357,1657948274.0,0.20192,-30.00035,136,8,-4.270697e-07,-30
254,17.73277,1657948274.0,0.27112,-30.00024,136,8,-4.274815e-07,-30
255,17.80198,1657948274.0,0.340329,-30.00026,136,8,-4.287266e-07,-30
256,17.8712,1657948274.0,0.409548,-30.00031,136,8,-4.261347e-07,-30
257,17.94041,1657948274.0,0.478766,-30.00029,136,8,-4.271058e-07,-30
258,18.00963,1657948274.0,0.547978,-30.00022,136,8,-4.277482e-07,-30
259,18.07885,1657948274.0,0.617198,-30.00033,136,8,-4.25748e-07,-30
260,18.14806,1657948274.0,0.686414,-30.00028,136,8,-4.258634e-07,-30
261,18.21728,1657948274.0,0.755628,-30.0003,136,8,-4.275876e-07,-30
262,18.28649,1657948274.0,0.824839,-30.0003,136,8,-4.283194e-07,-30
263,18.3557,1657948274.0,0.894052,-30.00035,136,8,-4.25999e-07,-30
264,18.42491,1657948274.0,0.96326,-30.0003,136,8,-4.263097e-07,-30
265,18.49414,1657948275.0,0.0324888,-30.00028,136,8,-4.262222e-07,-30
266,18.56334,1657948275.0,0.101691,-30.00031,136,8,-4.261656e-07,-30
267,18.63255,1657948275.0,0.170903,-30.00031,136,8,-4.275119e-07,-30
268,18.70176,1657948275.0,0.240115,-30.00038,136,8,-4.266066e-07,-30
269,18.77097,1657948275.0,0.30932,-30.00031,136,8,-4.269538e-07,-30
270,18.84019,1657948275.0,0.378544,-30.00036,136,8,-4.259819e-07,-30
271,18.90941,1657948275.0,0.447757,-30.00027,136,8,-4.262365e-07,-30
272,18.97861,1657948275.0,0.516964,-30.00028,136,8,-4.264813e-07,-30
273,19.04783,1657948275.0,0.586182,-30.00033,136,8,-4.26536e-07,-30
274,19.11704,1657948275.0,0.655392,-30.00028,136,8,-4.247594e-07,-30
275,19.18624,1657948275.0,0.724596,-30.00026,136,8,-4.260113e-07,-30
276,19.25545,1657948275.0,0.7938,-30.00028,136,8,-4.279404e-07,-30
277,19.32466,1657948275.0,0.86301,-30.00029,136,8,-4.238545e-07,-30
278,19.39386,1657948275.0,0.932216,-30.00038,136,8,-4.259315e-07,-30
279,19.46308,1657948276.0,0.0014299,-30.00035,136,8,-4.262167e-07,-30
280,19.5323,1657948276.0,0.0706472,-30.00033,136,8,-4.262375e-07,-30
281,19.60151,1657948276.0,0.13986,-30.0003,136,8,-4.242698e-07,-30
282,19.67072,1657948276.0,0.209073,-30.00035,136,8,-4.259017e-07,-30
283,19.73993,1657948276.0,0.278284,-30.0003,136,8,-4.254662e-07,-30
284,19.80915,1657948276.0,0.347496,-30.0002,136,8,-4.255786e-07,-30
285,19.87835,1657948276.0,0.416705,-30.00025,136,8,-4.263304e-07,-30
286,19.94756,1657948276.0,0.485911,-30.00027,136,8,-4.280985e-07,-30
287,20.01678,1657948276.0,0.555128,-30.00022,136,8,-4.263553e-07,-30
288,20.08599,1657948276.0,0.624344,-30.00022,136,8,-4.266301e-07,-30
289,20.1552,1657948276.0,0.693552,-30.00027,136,8,-4.24572e-07,-30
290,20.22441,1657948276.0,0.762762,-30.00038,136,8,-4.252085e-07,-30
291,20.29362,1657948276.0,0.83197,-30.00032,136,8,-4.252661e-07,-30
292,20.36283,1657948276.0,0.901185,-30.00032,136,8,-4.244661e-07,-30
293,20.43205,1657948276.0,0.970401,-30.0004,136,8,-4.261591e-07,-30
294,20.50127,1657948277.0,0.0396176,-30.00045,136,8,-4.258242e-07,-30
295,20.57048,1657948277.0,0.108836,-30.00043,136,8,-4.251181e-07,-30
296,20.6397,1657948277.0,0.178055,-30.00032,136,8,-4.240192e-07,-30
297,20.70891,1657948277.0,0.247262,-30.00033,136,8,-4.259934e-07,-30
298,20.77813,1657948277.0,0.316484,-30.00046,136,8,-4.250759e-07,-30
299,20.84734,1657948277.0,0.38569,-30.00041,136,8,-4.246749e-07,-30
300,20.91655,1657948277.0,0.454898,-30.00024,136,8,-4.2572e-07,-30
301,20.98577,1657948277.0,0.524119,-30.00032,136,8,-4.263989e-07,-30
302,21.05498,1657948277.0,0.593335,-30.00039,136,8,-4.284188e-07,-30
303,21.12419,1657948277.0,0.662537,-30.00031,136,8,-4.258414e-07,-30
304,21.19339,1657948277.0,0.731738,-30.00023,136,8,-4.261847e-07,-30
305,21.2626,1657948277.0,0.800953,-30.00027,136,8,-4.245469e-07,-30
306,21.33181,1657948277.0,0.870156,-30.00032,136,8,-4.246939e-07,-30
307,21.40103,1657948277.0,0.939382,-30.00031,136,8,-4.240762e-07,-30
308,21.47025,1657948278.0,0.00859632,-30.00035,136,8,-4.247405e-07,-30
309,21.53946,1657948278.0,0.0778096,-30.00034,136,8,-4.253682e-07,-30
310,21.60868,1657948278.0,0.14703,-30.00033,136,8,-4.255531e-07,-30
311,21.67787,1657948278.0,0.216218,-30.00018,136,8,-4.256993e-07,-30
312,21.74705,1657948278.0,0.285401,-30.00025,136,8,-4.257353e-07,-30
313,21.81626,1657948278.0,0.354615,-30.00027,136,8,-4.258016e-07,-30
314,21.88548,1657948278.0,0.423832,-30.00031,136,8,-4.263955e-07,-30
315,21.9547,1657948278.0,0.493051,-30.00028,136,8,-4.248257e-07,-30
316,22.0239,1657948278.0,0.562253,-30.00028,136,8,-4.253003e-07,-30
317,22.09311,1657948278.0,0.631466,-30.00033,136,8,-4.239676e-07,-30
318,22.16232,1657948278.0,0.70067,-30.00036,136,8,-4.266992e-07,-30
319,22.23152,1657948278.0,0.769874,-30.00031,136,8,-4.254403e-07,-30
320,22.30074,1657948278.0,0.839088,-30.00036,136,8,-4.251136e-07,-30
321,22.36995,1657948278.0,0.908297,-30.00027,136,8,-4.22672e-07,-30
322,22.43916,1657948278.0,0.977514,-30.00028,136,8,-4.245985e-07,-30
323,22.50837,1657948279.0,0.0467226,-30.00027,136,8,-4.233779e-07,-30
324,22.57757,1657948279.0,0.115919,-30.00023,136,8,-4.235458e-07,-30
325,22.64677,1657948279.0,0.185125,-30.00024,136,8,-4.263084e-07,-30
326,22.71599,1657948279.0,0.254346,-30.00023,136,8,-4.232153e-07,-30
327,22.78522,1657948279.0,0.323571,-30.00029,136,8,-4.252149e-07,-30
328,22.85443,1657948279.0,0.39278,-30.00022,136,8,-4.227495e-07,-30
329,22.92364,1657948279.0,0.461993,-30.00029,136,8,-4.235415e-07,-30
330,22.99284,1657948279.0,0.531196,-30.00026,136,8,-4.246531e-07,-30
331,23.06206,1657948279.0,0.600414,-30.00026,136,8,-4.250202e-07,-30
332,23.13127,1657948279.0,0.669617,-30.00019,136,8,-4.263447e-07,-30
333,23.20047,1657948279.0,0.73882,-30.00024,136,8,-4.249067e-07,-30
334,23.26968,1657948279.0,0.808035,-30.00029,136,8,-4.2486e-07,-30
335,23.3389,1657948279.0,0.87725,-30.00031,136,8,-4.231412e-07,-30
336,23.40809,1657948279.0,0.946445,-30.00034,136,8,-4.262562e-07,-30
337,23.4773,1657948280.0,0.0156518,-30.00039,136,8,-4.265228e-07,-30
338,23.54651,1657948280.0,0.0848651,-30.00035,136,8,-4.256449e-07,-30
339,23.61572,1657948280.0,0.154067,-30.00034,136,8,-4.238642e-07,-30
340,23.68492,1657948280.0,0.223269,-30.00032,136,8,-4.23963e-07,-30
341,23.75413,1657948280.0,0.292482,-30.0003,136,8,-4.250679e-07,-30
342,23.82333,1657948280.0,0.361686,-30.00029,136,8,-4.237117e-07,-30
343,23.89255,1657948280.0,0.430904,-30.00035,136,8,-4.24e-07,-30
344,23.96176,1657948280.0,0.500106,-30.00033,136,8,-4.253208e-07,-30
345,24.03095,1657948280.0,0.569303,-30.00029,136,8,-4.250001e-07,-30
346,24.10017,1657948280.0,0.638524,-30.00027,136,8,-4.259992e-07,-30
347,24.16939,1657948280.0,0.707739,-30.00026,136,8,-4.249026e-07,-30
348,24.2386,1657948280.0,0.77695,-30.00037,136,8,-4.256836e-07,-30
349,24.30782,1657948280.0,0.846171,-30.00036,136,8,-4.236261e-07,-30
350,24.37703,1657948280.0,0.915378,-30.00028,136,8,-4.237115e-07,-30
351,24.44626,1657948280.0,0.984608,-30.0003,136,8,-4.253578e-07,-30
352,24.51547,1657948281.0,0.0538171,-30.00034,136,8,-4.251291e-07,-30
353,24.58467,1657948281.0,0.123018,-30.00028,136,8,-4.244923e-07,-30
354,24.65388,1657948281.0,0.192227,-30.00033,136,8,-4.234788e-07,-30
355,24.72308,1657948281.0,0.261429,-30.00028,136,8,-4.244143e-07,-30
356,24.79228,1657948281.0,0.330635,-30.00033,136,8,-4.256958e-07,-30
357,24.86149,1657948281.0,0.399842,-30.00034,136,8,-4.250298e-07,-30
358,24.9307,1657948281.0,0.469052,-30.00031,136,8,-4.256825e-07,-30
359,24.99991,1657948281.0,0.538265,-30.00034,136,8,-4.225363e-07,-30
360,25.06913,1657948281.0,0.607485,-30.0004,136,8,-4.239595e-07,-30
361,25.13834,1657948281.0,0.676694,-30.00033,136,8,-4.216823e-07,-30
362,25.20756,1657948281.0,0.745908,-30.00031,136,8,-4.251143e-07,-30
363,25.27676,1657948281.0,0.81511,-30.0003,136,8,-4.239033e-07,-30
364,25.34597,1657948281.0,0.884326,-30.00029,136,8,-4.242911e-07,-30
365,25.41519,1657948281.0,0.953542,-30.00039,136,8,-4.246776e-07,-30
366,25.4844,1657948282.0,0.0227558,-30.00031,136,8,-4.220271e-07,-30
367,25.55362,1657948282.0,0.0919726,-30.00035,136,8,-4.222274e-07,-30
368,25.62283,1657948282.0,0.161181,-30.00032,136,8,-4.22666e-07,-30
369,25.69204,1657948282.0,0.230394,-30.00035,136,8,-4.254283e-07,-30
370,25.76127,1657948282.0,0.299624,-30.0003,136,8,-4.264592e-07,-30
371,25.83049,1657948282.0,0.368845,-30.00029,136,8,-4.271668e-07,-30
372,25.8997,1657948282.0,0.438053,-30.00029,136,8,-4.23224e-07,-30
373,25.96893,1657948282.0,0.507278,-30.00037,136,8,-4.266213e-07,-30
374,26.03813,1657948282.0,0.576479,-30.00024,136,8,-4.25861e-07,-30
375,26.10734,1657948282.0,0.645687,-30.00032,136,8,-4.232999e-07,-30
376,26.17655,1657948282.0,0.714902,-30.00032,136,8,-4.242699e-07,-30
377,26.24577,1657948282.0,0.784122,-30.00029,136,8,-4.255731e-07,-30
378,26.31499,1657948282.0,0.853344,-30.00035,136,8,-4.235662e-07,-30
379,26.3842,1657948282.0,0.922554,-30.00026,136,8,-4.24653e-07,-30
380,26.45342,1657948282.0,0.991775,-30.00035,136,8,-4.254358e-07,-30
381,26.52264,1657948283.0,0.0609893,-30.00039,136,8,-4.231285e-07,-30
382,26.59185,1657948283.0,0.130204,-30.00034,136,8,-4.235025e-07,-30
383,26.66106,1657948283.0,0.199409,-30.00029,136,8,-4.222942e-07,-30
384,26.73028,1657948283.0,0.268628,-30.00034,136,8,-4.212763e-07,-30
385,26.79948,1657948283.0,0.337829,-30.00034,136,8,-4.229214e-07,-30
386,26.8687,1657948283.0,0.407054,-30.00042,136,8,-4.228577e-07,-30
387,26.93792,1657948283.0,0.476273,-30.00037,136,8,-4.218348e-07,-30
388,27.00714,1657948283.0,0.545492,-30.00027,136,8,-4.210284e-07,-30
389,27.07636,1657948283.0,0.614714,-30.00026,136,8,-4.2248e-07,-30
390,27.14557,1657948283.0,0.683926,-30.00036,136,8,-4.236978e-07,-30
391,27.21478,1657948283.0,0.753133,-30.0004,136,8,-4.24283e-07,-30
392,27.28399,1657948283.0,0.822344,-30.00029,136,8,-4.238365e-07,-30
393,27.35321,1657948283.0,0.891558,-30.00038,136,8,-4.245767e-07,-30
394,27.42242,1657948283.0,0.960772,-30.00035,136,8,-4.244229e-07,-30
395,27.49164,1657948284.0,0.0299863,-30.00035,136,8,-4.251349e-07,-30
396,27.56086,1657948284.0,0.0992066,-30.00039,136,8,-4.223461e-07,-30
397,27.63006,1657948284.0,0.168412,-30.00027,136,8,-4.233162e-07,-30
398,27.69928,1657948284.0,0.237626,-30.00022,136,8,-4.221394e-07,-30
399,27.76849,1657948284.0,0.306841,-30.00029,136,8,-4.216535e-07,-30
400,27.83771,1657948284.0,0.376059,-30.00035,136,8,-4.219275e-07,-30
401,27.90691,1657948284.0,0.445264,-30.00046,136,8,-4.227273e-07,-30
402,27.97613,1657948284.0,0.514486,-30.00036,136,8,-4.217002e-07,-30
403,28.04534,1657948284.0,0.58369,-30.00026,136,8,-4.211156e-07,-30
404,28.11456,1657948284.0,0.65291,-30.00032,136,8,-4.236256e-07,-30
405,28.18376,1657948284.0,0.722113,-30.00035,136,8,-4.233155e-07,-30
406,28.25296,1657948284.0,0.791314,-30.00029,136,8,-4.240021e-07,-30
407,28.32219,1657948284.0,0.860543,-30.00029,136,8,-4.233334e-07,-30
408,28.3914,1657948284.0,0.929748,-30.00033,136,8,-4.229252e-07,-30
409,28.4606,1657948284.0,0.998956,-30.00035,136,8,-4.244607e-07,-30
410,28.52982,1657948285.0,0.0681663,-30.00038,136,8,-4.22142e-07,-30
411,28.59902,1657948285.0,0.137374,-30.00037,136,8,-4.222178e-07,-30
412,28.66825,1657948285.0,0.206599,-30.00032,136,8,-4.224623e-07,-30
413,28.73745,1657948285.0,0.275804,-30.00035,136,8,-4.222155e-07,-30
414,28.80666,1657948285.0,0.34501,-30.00038,136,8,-4.213536e-07,-30
415,28.87586,1657948285.0,0.414215,-30.00029,136,8,-4.229645e-07,-30
416,28.94507,1657948285.0,0.483423,-30.00038,136,8,-4.206069e-07,-30
417,29.01429,1657948285.0,0.552637,-30.00032,136,8,-4.231219e-07,-30
418,29.0835,1657948285.0,0.621855,-30.00035,136,8,-4.240356e-07,-30
419,29.15271,1657948285.0,0.691061,-30.00031,136,8,-4.231175e-07,-30
420,29.22192,1657948285.0,0.760269,-30.00033,136,8,-4.228291e-07,-30
421,29.29114,1657948285.0,0.829488,-30.0003,136,8,-4.238022e-07,-30
422,29.36035,1657948285.0,0.898697,-30.00033,136,8,-4.236956e-07,-30
423,29.42955,1657948285.0,0.967906,-30.00029,136,8,-4.212949e-07,-30
424,29.49876,1657948286.0,0.0371096,-30.00029,136,8,-4.226877e-07,-30
425,29.56796,1657948286.0,0.106312,-30.00037,136,8,-4.225081e-07,-30
426,29.63718,1657948286.0,0.175528,-30.00027,136,8,-4.211263e-07,-30
427,29.70639,1657948286.0,0.244738,-30.0003,136,8,-4.214285e-07,-30
428,29.77561,1657948286.0,0.313958,-30.00035,136,8,-4.227413e-07,-30
429,29.84481,1657948286.0,0.383159,-30.00027,136,8,-4.239029e-07,-30
430,29.91403,1657948286.0,0.452378,-30.00023,136,8,-4.234286e-07,-30
431,29.98324,1657948286.0,0.521593,-30.0003,136,8,-4.228279e-07,-30
432,30.05246,1657948286.0,0.590811,-30.00028,136,8,-4.23272e-07,-30
433,30.12168,1657948286.0,0.660027,-30.00035,136,8,-4.234455e-07,-30
434,30.19089,1657948286.0,0.729238,-30.00024,136,8,-4.21869e-07,-30
435,30.26009,1657948286.0,0.798443,-30.00028,136,8,-4.220396e-07,-30
436,30.32931,1657948286.0,0.867661,-30.00029,136,8,-4.213148e-07,-30
437,30.39852,1657948286.0,0.936873,-30.00027,136,8,-4.227926e-07,-30
438,30.46773,1657948287.0,0.00607942,-30.00033,136,8,-4.237899e-07,-30
439,30.53694,1657948287.0,0.0752947,-30.00035,136,8,-4.220104e-07,-30
440,30.60615,1657948287.0,0.144497,-30.00031,136,8,-4.224886e-07,-30
441,30.67536,1657948287.0,0.213707,-30.00035,136,8,-4.232631e-07,-30
442,30.74457,1657948287.0,0.282916,-30.00035,136,8,-4.236541e-07,-30
443,30.81378,1657948287.0,0.352128,-30.00026,136,8,-4.242676e-07,-30
444,30.883,1657948287.0,0.42135,-30.00027,136,8,-4.219366e-07,-30
445,30.95222,1657948287.0,0.490567,-30.00034,136,8,-4.223571e-07,-30
446,31.02143,1657948287.0,0.559782,-30.00029,136,8,-4.217145e-07,-30
447,31.09064,1657948287.0,0.628996,-30.00024,136,8,-4.226189e-07,-30
448,31.15986,1657948287.0,0.698208,-30.00023,136,8,-4.23364e-07,-30
449,31.22907,1657948287.0,0.767417,-30.00032,136,8,-4.217269e-07,-30
450,31.29829,1657948287.0,0.836639,-30.0002,136,8,-4.215184e-07,-30
451,31.36749,1657948287.0,0.905842,-30.00027,136,8,-4.225872e-07,-30
452,31.4367,1657948287.0,0.975055,-30.00032,136,8,-4.216527e-07,-30
453,31.50591,1657948288.0,0.0442569,-30.00039,136,8,-4.20621e-07,-30
454,31.57511,1657948288.0,0.113459,-30.00044,136,8,-4.229222e-07,-30
455,31.64434,1657948288.0,0.182686,-30.00039,136,8,-4.226818e-07,-30
456,31.71354,1657948288.0,0.251896,-30.00026,136,8,-4.227712e-07,-30
457,31.78275,1657948288.0,0.3211,-30.00028,136,8,-4.233375e-07,-30
458,31.85197,1657948288.0,0.390319,-30.00035,136,8,-4.200063e-07,-30
459,31.92119,1657948288.0,0.45954,-30.00037,136,8,-4.221529e-07,-30
460,31.99041,1657948288.0,0.528761,-30.00022,136,8,-4.216218e-07,-30
461,32.05963,1657948288.0,0.597979,-30.0003,136,8,-4.238795e-07,-30
462,32.12881,1657948288.0,0.667158,-30.00032,136,8,-4.244132e-07,-30
463,32.19802,1657948288.0,0.736373,-30.00031,136,8,-4.21595e-07,-30
464,32.26725,1657948288.0,0.805598,-30.00023,136,8,-4.206167e-07,-30
465,32.33645,1657948288.0,0.8748,-30.00024,136,8,-4.226464e-07,-30
466,32.40567,1657948288.0,0.944019,-30.0003,136,8,-4.231533e-07,-30
467,32.47487,1657948289.0,0.0132244,-30.00041,136,8,-4.215283e-07,-30
468,32.54409,1657948289.0,0.0824441,-30.00034,136,8,-4.222304e-07,-30
469,32.61331,1657948289.0,0.151666,-30.00034,136,8,-4.206909e-07,-30
470,32.68254,1657948289.0,0.220887,-30.00022,136,8,-4.230769e-07,-30
471,32.75176,1657948289.0,0.290115,-30.00028,136,8,-4.225253e-07,-30
472,32.82098,1657948289.0,0.359329,-30.00038,136,8,-4.239338e-07,-30
473,32.8902,1657948289.0,0.428548,-30.00032,136,8,-4.206765e-07,-30
474,32.9594,1657948289.0,0.497749,-30.00028,136,8,-4.207189e-07,-30
475,33.02862,1657948289.0,0.566968,-30.00033,136,8,-4.217184e-07,-30
476,33.09784,1657948289.0,0.63619,-30.00034,136,8,-4.215426e-07,-30
477,33.16704,1657948289.0,0.705393,-30.0002,136,8,-4.216652e-07,-30
478,33.23625,1657948289.0,0.774605,-30.00025,136,8,-4.230038e-07,-30
479,33.30548,1657948289.0,0.843828,-30.00031,136,8,-4.208104e-07,-30
480,33.37469,1657948289.0,0.913037,-30.0003,136,8,-4.229871e-07,-30
481,33.44391,1657948289.0,0.982257,-30.00022,136,8,-4.227174e-07,-30
482,33.51312,1657948290.0,0.051468,-30.00031,136,8,-4.206274e-07,-30
483,33.58233,1657948290.0,0.120681,-30.00028,136,8,-4.220223e-07,-30
484,33.65155,1657948290.0,0.189902,-30.00027,136,8,-4.226825e-07,-30
485,33.72077,1657948290.0,0.259125,-30.00029,136,8,-4.236462e-07,-30
486,33.79,1657948290.0,0.328349,-30.00032,136,8,-4.220902e-07,-30
487,33.85922,1657948290.0,0.397567,-30.00033,136,8,-4.216002e-07,-30
488,33.92842,1657948290.0,0.466769,-30.00022,136,8,-4.190881e-07,-30
489,33.99763,1657948290.0,0.535982,-30.00023,136,8,-4.19591e-07,-30
490,34.06685,1657948290.0,0.6052,-30.00031,136,8,-4.22131e-07,-30
491,34.13607,1657948290.0,0.674421,-30.0003,136,8,-4.217779e-07,-30
492,34.2053,1657948290.0,0.743648,-30.00022,136,8,-4.21267e-07,-30
493,34.27452,1657948290.0,0.812868,-30.00012,136,8,-4.214624e-07,-30
494,34.34373,1657948290.0,0.882079,-30.00022,136,8,-4.216718e-07,-30
495,34.41293,1657948290.0,0.951283,-30.00023,136,8,-4.224129e-07,-30
496,34.48213,1657948291.0,0.0204852,-30.00028,136,8,-4.208001e-07,-30
497,34.55136,1657948291.0,0.0897088,-30.00036,136,8,-4.219512e-07,-30
498,34.62057,1657948291.0,0.158921,-30.00027,136,8,-4.218101e-07,-30
499,34.68979,1657948291.0,0.22814,-30.0003,136,8,-4.220339e-07,-30
500,34.759,1657948291.0,0.297348,-30.00034,136,8,-4.246174e-07,-30
501,34.82818,1657948291.0,0.36653,-30.00025,136,8,-4.223318e-07,-30
502,34.89739,1657948291.0,0.435741,-30.00027,136,8,-4.195686e-07,-30
503,34.9666,1657948291.0,0.504949,-30.00031,136,8,-4.206471e-07,-30
504,35.0358,1657948291.0,0.574153,-30.00035,136,8,-4.215665e-07,-30
505,35.10502,1657948291.0,0.643368,-30.00024,136,8,-4.200048e-07,-30
506,35.17423,1657948291.0,0.71258,-30.00029,136,8,-4.214575e-07,-30
507,35.24344,1657948291.0,0.781792,-30.00026,136,8,-4.22223e-07,-30
508,35.31264,1657948291.0,0.850995,-30.00022,136,8,-4.229428e-07,-30
509,35.38185,1657948291.0,0.9202,-30.00025,136,8,-4.215682e-07,-30
510,35.45105,1657948291.0,0.989403,-30.00011,136,8,-4.225309e-07,-30
511,35.52025,1657948292.0,0.0586047,-30.00018,136,8,-4.190209e-07,-30
512,35.58947,1657948292.0,0.127822,-30.00029,136,8,-4.219329e-07,-30
513,35.65868,1657948292.0,0.197027,-30.00021,136,8,-4.206647e-07,-30
514,35.72788,1657948292.0,0.266233,-30.00022,136,8,-4.221586e-07,-30
515,35.7971,1657948292.0,0.335451,-30.00018,136,8,-4.194946e-07,-30
516,35.86632,1657948292.0,0.404668,-30.0003,136,8,-4.215518e-07,-30
517,35.93552,1657948292.0,0.473868,-30.00024,136,8,-4.216034e-07,-30
518,36.00472,1657948292.0,0.543071,-30.00031,136,8,-4.205633e-07,-30
519,36.07393,1657948292.0,0.612284,-30.00022,136,8,-4.201529e-07,-30
520,36.14312,1657948292.0,0.681468,-30.0002,136,8,-4.210163e-07,-30
521,36.21232,1657948292.0,0.750675,-30.00027,136,8,-4.215831e-07,-30
522,36.28152,1657948292.0,0.819876,-30.00034,136,8,-4.212283e-07,-30
523,36.35073,1657948292.0,0.889081,-30.0003,136,8,-4.208197e-07,-30
524,36.41994,1657948292.0,0.958288,-30.0003,136,8,-4.209198e-07,-30
525,36.48915,1657948293.0,0.0274991,-30.0003,136,8,-4.217098e-07,-30
526,36.55835,1657948293.0,0.0967057,-30.00028,136,8,-4.207367e-07,-30
527,36.62755,1657948293.0,0.165904,-30.00028,136,8,-4.207563e-07,-30
528,36.69673,1657948293.0,0.235085,-30.00028,136,8,-4.21585e-07,-30
529,36.76595,1657948293.0,0.304303,-30.00028,136,8,-4.208121e-07,-30
530,36.83516,1657948293.0,0.373513,-30.00021,136,8,-4.20767e-07,-30
531,36.90437,1657948293.0,0.442723,-30.00028,136,8,-4.21545e-07,-30
532,36.97358,1657948293.0,0.511928,-30.00027,136,8,-4.204261e-07,-30
533,37.04279,1657948293.0,0.581136,-30.00027,136,8,-4.186146e-07,-30
534,37.11199,1657948293.0,0.650341,-30.00031,136,8,-4.216082e-07,-30
535,37.18119,1657948293.0,0.719543,-30.0003,136,8,-4.2064e-07,-30
536,37.2504,1657948293.0,0.788753,-30.00026,136,8,-4.199417e-07,-30
537,37.31962,1657948293.0,0.857973,-30.00028,136,8,-4.181398e-07,-30
538,37.38882,1657948293.0,0.927175,-30.0003,136,8,-4.208564e-07,-30
539,37.45801,1657948293.0,0.996364,-30.00033,136,8,-4.214474e-07,-30
540,37.52719,1657948294.0,0.0655441,-30.00023,136,8,-4.209538e-07,-30
541,37.59639,1657948294.0,0.134738,-30.00042,136,8,-4.194903e-07,-30
542,37.66557,1657948294.0,0.203921,-30.00025,136,8,-4.194819e-07,-30
543,37.73479,1657948294.0,0.273143,-30.00025,136,8,-4.208542e-07,-30
544,37.804,1657948294.0,0.342354,-30.00023,136,8,-4.191764e-07,-30
545,37.87322,1657948294.0,0.411572,-30.00031,136,8,-4.192779e-07,-30
546,37.94242,1657948294.0,0.480772,-30.00035,136,8,-4.205405e-07,-30
547,38.01163,1657948294.0,0.54998,-30.00033,136,8,-4.19643e-07,-30
548,38.08083,1657948294.0,0.619184,-30.00028,136,8,-4.209187e-07,-30
549,38.15005,1657948294.0,0.688402,-30.00021,136,8,-4.189248e-07,-30
550,38.21926,1657948294.0,0.757614,-30.00032,136,8,-4.194221e-07,-30
551,38.28849,1657948294.0,0.826837,-30.00037,136,8,-4.214841e-07,-30
552,38.3577,1657948294.0,0.896049,-30.00036,136,8,-4.205506e-07,-30
553,38.42692,1657948294.0,0.965268,-30.00041,136,8,-4.203991e-07,-30
554,38.49612,1657948295.0,0.0344688,-30.00031,136,8,-4.228425e-07,-30
555,38.56534,1657948295.0,0.103694,-30.00026,136,8,-4.214793e-07,-30
556,38.63455,1657948295.0,0.172898,-30.00026,136,8,-4.208012e-07,-30
557,38.70375,1657948295.0,0.2421,-30.00029,136,8,-4.216627e-07,-30
558,38.77296,1657948295.0,0.311316,-30.00026,136,8,-4.215563e-07,-30
559,38.84218,1657948295.0,0.380534,-30.00034,136,8,-4.198898e-07,-30
560,38.91141,1657948295.0,0.449756,-30.00033,136,8,-4.203742e-07,-30
561,38.98061,1657948295.0,0.518961,-30.00033,136,8,-4.207214e-07,-30
562,39.04983,1657948295.0,0.588181,-30.00018,136,8,-4.197132e-07,-30
563,39.11905,1657948295.0,0.657402,-30.00028,136,8,-4.2055e-07,-30
564,39.18826,1657948295.0,0.726606,-30.00032,136,8,-4.192648e-07,-30
565,39.25746,1657948295.0,0.795814,-30.00029,136,8,-4.186009e-07,-30
566,39.32667,1657948295.0,0.86502,-30.00032,136,8,-4.196818e-07,-30
567,39.39589,1657948295.0,0.934238,-30.0003,136,8,-4.192806e-07,-30
568,39.46511,1657948296.0,0.00345934,-30.00023,136,8,-4.198523e-07,-30
569,39.53433,1657948296.0,0.0726794,-30.00019,136,8,-4.189591e-07,-30
570,39.60355,1657948296.0,0.141899,-30.00034,136,8,-4.188672e-07,-30
571,39.67275,1657948296.0,0.211105,-30.00021,136,8,-4.19759e-07,-30
572,39.74197,1657948296.0,0.280317,-30.00022,136,8,-4.1943e-07,-30
573,39.81118,1657948296.0,0.349534,-30.00034,136,8,-4.190811e-07,-30
574,39.88039,1657948296.0,0.418742,-30.00039,136,8,-4.175339e-07,-30
575,39.9496,1657948296.0,0.487948,-30.00031,136,8,-4.19151e-07,-30
576,40.01881,1657948296.0,0.557163,-30.00039,136,8,-4.18668e-07,-30
577,40.08803,1657948296.0,0.62638,-30.00037,136,8,-4.21697e-07,-30
578,40.15724,1657948296.0,0.695593,-30.00039,136,8,-4.186835e-07,-30
579,40.22646,1657948296.0,0.764814,-30.00037,136,8,-4.188494e-07,-30
580,40.29568,1657948296.0,0.834028,-30.0003,136,8,-4.17565e-07,-30
581,40.36489,1657948296.0,0.903245,-30.00037,136,8,-4.194742e-07,-30
582,40.4341,1657948296.0,0.972453,-30.00036,136,8,-4.205867e-07,-30
583,40.50332,1657948297.0,0.0416674,-30.0003,136,8,-4.187179e-07,-30
584,40.57252,1657948297.0,0.110875,-30.00037,136,8,-4.187785e-07,-30
585,40.64174,1657948297.0,0.180094,-30.00025,136,8,-4.204001e-07,-30
586,40.71096,1657948297.0,0.249313,-30.00034,136,8,-4.201847e-07,-30
587,40.78017,1657948297.0,0.318526,-30.00032,136,8,-4.189984e-07,-30
588,40.8494,1657948297.0,0.387752,-30.00036,136,8,-4.185911e-07,-30
589,40.91861,1657948297.0,0.456959,-30.00042,136,8,-4.189343e-07,-30
590,40.98782,1657948297.0,0.526173,-30.00035,136,8,-4.186641e-07,-30
591,41.05704,1657948297.0,0.59539,-30.00041,136,8,-4.201424e-07,-30
592,41.12626,1657948297.0,0.664612,-30.00044,136,8,-4.209124e-07,-30
593,41.19548,1657948297.0,0.733832,-30.00037,136,8,-4.197924e-07,-30
594,41.26469,1657948297.0,0.803044,-30.00033,136,8,-4.196464e-07,-30
595,41.3339,1657948297.0,0.872253,-30.00033,136,8,-4.208824e-07,-30
596,41.40311,1657948297.0,0.941457,-30.00038,136,8,-4.197752e-07,-30
597,41.47233,1657948298.0,0.0106849,-30.00036,136,8,-4.202829e-07,-30
598,41.54156,1657948298.0,0.0799063,-30.00035,136,8,-4.177461e-07,-30
599,41.61078,1657948298.0,0.149126,-30.00035,136,8,-4.169991e-07,-30
600,41.67998,1657948298.0,0.218336,-30.00042,136,8,-4.184636e-07,-30
601,41.74919,1657948298.0,0.287544,-30.00032,136,8,-4.188549e-07,-30
602,41.81842,1657948298.0,0.35677,-30.00035,136,8,-4.183535e-07,-30
603,41.88763,1657948298.0,0.425982,-30.00027,136,8,-4.183499e-07,-30
604,41.95684,1657948298.0,0.495189,-30.00032,136,8,-4.19582e-07,-30
605,42.02605,1657948298.0,0.564397,-30.00036,136,8,-4.190344e-07,-30
606,42.09526,1657948298.0,0.633614,-30.00031,136,8,-4.188048e-07,-30
607,42.16447,1657948298.0,0.702817,-30.0003,136,8,-4.195007e-07,-30
608,42.23368,1657948298.0,0.77203,-30.00048,136,8,-4.189992e-07,-30
609,42.30289,1657948298.0,0.841245,-30.00042,136,8,-4.188626e-07,-30
610,42.37209,1657948298.0,0.910446,-30.00032,136,8,-4.197948e-07,-30
611,42.44132,1657948298.0,0.97967,-30.00032,136,8,-4.197665e-07,-30
612,42.51052,1657948299.0,0.0488712,-30.00034,136,8,-4.206414e-07,-30
613,42.57974,1657948299.0,0.118089,-30.00039,136,8,-4.213033e-07,-30
614,42.64895,1657948299.0,0.187305,-30.00045,136,8,-4.19433e-07,-30
615,42.71817,1657948299.0,0.256518,-30.00035,136,8,-4.199029e-07,-30
616,42.78739,1657948299.0,0.325737,-30.00036,136,8,-4.190365e-07,-30
617,42.85659,1657948299.0,0.394938,-30.00038,136,8,-4.186747e-07,-30
618,42.92579,1657948299.0,0.464143,-30.00029,136,8,-4.206818e-07,-30
619,42.995,1657948299.0,0.533355,-30.00042,136,8,-4.195863e-07,-30
620,43.06422,1657948299.0,0.602569,-30.0004,136,8,-4.20023e-07,-30
621,43.13343,1657948299.0,0.671784,-30.00036,136,8,-4.194248e-07,-30
622,43.20265,1657948299.0,0.741,-30.00026,136,8,-4.170143e-07,-30
623,43.27183,1657948299.0,0.810181,-30.00034,136,8,-4.184375e-07,-30
624,43.34105,1657948299.0,0.879399,-30.00031,136,8,-4.190632e-07,-30
625,43.41025,1657948299.0,0.948602,-30.00037,136,8,-4.192269e-07,-30
626,43.47946,1657948300.0,0.0178074,-30.00026,136,8,-4.186984e-07,-30
627,43.54867,1657948300.0,0.0870208,-30.00038,136,8,-4.173881e-07,-30
628,43.61788,1657948300.0,0.156231,-30.0003,136,8,-4.175396e-07,-30
629,43.68709,1657948300.0,0.225443,-30.00037,136,8,-4.195219e-07,-30
630,43.7563,1657948300.0,0.294655,-30.00034,136,8,-4.195693e-07,-30
631,43.82552,1657948300.0,0.363873,-30.00029,136,8,-4.18253e-07,-30
632,43.89473,1657948300.0,0.433077,-30.00027,136,8,-4.198762e-07,-30
633,43.96393,1657948300.0,0.502279,-30.00032,136,8,-4.215446e-07,-30
634,44.03315,1657948300.0,0.571497,-30.00033,136,8,-4.200847e-07,-30
635,44.10236,1657948300.0,0.640715,-30.00032,136,8,-4.182906e-07,-30
636,44.17158,1657948300.0,0.709931,-30.00025,136,8,-4.184835e-07,-30
637,44.24078,1657948300.0,0.779132,-30.00031,136,8,-4.203448e-07,-30
638,44.30998,1657948300.0,0.848334,-30.00031,136,8,-4.16374e-07,-30
639,44.37919,1657948300.0,0.917543,-30.00025,136,8,-4.192128e-07,-30
640,44.44841,1657948300.0,0.986763,-30.00035,136,8,-4.175807e-07,-30
641,44.51762,1657948301.0,0.0559671,-30.0003,136,8,-4.191679e-07,-30
642,44.58682,1657948301.0,0.125175,-30.00027,136,8,-4.185555e-07,-30
643,44.65603,1657948301.0,0.194383,-30.00039,136,8,-4.184812e-07,-30
644,44.72525,1657948301.0,0.263604,-30.00039,136,8,-4.186095e-07,-30
645,44.79446,1657948301.0,0.332812,-30.00029,136,8,-4.184636e-07,-30
646,44.86367,1657948301.0,0.402022,-30.00039,136,8,-4.186814e-07,-30
647,44.93288,1657948301.0,0.471227,-30.00032,136,8,-4.187745e-07,-30
648,45.00209,1657948301.0,0.540443,-30.00027,136,8,-4.177847e-07,-30
649,45.07131,1657948301.0,0.609662,-30.00028,136,8,-4.195085e-07,-30
650,45.14051,1657948301.0,0.678864,-30.00033,136,8,-4.194208e-07,-30
651,45.20972,1657948301.0,0.748076,-30.00032,136,8,-4.176798e-07,-30
652,45.27894,1657948301.0,0.817288,-30.00038,136,8,-4.176234e-07,-30
653,45.34815,1657948301.0,0.886497,-30.00035,136,8,-4.190148e-07,-30
654,45.41737,1657948301.0,0.955724,-30.00033,136,8,-4.176271e-07,-30
655,45.48658,1657948302.0,0.0249328,-30.00037,136,8,-4.176774e-07,-30
656,45.55579,1657948302.0,0.0941426,-30.00033,136,8,-4.155361e-07,-30
657,45.62499,1657948302.0,0.163345,-30.0003,136,8,-4.19225e-07,-30
658,45.69421,1657948302.0,0.232562,-30.00032,136,8,-4.179606e-07,-30
659,45.76344,1657948302.0,0.30179,-30.00035,136,8,-4.186323e-07,-30
660,45.83265,1657948302.0,0.371004,-30.00031,136,8,-4.175662e-07,-30
661,45.90186,1657948302.0,0.440209,-30.00035,136,8,-4.184615e-07,-30
662,45.97107,1657948302.0,0.509419,-30.00034,136,8,-4.183862e-07,-30
663,46.04028,1657948302.0,0.57863,-30.00022,136,8,-4.184073e-07,-30
664,46.10949,1657948302.0,0.647842,-30.00026,136,8,-4.186446e-07,-30
665,46.17869,1657948302.0,0.717043,-30.00028,136,8,-4.171197e-07,-30
666,46.24791,1657948302.0,0.78626,-30.00039,136,8,-4.199863e-07,-30
667,46.31713,1657948302.0,0.855476,-30.00036,136,8,-4.185674e-07,-30
668,46.38634,1657948302.0,0.924689,-30.00039,136,8,-4.178177e-07,-30
669,46.45555,1657948302.0,0.993902,-30.00041,136,8,-4.186243e-07,-30
670,46.52477,1657948303.0,0.0631166,-30.00038,136,8,-4.173118e-07,-30
671,46.59398,1657948303.0,0.132335,-30.00038,136,8,-4.183166e-07,-30
672,46.6632,1657948303.0,0.201554,-30.00027,136,8,-4.187115e-07,-30
673,46.73242,1657948303.0,0.270774,-30.00041,136,8,-4.198423e-07,-30
674,46.80164,1657948303.0,0.339994,-30.00026,136,8,-4.180414e-07,-30
675,46.87086,1657948303.0,0.409209,-30.00029,136,8,-4.194744e-07,-30
676,46.94006,1657948303.0,0.478411,-30.00023,136,8,-4.173767e-07,-30
677,47.00928,1657948303.0,0.547629,-30.00039,136,8,-4.180427e-07,-30
678,47.07849,1657948303.0,0.616846,-30.0003,136,8,-4.182174e-07,-30
679,47.14771,1657948303.0,0.686058,-30.00026,136,8,-4.166603e-07,-30
680,47.21691,1657948303.0,0.755262,-30.00033,136,8,-4.175758e-07,-30
681,47.28613,1657948303.0,0.824484,-30.00027,136,8,-4.193419e-07,-30
682,47.35533,1657948303.0,0.893683,-30.00032,136,8,-4.169803e-07,-30
683,47.42455,1657948303.0,0.962905,-30.00035,136,8,-4.206335e-07,-30
684,47.49376,1657948304.0,0.0321121,-30.00031,136,8,-4.186984e-07,-30
685,47.56298,1657948304.0,0.101332,-30.00025,136,8,-4.176869e-07,-30
686,47.63219,1657948304.0,0.170543,-30.00026,136,8,-4.190966e-07,-30
687,47.7014,1657948304.0,0.239754,-30.00031,136,8,-4.178902e-07,-30
688,47.77061,1657948304.0,0.308965,-30.00043,136,8,-4.201923e-07,-30
689,47.83982,1657948304.0,0.378167,-30.00042,136,8,-4.177894e-07,-30
690,47.90904,1657948304.0,0.447394,-30.00036,136,8,-4.188076e-07,-30
691,47.97824,1657948304.0,0.516595,-30.00041,136,8,-4.177307e-07,-30
692,48.04746,1657948304.0,0.585816,-30.00035,136,8,-4.166381e-07,-30
693,48.11668,1657948304.0,0.655032,-30.0004,136,8,-4.172715e-07,-30
694,48.18589,1657948304.0,0.724246,-30.00041,136,8,-4.175753e-07,-30
695,48.2551,1657948304.0,0.793451,-30.00033,136,8,-4.181088e-07,-30
696,48.32432,1657948304.0,0.862668,-30.00037,136,8,-4.180793e-07,-30
697,48.39352,1657948304.0,0.931873,-30.00037,136,8,-4.196418e-07,-30
698,48.46273,1657948305.0,0.0010835,-30.00038,136,8,-4.180932e-07,-30
699,48.53194,1657948305.0,0.0702934,-30.00024,136,8,-4.164189e-07,-30
700,48.60116,1657948305.0,0.139511,-30.0003,136,8,-4.171149e-07,-30
701,48.67039,1657948305.0,0.208739,-30.00039,136,8,-4.183571e-07,-30
702,48.73959,1657948305.0,0.277943,-30.00031,136,8,-4.173995e-07,-30
703,48.80881,1657948305.0,0.347163,-30.0003,136,8,-4.167844e-07,-30
704,48.87801,1657948305.0,0.416364,-30.0004,136,8,-4.169621e-07,-30
705,48.94722,1657948305.0,0.485574,-30.00043,136,8,-4.180942e-07,-30
706,49.01645,1657948305.0,0.554803,-30.00031,136,8,-4.172732e-07,-30
707,49.08567,1657948305.0,0.624018,-30.00033,136,8,-4.185495e-07,-30
708,49.15487,1657948305.0,0.693223,-30.00043,136,8,-4.18993e-07,-30
709,49.22409,1657948305.0,0.762436,-30.00039,136,8,-4.179969e-07,-30
710,49.2933,1657948305.0,0.831652,-30.00041,136,8,-4.172314e-07,-30
711,49.36252,1657948305.0,0.900867,-30.00031,136,8,-4.167588e-07,-30
712,49.43173,1657948305.0,0.970078,-30.00037,136,8,-4.158112e-07,-30
713,49.50094,1657948306.0,0.0392892,-30.00037,136,8,-4.18821e-07,-30
714,49.57016,1657948306.0,0.108507,-30.00034,136,8,-4.175295e-07,-30
715,49.63936,1657948306.0,0.177715,-30.0003,136,8,-4.156931e-07,-30
716,49.70858,1657948306.0,0.246928,-30.00037,136,8,-4.183449e-07,-30
717,49.77779,1657948306.0,0.316145,-30.00029,136,8,-4.179813e-07,-30
718,49.847,1657948306.0,0.385355,-30.00038,136,8,-4.170689e-07,-30
719,49.91621,1657948306.0,0.454558,-30.00031,136,8,-4.18186e-07,-30
720,49.98542,1657948306.0,0.523774,-30.00028,136,8,-4.162435e-07,-30
721,50.05464,1657948306.0,0.592994,-30.00031,136,8,-4.190453e-07,-30
722,50.12384,1657948306.0,0.662195,-30.00029,136,8,-4.184195e-07,-30
723,50.19304,1657948306.0,0.731394,-30.0003,136,8,-4.174931e-07,-30
724,50.26226,1657948306.0,0.800609,-30.00041,136,8,-4.168762e-07,-30
725,50.33147,1657948306.0,0.869824,-30.00027,136,8,-4.175964e-07,-30
726,50.40065,1657948306.0,0.939003,-30.00037,136,8,-4.189101e-07,-30
727,50.46988,1657948307.0,0.00822938,-30.00036,136,8,-4.198301e-07,-30
728,50.5391,1657948307.0,0.0774501,-30.00037,136,8,-4.18573e-07,-30
729,50.60832,1657948307.0,0.146667,-30.00035,136,8,-4.170546e-07,-30
730,50.67751,1657948307.0,0.215857,-30.00037,136,8,-4.188003e-07,-30
731,50.74672,1657948307.0,0.285069,-30.00041,136,8,-4.178182e-07,-30
