,REL,SEC,FRAC,SOUR,SOURSTAT,STAT,READ,VOLTAGE
0,0.0,1657950355.0,0.187051,-30.00074,136,8,-5.053051e-07,-30
1,0.2221615,1657950355.0,0.409213,-30.00032,136,8,-4.743365e-07,-30
2,0.2913762,1657950355.0,0.478427,-30.00013,136,8,-4.658519e-07,-30
3,0.3605756,1657950355.0,0.547627,-30.00022,136,8,-4.639163e-07,-30
4,0.4297795,1657950355.0,0.616831,-30.00023,136,8,-4.601258e-07,-30
5,0.4989903,1657950355.0,0.686041,-30.00024,136,8,-4.57594e-07,-30
6,0.5681959,1657950355.0,0.755247,-30.00023,136,8,-4.55566e-07,-30
7,0.6374093,1657950355.0,0.82446,-30.00022,136,8,-4.530977e-07,-30
8,0.7066345,1657950355.0,0.893685,-30.00024,136,8,-4.52647e-07,-30
9,0.7758374,1657950355.0,0.962888,-30.00008,136,8,-4.506275e-07,-30
10,0.8450553,1657950356.0,0.0321063,-30.00018,136,8,-4.504846e-07,-30
11,0.9142661,1657950356.0,0.101317,-30.00022,136,8,-4.502815e-07,-30
12,0.9834692,1657950356.0,0.17052,-30.00017,136,8,-4.483672e-07,-30
13,1.052695,1657950356.0,0.239746,-30.00019,136,8,-4.468667e-07,-30
14,1.121912,1657950356.0,0.308963,-30.00012,136,8,-4.465913e-07,-30
15,1.191112,1657950356.0,0.378163,-30.00021,136,8,-4.464576e-07,-30
16,1.260312,1657950356.0,0.447363,-30.00012,136,8,-4.445707e-07,-30
17,1.329516,1657950356.0,0.516567,-30.00018,136,8,-4.452423e-07,-30
18,1.398732,1657950356.0,0.585783,-30.0002,136,8,-4.44359e-07,-30
19,1.467949,1657950356.0,0.655,-30.0003,136,8,-4.428135e-07,-30
20,1.537157,1657950356.0,0.724208,-30.00034,136,8,-4.416663e-07,-30
21,1.606378,1657950356.0,0.793429,-30.00025,136,8,-4.426533e-07,-30
22,1.675596,1657950356.0,0.862647,-30.00019,136,8,-4.417136e-07,-30
23,1.74481,1657950356.0,0.931861,-30.00019,136,8,-4.41628e-07,-30
24,1.814029,1657950357.0,0.00108006,-30.00008,136,8,-4.402622e-07,-30
25,1.88324,1657950357.0,0.070291,-30.00022,136,8,-4.417287e-07,-30
26,1.952453,1657950357.0,0.139504,-30.00022,136,8,-4.420642e-07,-30
27,2.021671,1657950357.0,0.208722,-30.00018,136,8,-4.404677e-07,-30
28,2.090877,1657950357.0,0.277928,-30.0002,136,8,-4.419008e-07,-30
29,2.160093,1657950357.0,0.347144,-30.00016,136,8,-4.409283e-07,-30
30,2.229301,1657950357.0,0.416352,-30.00019,136,8,-4.394066e-07,-30
31,2.298518,1657950357.0,0.485569,-30.00031,136,8,-4.399832e-07,-30
32,2.367737,1657950357.0,0.554788,-30.00019,136,8,-4.405881e-07,-30
33,2.436954,1657950357.0,0.624005,-30.00022,136,8,-4.374872e-07,-30
34,2.506172,1657950357.0,0.693223,-30.00015,136,8,-4.396117e-07,-30
35,2.575391,1657950357.0,0.762442,-30.0002,136,8,-4.399052e-07,-30
36,2.644594,1657950357.0,0.831645,-30.00019,136,8,-4.386508e-07,-30
37,2.713799,1657950357.0,0.90085,-30.00016,136,8,-4.390479e-07,-30
38,2.783015,1657950357.0,0.970066,-30.00025,136,8,-4.390191e-07,-30
39,2.852223,1657950358.0,0.0392742,-30.00025,136,8,-4.372827e-07,-30
40,2.921425,1657950358.0,0.108476,-30.00022,136,8,-4.382188e-07,-30
41,2.990648,1657950358.0,0.177699,-30.00014,136,8,-4.37349e-07,-30
42,3.059853,1657950358.0,0.246904,-30.00023,136,8,-4.385967e-07,-30
43,3.129074,1657950358.0,0.316125,-30.0002,136,8,-4.36035e-07,-30
44,3.198286,1657950358.0,0.385337,-30.00027,136,8,-4.381498e-07,-30
45,3.267494,1657950358.0,0.454545,-30.00022,136,8,-4.353359e-07,-30
46,3.336705,1657950358.0,0.523756,-30.0002,136,8,-4.360189e-07,-30
47,3.405906,1657950358.0,0.592957,-30.00019,136,8,-4.36471e-07,-30
48,3.475119,1657950358.0,0.66217,-30.00023,136,8,-4.360666e-07,-30
49,3.544328,1657950358.0,0.731379,-30.00019,136,8,-4.355545e-07,-30
50,3.61353,1657950358.0,0.800581,-30.00028,136,8,-4.360388e-07,-30
51,3.682748,1657950358.0,0.869799,-30.00022,136,8,-4.358081e-07,-30
52,3.751953,1657950358.0,0.939004,-30.00025,136,8,-4.361002e-07,-30
53,3.821177,1657950359.0,0.00822778,-30.0002,136,8,-4.370748e-07,-30
54,3.89039,1657950359.0,0.0774415,-30.00018,136,8,-4.375811e-07,-30
55,3.959607,1657950359.0,0.146658,-30.00019,136,8,-4.358542e-07,-30
56,4.028811,1657950359.0,0.215862,-30.00022,136,8,-4.368648e-07,-30
57,4.098015,1657950359.0,0.285066,-30.00019,136,8,-4.359604e-07,-30
58,4.167233,1657950359.0,0.354284,-30.00032,136,8,-4.349312e-07,-30
59,4.236453,1657950359.0,0.423504,-30.0001,136,8,-4.335759e-07,-30
60,4.305678,1657950359.0,0.492729,-30.00018,136,8,-4.350086e-07,-30
61,4.374898,1657950359.0,0.561949,-30.00021,136,8,-4.35818e-07,-30
62,4.44411,1657950359.0,0.631161,-30.00017,136,8,-4.355752e-07,-30
63,4.51332,1657950359.0,0.700371,-30.00028,136,8,-4.337414e-07,-30
64,4.582531,1657950359.0,0.769582,-30.0002,136,8,-4.349068e-07,-30
65,4.651759,1657950359.0,0.83881,-30.00027,136,8,-4.340683e-07,-30
66,4.720968,1657950359.0,0.908019,-30.00031,136,8,-4.33823e-07,-30
67,4.790186,1657950359.0,0.977237,-30.00023,136,8,-4.341059e-07,-30
68,4.859412,1657950360.0,0.0464625,-30.00019,136,8,-4.339903e-07,-30
69,4.928617,1657950360.0,0.115668,-30.00023,136,8,-4.341877e-07,-30
70,4.99783,1657950360.0,0.184881,-30.0003,136,8,-4.318785e-07,-30
71,5.06704,1657950360.0,0.254091,-30.00032,136,8,-4.338231e-07,-30
72,5.136255,1657950360.0,0.323306,-30.00031,136,8,-4.331191e-07,-30
73,5.205467,1657950360.0,0.392518,-30.00028,136,8,-4.332367e-07,-30
74,5.274692,1657950360.0,0.461743,-30.00024,136,8,-4.350873e-07,-30
75,5.343904,1657950360.0,0.530955,-30.00019,136,8,-4.327255e-07,-30
76,5.413122,1657950360.0,0.600173,-30.00023,136,8,-4.318647e-07,-30
77,5.482336,1657950360.0,0.669387,-30.00022,136,8,-4.339643e-07,-30
78,5.551544,1657950360.0,0.738595,-30.00025,136,8,-4.327769e-07,-30
79,5.620768,1657950360.0,0.807819,-30.00017,136,8,-4.318058e-07,-30
80,5.689984,1657950360.0,0.877035,-30.00028,136,8,-4.33454e-07,-30
81,5.759197,1657950360.0,0.946248,-30.00018,136,8,-4.335687e-07,-30
82,5.828398,1657950361.0,0.0154488,-30.00012,136,8,-4.323023e-07,-30
83,5.89761,1657950361.0,0.0846608,-30.00018,136,8,-4.355161e-07,-30
84,5.966811,1657950361.0,0.153862,-30.0002,136,8,-4.32283e-07,-30
85,6.036027,1657950361.0,0.223078,-30.00014,136,8,-4.328457e-07,-30
86,6.105234,1657950361.0,0.292285,-30.00028,136,8,-4.318543e-07,-30
87,6.174448,1657950361.0,0.361499,-30.00016,136,8,-4.317435e-07,-30
88,6.243672,1657950361.0,0.430723,-30.00028,136,8,-4.329826e-07,-30
89,6.312877,1657950361.0,0.499928,-30.00023,136,8,-4.312014e-07,-30
90,6.382081,1657950361.0,0.569132,-30.00031,136,8,-4.325794e-07,-30
91,6.45129,1657950361.0,0.638341,-30.00024,136,8,-4.316779e-07,-30
92,6.520503,1657950361.0,0.707554,-30.00019,136,8,-4.318003e-07,-30
93,6.589712,1657950361.0,0.776763,-30.00024,136,8,-4.333624e-07,-30
94,6.658918,1657950361.0,0.845969,-30.00023,136,8,-4.324027e-07,-30
95,6.728132,1657950361.0,0.915183,-30.00036,136,8,-4.324116e-07,-30
96,6.797334,1657950361.0,0.984385,-30.00029,136,8,-4.319075e-07,-30
97,6.866539,1657950362.0,0.0535904,-30.00026,136,8,-4.310271e-07,-30
98,6.935754,1657950362.0,0.122805,-30.00028,136,8,-4.315597e-07,-30
99,7.004958,1657950362.0,0.192009,-30.00032,136,8,-4.302787e-07,-30
100,7.07416,1657950362.0,0.261211,-30.0003,136,8,-4.319286e-07,-30
101,7.143361,1657950362.0,0.330412,-30.00023,136,8,-4.306291e-07,-30
102,7.212589,1657950362.0,0.39964,-30.00025,136,8,-4.292679e-07,-30
103,7.281792,1657950362.0,0.468843,-30.00028,136,8,-4.322634e-07,-30
104,7.350996,1657950362.0,0.538047,-30.00029,136,8,-4.311415e-07,-30
105,7.420216,1657950362.0,0.607267,-30.00016,136,8,-4.290742e-07,-30
106,7.489437,1657950362.0,0.676488,-30.00026,136,8,-4.302266e-07,-30
107,7.558645,1657950362.0,0.745696,-30.0002,136,8,-4.310251e-07,-30
108,7.627852,1657950362.0,0.814903,-30.0002,136,8,-4.325603e-07,-30
109,7.697066,1657950362.0,0.884117,-30.00027,136,8,-4.313681e-07,-30
110,7.766275,1657950362.0,0.953326,-30.00033,136,8,-4.303813e-07,-30
111,7.835479,1657950363.0,0.0225296,-30.00031,136,8,-4.306513e-07,-30
112,7.904707,1657950363.0,0.0917575,-30.00035,136,8,-4.301154e-07,-30
113,7.973915,1657950363.0,0.160966,-30.00029,136,8,-4.315406e-07,-30
114,8.04313,1657950363.0,0.230181,-30.00034,136,8,-4.300126e-07,-30
115,8.11234,1657950363.0,0.299391,-30.00031,136,8,-4.310101e-07,-30
116,8.181547,1657950363.0,0.368598,-30.00028,136,8,-4.323076e-07,-30
117,8.250777,1657950363.0,0.437828,-30.00029,136,8,-4.298997e-07,-30
118,8.319998,1657950363.0,0.507049,-30.00032,136,8,-4.300566e-07,-30
119,8.389212,1657950363.0,0.576262,-30.00034,136,8,-4.297117e-07,-30
120,8.458414,1657950363.0,0.645465,-30.00024,136,8,-4.288621e-07,-30
121,8.527616,1657950363.0,0.714667,-30.00023,136,8,-4.294494e-07,-30
122,8.596827,1657950363.0,0.783878,-30.00028,136,8,-4.30894e-07,-30
123,8.666035,1657950363.0,0.853086,-30.00021,136,8,-4.322689e-07,-30
124,8.735237,1657950363.0,0.922288,-30.00026,136,8,-4.315371e-07,-30
125,8.804453,1657950363.0,0.991504,-30.00037,136,8,-4.312275e-07,-30
126,8.873668,1657950364.0,0.0607192,-30.00035,136,8,-4.304858e-07,-30
127,8.942883,1657950364.0,0.129934,-30.00026,136,8,-4.292624e-07,-30
128,9.012082,1657950364.0,0.199133,-30.00028,136,8,-4.315536e-07,-30
129,9.081293,1657950364.0,0.268344,-30.0003,136,8,-4.29123e-07,-30
130,9.1505,1657950364.0,0.337551,-30.00029,136,8,-4.304373e-07,-30
131,9.219713,1657950364.0,0.406764,-30.00035,136,8,-4.305708e-07,-30
132,9.288924,1657950364.0,0.475975,-30.0002,136,8,-4.31208e-07,-30
133,9.358136,1657950364.0,0.545187,-30.00031,136,8,-4.299916e-07,-30
134,9.427343,1657950364.0,0.614394,-30.00026,136,8,-4.290823e-07,-30
135,9.496558,1657950364.0,0.683609,-30.00029,136,8,-4.306217e-07,-30
136,9.565782,1657950364.0,0.752833,-30.00029,136,8,-4.302075e-07,-30
137,9.634986,1657950364.0,0.822037,-30.0002,136,8,-4.295904e-07,-30
138,9.704188,1657950364.0,0.891239,-30.00031,136,8,-4.295103e-07,-30
139,9.773398,1657950364.0,0.960449,-30.00031,136,8,-4.292994e-07,-30
140,9.842599,1657950365.0,0.0296498,-30.00027,136,8,-4.293115e-07,-30
141,9.911811,1657950365.0,0.0988617,-30.00029,136,8,-4.288045e-07,-30
142,9.981014,1657950365.0,0.168065,-30.00033,136,8,-4.302186e-07,-30
143,10.05024,1657950365.0,0.237287,-30.00029,136,8,-4.277721e-07,-30
144,10.11945,1657950365.0,0.306501,-30.00029,136,8,-4.297578e-07,-30
145,10.18867,1657950365.0,0.375721,-30.00033,136,8,-4.290661e-07,-30
146,10.25788,1657950365.0,0.444934,-30.00027,136,8,-4.307395e-07,-30
147,10.3271,1657950365.0,0.514147,-30.00031,136,8,-4.286145e-07,-30
148,10.39631,1657950365.0,0.583363,-30.00033,136,8,-4.297968e-07,-30
149,10.46553,1657950365.0,0.652584,-30.00023,136,8,-4.291726e-07,-30
150,10.53474,1657950365.0,0.721796,-30.00024,136,8,-4.276623e-07,-30
151,10.60395,1657950365.0,0.791006,-30.00038,136,8,-4.304802e-07,-30
152,10.67317,1657950365.0,0.860223,-30.00035,136,8,-4.290135e-07,-30
153,10.74239,1657950365.0,0.929444,-30.00031,136,8,-4.269503e-07,-30
154,10.8116,1657950365.0,0.998655,-30.00027,136,8,-4.282192e-07,-30
155,10.88083,1657950366.0,0.0678816,-30.00036,136,8,-4.282083e-07,-30
156,10.95005,1657950366.0,0.137098,-30.00028,136,8,-4.266889e-07,-30
157,11.01925,1657950366.0,0.206305,-30.00023,136,8,-4.310663e-07,-30
158,11.08847,1657950366.0,0.275516,-30.00027,136,8,-4.279834e-07,-30
159,11.15767,1657950366.0,0.344717,-30.00031,136,8,-4.286028e-07,-30
160,11.22689,1657950366.0,0.413937,-30.00023,136,8,-4.279723e-07,-30
161,11.2961,1657950366.0,0.48315,-30.0003,136,8,-4.275138e-07,-30
162,11.36531,1657950366.0,0.552366,-30.00031,136,8,-4.289334e-07,-30
163,11.43452,1657950366.0,0.621572,-30.00028,136,8,-4.277049e-07,-30
164,11.50375,1657950366.0,0.6908,-30.0003,136,8,-4.281675e-07,-30
165,11.57297,1657950366.0,0.760021,-30.00025,136,8,-4.288173e-07,-30
166,11.64218,1657950366.0,0.829227,-30.00033,136,8,-4.273875e-07,-30
167,11.7114,1657950366.0,0.898448,-30.00037,136,8,-4.310592e-07,-30
168,11.78061,1657950366.0,0.967663,-30.00044,136,8,-4.292055e-07,-30
169,11.84983,1657950367.0,0.0368811,-30.00026,136,8,-4.290061e-07,-30
170,11.91905,1657950367.0,0.106102,-30.00031,136,8,-4.289371e-07,-30
171,11.98826,1657950367.0,0.175308,-30.00032,136,8,-4.287451e-07,-30
172,12.05746,1657950367.0,0.244513,-30.00022,136,8,-4.300233e-07,-30
173,12.12666,1657950367.0,0.313716,-30.00033,136,8,-4.276606e-07,-30
174,12.19587,1657950367.0,0.382924,-30.00028,136,8,-4.259367e-07,-30
175,12.26508,1657950367.0,0.452132,-30.00032,136,8,-4.264473e-07,-30
176,12.33429,1657950367.0,0.52134,-30.00033,136,8,-4.279029e-07,-30
177,12.40349,1657950367.0,0.590541,-30.00031,136,8,-4.272272e-07,-30
178,12.47269,1657950367.0,0.659743,-30.00035,136,8,-4.276591e-07,-30
179,12.5419,1657950367.0,0.728954,-30.00029,136,8,-4.313487e-07,-30
180,12.61111,1657950367.0,0.798162,-30.00035,136,8,-4.287274e-07,-30
181,12.68033,1657950367.0,0.867381,-30.00033,136,8,-4.268696e-07,-30
182,12.74955,1657950367.0,0.9366,-30.00022,136,8,-4.28441e-07,-30
183,12.81877,1657950368.0,0.00581664,-30.00029,136,8,-4.297308e-07,-30
184,12.88798,1657950368.0,0.0750261,-30.00023,136,8,-4.281763e-07,-30
185,12.9572,1657950368.0,0.144247,-30.00026,136,8,-4.283845e-07,-30
186,13.02641,1657950368.0,0.213462,-30.00031,136,8,-4.296798e-07,-30
187,13.09563,1657950368.0,0.282676,-30.00023,136,8,-4.279269e-07,-30
188,13.16485,1657950368.0,0.351906,-30.00027,136,8,-4.261041e-07,-30
189,13.23407,1657950368.0,0.421121,-30.00038,136,8,-4.260395e-07,-30
190,13.30328,1657950368.0,0.490328,-30.00029,136,8,-4.261499e-07,-30
191,13.3725,1657950368.0,0.55955,-30.00031,136,8,-4.277481e-07,-30
192,13.44172,1657950368.0,0.628766,-30.00029,136,8,-4.281645e-07,-30
193,13.51093,1657950368.0,0.697983,-30.00033,136,8,-4.277526e-07,-30
194,13.58015,1657950368.0,0.767197,-30.00022,136,8,-4.271798e-07,-30
195,13.64936,1657950368.0,0.836414,-30.00028,136,8,-4.262224e-07,-30
196,13.71858,1657950368.0,0.90563,-30.00025,136,8,-4.296016e-07,-30
197,13.78781,1657950368.0,0.974861,-30.00036,136,8,-4.288978e-07,-30
198,13.85702,1657950369.0,0.0440733,-30.0003,136,8,-4.284764e-07,-30
199,13.92624,1657950369.0,0.11329,-30.00034,136,8,-4.268094e-07,-30
200,13.99545,1657950369.0,0.182499,-30.00033,136,8,-4.273921e-07,-30
201,14.06466,1657950369.0,0.251711,-30.00032,136,8,-4.252704e-07,-30
202,14.13388,1657950369.0,0.320926,-30.00032,136,8,-4.289498e-07,-30
203,14.20309,1657950369.0,0.390144,-30.00023,136,8,-4.279891e-07,-30
204,14.2723,1657950369.0,0.459347,-30.00028,136,8,-4.264989e-07,-30
205,14.34151,1657950369.0,0.528565,-30.00028,136,8,-4.273406e-07,-30
206,14.41073,1657950369.0,0.597778,-30.00028,136,8,-4.278073e-07,-30
207,14.47994,1657950369.0,0.666989,-30.00026,136,8,-4.267766e-07,-30
208,14.54916,1657950369.0,0.736209,-30.00028,136,8,-4.265762e-07,-30
209,14.61838,1657950369.0,0.80543,-30.00033,136,8,-4.271269e-07,-30
210,14.6876,1657950369.0,0.874655,-30.00033,136,8,-4.270106e-07,-30
211,14.75683,1657950369.0,0.943876,-30.0003,136,8,-4.269836e-07,-30
212,14.82604,1657950370.0,0.0130946,-30.00022,136,8,-4.265941e-07,-30
213,14.89527,1657950370.0,0.0823165,-30.00029,136,8,-4.267745e-07,-30
214,14.96448,1657950370.0,0.151533,-30.00041,136,8,-4.248222e-07,-30
215,15.03369,1657950370.0,0.22074,-30.00042,136,8,-4.269766e-07,-30
216,15.1029,1657950370.0,0.289955,-30.00034,136,8,-4.263543e-07,-30
217,15.17211,1657950370.0,0.359166,-30.00033,136,8,-4.282776e-07,-30
218,15.24132,1657950370.0,0.428368,-30.00033,136,8,-4.269137e-07,-30
219,15.31052,1657950370.0,0.497574,-30.00031,136,8,-4.266412e-07,-30
220,15.37974,1657950370.0,0.566787,-30.00034,136,8,-4.261566e-07,-30
221,15.44895,1657950370.0,0.636,-30.00032,136,8,-4.263895e-07,-30
222,15.51816,1657950370.0,0.705216,-30.00038,136,8,-4.27024e-07,-30
223,15.58737,1657950370.0,0.774422,-30.0003,136,8,-4.267821e-07,-30
224,15.65659,1657950370.0,0.84364,-30.00026,136,8,-4.263198e-07,-30
225,15.72581,1657950370.0,0.912861,-30.00028,136,8,-4.257049e-07,-30
226,15.79501,1657950370.0,0.982063,-30.00025,136,8,-4.266779e-07,-30
227,15.86422,1657950371.0,0.0512715,-30.00034,136,8,-4.276478e-07,-30
228,15.93344,1657950371.0,0.120487,-30.00032,136,8,-4.27036e-07,-30
229,16.00265,1657950371.0,0.189705,-30.00037,136,8,-4.280098e-07,-30
230,16.07186,1657950371.0,0.258913,-30.00023,136,8,-4.262046e-07,-30
231,16.14107,1657950371.0,0.32812,-30.00025,136,8,-4.264841e-07,-30
232,16.21028,1657950371.0,0.397328,-30.00024,136,8,-4.25561e-07,-30
233,16.27949,1657950371.0,0.466543,-30.00031,136,8,-4.260802e-07,-30
234,16.3487,1657950371.0,0.535755,-30.00035,136,8,-4.273584e-07,-30
235,16.41792,1657950371.0,0.604967,-30.00039,136,8,-4.261152e-07,-30
236,16.48713,1657950371.0,0.674182,-30.0003,136,8,-4.255306e-07,-30
237,16.55635,1657950371.0,0.743399,-30.00024,136,8,-4.25511e-07,-30
238,16.62556,1657950371.0,0.812606,-30.00024,136,8,-4.261135e-07,-30
239,16.69476,1657950371.0,0.881815,-30.00021,136,8,-4.254577e-07,-30
240,16.76398,1657950371.0,0.951026,-30.00026,136,8,-4.247587e-07,-30
241,16.83318,1657950372.0,0.0202344,-30.00035,136,8,-4.276657e-07,-30
242,16.90239,1657950372.0,0.0894419,-30.00037,136,8,-4.262089e-07,-30
243,16.9716,1657950372.0,0.158647,-30.00032,136,8,-4.271515e-07,-30
244,17.04081,1657950372.0,0.22786,-30.00029,136,8,-4.251661e-07,-30
245,17.11002,1657950372.0,0.29707,-30.00028,136,8,-4.25619e-07,-30
246,17.17922,1657950372.0,0.366274,-30.00031,136,8,-4.250665e-07,-30
247,17.24843,1657950372.0,0.435482,-30.00028,136,8,-4.268213e-07,-30
248,17.31765,1657950372.0,0.504698,-30.00035,136,8,-4.26198e-07,-30
249,17.38687,1657950372.0,0.573922,-30.00028,136,8,-4.263369e-07,-30
250,17.45608,1657950372.0,0.643127,-30.0003,136,8,-4.251089e-07,-30
251,17.52529,1657950372.0,0.712344,-30.00035,136,8,-4.255714e-07,-30
252,17.59451,1657950372.0,0.781559,-30.00035,136,8,-4.267088e-07,-30
253,17.66372,1657950372.0,0.850774,-30.00032,136,8,-4.261209e-07,-30
254,17.73293,1657950372.0,0.919979,-30.00033,136,8,-4.244198e-07,-30
255,17.80215,1657950372.0,0.989197,-30.00025,136,8,-4.218363e-07,-30
256,17.87135,1657950373.0,0.058399,-30.00035,136,8,-4.257341e-07,-30
257,17.94056,1657950373.0,0.127609,-30.00029,136,8,-4.265085e-07,-30
258,18.00978,1657950373.0,0.196834,-30.00027,136,8,-4.257865e-07,-30
259,18.079,1657950373.0,0.266054,-30.00024,136,8,-4.265163e-07,-30
260,18.14821,1657950373.0,0.335265,-30.0003,136,8,-4.264899e-07,-30
261,18.21742,1657950373.0,0.404468,-30.0004,136,8,-4.251455e-07,-30
262,18.28663,1657950373.0,0.473682,-30.00024,136,8,-4.24644e-07,-30
263,18.35585,1657950373.0,0.542905,-30.0003,136,8,-4.270027e-07,-30
264,18.42507,1657950373.0,0.612117,-30.00032,136,8,-4.234645e-07,-30
265,18.49428,1657950373.0,0.681334,-30.00031,136,8,-4.257479e-07,-30
266,18.56349,1657950373.0,0.750545,-30.00034,136,8,-4.261373e-07,-30
267,18.6327,1657950373.0,0.819753,-30.0003,136,8,-4.24046e-07,-30
268,18.7019,1657950373.0,0.888953,-30.00025,136,8,-4.27011e-07,-30
269,18.77111,1657950373.0,0.958158,-30.00027,136,8,-4.261678e-07,-30
270,18.84033,1657950374.0,0.0273775,-30.00016,136,8,-4.262018e-07,-30
271,18.90953,1657950374.0,0.0965803,-30.00029,136,8,-4.253216e-07,-30
272,18.97875,1657950374.0,0.165796,-30.00032,136,8,-4.265527e-07,-30
273,19.04795,1657950374.0,0.235005,-30.00038,136,8,-4.254834e-07,-30
274,19.11717,1657950374.0,0.304219,-30.0004,136,8,-4.256479e-07,-30
275,19.18638,1657950374.0,0.373428,-30.00032,136,8,-4.266846e-07,-30
276,19.25558,1657950374.0,0.442628,-30.00025,136,8,-4.250442e-07,-30
277,19.32481,1657950374.0,0.511857,-30.00028,136,8,-4.257901e-07,-30
278,19.39402,1657950374.0,0.581072,-30.00034,136,8,-4.245282e-07,-30
279,19.46324,1657950374.0,0.650288,-30.00028,136,8,-4.251176e-07,-30
280,19.53246,1657950374.0,0.71951,-30.00034,136,8,-4.230388e-07,-30
281,19.60167,1657950374.0,0.788717,-30.00033,136,8,-4.239895e-07,-30
282,19.67088,1657950374.0,0.857933,-30.00034,136,8,-4.231833e-07,-30
283,19.74009,1657950374.0,0.92714,-30.0003,136,8,-4.238125e-07,-30
284,19.8093,1657950374.0,0.996348,-30.00036,136,8,-4.247368e-07,-30
285,19.87851,1657950375.0,0.0655583,-30.00031,136,8,-4.236174e-07,-30
286,19.94772,1657950375.0,0.134767,-30.00034,136,8,-4.254035e-07,-30
287,20.01692,1657950375.0,0.203968,-30.00033,136,8,-4.244157e-07,-30
288,20.08612,1657950375.0,0.273175,-30.00033,136,8,-4.259539e-07,-30
289,20.15533,1657950375.0,0.342384,-30.00038,136,8,-4.251117e-07,-30
290,20.22454,1657950375.0,0.411595,-30.00047,136,8,-4.259777e-07,-30
291,20.29376,1657950375.0,0.48081,-30.00029,136,8,-4.25884e-07,-30
292,20.36297,1657950375.0,0.550019,-30.00036,136,8,-4.253685e-07,-30
293,20.43218,1657950375.0,0.619226,-30.00024,136,8,-4.23281e-07,-30
294,20.50137,1657950375.0,0.688424,-30.00019,136,8,-4.240408e-07,-30
295,20.57057,1657950375.0,0.757626,-30.00032,136,8,-4.259318e-07,-30
296,20.63978,1657950375.0,0.826826,-30.00024,136,8,-4.243184e-07,-30
297,20.70899,1657950375.0,0.896042,-30.00023,136,8,-4.237034e-07,-30
298,20.77819,1657950375.0,0.965243,-30.00032,136,8,-4.23533e-07,-30
299,20.84739,1657950376.0,0.0344458,-30.00034,136,8,-4.231576e-07,-30
300,20.9166,1657950376.0,0.103649,-30.00024,136,8,-4.254791e-07,-30
301,20.98582,1657950376.0,0.172867,-30.0003,136,8,-4.229504e-07,-30
302,21.05503,1657950376.0,0.242081,-30.00026,136,8,-4.234839e-07,-30
303,21.12424,1657950376.0,0.311294,-30.00031,136,8,-4.221451e-07,-30
304,21.19346,1657950376.0,0.380509,-30.00034,136,8,-4.235247e-07,-30
305,21.26266,1657950376.0,0.449711,-30.00035,136,8,-4.230208e-07,-30
306,21.33188,1657950376.0,0.518928,-30.00028,136,8,-4.237527e-07,-30
307,21.40108,1657950376.0,0.588133,-30.00022,136,8,-4.233977e-07,-30
308,21.4703,1657950376.0,0.657351,-30.0003,136,8,-4.252739e-07,-30
309,21.5395,1657950376.0,0.726553,-30.00026,136,8,-4.244171e-07,-30
310,21.60873,1657950376.0,0.795783,-30.00027,136,8,-4.252205e-07,-30
311,21.67793,1657950376.0,0.864983,-30.00018,136,8,-4.257129e-07,-30
312,21.74714,1657950376.0,0.934191,-30.00019,136,8,-4.253657e-07,-30
313,21.81635,1657950377.0,0.00339744,-30.00025,136,8,-4.23083e-07,-30
314,21.88556,1657950377.0,0.0726076,-30.00016,136,8,-4.247576e-07,-30
315,21.95477,1657950377.0,0.141825,-30.00035,136,8,-4.264374e-07,-30
316,22.02398,1657950377.0,0.211032,-30.00033,136,8,-4.243024e-07,-30
317,22.09319,1657950377.0,0.280244,-30.00032,136,8,-4.24858e-07,-30
318,22.1624,1657950377.0,0.34945,-30.00041,136,8,-4.254816e-07,-30
319,22.23161,1657950377.0,0.418658,-30.00023,136,8,-4.260152e-07,-30
320,22.30083,1657950377.0,0.487886,-30.00023,136,8,-4.23863e-07,-30
321,22.37004,1657950377.0,0.55709,-30.00026,136,8,-4.235918e-07,-30
322,22.43925,1657950377.0,0.626303,-30.00025,136,8,-4.214178e-07,-30
323,22.50847,1657950377.0,0.695522,-30.00034,136,8,-4.23136e-07,-30
324,22.57768,1657950377.0,0.764731,-30.00024,136,8,-4.247762e-07,-30
325,22.64691,1657950377.0,0.833957,-30.0003,136,8,-4.231731e-07,-30
326,22.71611,1657950377.0,0.90316,-30.00028,136,8,-4.24654e-07,-30
327,22.78532,1657950377.0,0.972376,-30.0003,136,8,-4.230935e-07,-30
328,22.85452,1657950378.0,0.0415755,-30.00031,136,8,-4.234726e-07,-30
329,22.92373,1657950378.0,0.110785,-30.00026,136,8,-4.242273e-07,-30
330,22.99295,1657950378.0,0.179997,-30.00023,136,8,-4.231612e-07,-30
331,23.06215,1657950378.0,0.249199,-30.00026,136,8,-4.219001e-07,-30
332,23.13137,1657950378.0,0.318423,-30.0002,136,8,-4.217003e-07,-30
333,23.20057,1657950378.0,0.387625,-30.00019,136,8,-4.226675e-07,-30
334,23.26979,1657950378.0,0.456843,-30.00038,136,8,-4.236833e-07,-30
335,23.33901,1657950378.0,0.526065,-30.00038,136,8,-4.222098e-07,-30
336,23.40823,1657950378.0,0.59528,-30.00031,136,8,-4.253324e-07,-30
337,23.47744,1657950378.0,0.664493,-30.00025,136,8,-4.239554e-07,-30
338,23.54665,1657950378.0,0.7337,-30.00039,136,8,-4.232998e-07,-30
339,23.61586,1657950378.0,0.802912,-30.00029,136,8,-4.229223e-07,-30
340,23.68507,1657950378.0,0.872121,-30.00035,136,8,-4.23597e-07,-30
341,23.75427,1657950378.0,0.941324,-30.00036,136,8,-4.226075e-07,-30
342,23.82348,1657950379.0,0.0105271,-30.00028,136,8,-4.213907e-07,-30
343,23.89269,1657950379.0,0.0797428,-30.00032,136,8,-4.209293e-07,-30
344,23.96191,1657950379.0,0.148964,-30.00039,136,8,-4.229533e-07,-30
345,24.03111,1657950379.0,0.218166,-30.00028,136,8,-4.233764e-07,-30
346,24.10033,1657950379.0,0.287379,-30.00037,136,8,-4.237979e-07,-30
347,24.16955,1657950379.0,0.356597,-30.00031,136,8,-4.244296e-07,-30
348,24.23876,1657950379.0,0.42581,-30.00035,136,8,-4.23749e-07,-30
349,24.30796,1657950379.0,0.495011,-30.00025,136,8,-4.242375e-07,-30
350,24.37716,1657950379.0,0.564211,-30.00034,136,8,-4.237468e-07,-30
351,24.44637,1657950379.0,0.633419,-30.00035,136,8,-4.231983e-07,-30
352,24.51558,1657950379.0,0.70263,-30.00036,136,8,-4.229503e-07,-30
353,24.58479,1657950379.0,0.771842,-30.00045,136,8,-4.236383e-07,-30
354,24.65401,1657950379.0,0.841059,-30.00037,136,8,-4.228962e-07,-30
355,24.72322,1657950379.0,0.91027,-30.00046,136,8,-4.248371e-07,-30
356,24.79242,1657950379.0,0.979472,-30.00035,136,8,-4.240048e-07,-30
357,24.86163,1657950380.0,0.0486819,-30.00033,136,8,-4.238159e-07,-30
358,24.93085,1657950380.0,0.117903,-30.00032,136,8,-4.229133e-07,-30
359,25.00007,1657950380.0,0.187123,-30.00031,136,8,-4.229992e-07,-30
360,25.06927,1657950380.0,0.256324,-30.00025,136,8,-4.230394e-07,-30
361,25.13848,1657950380.0,0.325532,-30.00033,136,8,-4.203903e-07,-30
362,25.2077,1657950380.0,0.394747,-30.00029,136,8,-4.214203e-07,-30
363,25.2769,1657950380.0,0.463955,-30.00029,136,8,-4.237276e-07,-30
364,25.34612,1657950380.0,0.533174,-30.00034,136,8,-4.22603e-07,-30
365,25.41534,1657950380.0,0.602394,-30.00035,136,8,-4.205558e-07,-30
366,25.48454,1657950380.0,0.671595,-30.00021,136,8,-4.218394e-07,-30
367,25.55375,1657950380.0,0.740805,-30.00027,136,8,-4.234412e-07,-30
368,25.62297,1657950380.0,0.810023,-30.00026,136,8,-4.224971e-07,-30
369,25.69219,1657950380.0,0.879241,-30.00028,136,8,-4.216181e-07,-30
370,25.76141,1657950380.0,0.94846,-30.00025,136,8,-4.223877e-07,-30
371,25.83063,1657950381.0,0.0176786,-30.00022,136,8,-4.222688e-07,-30
372,25.89984,1657950381.0,0.0868955,-30.00016,136,8,-4.221091e-07,-30
373,25.96906,1657950381.0,0.156107,-30.00021,136,8,-4.226143e-07,-30
374,26.03826,1657950381.0,0.225311,-30.00029,136,8,-4.223736e-07,-30
375,26.10747,1657950381.0,0.294525,-30.00022,136,8,-4.232671e-07,-30
376,26.17669,1657950381.0,0.363736,-30.00022,136,8,-4.218467e-07,-30
377,26.24589,1657950381.0,0.432945,-30.00024,136,8,-4.227845e-07,-30
378,26.31511,1657950381.0,0.502161,-30.00023,136,8,-4.230933e-07,-30
379,26.38431,1657950381.0,0.571365,-30.00028,136,8,-4.219025e-07,-30
380,26.45353,1657950381.0,0.640578,-30.00018,136,8,-4.22481e-07,-30
381,26.52274,1657950381.0,0.709787,-30.0002,136,8,-4.213957e-07,-30
382,26.59196,1657950381.0,0.77901,-30.00025,136,8,-4.196516e-07,-30
383,26.66116,1657950381.0,0.848211,-30.00023,136,8,-4.229231e-07,-30
384,26.73038,1657950381.0,0.917428,-30.00019,136,8,-4.210302e-07,-30
385,26.79958,1657950381.0,0.986636,-30.00014,136,8,-4.236579e-07,-30
386,26.8688,1657950382.0,0.05585,-30.0001,136,8,-4.228376e-07,-30
387,26.93801,1657950382.0,0.12506,-30.0001,136,8,-4.219684e-07,-30
388,27.00722,1657950382.0,0.194272,-30.00017,136,8,-4.218109e-07,-30
389,27.07643,1657950382.0,0.263478,-30.00011,136,8,-4.223973e-07,-30
390,27.14564,1657950382.0,0.332694,-30.00017,136,8,-4.239205e-07,-30
391,27.21486,1657950382.0,0.401914,-30.00022,136,8,-4.221517e-07,-30
392,27.28408,1657950382.0,0.471129,-30.00022,136,8,-4.228968e-07,-30
393,27.35328,1657950382.0,0.540335,-30.00023,136,8,-4.212367e-07,-30
394,27.4225,1657950382.0,0.609552,-30.00016,136,8,-4.215417e-07,-30
395,27.49171,1657950382.0,0.678761,-30.0002,136,8,-4.200568e-07,-30
396,27.56092,1657950382.0,0.747968,-30.0002,136,8,-4.238248e-07,-30
397,27.63012,1657950382.0,0.817176,-30.00018,136,8,-4.206877e-07,-30
398,27.69933,1657950382.0,0.886383,-30.00024,136,8,-4.225147e-07,-30
399,27.76854,1657950382.0,0.955588,-30.00026,136,8,-4.220585e-07,-30
400,27.83775,1657950383.0,0.0248036,-30.00024,136,8,-4.22643e-07,-30
401,27.90696,1657950383.0,0.0940124,-30.00024,136,8,-4.230195e-07,-30
402,27.97617,1657950383.0,0.163226,-30.0003,136,8,-4.22343e-07,-30
403,28.04538,1657950383.0,0.232436,-30.00026,136,8,-4.215942e-07,-30
404,28.1146,1657950383.0,0.301648,-30.00017,136,8,-4.204159e-07,-30
405,28.18381,1657950383.0,0.370865,-30.00014,136,8,-4.208134e-07,-30
406,28.25302,1657950383.0,0.440066,-30.00022,136,8,-4.21487e-07,-30
407,28.32223,1657950383.0,0.509279,-30.0002,136,8,-4.208889e-07,-30
408,28.39145,1657950383.0,0.578497,-30.00024,136,8,-4.223685e-07,-30
409,28.46066,1657950383.0,0.647713,-30.00022,136,8,-4.214606e-07,-30
410,28.52988,1657950383.0,0.716933,-30.00027,136,8,-4.225573e-07,-30
411,28.5991,1657950383.0,0.786147,-30.00031,136,8,-4.235237e-07,-30
412,28.6683,1657950383.0,0.855348,-30.00039,136,8,-4.215638e-07,-30
413,28.73751,1657950383.0,0.924557,-30.00025,136,8,-4.217681e-07,-30
414,28.80673,1657950383.0,0.993776,-30.0002,136,8,-4.180442e-07,-30
415,28.87594,1657950384.0,0.0629872,-30.00019,136,8,-4.206428e-07,-30
416,28.94514,1657950384.0,0.132192,-30.00028,136,8,-4.226494e-07,-30
417,29.01434,1657950384.0,0.201396,-30.00029,136,8,-4.213918e-07,-30
418,29.08356,1657950384.0,0.27061,-30.00026,136,8,-4.234643e-07,-30
419,29.15276,1657950384.0,0.339815,-30.00023,136,8,-4.228477e-07,-30
420,29.22197,1657950384.0,0.409025,-30.00026,136,8,-4.19876e-07,-30
421,29.29119,1657950384.0,0.478244,-30.00025,136,8,-4.223675e-07,-30
422,29.36041,1657950384.0,0.547462,-30.0002,136,8,-4.212677e-07,-30
423,29.42961,1657950384.0,0.616663,-30.00029,136,8,-4.213298e-07,-30
424,29.49883,1657950384.0,0.685878,-30.00026,136,8,-4.204754e-07,-30
425,29.56804,1657950384.0,0.755095,-30.0002,136,8,-4.220745e-07,-30
426,29.63725,1657950384.0,0.8243,-30.00018,136,8,-4.218055e-07,-30
427,29.70646,1657950384.0,0.893511,-30.00018,136,8,-4.218904e-07,-30
428,29.77567,1657950384.0,0.962719,-30.00022,136,8,-4.216901e-07,-30
429,29.84487,1657950385.0,0.0319207,-30.00025,136,8,-4.20957e-07,-30
430,29.91409,1657950385.0,0.101145,-30.00017,136,8,-4.222481e-07,-30
431,29.98331,1657950385.0,0.17036,-30.0002,136,8,-4.220501e-07,-30
432,30.05251,1657950385.0,0.239563,-30.00022,136,8,-4.218205e-07,-30
433,30.12173,1657950385.0,0.308781,-30.00017,136,8,-4.207751e-07,-30
434,30.19095,1657950385.0,0.378002,-30.00027,136,8,-4.226382e-07,-30
435,30.26016,1657950385.0,0.447216,-30.00022,136,8,-4.210453e-07,-30
436,30.32938,1657950385.0,0.51643,-30.00024,136,8,-4.183902e-07,-30
437,30.39858,1657950385.0,0.585633,-30.0002,136,8,-4.196399e-07,-30
438,30.46778,1657950385.0,0.654836,-30.00024,136,8,-4.196601e-07,-30
439,30.537,1657950385.0,0.724053,-30.0003,136,8,-4.238147e-07,-30
440,30.60621,1657950385.0,0.793259,-30.00028,136,8,-4.219258e-07,-30
441,30.67542,1657950385.0,0.862471,-30.00028,136,8,-4.236792e-07,-30
442,30.74463,1657950385.0,0.931683,-30.00017,136,8,-4.228347e-07,-30
443,30.81384,1657950386.0,0.00088806,-30.00018,136,8,-4.207226e-07,-30
444,30.88306,1657950386.0,0.0701105,-30.0003,136,8,-4.220544e-07,-30
445,30.95227,1657950386.0,0.139324,-30.00023,136,8,-4.215363e-07,-30
446,31.02148,1657950386.0,0.208531,-30.00025,136,8,-4.2161e-07,-30
447,31.09069,1657950386.0,0.277744,-30.00039,136,8,-4.197468e-07,-30
448,31.15991,1657950386.0,0.346963,-30.00031,136,8,-4.217327e-07,-30
449,31.22912,1657950386.0,0.416167,-30.00027,136,8,-4.203674e-07,-30
450,31.29832,1657950386.0,0.485369,-30.00035,136,8,-4.197186e-07,-30
451,31.36752,1657950386.0,0.554567,-30.00031,136,8,-4.205798e-07,-30
452,31.43672,1657950386.0,0.623775,-30.00037,136,8,-4.182091e-07,-30
453,31.50594,1657950386.0,0.69299,-30.00041,136,8,-4.220422e-07,-30
454,31.57517,1657950386.0,0.762217,-30.00027,136,8,-4.216011e-07,-30
455,31.64437,1657950386.0,0.831421,-30.00031,136,8,-4.215285e-07,-30
456,31.71358,1657950386.0,0.900633,-30.00031,136,8,-4.219682e-07,-30
457,31.7828,1657950386.0,0.969847,-30.00037,136,8,-4.183138e-07,-30
458,31.85202,1657950387.0,0.0390671,-30.00033,136,8,-4.208292e-07,-30
459,31.92122,1657950387.0,0.108269,-30.00022,136,8,-4.218209e-07,-30
460,31.99043,1657950387.0,0.177481,-30.00029,136,8,-4.206126e-07,-30
461,32.05965,1657950387.0,0.2467,-30.00037,136,8,-4.202631e-07,-30
462,32.12886,1657950387.0,0.31591,-30.00035,136,8,-4.21514e-07,-30
463,32.19807,1657950387.0,0.38512,-30.00043,136,8,-4.213764e-07,-30
464,32.26727,1657950387.0,0.454321,-30.00029,136,8,-4.216038e-07,-30
465,32.33648,1657950387.0,0.523534,-30.0003,136,8,-4.20455e-07,-30
466,32.4057,1657950387.0,0.592747,-30.00028,136,8,-4.221251e-07,-30
467,32.47491,1657950387.0,0.661957,-30.00028,136,8,-4.222222e-07,-30
468,32.54412,1657950387.0,0.731172,-30.00027,136,8,-4.216742e-07,-30
469,32.61334,1657950387.0,0.800386,-30.00027,136,8,-4.194347e-07,-30
470,32.68255,1657950387.0,0.869602,-30.00037,136,8,-4.208514e-07,-30
471,32.75175,1657950387.0,0.938804,-30.00032,136,8,-4.216631e-07,-30
472,32.82098,1657950388.0,0.00802618,-30.00031,136,8,-4.211433e-07,-30
473,32.89019,1657950388.0,0.0772368,-30.00031,136,8,-4.213971e-07,-30
474,32.9594,1657950388.0,0.146454,-30.00032,136,8,-4.217193e-07,-30
475,33.02862,1657950388.0,0.215675,-30.00031,136,8,-4.20717e-07,-30
476,33.09785,1657950388.0,0.284899,-30.00036,136,8,-4.215044e-07,-30
477,33.16705,1657950388.0,0.354104,-30.00039,136,8,-4.223547e-07,-30
478,33.23627,1657950388.0,0.423321,-30.00027,136,8,-4.207751e-07,-30
479,33.30547,1657950388.0,0.492519,-30.00025,136,8,-4.191852e-07,-30
480,33.37467,1657950388.0,0.561718,-30.00032,136,8,-4.202075e-07,-30
481,33.44388,1657950388.0,0.630933,-30.00027,136,8,-4.206756e-07,-30
482,33.5131,1657950388.0,0.700153,-30.00023,136,8,-4.200292e-07,-30
483,33.58231,1657950388.0,0.769365,-30.00024,136,8,-4.202956e-07,-30
484,33.65153,1657950388.0,0.838579,-30.00027,136,8,-4.206878e-07,-30
485,33.72074,1657950388.0,0.907792,-30.00021,136,8,-4.200381e-07,-30
486,33.78995,1657950388.0,0.977002,-30.00023,136,8,-4.216229e-07,-30
487,33.85916,1657950389.0,0.046215,-30.00027,136,8,-4.223987e-07,-30
488,33.92838,1657950389.0,0.115427,-30.00025,136,8,-4.185624e-07,-30
489,33.99758,1657950389.0,0.184632,-30.00021,136,8,-4.190296e-07,-30
490,34.0668,1657950389.0,0.253852,-30.00027,136,8,-4.205375e-07,-30
491,34.13603,1657950389.0,0.323077,-30.00034,136,8,-4.198449e-07,-30
492,34.20525,1657950389.0,0.392296,-30.00032,136,8,-4.209864e-07,-30
493,34.27445,1657950389.0,0.461506,-30.00032,136,8,-4.202309e-07,-30
494,34.34367,1657950389.0,0.530721,-30.00028,136,8,-4.1831e-07,-30
495,34.41288,1657950389.0,0.599929,-30.00033,136,8,-4.203279e-07,-30
496,34.48209,1657950389.0,0.669139,-30.00028,136,8,-4.208026e-07,-30
497,34.55131,1657950389.0,0.73836,-30.00035,136,8,-4.207527e-07,-30
498,34.62052,1657950389.0,0.807575,-30.00032,136,8,-4.200605e-07,-30
499,34.68974,1657950389.0,0.876788,-30.00023,136,8,-4.22691e-07,-30
500,34.75897,1657950389.0,0.94602,-30.00024,136,8,-4.199888e-07,-30
501,34.82818,1657950390.0,0.0152316,-30.00034,136,8,-4.213166e-07,-30
502,34.8974,1657950390.0,0.0844534,-30.00022,136,8,-4.2162e-07,-30
503,34.96661,1657950390.0,0.153658,-30.00016,136,8,-4.204222e-07,-30
504,35.03581,1657950390.0,0.222865,-30.00023,136,8,-4.209572e-07,-30
505,35.10504,1657950390.0,0.292096,-30.0003,136,8,-4.19968e-07,-30
506,35.17425,1657950390.0,0.3613,-30.00035,136,8,-4.204051e-07,-30
507,35.24347,1657950390.0,0.430518,-30.00036,136,8,-4.202376e-07,-30
508,35.31268,1657950390.0,0.49973,-30.00031,136,8,-4.2159e-07,-30
509,35.3819,1657950390.0,0.568952,-30.00029,136,8,-4.189244e-07,-30
510,35.4511,1657950390.0,0.638155,-30.00025,136,8,-4.212489e-07,-30
511,35.52032,1657950390.0,0.707375,-30.00036,136,8,-4.200031e-07,-30
512,35.58954,1657950390.0,0.776595,-30.00033,136,8,-4.197112e-07,-30
513,35.65875,1657950390.0,0.8458,-30.00037,136,8,-4.195985e-07,-30
514,35.72797,1657950390.0,0.91502,-30.00045,136,8,-4.207826e-07,-30
515,35.79718,1657950390.0,0.984226,-30.00032,136,8,-4.191261e-07,-30
516,35.86638,1657950391.0,0.0534319,-30.00035,136,8,-4.193628e-07,-30
517,35.93559,1657950391.0,0.122642,-30.00037,136,8,-4.197987e-07,-30
518,36.00481,1657950391.0,0.191861,-30.0004,136,8,-4.183522e-07,-30
519,36.07403,1657950391.0,0.261079,-30.00033,136,8,-4.174392e-07,-30
520,36.14325,1657950391.0,0.330299,-30.00026,136,8,-4.201617e-07,-30
521,36.21245,1657950391.0,0.399504,-30.00032,136,8,-4.180638e-07,-30
522,36.28167,1657950391.0,0.468717,-30.00029,136,8,-4.192322e-07,-30
523,36.35088,1657950391.0,0.537936,-30.00024,136,8,-4.204576e-07,-30
524,36.42009,1657950391.0,0.607139,-30.00034,136,8,-4.197546e-07,-30
525,36.48929,1657950391.0,0.676345,-30.00022,136,8,-4.198747e-07,-30
526,36.55851,1657950391.0,0.745561,-30.00031,136,8,-4.194321e-07,-30
527,36.62774,1657950391.0,0.814787,-30.00038,136,8,-4.186285e-07,-30
528,36.69693,1657950391.0,0.883977,-30.00032,136,8,-4.198571e-07,-30
529,36.76615,1657950391.0,0.953198,-30.00036,136,8,-4.200254e-07,-30
530,36.83537,1657950392.0,0.0224236,-30.00032,136,8,-4.197337e-07,-30
531,36.9046,1657950392.0,0.091647,-30.0002,136,8,-4.185933e-07,-30
532,36.97381,1657950392.0,0.160864,-30.00028,136,8,-4.204722e-07,-30
533,37.04304,1657950392.0,0.230096,-30.00034,136,8,-4.196152e-07,-30
534,37.11227,1657950392.0,0.29932,-30.00028,136,8,-4.189079e-07,-30
535,37.18148,1657950392.0,0.368534,-30.00029,136,8,-4.196858e-07,-30
536,37.2507,1657950392.0,0.437749,-30.00033,136,8,-4.205497e-07,-30
537,37.31991,1657950392.0,0.506957,-30.00033,136,8,-4.190497e-07,-30
538,37.3891,1657950392.0,0.57615,-30.00025,136,8,-4.192892e-07,-30
539,37.45832,1657950392.0,0.645369,-30.0003,136,8,-4.180563e-07,-30
540,37.52754,1657950392.0,0.714593,-30.00023,136,8,-4.194e-07,-30
541,37.59676,1657950392.0,0.783815,-30.00027,136,8,-4.204994e-07,-30
542,37.666,1657950392.0,0.853048,-30.00034,136,8,-4.185936e-07,-30
543,37.73523,1657950392.0,0.92228,-30.00026,136,8,-4.193205e-07,-30
544,37.80444,1657950392.0,0.991488,-30.00029,136,8,-4.205258e-07,-30
545,37.87364,1657950393.0,0.0606954,-30.00031,136,8,-4.204865e-07,-30
546,37.94287,1657950393.0,0.129919,-30.00035,136,8,-4.196143e-07,-30
547,38.01209,1657950393.0,0.199143,-30.00032,136,8,-4.176217e-07,-30
548,38.08131,1657950393.0,0.268359,-30.00031,136,8,-4.202554e-07,-30
549,38.15052,1657950393.0,0.337571,-30.00038,136,8,-4.202145e-07,-30
550,38.21975,1657950393.0,0.406802,-30.00032,136,8,-4.18178e-07,-30
551,38.28896,1657950393.0,0.47601,-30.00027,136,8,-4.190505e-07,-30
552,38.35817,1657950393.0,0.545217,-30.00037,136,8,-4.184793e-07,-30
553,38.42737,1657950393.0,0.61442,-30.00037,136,8,-4.182021e-07,-30
554,38.49658,1657950393.0,0.683627,-30.00034,136,8,-4.208366e-07,-30
555,38.56579,1657950393.0,0.752839,-30.00036,136,8,-4.199774e-07,-30
556,38.63501,1657950393.0,0.822057,-30.00027,136,8,-4.183249e-07,-30
557,38.70423,1657950393.0,0.891279,-30.00032,136,8,-4.186114e-07,-30
558,38.77344,1657950393.0,0.960492,-30.00027,136,8,-4.191909e-07,-30
559,38.84267,1657950394.0,0.029719,-30.00026,136,8,-4.199283e-07,-30
560,38.91188,1657950394.0,0.0989337,-30.00026,136,8,-4.189572e-07,-30
561,38.9811,1657950394.0,0.16815,-30.00025,136,8,-4.200335e-07,-30
562,39.05032,1657950394.0,0.237374,-30.00025,136,8,-4.213255e-07,-30
563,39.11954,1657950394.0,0.306594,-30.00034,136,8,-4.202402e-07,-30
564,39.18876,1657950394.0,0.375812,-30.00033,136,8,-4.19433e-07,-30
565,39.25798,1657950394.0,0.445033,-30.00022,136,8,-4.180219e-07,-30
566,39.32717,1657950394.0,0.514223,-30.00022,136,8,-4.186789e-07,-30
567,39.39638,1657950394.0,0.583436,-30.00024,136,8,-4.179929e-07,-30
568,39.4656,1657950394.0,0.652654,-30.00026,136,8,-4.190597e-07,-30
569,39.53481,1657950394.0,0.721865,-30.00021,136,8,-4.178738e-07,-30
570,39.60402,1657950394.0,0.791076,-30.00025,136,8,-4.172958e-07,-30
571,39.67323,1657950394.0,0.860285,-30.00029,136,8,-4.188749e-07,-30
572,39.74246,1657950394.0,0.929507,-30.00027,136,8,-4.188268e-07,-30
573,39.81168,1657950394.0,0.99873,-30.0002,136,8,-4.194973e-07,-30
574,39.88089,1657950395.0,0.0679419,-30.00027,136,8,-4.19527e-07,-30
575,39.95012,1657950395.0,0.137167,-30.00032,136,8,-4.19118e-07,-30
576,40.01934,1657950395.0,0.206392,-30.00033,136,8,-4.180039e-07,-30
577,40.08855,1657950395.0,0.275602,-30.00032,136,8,-4.177345e-07,-30
578,40.15775,1657950395.0,0.344802,-30.00027,136,8,-4.21277e-07,-30
579,40.22696,1657950395.0,0.414006,-30.00022,136,8,-4.169826e-07,-30
580,40.29617,1657950395.0,0.483226,-30.00035,136,8,-4.170361e-07,-30
581,40.36539,1657950395.0,0.552443,-30.00019,136,8,-4.20318e-07,-30
582,40.43461,1657950395.0,0.621659,-30.00051,136,8,-4.197082e-07,-30
583,40.50382,1657950395.0,0.690874,-30.00036,136,8,-4.191783e-07,-30
584,40.57304,1657950395.0,0.760087,-30.0003,136,8,-4.196617e-07,-30
585,40.64224,1657950395.0,0.829293,-30.00026,136,8,-4.193116e-07,-30
586,40.71146,1657950395.0,0.898508,-30.00037,136,8,-4.161906e-07,-30
587,40.78066,1657950395.0,0.967708,-30.00033,136,8,-4.189103e-07,-30
588,40.84987,1657950396.0,0.0369179,-30.00031,136,8,-4.177767e-07,-30
589,40.91909,1657950396.0,0.106143,-30.00037,136,8,-4.170176e-07,-30
590,40.98831,1657950396.0,0.175358,-30.00029,136,8,-4.193163e-07,-30
591,41.05752,1657950396.0,0.244576,-30.0003,136,8,-4.204772e-07,-30
592,41.12674,1657950396.0,0.313786,-30.00027,136,8,-4.207098e-07,-30
593,41.19594,1657950396.0,0.382992,-30.00035,136,8,-4.195037e-07,-30
594,41.26516,1657950396.0,0.452212,-30.00025,136,8,-4.202252e-07,-30
595,41.33437,1657950396.0,0.521425,-30.00025,136,8,-4.199441e-07,-30
596,41.40358,1657950396.0,0.590636,-30.00029,136,8,-4.173269e-07,-30
597,41.4728,1657950396.0,0.659847,-30.00021,136,8,-4.19235e-07,-30
598,41.54201,1657950396.0,0.729059,-30.00038,136,8,-4.181472e-07,-30
599,41.61122,1657950396.0,0.798272,-30.00029,136,8,-4.189009e-07,-30
600,41.68043,1657950396.0,0.86748,-30.00027,136,8,-4.20294e-07,-30
601,41.74964,1657950396.0,0.936689,-30.00031,136,8,-4.20433e-07,-30
602,41.81885,1657950397.0,0.00590114,-30.00039,136,8,-4.199231e-07,-30
603,41.88806,1657950397.0,0.0751125,-30.00023,136,8,-4.185198e-07,-30
604,41.95728,1657950397.0,0.144326,-30.00027,136,8,-4.179989e-07,-30
605,42.02648,1657950397.0,0.21353,-30.0003,136,8,-4.165343e-07,-30
606,42.0957,1657950397.0,0.28275,-30.00037,136,8,-4.175857e-07,-30
607,42.16491,1657950397.0,0.351959,-30.00033,136,8,-4.176019e-07,-30
608,42.23412,1657950397.0,0.421172,-30.00032,136,8,-4.174e-07,-30
609,42.30334,1657950397.0,0.490387,-30.00026,136,8,-4.158961e-07,-30
610,42.37256,1657950397.0,0.559608,-30.00025,136,8,-4.178578e-07,-30
611,42.44176,1657950397.0,0.628812,-30.00031,136,8,-4.184004e-07,-30
612,42.51098,1657950397.0,0.698029,-30.00016,136,8,-4.169199e-07,-30
613,42.58019,1657950397.0,0.767237,-30.00015,136,8,-4.198027e-07,-30
614,42.6494,1657950397.0,0.836449,-30.00027,136,8,-4.190397e-07,-30
615,42.71861,1657950397.0,0.90566,-30.00028,136,8,-4.179369e-07,-30
616,42.78781,1657950397.0,0.974861,-30.00012,136,8,-4.170838e-07,-30
617,42.85703,1657950398.0,0.0440784,-30.00021,136,8,-4.17581e-07,-30
618,42.92623,1657950398.0,0.113285,-30.00027,136,8,-4.163423e-07,-30
619,42.99544,1657950398.0,0.182486,-30.00018,136,8,-4.164136e-07,-30
620,43.06464,1657950398.0,0.251691,-30.00017,136,8,-4.172841e-07,-30
621,43.13385,1657950398.0,0.320905,-30.00017,136,8,-4.168198e-07,-30
622,43.20308,1657950398.0,0.390129,-30.00026,136,8,-4.170365e-07,-30
623,43.27228,1657950398.0,0.459332,-30.00029,136,8,-4.168477e-07,-30
624,43.3415,1657950398.0,0.528549,-30.00031,136,8,-4.161352e-07,-30
625,43.4107,1657950398.0,0.597753,-30.00029,136,8,-4.181649e-07,-30
626,43.47992,1657950398.0,0.666972,-30.0003,136,8,-4.187705e-07,-30
627,43.54914,1657950398.0,0.736191,-30.00021,136,8,-4.177604e-07,-30
628,43.61836,1657950398.0,0.805412,-30.00019,136,8,-4.185358e-07,-30
629,43.68757,1657950398.0,0.87462,-30.00021,136,8,-4.176974e-07,-30
630,43.75679,1657950398.0,0.943837,-30.00027,136,8,-4.175705e-07,-30
631,43.82599,1657950399.0,0.013042,-30.00035,136,8,-4.181486e-07,-30
632,43.89521,1657950399.0,0.0822588,-30.00028,136,8,-4.200856e-07,-30
633,43.96442,1657950399.0,0.15147,-30.00019,136,8,-4.185274e-07,-30
634,44.03362,1657950399.0,0.220673,-30.00018,136,8,-4.184602e-07,-30
635,44.10284,1657950399.0,0.289893,-30.00028,136,8,-4.198531e-07,-30
636,44.17207,1657950399.0,0.359123,-30.0003,136,8,-4.19185e-07,-30
637,44.24129,1657950399.0,0.428343,-30.00024,136,8,-4.169614e-07,-30
638,44.3105,1657950399.0,0.497547,-30.00035,136,8,-4.18737e-07,-30
639,44.3797,1657950399.0,0.566753,-30.00027,136,8,-4.16459e-07,-30
640,44.44892,1657950399.0,0.635971,-30.00025,136,8,-4.174709e-07,-30
641,44.51815,1657950399.0,0.705198,-30.00024,136,8,-4.165293e-07,-30
642,44.58736,1657950399.0,0.774416,-30.00029,136,8,-4.167245e-07,-30
643,44.65658,1657950399.0,0.843629,-30.00041,136,8,-4.166577e-07,-30
644,44.72579,1657950399.0,0.91284,-30.00033,136,8,-4.161854e-07,-30
645,44.795,1657950399.0,0.982049,-30.00035,136,8,-4.188396e-07,-30
646,44.86422,1657950400.0,0.0512673,-30.00029,136,8,-4.178057e-07,-30
647,44.93343,1657950400.0,0.120483,-30.00027,136,8,-4.178227e-07,-30
648,45.00263,1657950400.0,0.189683,-30.00028,136,8,-4.192051e-07,-30
649,45.07184,1657950400.0,0.258891,-30.00025,136,8,-4.159476e-07,-30
650,45.14107,1657950400.0,0.328118,-30.00025,136,8,-4.182212e-07,-30
651,45.21027,1657950400.0,0.397326,-30.00037,136,8,-4.179129e-07,-30
652,45.27949,1657950400.0,0.466539,-30.00035,136,8,-4.165025e-07,-30
653,45.34869,1657950400.0,0.535739,-30.00036,136,8,-4.166287e-07,-30
654,45.41791,1657950400.0,0.604958,-30.00034,136,8,-4.178265e-07,-30
655,45.48713,1657950400.0,0.674179,-30.00034,136,8,-4.158938e-07,-30
656,45.55634,1657950400.0,0.743392,-30.00036,136,8,-4.168765e-07,-30
657,45.62554,1657950400.0,0.812596,-30.0003,136,8,-4.162573e-07,-30
658,45.69475,1657950400.0,0.881804,-30.00017,136,8,-4.175989e-07,-30
659,45.76398,1657950400.0,0.951028,-30.00019,136,8,-4.172346e-07,-30
660,45.8332,1657950401.0,0.0202475,-30.00024,136,8,-4.169614e-07,-30
661,45.90241,1657950401.0,0.0894568,-30.00026,136,8,-4.168534e-07,-30
662,45.97161,1657950401.0,0.158659,-30.00032,136,8,-4.189914e-07,-30
663,46.04083,1657950401.0,0.227879,-30.00027,136,8,-4.177588e-07,-30
664,46.11003,1657950401.0,0.297085,-30.00024,136,8,-4.171601e-07,-30
665,46.17924,1657950401.0,0.366294,-30.00022,136,8,-4.176995e-07,-30
666,46.24845,1657950401.0,0.435503,-30.00025,136,8,-4.171891e-07,-30
667,46.31766,1657950401.0,0.504715,-30.00028,136,8,-4.171109e-07,-30
668,46.38688,1657950401.0,0.573932,-30.00025,136,8,-4.166044e-07,-30
669,46.4561,1657950401.0,0.643147,-30.00028,136,8,-4.162434e-07,-30
670,46.52531,1657950401.0,0.712365,-30.00023,136,8,-4.171158e-07,-30
671,46.59452,1657950401.0,0.781571,-30.00023,136,8,-4.150983e-07,-30
672,46.66373,1657950401.0,0.85078,-30.00024,136,8,-4.181894e-07,-30
673,46.73294,1657950401.0,0.919994,-30.00028,136,8,-4.162677e-07,-30
674,46.80217,1657950401.0,0.98922,-30.00031,136,8,-4.155423e-07,-30
675,46.87137,1657950402.0,0.0584234,-30.00032,136,8,-4.167493e-07,-30
676,46.94058,1657950402.0,0.12763,-30.00024,136,8,-4.186004e-07,-30
677,47.00979,1657950402.0,0.196841,-30.00027,136,8,-4.156752e-07,-30
678,47.079,1657950402.0,0.266048,-30.00024,136,8,-4.168108e-07,-30
679,47.1482,1657950402.0,0.335255,-30.00035,136,8,-4.172431e-07,-30
680,47.21742,1657950402.0,0.404467,-30.00033,136,8,-4.162269e-07,-30
681,47.28663,1657950402.0,0.473686,-30.00023,136,8,-4.154442e-07,-30
682,47.35584,1657950402.0,0.542894,-30.00028,136,8,-4.170077e-07,-30
683,47.42506,1657950402.0,0.612111,-30.00026,136,8,-4.168609e-07,-30
684,47.49428,1657950402.0,0.681328,-30.00037,136,8,-4.178219e-07,-30
685,47.56349,1657950402.0,0.750538,-30.00022,136,8,-4.179527e-07,-30
686,47.63271,1657950402.0,0.819757,-30.00027,136,8,-4.165876e-07,-30
687,47.70192,1657950402.0,0.888975,-30.00028,136,8,-4.157201e-07,-30
688,47.77114,1657950402.0,0.958189,-30.00026,136,8,-4.184825e-07,-30
689,47.84035,1657950403.0,0.0273966,-30.00029,136,8,-4.177571e-07,-30
690,47.90956,1657950403.0,0.096608,-30.00033,136,8,-4.17661e-07,-30
691,47.97876,1657950403.0,0.165812,-30.00021,136,8,-4.169262e-07,-30
692,48.04798,1657950403.0,0.235027,-30.00033,136,8,-4.172111e-07,-30
693,48.1172,1657950403.0,0.304249,-30.00033,136,8,-4.173683e-07,-30
694,48.1864,1657950403.0,0.373453,-30.00033,136,8,-4.16888e-07,-30
695,48.25562,1657950403.0,0.442675,-30.00036,136,8,-4.173519e-07,-30
696,48.32484,1657950403.0,0.511889,-30.00038,136,8,-4.161311e-07,-30
697,48.39404,1657950403.0,0.58109,-30.00031,136,8,-4.169243e-07,-30
698,48.46325,1657950403.0,0.650299,-30.00029,136,8,-4.154988e-07,-30
699,48.53246,1657950403.0,0.719511,-30.00032,136,8,-4.166604e-07,-30
700,48.60166,1657950403.0,0.788714,-30.00034,136,8,-4.172827e-07,-30
701,48.67088,1657950403.0,0.857929,-30.00028,136,8,-4.164065e-07,-30
702,48.74009,1657950403.0,0.927143,-30.00023,136,8,-4.166735e-07,-30
703,48.80931,1657950403.0,0.996362,-30.00027,136,8,-4.161554e-07,-30
704,48.87852,1657950404.0,0.0655719,-30.0003,136,8,-4.159887e-07,-30
705,48.94773,1657950404.0,0.13478,-30.00035,136,8,-4.178354e-07,-30
706,49.01694,1657950404.0,0.203992,-30.00036,136,8,-4.159118e-07,-30
707,49.08617,1657950404.0,0.273223,-30.00034,136,8,-4.179056e-07,-30
708,49.15537,1657950404.0,0.342424,-30.0002,136,8,-4.170021e-07,-30
709,49.22459,1657950404.0,0.411636,-30.00035,136,8,-4.159508e-07,-30
710,49.2938,1657950404.0,0.480855,-30.00035,136,8,-4.154071e-07,-30
711,49.36302,1657950404.0,0.550074,-30.00023,136,8,-4.168612e-07,-30
712,49.43223,1657950404.0,0.619276,-30.00036,136,8,-4.172993e-07,-30
713,49.50143,1657950404.0,0.68848,-30.00033,136,8,-4.16788e-07,-30
714,49.57063,1657950404.0,0.757685,-30.00041,136,8,-4.160621e-07,-30
715,49.63984,1657950404.0,0.826888,-30.00025,136,8,-4.164141e-07,-30
716,49.70905,1657950404.0,0.896103,-30.00032,136,8,-4.174093e-07,-30
717,49.77827,1657950404.0,0.96532,-30.00027,136,8,-4.17098e-07,-30
718,49.84748,1657950405.0,0.0345358,-30.00027,136,8,-4.148922e-07,-30
719,49.91669,1657950405.0,0.10374,-30.00029,136,8,-4.159824e-07,-30
720,49.98589,1657950405.0,0.172943,-30.00034,136,8,-4.159408e-07,-30
721,50.05511,1657950405.0,0.242162,-30.00029,136,8,-4.168141e-07,-30
722,50.12432,1657950405.0,0.311373,-30.00024,136,8,-4.166207e-07,-30
723,50.19353,1657950405.0,0.380583,-30.0003,136,8,-4.136468e-07,-30
724,50.26275,1657950405.0,0.449802,-30.00021,136,8,-4.160757e-07,-30
725,50.33196,1657950405.0,0.519008,-30.00027,136,8,-4.15573e-07,-30
726,50.40118,1657950405.0,0.588227,-30.00025,136,8,-4.163225e-07,-30
727,50.47038,1657950405.0,0.657434,-30.00025,136,8,-4.148857e-07,-30
728,50.5396,1657950405.0,0.726647,-30.00026,136,8,-4.165393e-07,-30
729,50.6088,1657950405.0,0.795847,-30.00024,136,8,-4.17612e-07,-30
730,50.67801,1657950405.0,0.865057,-30.00027,136,8,-4.156748e-07,-30
731,50.74723,1657950405.0,0.934284,-30.00025,136,8,-4.135793e-07,-30
732,50.81643,1657950406.0,0.00348264,-30.00022,136,8,-4.166084e-07,-30
733,50.88563,1657950406.0,0.0726837,-30.00036,136,8,-4.168052e-07,-30
734,50.95485,1657950406.0,0.141896,-30.00027,136,8,-4.168166e-07,-30
735,51.02405,1657950406.0,0.211103,-30.00032,136,8,-4.156699e-07,-30
736,51.09325,1657950406.0,0.280306,-30.00026,136,8,-4.154111e-07,-30
737,51.16247,1657950406.0,0.349523,-30.00031,136,8,-4.172132e-07,-30
738,51.23169,1657950406.0,0.41874,-30.00033,136,8,-4.164681e-07,-30
739,51.3009,1657950406.0,0.487949,-30.00031,136,8,-4.157121e-07,-30
740,51.37011,1657950406.0,0.557157,-30.00026,136,8,-4.169429e-07,-30
741,51.43931,1657950406.0,0.626365,-30.00026,136,8,-4.165002e-07,-30
742,51.50853,1657950406.0,0.695581,-30.00022,136,8,-4.150123e-07,-30
743,51.57775,1657950406.0,0.764797,-30.00029,136,8,-4.159558e-07,-30
744,51.64696,1657950406.0,0.834014,-30.00028,136,8,-4.148356e-07,-30
745,51.71617,1657950406.0,0.903226,-30.00029,136,8,-4.17262e-07,-30
746,51.78538,1657950406.0,0.972427,-30.00024,136,8,-4.167079e-07,-30
747,51.85459,1657950407.0,0.0416362,-30.00028,136,8,-4.181531e-07,-30
748,51.9238,1657950407.0,0.11085,-30.00026,136,8,-4.169715e-07,-30
749,51.99301,1657950407.0,0.180063,-30.00027,136,8,-4.163468e-07,-30
750,52.06224,1657950407.0,0.249289,-30.0003,136,8,-4.15031e-07,-30
751,52.13146,1657950407.0,0.318508,-30.00028,136,8,-4.153665e-07,-30
752,52.20067,1657950407.0,0.387722,-30.00021,136,8,-4.149308e-07,-30
753,52.26988,1657950407.0,0.456928,-30.00028,136,8,-4.154751e-07,-30
754,52.33908,1657950407.0,0.52613,-30.00028,136,8,-4.164725e-07,-30
755,52.40829,1657950407.0,0.595343,-30.00023,136,8,-4.163468e-07,-30
756,52.4775,1657950407.0,0.664551,-30.0003,136,8,-4.155923e-07,-30
757,52.5467,1657950407.0,0.733754,-30.00026,136,8,-4.176532e-07,-30
758,52.61592,1657950407.0,0.802969,-30.00031,136,8,-4.164272e-07,-30
759,52.68513,1657950407.0,0.872177,-30.00025,136,8,-4.165697e-07,-30
760,52.75433,1657950407.0,0.941381,-30.00028,136,8,-4.164956e-07,-30
761,52.82353,1657950408.0,0.0105828,-30.00024,136,8,-4.169848e-07,-30
762,52.89274,1657950408.0,0.0797898,-30.0003,136,8,-4.152385e-07,-30
763,52.96195,1657950408.0,0.149,-30.00031,136,8,-4.16618e-07,-30
764,53.03117,1657950408.0,0.21822,-30.00022,136,8,-4.144971e-07,-30
765,53.10037,1657950408.0,0.28742,-30.00021,136,8,-4.161585e-07,-30
766,53.16957,1657950408.0,0.356623,-30.0002,136,8,-4.159247e-07,-30
767,53.23878,1657950408.0,0.425828,-30.00019,136,8,-4.156128e-07,-30
768,53.30799,1657950408.0,0.495041,-30.00026,136,8,-4.151863e-07,-30
769,53.37721,1657950408.0,0.564262,-30.00031,136,8,-4.160094e-07,-30
770,53.44642,1657950408.0,0.633467,-30.00023,136,8,-4.159846e-07,-30
771,53.51561,1657950408.0,0.702666,-30.00023,136,8,-4.166288e-07,-30
772,53.58483,1657950408.0,0.77188,-30.00024,136,8,-4.163486e-07,-30
773,53.65405,1657950408.0,0.841096,-30.00022,136,8,-4.156596e-07,-30
774,53.72325,1657950408.0,0.910303,-30.00023,136,8,-4.157449e-07,-30
775,53.79247,1657950408.0,0.979518,-30.00028,136,8,-4.16052e-07,-30
776,53.86167,1657950409.0,0.0487171,-30.00022,136,8,-4.161373e-07,-30
777,53.93087,1657950409.0,0.117919,-30.00029,136,8,-4.161982e-07,-30
778,54.00007,1657950409.0,0.187122,-30.00027,136,8,-4.141322e-07,-30
779,54.06928,1657950409.0,0.256327,-30.00027,136,8,-4.137621e-07,-30
780,54.13849,1657950409.0,0.32554,-30.00028,136,8,-4.143618e-07,-30
781,54.2077,1657950409.0,0.394749,-30.00031,136,8,-4.163203e-07,-30
782,54.2769,1657950409.0,0.463953,-30.00029,136,8,-4.149396e-07,-30
783,54.34611,1657950409.0,0.533157,-30.00021,136,8,-4.152938e-07,-30
784,54.41531,1657950409.0,0.602362,-30.00028,136,8,-4.157098e-07,-30
785,54.48453,1657950409.0,0.67158,-30.00021,136,8,-4.142684e-07,-30
786,54.55374,1657950409.0,0.740794,-30.0002,136,8,-4.133788e-07,-30
787,54.62295,1657950409.0,0.809999,-30.00014,136,8,-4.163377e-07,-30
788,54.69217,1657950409.0,0.879216,-30.00023,136,8,-4.159479e-07,-30
789,54.76138,1657950409.0,0.948431,-30.00024,136,8,-4.155225e-07,-30
790,54.83058,1657950410.0,0.0176326,-30.00026,136,8,-4.150982e-07,-30
791,54.8998,1657950410.0,0.0868469,-30.0003,136,8,-4.148351e-07,-30
792,54.96899,1657950410.0,0.156045,-30.00028,136,8,-4.159017e-07,-30
793,55.03821,1657950410.0,0.225259,-30.0002,136,8,-4.154349e-07,-30
794,55.10742,1657950410.0,0.294475,-30.00028,136,8,-4.16171e-07,-30
795,55.17664,1657950410.0,0.363693,-30.0002,136,8,-4.156646e-07,-30
796,55.24584,1657950410.0,0.432894,-30.00022,136,8,-4.13818e-07,-30
797,55.31505,1657950410.0,0.502102,-30.00029,136,8,-4.169715e-07,-30
798,55.38428,1657950410.0,0.57133,-30.00033,136,8,-4.145238e-07,-30
799,55.4535,1657950410.0,0.640549,-30.00028,136,8,-4.144448e-07,-30
800,55.52271,1657950410.0,0.709766,-30.00024,136,8,-4.155236e-07,-30
801,55.59194,1657950410.0,0.778987,-30.00023,136,8,-4.154458e-07,-30
802,55.66114,1657950410.0,0.848189,-30.00027,136,8,-4.159833e-07,-30
803,55.73036,1657950410.0,0.917407,-30.00029,136,8,-4.161105e-07,-30
804,55.79956,1657950410.0,0.986606,-30.00022,136,8,-4.135835e-07,-30
805,55.86876,1657950411.0,0.0558064,-30.0002,136,8,-4.13544e-07,-30
806,55.93797,1657950411.0,0.12502,-30.0003,136,8,-4.15227e-07,-30
807,56.00718,1657950411.0,0.19423,-30.00038,136,8,-4.160028e-07,-30
808,56.07638,1657950411.0,0.263435,-30.00028,136,8,-4.16456e-07,-30
809,56.14559,1657950411.0,0.33264,-30.0003,136,8,-4.159241e-07,-30
810,56.21481,1657950411.0,0.401857,-30.00033,136,8,-4.164488e-07,-30
811,56.28401,1657950411.0,0.47106,-30.00019,136,8,-4.161007e-07,-30
812,56.35324,1657950411.0,0.540288,-30.00021,136,8,-4.150139e-07,-30
813,56.42245,1657950411.0,0.609503,-30.00022,136,8,-4.137927e-07,-30
814,56.49167,1657950411.0,0.678717,-30.00023,136,8,-4.14579e-07,-30
815,56.56087,1657950411.0,0.74792,-30.00026,136,8,-4.155303e-07,-30
816,56.63009,1657950411.0,0.817137,-30.00025,136,8,-4.170114e-07,-30
817,56.6993,1657950411.0,0.886347,-30.0002,136,8,-4.13866e-07,-30
818,56.76851,1657950411.0,0.955559,-30.00027,136,8,-4.160525e-07,-30
819,56.83772,1657950412.0,0.0247687,-30.0002,136,8,-4.153016e-07,-30
820,56.90692,1657950412.0,0.0939667,-30.00022,136,8,-4.152331e-07,-30
821,56.97614,1657950412.0,0.163194,-30.00024,136,8,-4.156631e-07,-30
822,57.04537,1657950412.0,0.232419,-30.0003,136,8,-4.1692e-07,-30
823,57.11459,1657950412.0,0.301639,-30.00022,136,8,-4.157834e-07,-30
824,57.18381,1657950412.0,0.370859,-30.00024,136,8,-4.142485e-07,-30
825,57.25303,1657950412.0,0.440079,-30.00021,136,8,-4.153482e-07,-30
826,57.32224,1657950412.0,0.509293,-30.00024,136,8,-4.142543e-07,-30
827,57.39145,1657950412.0,0.578502,-30.00025,136,8,-4.140221e-07,-30
828,57.46067,1657950412.0,0.647717,-30.00029,136,8,-4.15656e-07,-30
829,57.52986,1657950412.0,0.716915,-30.00033,136,8,-4.173159e-07,-30
830,57.59908,1657950412.0,0.786131,-30.00029,136,8,-4.129673e-07,-30
831,57.66829,1657950412.0,0.855342,-30.00033,136,8,-4.143113e-07,-30
832,57.7375,1657950412.0,0.924556,-30.00031,136,8,-4.166816e-07,-30
833,57.80671,1657950412.0,0.993764,-30.00039,136,8,-4.163408e-07,-30
834,57.87593,1657950413.0,0.0629786,-30.00041,136,8,-4.14774e-07,-30
835,57.94513,1657950413.0,0.132184,-30.00025,136,8,-4.169706e-07,-30
836,58.01435,1657950413.0,0.201397,-30.00035,136,8,-4.163257e-07,-30
837,58.08354,1657950413.0,0.270596,-30.00034,136,8,-4.145256e-07,-30
838,58.15276,1657950413.0,0.339809,-30.00034,136,8,-4.147934e-07,-30
839,58.22197,1657950413.0,0.40902,-30.00036,136,8,-4.129803e-07,-30
840,58.29118,1657950413.0,0.478235,-30.00025,136,8,-4.139627e-07,-30
841,58.3604,1657950413.0,0.547448,-30.00014,136,8,-4.15579e-07,-30
842,58.42962,1657950413.0,0.616668,-30.00026,136,8,-4.148785e-07,-30
843,58.49882,1657950413.0,0.685869,-30.00035,136,8,-4.160412e-07,-30
844,58.56804,1657950413.0,0.755088,-30.00028,136,8,-4.155455e-07,-30
845,58.63725,1657950413.0,0.824305,-30.00039,136,8,-4.143361e-07,-30
846,58.70647,1657950413.0,0.893525,-30.00035,136,8,-4.140114e-07,-30
847,58.77569,1657950413.0,0.962744,-30.00037,136,8,-4.157408e-07,-30
848,58.84491,1657950414.0,0.0319587,-30.00041,136,8,-4.161494e-07,-30
849,58.91413,1657950414.0,0.10118,-30.00025,136,8,-4.149151e-07,-30
850,58.98334,1657950414.0,0.170386,-30.00026,136,8,-4.143329e-07,-30
851,59.05255,1657950414.0,0.239603,-30.00029,136,8,-4.148532e-07,-30
852,59.12176,1657950414.0,0.308814,-30.00036,136,8,-4.154971e-07,-30
853,59.19098,1657950414.0,0.378027,-30.00026,136,8,-4.145376e-07,-30
854,59.2602,1657950414.0,0.447251,-30.00019,136,8,-4.163282e-07,-30
855,59.32942,1657950414.0,0.516468,-30.00027,136,8,-4.153858e-07,-30
856,59.39863,1657950414.0,0.585685,-30.00029,136,8,-4.14755e-07,-30
857,59.46784,1657950414.0,0.654893,-30.00027,136,8,-4.165375e-07,-30
858,59.53706,1657950414.0,0.724107,-30.00028,136,8,-4.154031e-07,-30
859,59.60628,1657950414.0,0.793333,-30.00024,136,8,-4.150505e-07,-30
860,59.67548,1657950414.0,0.862535,-30.00027,136,8,-4.134053e-07,-30
861,59.74469,1657950414.0,0.931741,-30.00031,136,8,-4.124461e-07,-30
862,59.81391,1657950415.0,0.00095682,-30.00029,136,8,-4.152063e-07,-30
863,59.88312,1657950415.0,0.0701719,-30.00024,136,8,-4.137456e-07,-30
864,59.95232,1657950415.0,0.139372,-30.00025,136,8,-4.138183e-07,-30
865,60.02152,1657950415.0,0.208573,-30.00026,136,8,-4.15902e-07,-30
866,60.09074,1657950415.0,0.277792,-30.0003,136,8,-4.113317e-07,-30
867,60.15995,1657950415.0,0.346997,-30.00023,136,8,-4.13843e-07,-30
868,60.22916,1657950415.0,0.416212,-30.00028,136,8,-4.146343e-07,-30
869,60.29838,1657950415.0,0.48543,-30.00031,136,8,-4.157193e-07,-30
870,60.36758,1657950415.0,0.554632,-30.00022,136,8,-4.130518e-07,-30
871,60.43678,1657950415.0,0.623834,-30.0003,136,8,-4.148616e-07,-30
872,60.50599,1657950415.0,0.693044,-30.0002,136,8,-4.1597e-07,-30
873,60.57522,1657950415.0,0.762272,-30.00031,136,8,-4.159598e-07,-30
874,60.64443,1657950415.0,0.831479,-30.00033,136,8,-4.133104e-07,-30
875,60.71363,1657950415.0,0.900686,-30.00023,136,8,-4.151009e-07,-30
876,60.78284,1657950415.0,0.969892,-30.00027,136,8,-4.135287e-07,-30
877,60.85206,1657950416.0,0.039113,-30.00026,136,8,-4.152907e-07,-30
878,60.92128,1657950416.0,0.10833,-30.00033,136,8,-4.141992e-07,-30
879,60.99048,1657950416.0,0.177533,-30.00035,136,8,-4.139779e-07,-30
880,61.05968,1657950416.0,0.246734,-30.00032,136,8,-4.146233e-07,-30
881,61.1289,1657950416.0,0.315955,-30.00027,136,8,-4.129894e-07,-30
882,61.19811,1657950416.0,0.385159,-30.0002,136,8,-4.145289e-07,-30
883,61.26732,1657950416.0,0.454374,-30.00031,136,8,-4.135105e-07,-30
884,61.33653,1657950416.0,0.523582,-30.00034,136,8,-4.136865e-07,-30
885,61.40573,1657950416.0,0.592783,-30.00031,136,8,-4.145842e-07,-30
886,61.47494,1657950416.0,0.66199,-30.00026,136,8,-4.112472e-07,-30
887,61.54416,1657950416.0,0.73121,-30.00031,136,8,-4.133045e-07,-30
888,61.61336,1657950416.0,0.80041,-30.00035,136,8,-4.136394e-07,-30
889,61.68257,1657950416.0,0.869625,-30.00035,136,8,-4.142622e-07,-30
890,61.75179,1657950416.0,0.938843,-30.00023,136,8,-4.164289e-07,-30
891,61.82099,1657950417.0,0.00804376,-30.00035,136,8,-4.15017e-07,-30
892,61.8902,1657950417.0,0.0772541,-30.00028,136,8,-4.141378e-07,-30
893,61.95941,1657950417.0,0.14646,-30.00029,136,8,-4.132322e-07,-30
894,62.02862,1657950417.0,0.215669,-30.00026,136,8,-4.144152e-07,-30
895,62.09783,1657950417.0,0.284877,-30.0002,136,8,-4.145522e-07,-30
896,62.16704,1657950417.0,0.354091,-30.00032,136,8,-4.137884e-07,-30
897,62.23626,1657950417.0,0.42331,-30.00028,136,8,-4.137271e-07,-30
898,62.30548,1657950417.0,0.492528,-30.00036,136,8,-4.144788e-07,-30
899,62.3747,1657950417.0,0.561749,-30.00031,136,8,-4.146617e-07,-30
900,62.44391,1657950417.0,0.63096,-30.00034,136,8,-4.142983e-07,-30
901,62.51311,1657950417.0,0.700161,-30.00034,136,8,-4.130329e-07,-30
902,62.58233,1657950417.0,0.769381,-30.00034,136,8,-4.126292e-07,-30
903,62.65153,1657950417.0,0.838583,-30.00037,136,8,-4.15705e-07,-30
904,62.72074,1657950417.0,0.90779,-30.00039,136,8,-4.157906e-07,-30
905,62.78996,1657950417.0,0.977011,-30.00032,136,8,-4.142484e-07,-30
906,62.85916,1657950418.0,0.046211,-30.0003,136,8,-4.138746e-07,-30
907,62.92837,1657950418.0,0.115425,-30.00035,136,8,-4.14026e-07,-30
908,62.9976,1657950418.0,0.184647,-30.00032,136,8,-4.156061e-07,-30
909,63.06681,1657950418.0,0.253857,-30.00037,136,8,-4.121535e-07,-30
910,63.13602,1657950418.0,0.323076,-30.00037,136,8,-4.141672e-07,-30
911,63.20525,1657950418.0,0.3923,-30.00028,136,8,-4.133e-07,-30
912,63.27446,1657950418.0,0.461507,-30.00033,136,8,-4.136872e-07,-30
913,63.34366,1657950418.0,0.530709,-30.00039,136,8,-4.142508e-07,-30
914,63.41287,1657950418.0,0.599918,-30.00039,136,8,-4.153392e-07,-30
915,63.48208,1657950418.0,0.669128,-30.00035,136,8,-4.142793e-07,-30
916,63.55129,1657950418.0,0.738345,-30.00027,136,8,-4.131576e-07,-30
917,63.62051,1657950418.0,0.807561,-30.00027,136,8,-4.141264e-07,-30
918,63.68973,1657950418.0,0.876782,-30.00028,136,8,-4.155226e-07,-30
919,63.75894,1657950418.0,0.945988,-30.00033,136,8,-4.149626e-07,-30
920,63.82814,1657950419.0,0.0151918,-30.00031,136,8,-4.147449e-07,-30
921,63.89736,1657950419.0,0.0844067,-30.00033,136,8,-4.123662e-07,-30
922,63.96656,1657950419.0,0.153614,-30.00026,136,8,-4.123084e-07,-30
923,64.03578,1657950419.0,0.222834,-30.00028,136,8,-4.12631e-07,-30
924,64.10499,1657950419.0,0.292043,-30.00024,136,8,-4.144358e-07,-30
925,64.17421,1657950419.0,0.361257,-30.00023,136,8,-4.131224e-07,-30
926,64.24342,1657950419.0,0.430469,-30.00027,136,8,-4.153038e-07,-30
927,64.31263,1657950419.0,0.499679,-30.00022,136,8,-4.14161e-07,-30
928,64.38184,1657950419.0,0.568895,-30.00022,136,8,-4.13082e-07,-30
929,64.45106,1657950419.0,0.638114,-30.00023,136,8,-4.146992e-07,-30
930,64.52028,1657950419.0,0.707332,-30.00027,136,8,-4.12548e-07,-30
931,64.58948,1657950419.0,0.776536,-30.00022,136,8,-4.128562e-07,-30
932,64.65869,1657950419.0,0.845745,-30.00021,136,8,-4.11585e-07,-30
933,64.72791,1657950419.0,0.914964,-30.00032,136,8,-4.151305e-07,-30
934,64.79712,1657950419.0,0.984175,-30.0002,136,8,-4.152421e-07,-30
935,64.86635,1657950420.0,0.0534017,-30.00035,136,8,-4.141675e-07,-30
936,64.93555,1657950420.0,0.122603,-30.00031,136,8,-4.125011e-07,-30
937,65.00477,1657950420.0,0.191824,-30.0003,136,8,-4.107886e-07,-30
938,65.07398,1657950420.0,0.261029,-30.00026,136,8,-4.137806e-07,-30
939,65.14319,1657950420.0,0.330237,-30.00026,136,8,-4.146704e-07,-30
940,65.2124,1657950420.0,0.399446,-30.00027,136,8,-4.140218e-07,-30
941,65.2816,1657950420.0,0.468647,-30.0003,136,8,-4.147425e-07,-30
942,65.35082,1657950420.0,0.537867,-30.00024,136,8,-4.126945e-07,-30
943,65.42003,1657950420.0,0.607085,-30.00032,136,8,-4.121421e-07,-30
944,65.48925,1657950420.0,0.676303,-30.00026,136,8,-4.133406e-07,-30
945,65.55847,1657950420.0,0.745526,-30.00025,136,8,-4.119483e-07,-30
946,65.62769,1657950420.0,0.814738,-30.0003,136,8,-4.113326e-07,-30
947,65.6969,1657950420.0,0.883951,-30.00028,136,8,-4.139274e-07,-30
948,65.76611,1657950420.0,0.953162,-30.00024,136,8,-4.130797e-07,-30
949,65.83534,1657950421.0,0.0223879,-30.00023,136,8,-4.134993e-07,-30
950,65.90455,1657950421.0,0.0915975,-30.00036,136,8,-4.128612e-07,-30
951,65.97376,1657950421.0,0.160812,-30.0004,136,8,-4.130628e-07,-30
952,66.04296,1657950421.0,0.230013,-30.00031,136,8,-4.126393e-07,-30
953,66.11218,1657950421.0,0.299235,-30.0003,136,8,-4.127725e-07,-30
954,66.1814,1657950421.0,0.368454,-30.00031,136,8,-4.136763e-07,-30
955,66.25061,1657950421.0,0.437664,-30.00029,136,8,-4.129006e-07,-30
956,66.31981,1657950421.0,0.506864,-30.00032,136,8,-4.134825e-07,-30
957,66.38904,1657950421.0,0.576086,-30.00032,136,8,-4.139924e-07,-30
958,66.45824,1657950421.0,0.645293,-30.00024,136,8,-4.15019e-07,-30
959,66.52747,1657950421.0,0.714516,-30.00022,136,8,-4.128307e-07,-30
960,66.59668,1657950421.0,0.783731,-30.0002,136,8,-4.140286e-07,-30
961,66.6659,1657950421.0,0.852949,-30.00023,136,8,-4.140109e-07,-30
962,66.7351,1657950421.0,0.922155,-30.00025,136,8,-4.133699e-07,-30
963,66.80433,1657950421.0,0.991378,-30.00024,136,8,-4.133591e-07,-30
964,66.87354,1657950422.0,0.0605862,-30.00021,136,8,-4.148073e-07,-30
965,66.94276,1657950422.0,0.129814,-30.00024,136,8,-4.127737e-07,-30
966,67.01198,1657950422.0,0.199029,-30.00021,136,8,-4.122981e-07,-30
967,67.08119,1657950422.0,0.268244,-30.00027,136,8,-4.138828e-07,-30
968,67.15039,1657950422.0,0.337444,-30.00022,136,8,-4.130296e-07,-30
969,67.21959,1657950422.0,0.406643,-30.0002,136,8,-4.130501e-07,-30
970,67.28881,1657950422.0,0.475858,-30.00023,136,8,-4.132139e-07,-30
971,67.35801,1657950422.0,0.545065,-30.00018,136,8,-4.128804e-07,-30
972,67.42723,1657950422.0,0.614277,-30.00025,136,8,-4.139062e-07,-30
973,67.49643,1657950422.0,0.68348,-30.00018,136,8,-4.144298e-07,-30
974,67.56564,1657950422.0,0.752686,-30.00025,136,8,-4.144522e-07,-30
975,67.63484,1657950422.0,0.821891,-30.00025,136,8,-4.128385e-07,-30
976,67.70405,1657950422.0,0.891099,-30.00028,136,8,-4.124259e-07,-30
977,67.77326,1657950422.0,0.960316,-30.00021,136,8,-4.14658e-07,-30
978,67.84248,1657950423.0,0.0295336,-30.00026,136,8,-4.112787e-07,-30
979,67.91169,1657950423.0,0.098746,-30.00022,136,8,-4.12824e-07,-30
980,67.98092,1657950423.0,0.167966,-30.00023,136,8,-4.137947e-07,-30
981,68.05012,1657950423.0,0.237172,-30.0002,136,8,-4.13961e-07,-30
982,68.11934,1657950423.0,0.306396,-30.0002,136,8,-4.139099e-07,-30
983,68.18855,1657950423.0,0.375604,-30.00018,136,8,-4.143946e-07,-30
984,68.25776,1657950423.0,0.444806,-30.00025,136,8,-4.146447e-07,-30
985,68.32697,1657950423.0,0.514018,-30.00027,136,8,-4.136471e-07,-30
986,68.39617,1657950423.0,0.583222,-30.00035,136,8,-4.11303e-07,-30
987,68.46539,1657950423.0,0.652444,-30.00026,136,8,-4.122944e-07,-30
988,68.53461,1657950423.0,0.721663,-30.00034,136,8,-4.116894e-07,-30
989,68.60381,1657950423.0,0.790863,-30.00024,136,8,-4.127762e-07,-30
990,68.67302,1657950423.0,0.860069,-30.00027,136,8,-4.128783e-07,-30
991,68.74223,1657950423.0,0.929283,-30.00024,136,8,-4.131028e-07,-30
992,68.81144,1657950423.0,0.998489,-30.00023,136,8,-4.14748e-07,-30
993,68.88064,1657950424.0,0.0676953,-30.00032,136,8,-4.120928e-07,-30
994,68.94986,1657950424.0,0.136912,-30.0003,136,8,-4.128886e-07,-30
995,69.01907,1657950424.0,0.206125,-30.00026,136,8,-4.136322e-07,-30
996,69.08829,1657950424.0,0.275338,-30.00021,136,8,-4.136224e-07,-30
997,69.1575,1657950424.0,0.344549,-30.00028,136,8,-4.132549e-07,-30
998,69.22671,1657950424.0,0.413756,-30.00034,136,8,-4.127205e-07,-30
999,69.29591,1657950424.0,0.482961,-30.00039,136,8,-4.140751e-07,-30
1000,69.36512,1657950424.0,0.552169,-30.00037,136,8,-4.136492e-07,-30
1001,69.43434,1657950424.0,0.621388,-30.00034,136,8,-4.124676e-07,-30
1002,69.50355,1657950424.0,0.690604,-30.00038,136,8,-4.138105e-07,-30
1003,69.57276,1657950424.0,0.759809,-30.00025,136,8,-4.153559e-07,-30
1004,69.64196,1657950424.0,0.829011,-30.00037,136,8,-4.124022e-07,-30
1005,69.71117,1657950424.0,0.898222,-30.00034,136,8,-4.119195e-07,-30
1006,69.78039,1657950424.0,0.967438,-30.00041,136,8,-4.118766e-07,-30
1007,69.8496,1657950425.0,0.0366511,-30.00037,136,8,-4.128461e-07,-30
1008,69.9188,1657950425.0,0.105852,-30.00027,136,8,-4.129332e-07,-30
1009,69.98802,1657950425.0,0.175072,-30.00029,136,8,-4.118877e-07,-30
1010,70.05723,1657950425.0,0.244278,-30.00033,136,8,-4.126605e-07,-30
1011,70.12643,1657950425.0,0.313482,-30.00029,136,8,-4.145662e-07,-30
1012,70.19565,1657950425.0,0.382704,-30.00037,136,8,-4.12873e-07,-30
1013,70.26487,1657950425.0,0.451923,-30.00031,136,8,-4.122633e-07,-30
1014,70.33409,1657950425.0,0.521138,-30.00031,136,8,-4.1161e-07,-30
1015,70.4033,1657950425.0,0.590348,-30.00026,136,8,-4.121497e-07,-30
1016,70.47251,1657950425.0,0.659557,-30.00031,136,8,-4.124022e-07,-30
1017,70.54171,1657950425.0,0.728758,-30.00029,136,8,-4.118124e-07,-30
1018,70.61091,1657950425.0,0.797964,-30.00027,136,8,-4.129203e-07,-30
1019,70.68013,1657950425.0,0.867176,-30.00022,136,8,-4.123147e-07,-30
1020,70.74934,1657950425.0,0.936388,-30.00028,136,8,-4.122676e-07,-30
1021,70.81854,1657950426.0,0.00559564,-30.00031,136,8,-4.128402e-07,-30
1022,70.88776,1657950426.0,0.0748108,-30.00031,136,8,-4.113343e-07,-30
1023,70.95697,1657950426.0,0.144017,-30.00028,136,8,-4.118364e-07,-30
1024,71.02618,1657950426.0,0.213229,-30.00036,136,8,-4.12707e-07,-30
1025,71.09541,1657950426.0,0.282456,-30.00028,136,8,-4.126939e-07,-30
1026,71.16463,1657950426.0,0.351677,-30.00027,136,8,-4.127153e-07,-30
1027,71.23384,1657950426.0,0.420889,-30.00028,136,8,-4.128858e-07,-30
1028,71.30304,1657950426.0,0.490091,-30.00036,136,8,-4.110466e-07,-30
1029,71.37225,1657950426.0,0.559302,-30.00024,136,8,-4.129817e-07,-30
1030,71.44146,1657950426.0,0.628508,-30.00038,136,8,-4.142969e-07,-30
1031,71.51067,1657950426.0,0.697716,-30.00027,136,8,-4.138639e-07,-30
1032,71.57988,1657950426.0,0.766928,-30.00025,136,8,-4.141646e-07,-30
1033,71.64908,1657950426.0,0.836128,-30.00034,136,8,-4.1368e-07,-30
1034,71.71828,1657950426.0,0.905334,-30.00026,136,8,-4.122303e-07,-30
1035,71.78748,1657950426.0,0.974535,-30.00031,136,8,-4.115767e-07,-30
1036,71.85671,1657950427.0,0.0437565,-30.00024,136,8,-4.12047e-07,-30
1037,71.92592,1657950427.0,0.112972,-30.00029,136,8,-4.128674e-07,-30
1038,71.99514,1657950427.0,0.182191,-30.00031,136,8,-4.120238e-07,-30
1039,72.06436,1657950427.0,0.251411,-30.00024,136,8,-4.139262e-07,-30
1040,72.13356,1657950427.0,0.320613,-30.0002,136,8,-4.126783e-07,-30
1041,72.20277,1657950427.0,0.389818,-30.00028,136,8,-4.120918e-07,-30
1042,72.27198,1657950427.0,0.459028,-30.00022,136,8,-4.122149e-07,-30
1043,72.34119,1657950427.0,0.52824,-30.00028,136,8,-4.122748e-07,-30
1044,72.41042,1657950427.0,0.59747,-30.00027,136,8,-4.123816e-07,-30
1045,72.47964,1657950427.0,0.666687,-30.00026,136,8,-4.109226e-07,-30
1046,72.54885,1657950427.0,0.735903,-30.00031,136,8,-4.132804e-07,-30
1047,72.61805,1657950427.0,0.805103,-30.00026,136,8,-4.107516e-07,-30
1048,72.68727,1657950427.0,0.874317,-30.00033,136,8,-4.134977e-07,-30
1049,72.75647,1657950427.0,0.94352,-30.00027,136,8,-4.130908e-07,-30
1050,72.82567,1657950428.0,0.0127255,-30.00018,136,8,-4.1388e-07,-30
1051,72.89487,1657950428.0,0.0819249,-30.00013,136,8,-4.115765e-07,-30
1052,72.96408,1657950428.0,0.151129,-30.00026,136,8,-4.126997e-07,-30
1053,73.03329,1657950428.0,0.220341,-30.00027,136,8,-4.118621e-07,-30
1054,73.10251,1657950428.0,0.289562,-30.00026,136,8,-4.1175e-07,-30
1055,73.17172,1657950428.0,0.358774,-30.00023,136,8,-4.115678e-07,-30
1056,73.24093,1657950428.0,0.427978,-30.00022,136,8,-4.133699e-07,-30
1057,73.31014,1657950428.0,0.497188,-30.00019,136,8,-4.115049e-07,-30
1058,73.37935,1657950428.0,0.566404,-30.00024,136,8,-4.117977e-07,-30
1059,73.44856,1657950428.0,0.635611,-30.00029,136,8,-4.121326e-07,-30
1060,73.51776,1657950428.0,0.704814,-30.00024,136,8,-4.115589e-07,-30
1061,73.58696,1657950428.0,0.774012,-30.0002,136,8,-4.137178e-07,-30
1062,73.65618,1657950428.0,0.843226,-30.00024,136,8,-4.147941e-07,-30
1063,73.72541,1657950428.0,0.912457,-30.00026,136,8,-4.128914e-07,-30
1064,73.79461,1657950428.0,0.981657,-30.00029,136,8,-4.134641e-07,-30
1065,73.86382,1657950429.0,0.0508697,-30.00034,136,8,-4.125123e-07,-30
1066,73.93302,1657950429.0,0.120075,-30.00029,136,8,-4.112275e-07,-30
1067,74.00223,1657950429.0,0.189278,-30.00038,136,8,-4.117939e-07,-30
1068,74.07144,1657950429.0,0.258491,-30.0003,136,8,-4.121136e-07,-30
1069,74.14065,1657950429.0,0.327697,-30.00032,136,8,-4.142734e-07,-30
1070,74.20986,1657950429.0,0.396908,-30.00035,136,8,-4.135704e-07,-30
1071,74.27908,1657950429.0,0.46613,-30.00029,136,8,-4.12794e-07,-30
1072,74.34829,1657950429.0,0.535344,-30.00035,136,8,-4.124517e-07,-30
1073,74.41751,1657950429.0,0.604562,-30.00022,136,8,-4.114146e-07,-30
1074,74.48672,1657950429.0,0.673769,-30.00023,136,8,-4.106173e-07,-30
1075,74.55593,1657950429.0,0.742979,-30.00023,136,8,-4.107992e-07,-30
1076,74.62514,1657950429.0,0.812191,-30.00038,136,8,-4.114483e-07,-30
1077,74.69436,1657950429.0,0.881409,-30.00027,136,8,-4.137257e-07,-30
1078,74.76356,1657950429.0,0.950614,-30.00036,136,8,-4.114613e-07,-30
1079,74.83277,1657950430.0,0.0198169,-30.00035,136,8,-4.109286e-07,-30
1080,74.90198,1657950430.0,0.0890299,-30.00032,136,8,-4.109584e-07,-30
1081,74.9712,1657950430.0,0.158248,-30.00034,136,8,-4.122611e-07,-30
1082,75.04041,1657950430.0,0.227459,-30.00026,136,8,-4.109491e-07,-30
1083,75.10962,1657950430.0,0.296673,-30.00028,136,8,-4.118637e-07,-30
1084,75.17885,1657950430.0,0.3659,-30.00031,136,8,-4.124374e-07,-30
1085,75.24805,1657950430.0,0.435101,-30.00023,136,8,-4.111241e-07,-30
1086,75.31726,1657950430.0,0.504316,-30.00026,136,8,-4.104876e-07,-30
1087,75.38648,1657950430.0,0.573535,-30.00034,136,8,-4.106021e-07,-30
1088,75.45569,1657950430.0,0.642737,-30.00035,136,8,-4.138182e-07,-30
1089,75.5249,1657950430.0,0.711951,-30.00026,136,8,-4.113929e-07,-30
1090,75.59411,1657950430.0,0.781161,-30.00036,136,8,-4.098153e-07,-30
1091,75.66332,1657950430.0,0.850369,-30.00036,136,8,-4.107573e-07,-30
1092,75.73252,1657950430.0,0.919574,-30.00033,136,8,-4.134476e-07,-30
1093,75.80173,1657950430.0,0.988786,-30.00033,136,8,-4.122377e-07,-30
1094,75.87095,1657950431.0,0.0580041,-30.00035,136,8,-4.122813e-07,-30
1095,75.94017,1657950431.0,0.127222,-30.00028,136,8,-4.098439e-07,-30
1096,76.00939,1657950431.0,0.196439,-30.00035,136,8,-4.128808e-07,-30
1097,76.0786,1657950431.0,0.265649,-30.00028,136,8,-4.136887e-07,-30
1098,76.14781,1657950431.0,0.33486,-30.00037,136,8,-4.108985e-07,-30
1099,76.21703,1657950431.0,0.40408,-30.00032,136,8,-4.124001e-07,-30
1100,76.28623,1657950431.0,0.473286,-30.00039,136,8,-4.131529e-07,-30
1101,76.35546,1657950431.0,0.542507,-30.0004,136,8,-4.09759e-07,-30
1102,76.42466,1657950431.0,0.611715,-30.00033,136,8,-4.116814e-07,-30
1103,76.49387,1657950431.0,0.680922,-30.00032,136,8,-4.117399e-07,-30
1104,76.56308,1657950431.0,0.750126,-30.00037,136,8,-4.121883e-07,-30
1105,76.63229,1657950431.0,0.819342,-30.00039,136,8,-4.116042e-07,-30
1106,76.7015,1657950431.0,0.888555,-30.00035,136,8,-4.111737e-07,-30
1107,76.77072,1657950431.0,0.957775,-30.00038,136,8,-4.116334e-07,-30
1108,76.83993,1657950432.0,0.0269783,-30.00035,136,8,-4.123633e-07,-30
1109,76.90913,1657950432.0,0.0961818,-30.00037,136,8,-4.120293e-07,-30
1110,76.97835,1657950432.0,0.165399,-30.00028,136,8,-4.12153e-07,-30
1111,77.04756,1657950432.0,0.234606,-30.00034,136,8,-4.116239e-07,-30
1112,77.11675,1657950432.0,0.303804,-30.00036,136,8,-4.118121e-07,-30
1113,77.18597,1657950432.0,0.373021,-30.00035,136,8,-4.126127e-07,-30
1114,77.25517,1657950432.0,0.442223,-30.0003,136,8,-4.098851e-07,-30
1115,77.32439,1657950432.0,0.511439,-30.0003,136,8,-4.100102e-07,-30
1116,77.39359,1657950432.0,0.58064,-30.00037,136,8,-4.102375e-07,-30
1117,77.46281,1657950432.0,0.649857,-30.00024,136,8,-4.111008e-07,-30
1118,77.53203,1657950432.0,0.719078,-30.00031,136,8,-4.119684e-07,-30
1119,77.60123,1657950432.0,0.788281,-30.00034,136,8,-4.149232e-07,-30
1120,77.67045,1657950432.0,0.857504,-30.00034,136,8,-4.126715e-07,-30
1121,77.73967,1657950432.0,0.926726,-30.00032,136,8,-4.126767e-07,-30
1122,77.80888,1657950432.0,0.99593,-30.00031,136,8,-4.089454e-07,-30
1123,77.87808,1657950433.0,0.0651349,-30.00031,136,8,-4.120715e-07,-30
1124,77.94729,1657950433.0,0.134343,-30.00028,136,8,-4.124683e-07,-30
1125,78.01651,1657950433.0,0.203563,-30.00041,136,8,-4.118222e-07,-30
1126,78.08572,1657950433.0,0.272774,-30.00029,136,8,-4.117441e-07,-30
1127,78.15493,1657950433.0,0.341977,-30.00027,136,8,-4.115956e-07,-30
1128,78.22414,1657950433.0,0.411192,-30.00026,136,8,-4.104108e-07,-30
1129,78.29335,1657950433.0,0.480398,-30.0003,136,8,-4.106571e-07,-30
1130,78.36257,1657950433.0,0.549618,-30.00021,136,8,-4.113963e-07,-30
1131,78.43178,1657950433.0,0.618829,-30.00026,136,8,-4.121755e-07,-30
1132,78.50098,1657950433.0,0.688034,-30.00018,136,8,-4.107552e-07,-30
1133,78.5702,1657950433.0,0.757252,-30.00031,136,8,-4.099416e-07,-30
1134,78.63941,1657950433.0,0.826463,-30.00027,136,8,-4.116372e-07,-30
1135,78.70863,1657950433.0,0.89568,-30.00019,136,8,-4.104117e-07,-30
1136,78.77783,1657950433.0,0.964885,-30.00025,136,8,-4.121294e-07,-30
1137,78.84704,1657950434.0,0.0340874,-30.00027,136,8,-4.096121e-07,-30
1138,78.91624,1657950434.0,0.103291,-30.00029,136,8,-4.100456e-07,-30
1139,78.98546,1657950434.0,0.172509,-30.00024,136,8,-4.112498e-07,-30
1140,79.05467,1657950434.0,0.241722,-30.00031,136,8,-4.120796e-07,-30
1141,79.12388,1657950434.0,0.310936,-30.00028,136,8,-4.117207e-07,-30
1142,79.1931,1657950434.0,0.380147,-30.00027,136,8,-4.106049e-07,-30
1143,79.2623,1657950434.0,0.449356,-30.00029,136,8,-4.124108e-07,-30
1144,79.33153,1657950434.0,0.518579,-30.00029,136,8,-4.122381e-07,-30
1145,79.40073,1657950434.0,0.587785,-30.00027,136,8,-4.11168e-07,-30
1146,79.46994,1657950434.0,0.656993,-30.00026,136,8,-4.099695e-07,-30
1147,79.53916,1657950434.0,0.726206,-30.00015,136,8,-4.108197e-07,-30
1148,79.60836,1657950434.0,0.795406,-30.00029,136,8,-4.121268e-07,-30
1149,79.67757,1657950434.0,0.864624,-30.00034,136,8,-4.124568e-07,-30
1150,79.74679,1657950434.0,0.933841,-30.00024,136,8,-4.111995e-07,-30
1151,79.816,1657950435.0,0.003053,-30.00026,136,8,-4.120193e-07,-30
1152,79.8852,1657950435.0,0.0722529,-30.00033,136,8,-4.122052e-07,-30
1153,79.95442,1657950435.0,0.141473,-30.00027,136,8,-4.096223e-07,-30
1154,80.02364,1657950435.0,0.21069,-30.00031,136,8,-4.094298e-07,-30
1155,80.09286,1657950435.0,0.27991,-30.00034,136,8,-4.103352e-07,-30
1156,80.16206,1657950435.0,0.349115,-30.00027,136,8,-4.110696e-07,-30
1157,80.23128,1657950435.0,0.418326,-30.00031,136,8,-4.125889e-07,-30
1158,80.30048,1657950435.0,0.487535,-30.00034,136,8,-4.117143e-07,-30
1159,80.36969,1657950435.0,0.556743,-30.00033,136,8,-4.128229e-07,-30
1160,80.4389,1657950435.0,0.625956,-30.00037,136,8,-4.126503e-07,-30
1161,80.50812,1657950435.0,0.695171,-30.00041,136,8,-4.120036e-07,-30
1162,80.57734,1657950435.0,0.764388,-30.00039,136,8,-4.106671e-07,-30
1163,80.64656,1657950435.0,0.833606,-30.0004,136,8,-4.1057e-07,-30
1164,80.71576,1657950435.0,0.902815,-30.0004,136,8,-4.110738e-07,-30
1165,80.78498,1657950435.0,0.972029,-30.00039,136,8,-4.113137e-07,-30
1166,80.85418,1657950436.0,0.0412326,-30.00037,136,8,-4.097314e-07,-30
1167,80.92339,1657950436.0,0.110436,-30.00034,136,8,-4.107911e-07,-30
1168,80.99258,1657950436.0,0.179636,-30.00042,136,8,-4.130116e-07,-30
1169,81.0618,1657950436.0,0.248856,-30.00035,136,8,-4.099612e-07,-30
1170,81.13102,1657950436.0,0.318067,-30.00041,136,8,-4.103476e-07,-30
1171,81.20022,1657950436.0,0.387275,-30.00031,136,8,-4.133699e-07,-30
1172,81.26944,1657950436.0,0.456486,-30.00035,136,8,-4.11578e-07,-30
1173,81.33865,1657950436.0,0.525699,-30.00039,136,8,-4.101915e-07,-30
1174,81.40785,1657950436.0,0.594905,-30.00041,136,8,-4.103827e-07,-30
1175,81.47706,1657950436.0,0.66411,-30.00037,136,8,-4.103803e-07,-30
1176,81.54628,1657950436.0,0.733327,-30.00024,136,8,-4.102742e-07,-30
1177,81.61549,1657950436.0,0.802541,-30.00031,136,8,-4.119159e-07,-30
1178,81.68469,1657950436.0,0.871744,-30.00027,136,8,-4.136228e-07,-30
1179,81.7539,1657950436.0,0.940953,-30.00031,136,8,-4.118203e-07,-30
1180,81.82311,1657950437.0,0.0101566,-30.0003,136,8,-4.106934e-07,-30
1181,81.89231,1657950437.0,0.0793624,-30.00027,136,8,-4.110908e-07,-30
1182,81.96154,1657950437.0,0.148589,-30.00028,136,8,-4.11593e-07,-30
1183,82.03074,1657950437.0,0.217793,-30.00031,136,8,-4.106178e-07,-30
1184,82.09997,1657950437.0,0.287021,-30.00031,136,8,-4.118694e-07,-30
1185,82.16917,1657950437.0,0.356223,-30.00025,136,8,-4.114992e-07,-30
1186,82.23838,1657950437.0,0.425427,-30.00028,136,8,-4.120332e-07,-30
1187,82.30759,1657950437.0,0.494636,-30.00027,136,8,-4.083404e-07,-30
1188,82.3768,1657950437.0,0.563847,-30.00019,136,8,-4.095807e-07,-30
1189,82.44601,1657950437.0,0.633056,-30.00029,136,8,-4.111119e-07,-30
1190,82.51521,1657950437.0,0.702263,-30.00026,136,8,-4.107964e-07,-30
1191,82.58444,1657950437.0,0.771488,-30.00029,136,8,-4.110007e-07,-30
1192,82.65366,1657950437.0,0.840707,-30.00018,136,8,-4.112204e-07,-30
1193,82.72287,1657950437.0,0.909917,-30.00025,136,8,-4.107005e-07,-30
1194,82.79208,1657950437.0,0.979129,-30.00022,136,8,-4.087351e-07,-30
1195,82.86129,1657950438.0,0.0483453,-30.00031,136,8,-4.121018e-07,-30
1196,82.93052,1657950438.0,0.117568,-30.00031,136,8,-4.097791e-07,-30
1197,82.99972,1657950438.0,0.186776,-30.00024,136,8,-4.100689e-07,-30
1198,83.06893,1657950438.0,0.255982,-30.00028,136,8,-4.110483e-07,-30
1199,83.13814,1657950438.0,0.325194,-30.00032,136,8,-4.112689e-07,-30
1200,83.20736,1657950438.0,0.394408,-30.00026,136,8,-4.098897e-07,-30
1201,83.27657,1657950438.0,0.463619,-30.00034,136,8,-4.111339e-07,-30
1202,83.34578,1657950438.0,0.532829,-30.00036,136,8,-4.100111e-07,-30
1203,83.41498,1657950438.0,0.60203,-30.00032,136,8,-4.102989e-07,-30
1204,83.48418,1657950438.0,0.671235,-30.0003,136,8,-4.120338e-07,-30
1205,83.5534,1657950438.0,0.740454,-30.00031,136,8,-4.112397e-07,-30
1206,83.62262,1657950438.0,0.809668,-30.00023,136,8,-4.110391e-07,-30
1207,83.69183,1657950438.0,0.878885,-30.00029,136,8,-4.102154e-07,-30
1208,83.76104,1657950438.0,0.948087,-30.00025,136,8,-4.08649e-07,-30
1209,83.83024,1657950439.0,0.0172939,-30.00024,136,8,-4.102247e-07,-30
1210,83.89946,1657950439.0,0.0865067,-30.00027,136,8,-4.098102e-07,-30
1211,83.96867,1657950439.0,0.155721,-30.00031,136,8,-4.112161e-07,-30
1212,84.03788,1657950439.0,0.224932,-30.00035,136,8,-4.088724e-07,-30
1213,84.10709,1657950439.0,0.294137,-30.00023,136,8,-4.109511e-07,-30
1214,84.1763,1657950439.0,0.363355,-30.00027,136,8,-4.112361e-07,-30
1215,84.24553,1657950439.0,0.43258,-30.00032,136,8,-4.099796e-07,-30
1216,84.31474,1657950439.0,0.501791,-30.00021,136,8,-4.096603e-07,-30
1217,84.38395,1657950439.0,0.570998,-30.00031,136,8,-4.105591e-07,-30
1218,84.45315,1657950439.0,0.640201,-30.0002,136,8,-4.105364e-07,-30
1219,84.52237,1657950439.0,0.70942,-30.00025,136,8,-4.097801e-07,-30
1220,84.59157,1657950439.0,0.778622,-30.00019,136,8,-4.096905e-07,-30
1221,84.66078,1657950439.0,0.847832,-30.00023,136,8,-4.08616e-07,-30
1222,84.72999,1657950439.0,0.917043,-30.00022,136,8,-4.100527e-07,-30
1223,84.79921,1657950439.0,0.986256,-30.00021,136,8,-4.08144e-07,-30
1224,84.86841,1657950440.0,0.0554577,-30.00025,136,8,-4.09474e-07,-30
1225,84.93761,1657950440.0,0.124661,-30.00028,136,8,-4.100652e-07,-30
1226,85.00681,1657950440.0,0.193863,-30.00022,136,8,-4.118742e-07,-30
1227,85.07603,1657950440.0,0.263077,-30.00023,136,8,-4.114719e-07,-30
1228,85.14524,1657950440.0,0.332294,-30.00017,136,8,-4.114741e-07,-30
1229,85.21446,1657950440.0,0.401507,-30.00021,136,8,-4.117556e-07,-30
1230,85.28365,1657950440.0,0.470706,-30.00027,136,8,-4.102188e-07,-30
1231,85.35287,1657950440.0,0.539923,-30.00026,136,8,-4.118687e-07,-30
1232,85.42208,1657950440.0,0.60913,-30.00034,136,8,-4.115429e-07,-30
1233,85.49128,1657950440.0,0.678331,-30.00025,136,8,-4.098844e-07,-30
1234,85.56049,1657950440.0,0.74754,-30.00024,136,8,-4.103588e-07,-30
1235,85.62971,1657950440.0,0.816761,-30.00031,136,8,-4.125786e-07,-30
1236,85.69892,1657950440.0,0.885973,-30.00032,136,8,-4.107604e-07,-30
1237,85.76813,1657950440.0,0.955178,-30.00036,136,8,-4.109109e-07,-30
1238,85.83733,1657950441.0,0.0243784,-30.00035,136,8,-4.114578e-07,-30
1239,85.90655,1657950441.0,0.0936001,-30.00035,136,8,-4.122377e-07,-30
1240,85.97576,1657950441.0,0.162812,-30.00039,136,8,-4.117633e-07,-30
1241,86.04497,1657950441.0,0.232017,-30.00035,136,8,-4.104789e-07,-30
1242,86.11417,1657950441.0,0.301218,-30.00028,136,8,-4.088436e-07,-30
1243,86.18339,1657950441.0,0.370438,-30.00026,136,8,-4.098177e-07,-30
1244,86.25261,1657950441.0,0.43966,-30.00025,136,8,-4.087828e-07,-30
1245,86.32181,1657950441.0,0.508864,-30.00036,136,8,-4.090434e-07,-30
1246,86.39102,1657950441.0,0.578072,-30.00023,136,8,-4.09578e-07,-30
1247,86.46024,1657950441.0,0.64729,-30.00038,136,8,-4.103255e-07,-30
1248,86.52945,1657950441.0,0.716503,-30.00028,136,8,-4.125909e-07,-30
1249,86.59867,1657950441.0,0.785719,-30.00033,136,8,-4.10172e-07,-30
1250,86.66789,1657950441.0,0.854938,-30.00035,136,8,-4.091746e-07,-30
1251,86.73709,1657950441.0,0.924146,-30.0004,136,8,-4.091635e-07,-30
1252,86.80631,1657950441.0,0.993365,-30.0004,136,8,-4.075223e-07,-30
1253,86.87554,1657950442.0,0.0625888,-30.00036,136,8,-4.116088e-07,-30
1254,86.94474,1657950442.0,0.131792,-30.00034,136,8,-4.100859e-07,-30
1255,87.01395,1657950442.0,0.201003,-30.00031,136,8,-4.109577e-07,-30
1256,87.08316,1657950442.0,0.270208,-30.00044,136,8,-4.112634e-07,-30
1257,87.15237,1657950442.0,0.33942,-30.00024,136,8,-4.105257e-07,-30
1258,87.22159,1657950442.0,0.408644,-30.00025,136,8,-4.114337e-07,-30
1259,87.29081,1657950442.0,0.477859,-30.00031,136,8,-4.087194e-07,-30
1260,87.36003,1657950442.0,0.547077,-30.00027,136,8,-4.115336e-07,-30
1261,87.42925,1657950442.0,0.616298,-30.00023,136,8,-4.097614e-07,-30
1262,87.49847,1657950442.0,0.68552,-30.00032,136,8,-4.089979e-07,-30
1263,87.56769,1657950442.0,0.754738,-30.00034,136,8,-4.101953e-07,-30
1264,87.63689,1657950442.0,0.823944,-30.00027,136,8,-4.100871e-07,-30
1265,87.70611,1657950442.0,0.893159,-30.00018,136,8,-4.097411e-07,-30
1266,87.77532,1657950442.0,0.962375,-30.00028,136,8,-4.088176e-07,-30
1267,87.84454,1657950443.0,0.0315875,-30.00035,136,8,-4.105958e-07,-30
1268,87.91374,1657950443.0,0.100788,-30.00031,136,8,-4.109463e-07,-30
1269,87.98294,1657950443.0,0.16999,-30.00028,136,8,-4.11617e-07,-30
1270,88.05214,1657950443.0,0.239196,-30.00028,136,8,-4.091635e-07,-30
1271,88.12135,1657950443.0,0.308401,-30.00039,136,8,-4.106369e-07,-30
1272,88.19057,1657950443.0,0.377618,-30.0003,136,8,-4.118393e-07,-30
1273,88.25978,1657950443.0,0.446826,-30.00029,136,8,-4.108943e-07,-30
1274,88.32899,1657950443.0,0.516043,-30.00025,136,8,-4.112378e-07,-30
1275,88.39821,1657950443.0,0.585262,-30.00028,136,8,-4.110221e-07,-30
1276,88.46743,1657950443.0,0.654481,-30.00025,136,8,-4.096276e-07,-30
1277,88.53663,1657950443.0,0.723685,-30.00038,136,8,-4.094948e-07,-30
1278,88.60584,1657950443.0,0.792893,-30.00035,136,8,-4.078084e-07,-30
1279,88.67507,1657950443.0,0.862116,-30.00036,136,8,-4.087041e-07,-30
1280,88.74428,1657950443.0,0.931332,-30.00026,136,8,-4.082655e-07,-30
1281,88.8135,1657950444.0,0.00055076,-30.00039,136,8,-4.086761e-07,-30
1282,88.88271,1657950444.0,0.0697656,-30.00035,136,8,-4.082052e-07,-30
1283,88.95193,1657950444.0,0.138977,-30.00026,136,8,-4.103502e-07,-30
1284,89.02113,1657950444.0,0.208184,-30.00032,136,8,-4.096346e-07,-30
1285,89.09034,1657950444.0,0.277393,-30.00029,136,8,-4.108367e-07,-30
1286,89.15957,1657950444.0,0.346621,-30.00031,136,8,-4.110415e-07,-30
1287,89.22877,1657950444.0,0.415824,-30.00028,136,8,-4.105534e-07,-30
1288,89.29799,1657950444.0,0.485044,-30.00024,136,8,-4.107271e-07,-30
1289,89.3672,1657950444.0,0.554254,-30.00022,136,8,-4.117419e-07,-30
1290,89.43642,1657950444.0,0.623473,-30.00028,136,8,-4.102749e-07,-30
1291,89.50564,1657950444.0,0.692695,-30.00026,136,8,-4.079761e-07,-30
1292,89.57485,1657950444.0,0.7619,-30.00028,136,8,-4.089845e-07,-30
1293,89.64406,1657950444.0,0.831109,-30.00026,136,8,-4.073972e-07,-30
1294,89.71326,1657950444.0,0.90031,-30.00028,136,8,-4.111836e-07,-30
1295,89.78248,1657950444.0,0.969528,-30.00034,136,8,-4.091705e-07,-30
1296,89.85169,1657950445.0,0.0387404,-30.00026,136,8,-4.122734e-07,-30
1297,89.9209,1657950445.0,0.107953,-30.00023,136,8,-4.090495e-07,-30
1298,89.99012,1657950445.0,0.17717,-30.00025,136,8,-4.101349e-07,-30
1299,90.05934,1657950445.0,0.246393,-30.00033,136,8,-4.113788e-07,-30
1300,90.12857,1657950445.0,0.315618,-30.00033,136,8,-4.078154e-07,-30
1301,90.19778,1657950445.0,0.384828,-30.00035,136,8,-4.112694e-07,-30
1302,90.26698,1657950445.0,0.454033,-30.00027,136,8,-4.099895e-07,-30
1303,90.33619,1657950445.0,0.523241,-30.00031,136,8,-4.091617e-07,-30
1304,90.40541,1657950445.0,0.592458,-30.00034,136,8,-4.094292e-07,-30
1305,90.47462,1657950445.0,0.661666,-30.00038,136,8,-4.091383e-07,-30
1306,90.54382,1657950445.0,0.730874,-30.00034,136,8,-4.084954e-07,-30
1307,90.61302,1657950445.0,0.800073,-30.00024,136,8,-4.100609e-07,-30
1308,90.68223,1657950445.0,0.869279,-30.00032,136,8,-4.088492e-07,-30
1309,90.75144,1657950445.0,0.938489,-30.00029,136,8,-4.094611e-07,-30
1310,90.82064,1657950446.0,0.0076869,-30.0002,136,8,-4.100405e-07,-30
1311,90.88984,1657950446.0,0.0768923,-30.00026,136,8,-4.10105e-07,-30
1312,90.95906,1657950446.0,0.146107,-30.00037,136,8,-4.068115e-07,-30
1313,91.02827,1657950446.0,0.215321,-30.00027,136,8,-4.083648e-07,-30
1314,91.09748,1657950446.0,0.284527,-30.00035,136,8,-4.10461e-07,-30
1315,91.16668,1657950446.0,0.353732,-30.00032,136,8,-4.111089e-07,-30
1316,91.2359,1657950446.0,0.422952,-30.00033,136,8,-4.092551e-07,-30
1317,91.30512,1657950446.0,0.492169,-30.00033,136,8,-4.093495e-07,-30
1318,91.37434,1657950446.0,0.561389,-30.00025,136,8,-4.105124e-07,-30
1319,91.44355,1657950446.0,0.630599,-30.00035,136,8,-4.084895e-07,-30
1320,91.51277,1657950446.0,0.699825,-30.00035,136,8,-4.09683e-07,-30
1321,91.58199,1657950446.0,0.769041,-30.00032,136,8,-4.095464e-07,-30
1322,91.6512,1657950446.0,0.838254,-30.00036,136,8,-4.076161e-07,-30
1323,91.72042,1657950446.0,0.907468,-30.00037,136,8,-4.072038e-07,-30
1324,91.78963,1657950446.0,0.976679,-30.00038,136,8,-4.121484e-07,-30
1325,91.85884,1657950447.0,0.0458901,-30.00039,136,8,-4.092475e-07,-30
1326,91.92804,1657950447.0,0.115093,-30.00028,136,8,-4.082538e-07,-30
1327,91.99726,1657950447.0,0.18431,-30.00035,136,8,-4.089766e-07,-30
1328,92.06647,1657950447.0,0.25352,-30.00031,136,8,-4.091449e-07,-30
1329,92.13569,1657950447.0,0.322739,-30.00037,136,8,-4.099393e-07,-30
1330,92.2049,1657950447.0,0.391947,-30.00025,136,8,-4.090279e-07,-30
1331,92.2741,1657950447.0,0.461147,-30.00026,136,8,-4.10337e-07,-30
1332,92.34331,1657950447.0,0.530358,-30.00027,136,8,-4.09992e-07,-30
1333,92.41252,1657950447.0,0.599567,-30.00027,136,8,-4.099143e-07,-30
1334,92.48173,1657950447.0,0.66878,-30.00043,136,8,-4.093043e-07,-30
1335,92.55094,1657950447.0,0.737988,-30.00035,136,8,-4.094583e-07,-30
1336,92.62014,1657950447.0,0.80719,-30.00038,136,8,-4.100424e-07,-30
1337,92.68935,1657950447.0,0.876398,-30.00035,136,8,-4.09931e-07,-30
1338,92.75857,1657950447.0,0.945622,-30.00024,136,8,-4.093095e-07,-30
1339,92.82779,1657950448.0,0.0148397,-30.00026,136,8,-4.123977e-07,-30
1340,92.897,1657950448.0,0.0840483,-30.00027,136,8,-4.090478e-07,-30
1341,92.96622,1657950448.0,0.153268,-30.00028,136,8,-4.092521e-07,-30
1342,93.03542,1657950448.0,0.222468,-30.00025,136,8,-4.094723e-07,-30
1343,93.10464,1657950448.0,0.29169,-30.00026,136,8,-4.099358e-07,-30
1344,93.17385,1657950448.0,0.360904,-30.00033,136,8,-4.075959e-07,-30
1345,93.24306,1657950448.0,0.430116,-30.00029,136,8,-4.084002e-07,-30
1346,93.31228,1657950448.0,0.499331,-30.00031,136,8,-4.100944e-07,-30
1347,93.3815,1657950448.0,0.568547,-30.00036,136,8,-4.117074e-07,-30
1348,93.45071,1657950448.0,0.637764,-30.00032,136,8,-4.09917e-07,-30
1349,93.51993,1657950448.0,0.706982,-30.0002,136,8,-4.094678e-07,-30
1350,93.58915,1657950448.0,0.776203,-30.00023,136,8,-4.091768e-07,-30
1351,93.65837,1657950448.0,0.845416,-30.0002,136,8,-4.102701e-07,-30
1352,93.72759,1657950448.0,0.914643,-30.00025,136,8,-4.082698e-07,-30
1353,93.79681,1657950448.0,0.983858,-30.00031,136,8,-4.116877e-07,-30
1354,93.86602,1657950449.0,0.0530682,-30.00027,136,8,-4.112918e-07,-30
1355,93.93523,1657950449.0,0.122277,-30.00025,136,8,-4.102037e-07,-30
1356,94.00444,1657950449.0,0.191495,-30.00028,136,8,-4.113746e-07,-30
1357,94.07366,1657950449.0,0.260709,-30.00024,136,8,-4.093788e-07,-30
1358,94.14287,1657950449.0,0.329924,-30.00027,136,8,-4.089148e-07,-30
1359,94.21208,1657950449.0,0.399134,-30.00026,136,8,-4.106014e-07,-30
1360,94.2813,1657950449.0,0.468351,-30.00032,136,8,-4.097397e-07,-30
1361,94.35051,1657950449.0,0.537558,-30.00033,136,8,-4.094582e-07,-30
1362,94.41972,1657950449.0,0.606775,-30.00032,136,8,-4.073832e-07,-30
1363,94.48893,1657950449.0,0.675978,-30.00033,136,8,-4.104356e-07,-30
1364,94.55813,1657950449.0,0.745177,-30.00021,136,8,-4.07486e-07,-30
1365,94.62733,1657950449.0,0.814379,-30.00032,136,8,-4.112221e-07,-30
1366,94.69654,1657950449.0,0.883588,-30.00031,136,8,-4.103646e-07,-30
1367,94.76575,1657950449.0,0.952803,-30.0003,136,8,-4.099469e-07,-30
1368,94.83497,1657950450.0,0.0220171,-30.00029,136,8,-4.083645e-07,-30
1369,94.90417,1657950450.0,0.0912189,-30.00027,136,8,-4.094334e-07,-30
1370,94.97339,1657950450.0,0.160437,-30.00024,136,8,-4.09843e-07,-30
1371,95.04261,1657950450.0,0.229661,-30.00021,136,8,-4.095249e-07,-30
1372,95.11182,1657950450.0,0.298873,-30.00016,136,8,-4.08657e-07,-30
1373,95.18103,1657950450.0,0.368085,-30.00028,136,8,-4.099543e-07,-30
1374,95.25024,1657950450.0,0.437291,-30.00023,136,8,-4.113396e-07,-30
1375,95.31944,1657950450.0,0.506494,-30.00025,136,8,-4.109897e-07,-30
1376,95.38867,1657950450.0,0.575722,-30.00024,136,8,-4.084661e-07,-30
1377,95.45788,1657950450.0,0.644931,-30.0003,136,8,-4.095209e-07,-30
1378,95.52709,1657950450.0,0.714139,-30.00034,136,8,-4.111248e-07,-30
1379,95.59629,1657950450.0,0.783345,-30.00034,136,8,-4.091234e-07,-30
1380,95.6655,1657950450.0,0.852548,-30.00032,136,8,-4.091216e-07,-30
1381,95.73472,1657950450.0,0.921767,-30.00036,136,8,-4.109639e-07,-30
1382,95.80392,1657950450.0,0.990972,-30.0002,136,8,-4.071755e-07,-30
1383,95.87313,1657950451.0,0.0601853,-30.00023,136,8,-4.088549e-07,-30
1384,95.94233,1657950451.0,0.129385,-30.00022,136,8,-4.097075e-07,-30
1385,96.01155,1657950451.0,0.198603,-30.00019,136,8,-4.09038e-07,-30
1386,96.08077,1657950451.0,0.26782,-30.00035,136,8,-4.085246e-07,-30
1387,96.14999,1657950451.0,0.337041,-30.00032,136,8,-4.089006e-07,-30
1388,96.21919,1657950451.0,0.406241,-30.00021,136,8,-4.081936e-07,-30
1389,96.28841,1657950451.0,0.475462,-30.00025,136,8,-4.081334e-07,-30
1390,96.35763,1657950451.0,0.544676,-30.00025,136,8,-4.103235e-07,-30
1391,96.42683,1657950451.0,0.613882,-30.00026,136,8,-4.102845e-07,-30
1392,96.49605,1657950451.0,0.683097,-30.00028,136,8,-4.077553e-07,-30
1393,96.56526,1657950451.0,0.752311,-30.0002,136,8,-4.099963e-07,-30
1394,96.63447,1657950451.0,0.82152,-30.00021,136,8,-4.097355e-07,-30
1395,96.7037,1657950451.0,0.890747,-30.00019,136,8,-4.081913e-07,-30
1396,96.77291,1657950451.0,0.959962,-30.00034,136,8,-4.083077e-07,-30
1397,96.84212,1657950452.0,0.0291688,-30.00043,136,8,-4.101267e-07,-30
1398,96.91133,1657950452.0,0.0983761,-30.00038,136,8,-4.099498e-07,-30
1399,96.98053,1657950452.0,0.167584,-30.0004,136,8,-4.090658e-07,-30
1400,97.04975,1657950452.0,0.2368,-30.00029,136,8,-4.091521e-07,-30
1401,97.11895,1657950452.0,0.306006,-30.00029,136,8,-4.091435e-07,-30
1402,97.18816,1657950452.0,0.375213,-30.00031,136,8,-4.089082e-07,-30
1403,97.25737,1657950452.0,0.444422,-30.0003,136,8,-4.089307e-07,-30
1404,97.32658,1657950452.0,0.513632,-30.00024,136,8,-4.081351e-07,-30
1405,97.39578,1657950452.0,0.582834,-30.00032,136,8,-4.091009e-07,-30
1406,97.46499,1657950452.0,0.652045,-30.00039,136,8,-4.095408e-07,-30
1407,97.53421,1657950452.0,0.721256,-30.00027,136,8,-4.098782e-07,-30
1408,97.60342,1657950452.0,0.790473,-30.00035,136,8,-4.094463e-07,-30
1409,97.67264,1657950452.0,0.859696,-30.00028,136,8,-4.089133e-07,-30
1410,97.74186,1657950452.0,0.928915,-30.00042,136,8,-4.081135e-07,-30
1411,97.81108,1657950452.0,0.998128,-30.00032,136,8,-4.081015e-07,-30
1412,97.88029,1657950453.0,0.0673396,-30.00036,136,8,-4.074375e-07,-30
1413,97.94949,1657950453.0,0.136546,-30.00029,136,8,-4.0769e-07,-30
1414,98.01871,1657950453.0,0.205763,-30.00025,136,8,-4.091639e-07,-30
1415,98.08792,1657950453.0,0.274972,-30.00028,136,8,-4.083785e-07,-30
1416,98.15712,1657950453.0,0.344175,-30.00026,136,8,-4.077838e-07,-30
1417,98.22633,1657950453.0,0.413377,-30.00031,136,8,-4.085491e-07,-30
1418,98.29554,1657950453.0,0.482595,-30.0003,136,8,-4.104919e-07,-30
1419,98.36476,1657950453.0,0.551813,-30.00035,136,8,-4.095861e-07,-30
1420,98.43398,1657950453.0,0.621032,-30.00036,136,8,-4.101566e-07,-30
1421,98.50319,1657950453.0,0.690243,-30.00029,136,8,-4.069065e-07,-30
1422,98.57241,1657950453.0,0.759462,-30.00023,136,8,-4.080142e-07,-30
1423,98.64162,1657950453.0,0.828673,-30.00022,136,8,-4.097305e-07,-30
1424,98.71085,1657950453.0,0.897897,-30.00028,136,8,-4.086977e-07,-30
1425,98.78005,1657950453.0,0.967106,-30.0003,136,8,-4.078075e-07,-30
1426,98.84926,1657950454.0,0.0363103,-30.00035,136,8,-4.073325e-07,-30
1427,98.91846,1657950454.0,0.105512,-30.00028,136,8,-4.084312e-07,-30
1428,98.98769,1657950454.0,0.17474,-30.00028,136,8,-4.089406e-07,-30
1429,99.05689,1657950454.0,0.243943,-30.00032,136,8,-4.094936e-07,-30
1430,99.1261,1657950454.0,0.313147,-30.0003,136,8,-4.087471e-07,-30
1431,99.19532,1657950454.0,0.382368,-30.00027,136,8,-4.084476e-07,-30
1432,99.26452,1657950454.0,0.451572,-30.00023,136,8,-4.081752e-07,-30
1433,99.33373,1657950454.0,0.520782,-30.00018,136,8,-4.07711e-07,-30
1434,99.40294,1657950454.0,0.589989,-30.00026,136,8,-4.084741e-07,-30
1435,99.47215,1657950454.0,0.659202,-30.00023,136,8,-4.067911e-07,-30
1436,99.54136,1657950454.0,0.728407,-30.00031,136,8,-4.089637e-07,-30
1437,99.61057,1657950454.0,0.797619,-30.00027,136,8,-4.074762e-07,-30
1438,99.67977,1657950454.0,0.866822,-30.00029,136,8,-4.103221e-07,-30
1439,99.74898,1657950454.0,0.936027,-30.00022,136,8,-4.087096e-07,-30
1440,99.81818,1657950455.0,0.0052313,-30.00025,136,8,-4.097888e-07,-30
1441,99.88739,1657950455.0,0.0744412,-30.00024,136,8,-4.068854e-07,-30
1442,99.9566,1657950455.0,0.143648,-30.00029,136,8,-4.096289e-07,-30
1443,100.0258,1657950455.0,0.212864,-30.00033,136,8,-4.096802e-07,-30
1444,100.095,1657950455.0,0.282065,-30.00037,136,8,-4.074073e-07,-30
1445,100.1642,1657950455.0,0.351265,-30.00027,136,8,-4.091582e-07,-30
1446,100.2334,1657950455.0,0.420476,-30.00026,136,8,-4.091489e-07,-30
1447,100.3026,1657950455.0,0.489689,-30.00037,136,8,-4.108336e-07,-30
1448,100.3719,1657950455.0,0.558911,-30.00026,136,8,-4.07402e-07,-30
