,REL,SEC,FRAC,SOUR,SOURSTAT,STAT,READ,VOLTAGE
0,0.0,1657948399.0,0.893133,-90.00067,136,8,-5.723574e-07,-90
1,0.2221543,1657948400.0,0.115287,-90.00036,136,8,-5.22772e-07,-90
2,0.2913729,1657948400.0,0.184506,-90.00023,136,8,-5.086156e-07,-90
3,0.3606,1657948400.0,0.253733,-90.00027,136,8,-5.006183e-07,-90
4,0.4298066,1657948400.0,0.32294,-90.00026,136,8,-4.948083e-07,-90
5,0.4990232,1657948400.0,0.392156,-90.00024,136,8,-4.907856e-07,-90
6,0.5682378,1657948400.0,0.461371,-90.00034,136,8,-4.879916e-07,-90
7,0.6374654,1657948400.0,0.530599,-90.00034,136,8,-4.858588e-07,-90
8,0.706683,1657948400.0,0.599816,-90.00039,136,8,-4.811896e-07,-90
9,0.7758912,1657948400.0,0.669024,-90.00031,136,8,-4.798847e-07,-90
10,0.8451162,1657948400.0,0.738249,-90.00031,136,8,-4.766374e-07,-90
11,0.9143371,1657948400.0,0.80747,-90.00027,136,8,-4.753169e-07,-90
12,0.9835525,1657948400.0,0.876686,-90.00031,136,8,-4.739466e-07,-90
13,1.05277,1657948400.0,0.945903,-90.00031,136,8,-4.707108e-07,-90
14,1.121959,1657948401.0,0.0150926,-90.00014,136,8,-4.719609e-07,-90
15,1.191178,1657948401.0,0.0843116,-90.00027,136,8,-4.696502e-07,-90
16,1.260379,1657948401.0,0.153513,-90.00026,136,8,-4.701432e-07,-90
17,1.329605,1657948401.0,0.222738,-90.0002,136,8,-4.689421e-07,-90
18,1.39881,1657948401.0,0.291943,-90.00039,136,8,-4.676328e-07,-90
19,1.468019,1657948401.0,0.361153,-90.00034,136,8,-4.658098e-07,-90
20,1.537238,1657948401.0,0.430371,-90.00034,136,8,-4.673905e-07,-90
21,1.606461,1657948401.0,0.499594,-90.00027,136,8,-4.653434e-07,-90
22,1.67567,1657948401.0,0.568803,-90.00023,136,8,-4.634866e-07,-90
23,1.744891,1657948401.0,0.638024,-90.00027,136,8,-4.64678e-07,-90
24,1.814112,1657948401.0,0.707245,-90.00029,136,8,-4.638332e-07,-90
25,1.883332,1657948401.0,0.776465,-90.00035,136,8,-4.631447e-07,-90
26,1.952561,1657948401.0,0.845694,-90.00029,136,8,-4.616117e-07,-90
27,2.021766,1657948401.0,0.914899,-90.00041,136,8,-4.614786e-07,-90
28,2.090971,1657948401.0,0.984104,-90.00031,136,8,-4.640339e-07,-90
29,2.160183,1657948402.0,0.0533166,-90.0004,136,8,-4.614278e-07,-90
30,2.229396,1657948402.0,0.122529,-90.00033,136,8,-4.608165e-07,-90
31,2.298626,1657948402.0,0.191759,-90.00027,136,8,-4.59862e-07,-90
32,2.367837,1657948402.0,0.26097,-90.00031,136,8,-4.603622e-07,-90
33,2.437049,1657948402.0,0.330182,-90.00034,136,8,-4.598928e-07,-90
34,2.506269,1657948402.0,0.399402,-90.00028,136,8,-4.605106e-07,-90
35,2.575493,1657948402.0,0.468626,-90.00031,136,8,-4.600016e-07,-90
36,2.64471,1657948402.0,0.537843,-90.00034,136,8,-4.582665e-07,-90
37,2.713932,1657948402.0,0.607065,-90.00031,136,8,-4.58133e-07,-90
38,2.783144,1657948402.0,0.676277,-90.00037,136,8,-4.582006e-07,-90
39,2.852358,1657948402.0,0.745491,-90.00042,136,8,-4.575346e-07,-90
40,2.921575,1657948402.0,0.814709,-90.00034,136,8,-4.566469e-07,-90
41,2.990784,1657948402.0,0.883917,-90.00024,136,8,-4.585913e-07,-90
42,3.06,1657948402.0,0.953133,-90.0002,136,8,-4.549599e-07,-90
43,3.12921,1657948403.0,0.0223429,-90.00027,136,8,-4.558597e-07,-90
44,3.198421,1657948403.0,0.0915544,-90.00029,136,8,-4.55722e-07,-90
45,3.26764,1657948403.0,0.160773,-90.00025,136,8,-4.557507e-07,-90
46,3.336855,1657948403.0,0.229988,-90.00029,136,8,-4.554309e-07,-90
47,3.406077,1657948403.0,0.299211,-90.00022,136,8,-4.545925e-07,-90
48,3.475301,1657948403.0,0.368434,-90.00029,136,8,-4.545539e-07,-90
49,3.544523,1657948403.0,0.437656,-90.00029,136,8,-4.535812e-07,-90
50,3.613734,1657948403.0,0.506867,-90.00029,136,8,-4.549757e-07,-90
51,3.682945,1657948403.0,0.576078,-90.00037,136,8,-4.520271e-07,-90
52,3.75215,1657948403.0,0.645283,-90.00039,136,8,-4.544985e-07,-90
53,3.821375,1657948403.0,0.714508,-90.00025,136,8,-4.556161e-07,-90
54,3.890607,1657948403.0,0.78374,-90.00031,136,8,-4.544172e-07,-90
55,3.959817,1657948403.0,0.85295,-90.00037,136,8,-4.536175e-07,-90
56,4.029022,1657948403.0,0.922156,-90.00035,136,8,-4.550687e-07,-90
57,4.098241,1657948403.0,0.991374,-90.00034,136,8,-4.532104e-07,-90
58,4.167458,1657948404.0,0.0605914,-90.00026,136,8,-4.531165e-07,-90
59,4.236683,1657948404.0,0.129816,-90.00027,136,8,-4.541626e-07,-90
60,4.305892,1657948404.0,0.199025,-90.0004,136,8,-4.526148e-07,-90
61,4.375098,1657948404.0,0.268232,-90.00027,136,8,-4.522966e-07,-90
62,4.444289,1657948404.0,0.337422,-90.00017,136,8,-4.533817e-07,-90
63,4.513505,1657948404.0,0.406639,-90.00024,136,8,-4.52345e-07,-90
64,4.582715,1657948404.0,0.475849,-90.00018,136,8,-4.526741e-07,-90
65,4.651936,1657948404.0,0.545069,-90.00037,136,8,-4.514855e-07,-90
66,4.721162,1657948404.0,0.614295,-90.00034,136,8,-4.500928e-07,-90
67,4.790368,1657948404.0,0.683501,-90.00034,136,8,-4.532414e-07,-90
68,4.859589,1657948404.0,0.752723,-90.00022,136,8,-4.529329e-07,-90
69,4.928802,1657948404.0,0.821935,-90.00027,136,8,-4.519684e-07,-90
70,4.998012,1657948404.0,0.891145,-90.00022,136,8,-4.529485e-07,-90
71,5.067223,1657948404.0,0.960357,-90.00024,136,8,-4.503354e-07,-90
72,5.136441,1657948405.0,0.0295739,-90.00029,136,8,-4.512444e-07,-90
73,5.205661,1657948405.0,0.0987937,-90.00024,136,8,-4.527621e-07,-90
74,5.274884,1657948405.0,0.168017,-90.0002,136,8,-4.519776e-07,-90
75,5.344096,1657948405.0,0.237229,-90.00024,136,8,-4.528131e-07,-90
76,5.413314,1657948405.0,0.306447,-90.00035,136,8,-4.511495e-07,-90
77,5.482531,1657948405.0,0.375664,-90.00041,136,8,-4.508832e-07,-90
78,5.551734,1657948405.0,0.444867,-90.00039,136,8,-4.52414e-07,-90
79,5.620957,1657948405.0,0.51409,-90.0004,136,8,-4.505247e-07,-90
80,5.690178,1657948405.0,0.583311,-90.00031,136,8,-4.512887e-07,-90
81,5.759404,1657948405.0,0.652537,-90.00039,136,8,-4.50131e-07,-90
82,5.828636,1657948405.0,0.721769,-90.0004,136,8,-4.504245e-07,-90
83,5.897835,1657948405.0,0.790968,-90.00018,136,8,-4.507157e-07,-90
84,5.967022,1657948405.0,0.860155,-90.00021,136,8,-4.506064e-07,-90
85,6.036247,1657948405.0,0.92938,-90.00024,136,8,-4.520399e-07,-90
86,6.105439,1657948405.0,0.998572,-90.00024,136,8,-4.501189e-07,-90
87,6.174664,1657948406.0,0.0677975,-90.00034,136,8,-4.511856e-07,-90
88,6.243875,1657948406.0,0.137008,-90.00028,136,8,-4.494874e-07,-90
89,6.313086,1657948406.0,0.206219,-90.00039,136,8,-4.516916e-07,-90
90,6.382305,1657948406.0,0.275438,-90.00034,136,8,-4.504575e-07,-90
91,6.451523,1657948406.0,0.344656,-90.00017,136,8,-4.508339e-07,-90
92,6.520736,1657948406.0,0.413869,-90.00025,136,8,-4.509473e-07,-90
93,6.589946,1657948406.0,0.48308,-90.00031,136,8,-4.500982e-07,-90
94,6.659172,1657948406.0,0.552305,-90.00033,136,8,-4.484999e-07,-90
95,6.72838,1657948406.0,0.621513,-90.0004,136,8,-4.500193e-07,-90
96,6.797603,1657948406.0,0.690736,-90.00034,136,8,-4.484508e-07,-90
97,6.866815,1657948406.0,0.759949,-90.00024,136,8,-4.504932e-07,-90
98,6.936041,1657948406.0,0.829174,-90.00031,136,8,-4.478317e-07,-90
99,7.005247,1657948406.0,0.89838,-90.00024,136,8,-4.482679e-07,-90
100,7.074468,1657948406.0,0.967602,-90.00023,136,8,-4.494408e-07,-90
101,7.143672,1657948407.0,0.0368053,-90.00034,136,8,-4.488537e-07,-90
102,7.212877,1657948407.0,0.10601,-90.00046,136,8,-4.496225e-07,-90
103,7.282092,1657948407.0,0.175225,-90.00034,136,8,-4.502622e-07,-90
104,7.351306,1657948407.0,0.244439,-90.00039,136,8,-4.490971e-07,-90
105,7.420524,1657948407.0,0.313657,-90.00039,136,8,-4.483154e-07,-90
106,7.489741,1657948407.0,0.382874,-90.00039,136,8,-4.49767e-07,-90
107,7.55895,1657948407.0,0.452083,-90.00037,136,8,-4.47581e-07,-90
108,7.628155,1657948407.0,0.521288,-90.00031,136,8,-4.482069e-07,-90
109,7.697375,1657948407.0,0.590509,-90.00032,136,8,-4.485754e-07,-90
110,7.766593,1657948407.0,0.659727,-90.00033,136,8,-4.477775e-07,-90
111,7.835799,1657948407.0,0.728932,-90.00037,136,8,-4.486784e-07,-90
112,7.905007,1657948407.0,0.79814,-90.00033,136,8,-4.4994e-07,-90
113,7.974233,1657948407.0,0.867366,-90.00035,136,8,-4.488336e-07,-90
114,8.043447,1657948407.0,0.93658,-90.00032,136,8,-4.475851e-07,-90
115,8.112676,1657948408.0,0.0058089,-90.00027,136,8,-4.497356e-07,-90
116,8.181882,1657948408.0,0.0750147,-90.00027,136,8,-4.473222e-07,-90
117,8.251094,1657948408.0,0.144227,-90.0004,136,8,-4.482124e-07,-90
118,8.320298,1657948408.0,0.213431,-90.00033,136,8,-4.492287e-07,-90
119,8.389506,1657948408.0,0.282639,-90.00025,136,8,-4.465959e-07,-90
120,8.458712,1657948408.0,0.351845,-90.00034,136,8,-4.474221e-07,-90
121,8.527922,1657948408.0,0.421055,-90.00032,136,8,-4.485651e-07,-90
122,8.597137,1657948408.0,0.49027,-90.00039,136,8,-4.487667e-07,-90
123,8.666346,1657948408.0,0.55948,-90.00034,136,8,-4.480534e-07,-90
124,8.735579,1657948408.0,0.628712,-90.00035,136,8,-4.471017e-07,-90
125,8.804797,1657948408.0,0.697931,-90.00033,136,8,-4.47569e-07,-90
126,8.874001,1657948408.0,0.767134,-90.00019,136,8,-4.481276e-07,-90
127,8.943223,1657948408.0,0.836356,-90.00018,136,8,-4.486532e-07,-90
128,9.012422,1657948408.0,0.905555,-90.00024,136,8,-4.448956e-07,-90
129,9.081643,1657948408.0,0.974776,-90.00027,136,8,-4.490586e-07,-90
130,9.150837,1657948409.0,0.0439706,-90.00011,136,8,-4.473106e-07,-90
131,9.220052,1657948409.0,0.113185,-90.00023,136,8,-4.476431e-07,-90
132,9.289264,1657948409.0,0.182397,-90.00027,136,8,-4.461291e-07,-90
133,9.358484,1657948409.0,0.251617,-90.00024,136,8,-4.483969e-07,-90
134,9.427693,1657948409.0,0.320826,-90.00037,136,8,-4.475612e-07,-90
135,9.496904,1657948409.0,0.390038,-90.00031,136,8,-4.466997e-07,-90
136,9.566129,1657948409.0,0.459263,-90.00023,136,8,-4.484407e-07,-90
137,9.635336,1657948409.0,0.528469,-90.00014,136,8,-4.473195e-07,-90
138,9.704528,1657948409.0,0.597661,-90.00021,136,8,-4.477989e-07,-90
139,9.773733,1657948409.0,0.666866,-90.00015,136,8,-4.468505e-07,-90
140,9.842951,1657948409.0,0.736084,-90.00019,136,8,-4.478463e-07,-90
141,9.912164,1657948409.0,0.805297,-90.00025,136,8,-4.481938e-07,-90
142,9.981376,1657948409.0,0.874509,-90.00022,136,8,-4.474667e-07,-90
143,10.0506,1657948409.0,0.943738,-90.00034,136,8,-4.476121e-07,-90
144,10.11982,1657948410.0,0.0129561,-90.00027,136,8,-4.494493e-07,-90
145,10.18904,1657948410.0,0.0821687,-90.00032,136,8,-4.47544e-07,-90
146,10.25825,1657948410.0,0.151385,-90.00029,136,8,-4.472529e-07,-90
147,10.32748,1657948410.0,0.22061,-90.00031,136,8,-4.479498e-07,-90
148,10.3967,1657948410.0,0.289832,-90.00035,136,8,-4.462882e-07,-90
149,10.46592,1657948410.0,0.359049,-90.00032,136,8,-4.467625e-07,-90
150,10.53514,1657948410.0,0.428272,-90.00033,136,8,-4.463366e-07,-90
151,10.60436,1657948410.0,0.497495,-90.00031,136,8,-4.479265e-07,-90
152,10.67358,1657948410.0,0.566709,-90.00031,136,8,-4.483853e-07,-90
153,10.7428,1657948410.0,0.635933,-90.00031,136,8,-4.472422e-07,-90
154,10.81202,1657948410.0,0.705155,-90.00024,136,8,-4.460993e-07,-90
155,10.88123,1657948410.0,0.774361,-90.00032,136,8,-4.459665e-07,-90
156,10.95045,1657948410.0,0.843582,-90.00027,136,8,-4.474169e-07,-90
157,11.01966,1657948410.0,0.912797,-90.00027,136,8,-4.471869e-07,-90
158,11.08888,1657948410.0,0.982011,-90.00034,136,8,-4.453042e-07,-90
159,11.15808,1657948411.0,0.0512151,-90.0004,136,8,-4.484424e-07,-90
160,11.22729,1657948411.0,0.120427,-90.00021,136,8,-4.472095e-07,-90
161,11.29651,1657948411.0,0.189644,-90.00014,136,8,-4.443843e-07,-90
162,11.36574,1657948411.0,0.258869,-90.00024,136,8,-4.454903e-07,-90
163,11.43494,1657948411.0,0.328077,-90.00034,136,8,-4.469128e-07,-90
164,11.50415,1657948411.0,0.397285,-90.00024,136,8,-4.468722e-07,-90
165,11.57337,1657948411.0,0.466503,-90.00031,136,8,-4.458589e-07,-90
166,11.64258,1657948411.0,0.535717,-90.00027,136,8,-4.482672e-07,-90
167,11.71179,1657948411.0,0.604928,-90.00032,136,8,-4.469727e-07,-90
168,11.78102,1657948411.0,0.674149,-90.00024,136,8,-4.462555e-07,-90
169,11.85022,1657948411.0,0.743354,-90.00033,136,8,-4.477936e-07,-90
170,11.91944,1657948411.0,0.812569,-90.00031,136,8,-4.464647e-07,-90
171,11.98865,1657948411.0,0.881785,-90.00025,136,8,-4.46675e-07,-90
172,12.05786,1657948411.0,0.950997,-90.00031,136,8,-4.452068e-07,-90
173,12.12708,1657948412.0,0.02021,-90.00024,136,8,-4.45718e-07,-90
174,12.19629,1657948412.0,0.0894185,-90.00031,136,8,-4.457321e-07,-90
175,12.26549,1657948412.0,0.158626,-90.00034,136,8,-4.459662e-07,-90
176,12.33472,1657948412.0,0.227854,-90.00025,136,8,-4.464109e-07,-90
177,12.40393,1657948412.0,0.297061,-90.00031,136,8,-4.481297e-07,-90
178,12.47314,1657948412.0,0.366274,-90.00029,136,8,-4.4672e-07,-90
179,12.54236,1657948412.0,0.435495,-90.00031,136,8,-4.467244e-07,-90
180,12.61157,1657948412.0,0.504701,-90.0002,136,8,-4.45672e-07,-90
181,12.68078,1657948412.0,0.573912,-90.00024,136,8,-4.447698e-07,-90
182,12.74999,1657948412.0,0.64312,-90.00024,136,8,-4.459478e-07,-90
183,12.8192,1657948412.0,0.712332,-90.00034,136,8,-4.48411e-07,-90
184,12.88842,1657948412.0,0.781549,-90.00026,136,8,-4.471755e-07,-90
185,12.95765,1657948412.0,0.850783,-90.00028,136,8,-4.440962e-07,-90
186,13.02686,1657948412.0,0.919994,-90.00029,136,8,-4.461677e-07,-90
187,13.09607,1657948412.0,0.989206,-90.00032,136,8,-4.443801e-07,-90
188,13.16528,1657948413.0,0.0584114,-90.00025,136,8,-4.450579e-07,-90
189,13.23449,1657948413.0,0.127619,-90.00016,136,8,-4.449064e-07,-90
190,13.30371,1657948413.0,0.196848,-90.00024,136,8,-4.450144e-07,-90
191,13.37292,1657948413.0,0.266049,-90.00016,136,8,-4.471571e-07,-90
192,13.44214,1657948413.0,0.335269,-90.00014,136,8,-4.471902e-07,-90
193,13.51135,1657948413.0,0.404487,-90.00022,136,8,-4.459774e-07,-90
194,13.58056,1657948413.0,0.473694,-90.00021,136,8,-4.460836e-07,-90
195,13.64978,1657948413.0,0.542912,-90.00035,136,8,-4.456996e-07,-90
196,13.71899,1657948413.0,0.612121,-90.00043,136,8,-4.460089e-07,-90
197,13.78821,1657948413.0,0.681346,-90.00027,136,8,-4.465927e-07,-90
198,13.85743,1657948413.0,0.75056,-90.00032,136,8,-4.461882e-07,-90
199,13.92664,1657948413.0,0.819776,-90.00024,136,8,-4.434311e-07,-90
200,13.99585,1657948413.0,0.888981,-90.0002,136,8,-4.453163e-07,-90
201,14.06507,1657948413.0,0.958201,-90.00024,136,8,-4.461153e-07,-90
202,14.13427,1657948414.0,0.0274054,-90.00029,136,8,-4.464569e-07,-90
203,14.20349,1657948414.0,0.0966237,-90.00026,136,8,-4.466843e-07,-90
204,14.27271,1657948414.0,0.165839,-90.00031,136,8,-4.466546e-07,-90
205,14.34193,1657948414.0,0.23506,-90.00033,136,8,-4.453916e-07,-90
206,14.41115,1657948414.0,0.304284,-90.00029,136,8,-4.443457e-07,-90
207,14.48035,1657948414.0,0.373488,-90.00017,136,8,-4.476358e-07,-90
208,14.54957,1657948414.0,0.442706,-90.00022,136,8,-4.437144e-07,-90
209,14.61878,1657948414.0,0.511917,-90.00019,136,8,-4.455558e-07,-90
210,14.68801,1657948414.0,0.581141,-90.00025,136,8,-4.468471e-07,-90
211,14.75721,1657948414.0,0.650343,-90.00024,136,8,-4.464553e-07,-90
212,14.82643,1657948414.0,0.719564,-90.00029,136,8,-4.444079e-07,-90
213,14.89564,1657948414.0,0.788777,-90.00029,136,8,-4.452761e-07,-90
214,14.96486,1657948414.0,0.85799,-90.00019,136,8,-4.465417e-07,-90
215,15.03407,1657948414.0,0.927201,-90.00019,136,8,-4.451257e-07,-90
216,15.10327,1657948414.0,0.996405,-90.00027,136,8,-4.455119e-07,-90
217,15.17248,1657948415.0,0.0656174,-90.00021,136,8,-4.411345e-07,-90
218,15.24171,1657948415.0,0.13484,-90.00027,136,8,-4.444993e-07,-90
219,15.31092,1657948415.0,0.204055,-90.0002,136,8,-4.459346e-07,-90
220,15.38014,1657948415.0,0.273269,-90.00025,136,8,-4.440068e-07,-90
221,15.44934,1657948415.0,0.342476,-90.00028,136,8,-4.450439e-07,-90
222,15.51856,1657948415.0,0.411691,-90.00027,136,8,-4.444787e-07,-90
223,15.58777,1657948415.0,0.480905,-90.00034,136,8,-4.450885e-07,-90
224,15.65697,1657948415.0,0.550107,-90.00032,136,8,-4.454131e-07,-90
225,15.72618,1657948415.0,0.619316,-90.00024,136,8,-4.442003e-07,-90
226,15.79537,1657948415.0,0.688507,-90.00027,136,8,-4.44728e-07,-90
227,15.8646,1657948415.0,0.757731,-90.00023,136,8,-4.452505e-07,-90
228,15.93382,1657948415.0,0.826954,-90.00024,136,8,-4.44426e-07,-90
229,16.00304,1657948415.0,0.896177,-90.00027,136,8,-4.462362e-07,-90
230,16.07226,1657948415.0,0.965397,-90.00028,136,8,-4.440693e-07,-90
231,16.14148,1657948416.0,0.0346119,-90.00026,136,8,-4.453848e-07,-90
232,16.21071,1657948416.0,0.103841,-90.00034,136,8,-4.446029e-07,-90
233,16.27992,1657948416.0,0.17305,-90.00028,136,8,-4.429608e-07,-90
234,16.34914,1657948416.0,0.242268,-90.00024,136,8,-4.45602e-07,-90
235,16.41833,1657948416.0,0.311459,-90.00018,136,8,-4.444957e-07,-90
236,16.48755,1657948416.0,0.380685,-90.00028,136,8,-4.436632e-07,-90
237,16.55677,1657948416.0,0.449904,-90.00036,136,8,-4.455847e-07,-90
238,16.62599,1657948416.0,0.519126,-90.00034,136,8,-4.435819e-07,-90
239,16.69521,1657948416.0,0.588338,-90.00034,136,8,-4.469162e-07,-90
240,16.76443,1657948416.0,0.657561,-90.0004,136,8,-4.451554e-07,-90
241,16.83364,1657948416.0,0.726776,-90.00034,136,8,-4.458664e-07,-90
242,16.90285,1657948416.0,0.795986,-90.00028,136,8,-4.457715e-07,-90
243,16.97207,1657948416.0,0.865206,-90.00033,136,8,-4.44209e-07,-90
244,17.04129,1657948416.0,0.934421,-90.00034,136,8,-4.462674e-07,-90
245,17.1105,1657948417.0,0.0036328,-90.00035,136,8,-4.44791e-07,-90
246,17.17972,1657948417.0,0.0728536,-90.00034,136,8,-4.451462e-07,-90
247,17.24894,1657948417.0,0.142071,-90.00047,136,8,-4.445413e-07,-90
248,17.31816,1657948417.0,0.211297,-90.0004,136,8,-4.447843e-07,-90
249,17.38738,1657948417.0,0.280516,-90.00034,136,8,-4.451309e-07,-90
250,17.4566,1657948417.0,0.349732,-90.00034,136,8,-4.440687e-07,-90
251,17.52582,1657948417.0,0.418953,-90.00037,136,8,-4.425757e-07,-90
252,17.59504,1657948417.0,0.488173,-90.00033,136,8,-4.441882e-07,-90
253,17.66426,1657948417.0,0.557394,-90.00035,136,8,-4.429527e-07,-90
254,17.73348,1657948417.0,0.626616,-90.00028,136,8,-4.440944e-07,-90
255,17.80271,1657948417.0,0.695844,-90.00037,136,8,-4.447185e-07,-90
256,17.87193,1657948417.0,0.765063,-90.00024,136,8,-4.436179e-07,-90
257,17.94115,1657948417.0,0.834286,-90.00039,136,8,-4.448016e-07,-90
258,18.01036,1657948417.0,0.903491,-90.00043,136,8,-4.439391e-07,-90
259,18.07957,1657948417.0,0.972703,-90.00034,136,8,-4.442806e-07,-90
260,18.14879,1657948418.0,0.0419195,-90.00029,136,8,-4.449923e-07,-90
261,18.218,1657948418.0,0.111136,-90.00026,136,8,-4.463099e-07,-90
262,18.28722,1657948418.0,0.180352,-90.00031,136,8,-4.435369e-07,-90
263,18.35642,1657948418.0,0.249557,-90.00016,136,8,-4.451001e-07,-90
264,18.42563,1657948418.0,0.318765,-90.00029,136,8,-4.428189e-07,-90
265,18.49483,1657948418.0,0.387964,-90.00024,136,8,-4.423791e-07,-90
266,18.56404,1657948418.0,0.457177,-90.00026,136,8,-4.459314e-07,-90
267,18.63326,1657948418.0,0.526389,-90.00033,136,8,-4.434141e-07,-90
268,18.70248,1657948418.0,0.595611,-90.00032,136,8,-4.441511e-07,-90
269,18.7717,1657948418.0,0.664835,-90.00034,136,8,-4.43398e-07,-90
270,18.84092,1657948418.0,0.734055,-90.00036,136,8,-4.443461e-07,-90
271,18.91013,1657948418.0,0.803261,-90.0004,136,8,-4.435688e-07,-90
272,18.97934,1657948418.0,0.872478,-90.00028,136,8,-4.431033e-07,-90
273,19.04856,1657948418.0,0.941689,-90.00037,136,8,-4.446917e-07,-90
274,19.11778,1657948419.0,0.0109105,-90.00039,136,8,-4.425316e-07,-90
275,19.187,1657948419.0,0.0801322,-90.00033,136,8,-4.430693e-07,-90
276,19.25621,1657948419.0,0.149345,-90.00024,136,8,-4.444763e-07,-90
277,19.32543,1657948419.0,0.218561,-90.00041,136,8,-4.450453e-07,-90
278,19.39464,1657948419.0,0.287774,-90.00036,136,8,-4.429046e-07,-90
279,19.46385,1657948419.0,0.356988,-90.00036,136,8,-4.438269e-07,-90
280,19.53308,1657948419.0,0.426211,-90.00036,136,8,-4.447035e-07,-90
281,19.60229,1657948419.0,0.495422,-90.00031,136,8,-4.439853e-07,-90
282,19.67149,1657948419.0,0.564628,-90.00037,136,8,-4.436636e-07,-90
283,19.74071,1657948419.0,0.633847,-90.00035,136,8,-4.44848e-07,-90
284,19.80992,1657948419.0,0.703051,-90.00029,136,8,-4.456097e-07,-90
285,19.87912,1657948419.0,0.772258,-90.0004,136,8,-4.433719e-07,-90
286,19.94835,1657948419.0,0.84148,-90.00042,136,8,-4.451551e-07,-90
287,20.01756,1657948419.0,0.910698,-90.00035,136,8,-4.455432e-07,-90
288,20.08677,1657948419.0,0.979905,-90.00018,136,8,-4.429298e-07,-90
289,20.15599,1657948420.0,0.0491202,-90.00026,136,8,-4.416083e-07,-90
290,20.2252,1657948420.0,0.118337,-90.00031,136,8,-4.421014e-07,-90
291,20.29441,1657948420.0,0.187545,-90.00047,136,8,-4.422115e-07,-90
292,20.36362,1657948420.0,0.256751,-90.00031,136,8,-4.460231e-07,-90
293,20.43284,1657948420.0,0.325976,-90.00031,136,8,-4.439566e-07,-90
294,20.50207,1657948420.0,0.395203,-90.00043,136,8,-4.443904e-07,-90
295,20.57128,1657948420.0,0.464417,-90.00027,136,8,-4.432796e-07,-90
296,20.6405,1657948420.0,0.533633,-90.00026,136,8,-4.450104e-07,-90
297,20.70972,1657948420.0,0.602857,-90.00028,136,8,-4.413539e-07,-90
298,20.77894,1657948420.0,0.672078,-90.00031,136,8,-4.421834e-07,-90
299,20.84817,1657948420.0,0.741298,-90.00031,136,8,-4.44287e-07,-90
300,20.91739,1657948420.0,0.810521,-90.00027,136,8,-4.417145e-07,-90
301,20.9866,1657948420.0,0.879735,-90.00026,136,8,-4.432216e-07,-90
302,21.05582,1657948420.0,0.948953,-90.00039,136,8,-4.436364e-07,-90
303,21.12504,1657948421.0,0.0181777,-90.0004,136,8,-4.431504e-07,-90
304,21.19426,1657948421.0,0.0873929,-90.00036,136,8,-4.42513e-07,-90
305,21.26347,1657948421.0,0.156603,-90.00036,136,8,-4.418407e-07,-90
306,21.33268,1657948421.0,0.225818,-90.00037,136,8,-4.432149e-07,-90
307,21.4019,1657948421.0,0.295032,-90.00032,136,8,-4.44736e-07,-90
308,21.4711,1657948421.0,0.364236,-90.00035,136,8,-4.435067e-07,-90
309,21.54032,1657948421.0,0.433456,-90.00034,136,8,-4.431674e-07,-90
310,21.60953,1657948421.0,0.502666,-90.00027,136,8,-4.433158e-07,-90
311,21.67876,1657948421.0,0.571896,-90.00034,136,8,-4.441318e-07,-90
312,21.74798,1657948421.0,0.641109,-90.00036,136,8,-4.436321e-07,-90
313,21.81717,1657948421.0,0.710304,-90.00025,136,8,-4.437915e-07,-90
314,21.88636,1657948421.0,0.779494,-90.00023,136,8,-4.424073e-07,-90
315,21.95558,1657948421.0,0.848711,-90.00021,136,8,-4.42869e-07,-90
316,22.02481,1657948421.0,0.917942,-90.00031,136,8,-4.436409e-07,-90
317,22.09402,1657948421.0,0.987157,-90.00034,136,8,-4.437353e-07,-90
318,22.16324,1657948422.0,0.0563747,-90.00034,136,8,-4.435002e-07,-90
319,22.23246,1657948422.0,0.125598,-90.00025,136,8,-4.463344e-07,-90
320,22.30168,1657948422.0,0.194818,-90.00028,136,8,-4.442417e-07,-90
321,22.3709,1657948422.0,0.264035,-90.00027,136,8,-4.427507e-07,-90
322,22.44011,1657948422.0,0.333248,-90.00027,136,8,-4.432189e-07,-90
323,22.50932,1657948422.0,0.402454,-90.00024,136,8,-4.425446e-07,-90
324,22.57854,1657948422.0,0.471672,-90.00023,136,8,-4.448172e-07,-90
325,22.64777,1657948422.0,0.540905,-90.00023,136,8,-4.44823e-07,-90
326,22.71699,1657948422.0,0.61012,-90.00024,136,8,-4.394269e-07,-90
327,22.78621,1657948422.0,0.67934,-90.00032,136,8,-4.421852e-07,-90
328,22.85541,1657948422.0,0.748546,-90.00034,136,8,-4.439602e-07,-90
329,22.92463,1657948422.0,0.817763,-90.00024,136,8,-4.422419e-07,-90
330,22.99384,1657948422.0,0.886974,-90.0002,136,8,-4.420398e-07,-90
331,23.06307,1657948422.0,0.956199,-90.00028,136,8,-4.435649e-07,-90
332,23.13229,1657948423.0,0.0254223,-90.00026,136,8,-4.439177e-07,-90
333,23.20151,1657948423.0,0.0946451,-90.00029,136,8,-4.43464e-07,-90
334,23.27073,1657948423.0,0.163861,-90.00027,136,8,-4.431934e-07,-90
335,23.33995,1657948423.0,0.233083,-90.00026,136,8,-4.415691e-07,-90
336,23.40918,1657948423.0,0.30231,-90.00042,136,8,-4.412051e-07,-90
337,23.4784,1657948423.0,0.371532,-90.00029,136,8,-4.430707e-07,-90
338,23.54762,1657948423.0,0.440749,-90.00031,136,8,-4.422543e-07,-90
339,23.61684,1657948423.0,0.509972,-90.00033,136,8,-4.405755e-07,-90
340,23.68605,1657948423.0,0.579183,-90.00027,136,8,-4.422148e-07,-90
341,23.75528,1657948423.0,0.648408,-90.00027,136,8,-4.433684e-07,-90
342,23.8245,1657948423.0,0.71763,-90.00025,136,8,-4.440725e-07,-90
343,23.89372,1657948423.0,0.786854,-90.0002,136,8,-4.431228e-07,-90
344,23.96294,1657948423.0,0.856076,-90.00023,136,8,-4.412828e-07,-90
345,24.03216,1657948423.0,0.925289,-90.0002,136,8,-4.421177e-07,-90
346,24.10138,1657948423.0,0.994515,-90.00025,136,8,-4.422601e-07,-90
347,24.17059,1657948424.0,0.0637205,-90.0002,136,8,-4.424452e-07,-90
348,24.23982,1657948424.0,0.132952,-90.00026,136,8,-4.441137e-07,-90
349,24.30904,1657948424.0,0.202175,-90.00032,136,8,-4.439579e-07,-90
350,24.37825,1657948424.0,0.271385,-90.00034,136,8,-4.446123e-07,-90
351,24.44748,1657948424.0,0.340609,-90.00027,136,8,-4.442649e-07,-90
352,24.51669,1657948424.0,0.409826,-90.0002,136,8,-4.426323e-07,-90
353,24.5859,1657948424.0,0.479037,-90.00029,136,8,-4.435136e-07,-90
354,24.65513,1657948424.0,0.54826,-90.00031,136,8,-4.447617e-07,-90
355,24.72435,1657948424.0,0.617481,-90.00024,136,8,-4.437382e-07,-90
356,24.79357,1657948424.0,0.6867,-90.00033,136,8,-4.430089e-07,-90
357,24.86279,1657948424.0,0.755925,-90.00021,136,8,-4.416115e-07,-90
358,24.93201,1657948424.0,0.825141,-90.00027,136,8,-4.411574e-07,-90
359,25.00122,1657948424.0,0.894358,-90.00016,136,8,-4.434578e-07,-90
360,25.07043,1657948424.0,0.963564,-90.00025,136,8,-4.413083e-07,-90
361,25.13964,1657948425.0,0.0327716,-90.00011,136,8,-4.441581e-07,-90
362,25.20886,1657948425.0,0.101992,-90.00024,136,8,-4.429511e-07,-90
363,25.27808,1657948425.0,0.171215,-90.00031,136,8,-4.426e-07,-90
364,25.34729,1657948425.0,0.24042,-90.00029,136,8,-4.416787e-07,-90
365,25.41649,1657948425.0,0.309626,-90.00032,136,8,-4.432726e-07,-90
366,25.4857,1657948425.0,0.37883,-90.00027,136,8,-4.428392e-07,-90
367,25.55492,1657948425.0,0.448049,-90.00026,136,8,-4.429525e-07,-90
368,25.62412,1657948425.0,0.517256,-90.00033,136,8,-4.433502e-07,-90
369,25.69334,1657948425.0,0.586472,-90.00031,136,8,-4.427316e-07,-90
370,25.76255,1657948425.0,0.655679,-90.00026,136,8,-4.421711e-07,-90
371,25.83177,1657948425.0,0.724905,-90.00033,136,8,-4.410799e-07,-90
372,25.90098,1657948425.0,0.794114,-90.00025,136,8,-4.435693e-07,-90
373,25.97021,1657948425.0,0.863343,-90.00024,136,8,-4.427156e-07,-90
374,26.03944,1657948425.0,0.932569,-90.00023,136,8,-4.414609e-07,-90
375,26.10864,1657948426.0,0.0017777,-90.00023,136,8,-4.398528e-07,-90
376,26.17785,1657948426.0,0.0709832,-90.00025,136,8,-4.411285e-07,-90
377,26.24706,1657948426.0,0.140193,-90.00031,136,8,-4.421352e-07,-90
378,26.31628,1657948426.0,0.209416,-90.00022,136,8,-4.406141e-07,-90
379,26.38551,1657948426.0,0.278641,-90.00031,136,8,-4.428168e-07,-90
380,26.45472,1657948426.0,0.347857,-90.00024,136,8,-4.422908e-07,-90
381,26.52393,1657948426.0,0.417065,-90.00031,136,8,-4.430384e-07,-90
382,26.59314,1657948426.0,0.486275,-90.00025,136,8,-4.437679e-07,-90
383,26.66236,1657948426.0,0.555491,-90.00029,136,8,-4.425353e-07,-90
384,26.73157,1657948426.0,0.624708,-90.00027,136,8,-4.42869e-07,-90
385,26.8008,1657948426.0,0.693928,-90.00031,136,8,-4.411549e-07,-90
386,26.87001,1657948426.0,0.763141,-90.00031,136,8,-4.433177e-07,-90
387,26.93922,1657948426.0,0.832356,-90.00034,136,8,-4.403511e-07,-90
388,27.00844,1657948426.0,0.901572,-90.00033,136,8,-4.44541e-07,-90
389,27.07765,1657948426.0,0.970783,-90.00025,136,8,-4.439787e-07,-90
390,27.14686,1657948427.0,0.0399903,-90.00028,136,8,-4.421352e-07,-90
391,27.21607,1657948427.0,0.109205,-90.00027,136,8,-4.422956e-07,-90
392,27.28529,1657948427.0,0.17842,-90.00026,136,8,-4.422185e-07,-90
393,27.3545,1657948427.0,0.247638,-90.00022,136,8,-4.41472e-07,-90
394,27.42371,1657948427.0,0.316842,-90.00029,136,8,-4.418956e-07,-90
395,27.49292,1657948427.0,0.38605,-90.00034,136,8,-4.418e-07,-90
396,27.56214,1657948427.0,0.455275,-90.00033,136,8,-4.429353e-07,-90
397,27.63135,1657948427.0,0.52448,-90.0004,136,8,-4.426417e-07,-90
398,27.70056,1657948427.0,0.593698,-90.00027,136,8,-4.435977e-07,-90
399,27.76978,1657948427.0,0.662913,-90.0004,136,8,-4.407565e-07,-90
400,27.839,1657948427.0,0.73213,-90.00018,136,8,-4.434377e-07,-90
401,27.9082,1657948427.0,0.801338,-90.00022,136,8,-4.432734e-07,-90
402,27.97741,1657948427.0,0.87054,-90.00022,136,8,-4.44409e-07,-90
403,28.04661,1657948427.0,0.939747,-90.00023,136,8,-4.429004e-07,-90
404,28.11583,1657948428.0,0.00896426,-90.00039,136,8,-4.448497e-07,-90
405,28.18504,1657948428.0,0.0781725,-90.00024,136,8,-4.414453e-07,-90
406,28.25426,1657948428.0,0.147394,-90.00031,136,8,-4.425407e-07,-90
407,28.32348,1657948428.0,0.216613,-90.00027,136,8,-4.427549e-07,-90
408,28.3927,1657948428.0,0.285833,-90.00029,136,8,-4.433238e-07,-90
409,28.46191,1657948428.0,0.355038,-90.00027,136,8,-4.435077e-07,-90
410,28.53111,1657948428.0,0.424248,-90.00025,136,8,-4.443383e-07,-90
411,28.60033,1657948428.0,0.493461,-90.00024,136,8,-4.423562e-07,-90
412,28.66955,1657948428.0,0.562684,-90.00027,136,8,-4.412045e-07,-90
413,28.73877,1657948428.0,0.631899,-90.00036,136,8,-4.43157e-07,-90
414,28.80799,1657948428.0,0.701123,-90.00041,136,8,-4.44352e-07,-90
415,28.87721,1657948428.0,0.770339,-90.00026,136,8,-4.424383e-07,-90
416,28.94642,1657948428.0,0.83955,-90.00027,136,8,-4.422552e-07,-90
417,29.01563,1657948428.0,0.908761,-90.00018,136,8,-4.419789e-07,-90
418,29.08485,1657948428.0,0.977985,-90.00024,136,8,-4.43203e-07,-90
419,29.15403,1657948429.0,0.0471673,-90.00016,136,8,-4.427779e-07,-90
420,29.22324,1657948429.0,0.116376,-90.00019,136,8,-4.438628e-07,-90
421,29.29245,1657948429.0,0.185583,-90.00031,136,8,-4.439803e-07,-90
422,29.36167,1657948429.0,0.254807,-90.00019,136,8,-4.426004e-07,-90
423,29.43089,1657948429.0,0.324023,-90.00035,136,8,-4.406475e-07,-90
424,29.50011,1657948429.0,0.393246,-90.00027,136,8,-4.414393e-07,-90
425,29.56934,1657948429.0,0.46247,-90.00037,136,8,-4.418534e-07,-90
426,29.63855,1657948429.0,0.53168,-90.00041,136,8,-4.437303e-07,-90
427,29.70776,1657948429.0,0.600897,-90.00035,136,8,-4.42095e-07,-90
428,29.77699,1657948429.0,0.670119,-90.00039,136,8,-4.423426e-07,-90
429,29.8462,1657948429.0,0.739334,-90.00033,136,8,-4.420201e-07,-90
430,29.91541,1657948429.0,0.808545,-90.00031,136,8,-4.431777e-07,-90
431,29.98462,1657948429.0,0.877749,-90.00028,136,8,-4.426215e-07,-90
432,30.05385,1657948429.0,0.946979,-90.00035,136,8,-4.415745e-07,-90
433,30.12307,1657948430.0,0.0161993,-90.00036,136,8,-4.419288e-07,-90
434,30.19229,1657948430.0,0.0854221,-90.00034,136,8,-4.40753e-07,-90
435,30.26151,1657948430.0,0.15464,-90.00023,136,8,-4.414732e-07,-90
436,30.33072,1657948430.0,0.223848,-90.00032,136,8,-4.41524e-07,-90
437,30.39993,1657948430.0,0.293066,-90.00028,136,8,-4.416708e-07,-90
438,30.46914,1657948430.0,0.362273,-90.00028,136,8,-4.427629e-07,-90
439,30.53835,1657948430.0,0.431481,-90.00025,136,8,-4.417398e-07,-90
440,30.60757,1657948430.0,0.500706,-90.00036,136,8,-4.407733e-07,-90
441,30.67679,1657948430.0,0.569921,-90.00029,136,8,-4.440208e-07,-90
442,30.74597,1657948430.0,0.639104,-90.00018,136,8,-4.425412e-07,-90
443,30.81516,1657948430.0,0.708294,-90.00015,136,8,-4.432561e-07,-90
444,30.88439,1657948430.0,0.777519,-90.00026,136,8,-4.424813e-07,-90
445,30.95359,1657948430.0,0.846726,-90.00031,136,8,-4.415818e-07,-90
446,31.0228,1657948430.0,0.915937,-90.00037,136,8,-4.426998e-07,-90
447,31.09202,1657948430.0,0.985155,-90.00031,136,8,-4.40821e-07,-90
448,31.16124,1657948431.0,0.0543757,-90.00037,136,8,-4.427156e-07,-90
449,31.23046,1657948431.0,0.123598,-90.00034,136,8,-4.421866e-07,-90
450,31.29967,1657948431.0,0.192803,-90.00042,136,8,-4.412665e-07,-90
451,31.3689,1657948431.0,0.262036,-90.00039,136,8,-4.413418e-07,-90
452,31.43811,1657948431.0,0.331239,-90.00036,136,8,-4.41736e-07,-90
453,31.50733,1657948431.0,0.400462,-90.00028,136,8,-4.409086e-07,-90
454,31.57655,1657948431.0,0.469685,-90.00034,136,8,-4.413222e-07,-90
455,31.64578,1657948431.0,0.538913,-90.00029,136,8,-4.410043e-07,-90
456,31.71499,1657948431.0,0.608122,-90.0004,136,8,-4.408168e-07,-90
457,31.78421,1657948431.0,0.677338,-90.00039,136,8,-4.424956e-07,-90
458,31.85341,1657948431.0,0.746544,-90.00034,136,8,-4.427021e-07,-90
459,31.92264,1657948431.0,0.815769,-90.00027,136,8,-4.419908e-07,-90
460,31.99186,1657948431.0,0.88499,-90.00029,136,8,-4.431222e-07,-90
461,32.06105,1657948431.0,0.954183,-90.00027,136,8,-4.40958e-07,-90
462,32.13026,1657948432.0,0.023389,-90.00037,136,8,-4.405192e-07,-90
463,32.19947,1657948432.0,0.092606,-90.00043,136,8,-4.413354e-07,-90
464,32.2687,1657948432.0,0.161831,-90.0002,136,8,-4.423796e-07,-90
465,32.33791,1657948432.0,0.231047,-90.00023,136,8,-4.415119e-07,-90
466,32.40713,1657948432.0,0.30026,-90.00027,136,8,-4.434173e-07,-90
467,32.47634,1657948432.0,0.369469,-90.00026,136,8,-4.41622e-07,-90
468,32.54554,1657948432.0,0.438673,-90.00028,136,8,-4.393197e-07,-90
469,32.61476,1657948432.0,0.507896,-90.00027,136,8,-4.421277e-07,-90
470,32.68398,1657948432.0,0.577113,-90.00023,136,8,-4.441649e-07,-90
471,32.75319,1657948432.0,0.646321,-90.00033,136,8,-4.421729e-07,-90
472,32.8224,1657948432.0,0.715535,-90.00024,136,8,-4.422983e-07,-90
473,32.89163,1657948432.0,0.784759,-90.00018,136,8,-4.432883e-07,-90
474,32.96085,1657948432.0,0.853981,-90.00021,136,8,-4.417857e-07,-90
475,33.03007,1657948432.0,0.923205,-90.00034,136,8,-4.410684e-07,-90
476,33.0993,1657948432.0,0.992428,-90.00032,136,8,-4.402988e-07,-90
477,33.1685,1657948433.0,0.0616318,-90.00029,136,8,-4.425025e-07,-90
478,33.23771,1657948433.0,0.130841,-90.00027,136,8,-4.432938e-07,-90
479,33.30692,1657948433.0,0.200051,-90.00024,136,8,-4.428429e-07,-90
480,33.37614,1657948433.0,0.26927,-90.00027,136,8,-4.411803e-07,-90
481,33.44536,1657948433.0,0.338491,-90.00021,136,8,-4.406311e-07,-90
482,33.51457,1657948433.0,0.407701,-90.00028,136,8,-4.42196e-07,-90
483,33.58379,1657948433.0,0.47692,-90.00029,136,8,-4.433043e-07,-90
484,33.65299,1657948433.0,0.546127,-90.00036,136,8,-4.40639e-07,-90
485,33.72221,1657948433.0,0.615346,-90.00031,136,8,-4.411028e-07,-90
486,33.79143,1657948433.0,0.684564,-90.00036,136,8,-4.407259e-07,-90
487,33.86064,1657948433.0,0.753772,-90.00024,136,8,-4.430978e-07,-90
488,33.92987,1657948433.0,0.823,-90.00028,136,8,-4.432464e-07,-90
489,33.99909,1657948433.0,0.89222,-90.00031,136,8,-4.406725e-07,-90
490,34.06829,1657948433.0,0.961428,-90.00039,136,8,-4.406783e-07,-90
491,34.1375,1657948434.0,0.0306317,-90.00043,136,8,-4.418739e-07,-90
492,34.20672,1657948434.0,0.0998544,-90.0004,136,8,-4.405343e-07,-90
493,34.27593,1657948434.0,0.169062,-90.00039,136,8,-4.406585e-07,-90
494,34.34514,1657948434.0,0.238277,-90.00036,136,8,-4.435176e-07,-90
495,34.41436,1657948434.0,0.307494,-90.00031,136,8,-4.39072e-07,-90
496,34.48357,1657948434.0,0.376703,-90.00033,136,8,-4.421901e-07,-90
497,34.55278,1657948434.0,0.445912,-90.00036,136,8,-4.417412e-07,-90
498,34.622,1657948434.0,0.515137,-90.0004,136,8,-4.415403e-07,-90
499,34.69123,1657948434.0,0.58436,-90.00041,136,8,-4.417729e-07,-90
500,34.76044,1657948434.0,0.65357,-90.00028,136,8,-4.405626e-07,-90
501,34.82965,1657948434.0,0.722783,-90.00032,136,8,-4.399351e-07,-90
502,34.89886,1657948434.0,0.791997,-90.00034,136,8,-4.40795e-07,-90
503,34.96808,1657948434.0,0.861217,-90.00036,136,8,-4.419276e-07,-90
504,35.0373,1657948434.0,0.930429,-90.00024,136,8,-4.41013e-07,-90
505,35.10651,1657948434.0,0.999647,-90.00039,136,8,-4.405111e-07,-90
506,35.17574,1657948435.0,0.0688732,-90.00033,136,8,-4.411272e-07,-90
507,35.24496,1657948435.0,0.138097,-90.0005,136,8,-4.413601e-07,-90
508,35.31417,1657948435.0,0.207305,-90.00045,136,8,-4.420535e-07,-90
509,35.38338,1657948435.0,0.276511,-90.00043,136,8,-4.420934e-07,-90
510,35.4526,1657948435.0,0.345733,-90.0004,136,8,-4.423636e-07,-90
511,35.52183,1657948435.0,0.414962,-90.00037,136,8,-4.411992e-07,-90
512,35.59104,1657948435.0,0.484174,-90.00031,136,8,-4.404442e-07,-90
513,35.66025,1657948435.0,0.553383,-90.00031,136,8,-4.426861e-07,-90
514,35.72947,1657948435.0,0.622603,-90.00035,136,8,-4.426966e-07,-90
515,35.79868,1657948435.0,0.691817,-90.00039,136,8,-4.415082e-07,-90
516,35.86791,1657948435.0,0.761041,-90.00037,136,8,-4.404896e-07,-90
517,35.93713,1657948435.0,0.830264,-90.00029,136,8,-4.424028e-07,-90
518,36.00635,1657948435.0,0.89948,-90.00035,136,8,-4.41859e-07,-90
519,36.07555,1657948435.0,0.968683,-90.00031,136,8,-4.42719e-07,-90
520,36.14477,1657948436.0,0.0379059,-90.00037,136,8,-4.404752e-07,-90
521,36.21399,1657948436.0,0.107127,-90.0004,136,8,-4.417301e-07,-90
522,36.2832,1657948436.0,0.176337,-90.00034,136,8,-4.413899e-07,-90
523,36.35241,1657948436.0,0.245542,-90.00026,136,8,-4.437243e-07,-90
524,36.42163,1657948436.0,0.314759,-90.00034,136,8,-4.395069e-07,-90
525,36.49083,1657948436.0,0.383965,-90.00019,136,8,-4.401773e-07,-90
526,36.56005,1657948436.0,0.453184,-90.00024,136,8,-4.423399e-07,-90
527,36.62926,1657948436.0,0.522396,-90.00025,136,8,-4.419606e-07,-90
528,36.69847,1657948436.0,0.591607,-90.00024,136,8,-4.404644e-07,-90
529,36.7677,1657948436.0,0.660829,-90.00022,136,8,-4.416147e-07,-90
530,36.83691,1657948436.0,0.730042,-90.00029,136,8,-4.420135e-07,-90
531,36.90612,1657948436.0,0.799252,-90.00031,136,8,-4.409153e-07,-90
532,36.97534,1657948436.0,0.868468,-90.00043,136,8,-4.41159e-07,-90
533,37.04455,1657948436.0,0.93768,-90.00033,136,8,-4.383222e-07,-90
534,37.11376,1657948437.0,0.00689796,-90.00043,136,8,-4.411976e-07,-90
535,37.18298,1657948437.0,0.0761116,-90.00022,136,8,-4.412535e-07,-90
536,37.25219,1657948437.0,0.145323,-90.00035,136,8,-4.428663e-07,-90
537,37.32141,1657948437.0,0.214543,-90.0004,136,8,-4.407889e-07,-90
538,37.39063,1657948437.0,0.283763,-90.00036,136,8,-4.387824e-07,-90
539,37.45986,1657948437.0,0.352989,-90.00034,136,8,-4.408441e-07,-90
540,37.52907,1657948437.0,0.422204,-90.00034,136,8,-4.417874e-07,-90
541,37.59827,1657948437.0,0.491407,-90.00034,136,8,-4.423072e-07,-90
542,37.66749,1657948437.0,0.560624,-90.00034,136,8,-4.411188e-07,-90
543,37.7367,1657948437.0,0.629835,-90.00041,136,8,-4.394057e-07,-90
544,37.80594,1657948437.0,0.699069,-90.00041,136,8,-4.403984e-07,-90
545,37.87515,1657948437.0,0.768284,-90.00031,136,8,-4.423553e-07,-90
546,37.94438,1657948437.0,0.83751,-90.00036,136,8,-4.41439e-07,-90
547,38.01358,1657948437.0,0.906716,-90.00027,136,8,-4.420153e-07,-90
548,38.08281,1657948437.0,0.975944,-90.00024,136,8,-4.405173e-07,-90
549,38.15203,1657948438.0,0.0451638,-90.00024,136,8,-4.413116e-07,-90
550,38.22124,1657948438.0,0.114369,-90.00032,136,8,-4.430166e-07,-90
551,38.29045,1657948438.0,0.183581,-90.00034,136,8,-4.415674e-07,-90
552,38.35966,1657948438.0,0.252797,-90.00037,136,8,-4.422392e-07,-90
553,38.42889,1657948438.0,0.322024,-90.00037,136,8,-4.40178e-07,-90
554,38.49811,1657948438.0,0.391243,-90.00039,136,8,-4.412985e-07,-90
555,38.56733,1657948438.0,0.460464,-90.00032,136,8,-4.401806e-07,-90
556,38.63655,1657948438.0,0.529685,-90.00025,136,8,-4.420271e-07,-90
557,38.70577,1657948438.0,0.598905,-90.00053,136,8,-4.411796e-07,-90
558,38.77498,1657948438.0,0.668117,-90.00045,136,8,-4.417845e-07,-90
559,38.84421,1657948438.0,0.737344,-90.00036,136,8,-4.40694e-07,-90
560,38.91342,1657948438.0,0.806557,-90.0004,136,8,-4.424924e-07,-90
561,38.98263,1657948438.0,0.875763,-90.00028,136,8,-4.415221e-07,-90
562,39.05186,1657948438.0,0.944991,-90.00036,136,8,-4.419476e-07,-90
563,39.12107,1657948439.0,0.0142081,-90.0002,136,8,-4.422788e-07,-90
564,39.1903,1657948439.0,0.0834305,-90.00023,136,8,-4.425794e-07,-90
565,39.25951,1657948439.0,0.152645,-90.00039,136,8,-4.409375e-07,-90
566,39.32873,1657948439.0,0.221861,-90.00027,136,8,-4.413738e-07,-90
567,39.39796,1657948439.0,0.291089,-90.00022,136,8,-4.416142e-07,-90
568,39.46717,1657948439.0,0.360299,-90.00023,136,8,-4.410144e-07,-90
569,39.53638,1657948439.0,0.429516,-90.00039,136,8,-4.404269e-07,-90
570,39.60558,1657948439.0,0.498716,-90.00024,136,8,-4.420853e-07,-90
571,39.67479,1657948439.0,0.567922,-90.0004,136,8,-4.408916e-07,-90
572,39.74401,1657948439.0,0.637141,-90.00034,136,8,-4.404922e-07,-90
573,39.81322,1657948439.0,0.706351,-90.00033,136,8,-4.398341e-07,-90
574,39.88243,1657948439.0,0.775561,-90.00042,136,8,-4.419778e-07,-90
575,39.95164,1657948439.0,0.844769,-90.00036,136,8,-4.410119e-07,-90
576,40.02085,1657948439.0,0.913984,-90.00027,136,8,-4.416216e-07,-90
577,40.09006,1657948439.0,0.983195,-90.00043,136,8,-4.408774e-07,-90
578,40.15928,1657948440.0,0.0524147,-90.00027,136,8,-4.427137e-07,-90
579,40.22849,1657948440.0,0.121623,-90.00034,136,8,-4.414847e-07,-90
580,40.2977,1657948440.0,0.190835,-90.00036,136,8,-4.396002e-07,-90
581,40.36693,1657948440.0,0.260068,-90.00029,136,8,-4.404368e-07,-90
582,40.43615,1657948440.0,0.329284,-90.00027,136,8,-4.412163e-07,-90
583,40.50536,1657948440.0,0.398492,-90.00035,136,8,-4.411304e-07,-90
584,40.57458,1657948440.0,0.467717,-90.00033,136,8,-4.403587e-07,-90
585,40.64379,1657948440.0,0.536926,-90.00033,136,8,-4.402652e-07,-90
586,40.713,1657948440.0,0.606135,-90.00027,136,8,-4.395197e-07,-90
587,40.78221,1657948440.0,0.675343,-90.0004,136,8,-4.40973e-07,-90
588,40.85141,1657948440.0,0.744547,-90.00037,136,8,-4.40813e-07,-90
589,40.92062,1657948440.0,0.813752,-90.00031,136,8,-4.408918e-07,-90
590,40.98984,1657948440.0,0.882973,-90.00036,136,8,-4.403163e-07,-90
591,41.05906,1657948440.0,0.952192,-90.00024,136,8,-4.399929e-07,-90
592,41.12827,1657948441.0,0.0214066,-90.00042,136,8,-4.411164e-07,-90
593,41.19749,1657948441.0,0.0906243,-90.00029,136,8,-4.401581e-07,-90
594,41.2667,1657948441.0,0.159837,-90.00027,136,8,-4.393273e-07,-90
595,41.33592,1657948441.0,0.229057,-90.00041,136,8,-4.410357e-07,-90
596,41.40514,1657948441.0,0.298277,-90.00029,136,8,-4.395697e-07,-90
597,41.47436,1657948441.0,0.367496,-90.00024,136,8,-4.420046e-07,-90
598,41.54358,1657948441.0,0.436716,-90.00028,136,8,-4.411415e-07,-90
599,41.61279,1657948441.0,0.505922,-90.00034,136,8,-4.403618e-07,-90
600,41.68199,1657948441.0,0.575128,-90.00031,136,8,-4.417973e-07,-90
601,41.75121,1657948441.0,0.644345,-90.00027,136,8,-4.401164e-07,-90
602,41.8204,1657948441.0,0.713535,-90.00025,136,8,-4.388713e-07,-90
603,41.88958,1657948441.0,0.782717,-90.00028,136,8,-4.419323e-07,-90
604,41.95881,1657948441.0,0.85194,-90.0004,136,8,-4.414585e-07,-90
605,42.02802,1657948441.0,0.921152,-90.00039,136,8,-4.41589e-07,-90
606,42.09721,1657948441.0,0.990343,-90.00025,136,8,-4.409567e-07,-90
607,42.16642,1657948442.0,0.0595578,-90.00028,136,8,-4.403107e-07,-90
608,42.23565,1657948442.0,0.128779,-90.00024,136,8,-4.392351e-07,-90
609,42.30485,1657948442.0,0.197984,-90.00034,136,8,-4.406175e-07,-90
610,42.37407,1657948442.0,0.267206,-90.00031,136,8,-4.376175e-07,-90
611,42.4433,1657948442.0,0.336428,-90.00033,136,8,-4.405321e-07,-90
612,42.51251,1657948442.0,0.405643,-90.00035,136,8,-4.392298e-07,-90
613,42.58173,1657948442.0,0.474867,-90.00027,136,8,-4.414404e-07,-90
614,42.65095,1657948442.0,0.544085,-90.00043,136,8,-4.420581e-07,-90
615,42.72018,1657948442.0,0.613309,-90.00036,136,8,-4.399868e-07,-90
616,42.78938,1657948442.0,0.682514,-90.00031,136,8,-4.426051e-07,-90
617,42.8586,1657948442.0,0.751735,-90.00037,136,8,-4.41104e-07,-90
618,42.92782,1657948442.0,0.820953,-90.00032,136,8,-4.408072e-07,-90
619,42.99703,1657948442.0,0.890166,-90.00039,136,8,-4.415456e-07,-90
620,43.06626,1657948442.0,0.959389,-90.00037,136,8,-4.411457e-07,-90
621,43.13546,1657948443.0,0.0285966,-90.00043,136,8,-4.390648e-07,-90
622,43.20468,1657948443.0,0.0978166,-90.00044,136,8,-4.393335e-07,-90
623,43.2739,1657948443.0,0.16703,-90.00042,136,8,-4.41227e-07,-90
624,43.3431,1657948443.0,0.236237,-90.00034,136,8,-4.403249e-07,-90
625,43.41232,1657948443.0,0.305453,-90.00034,136,8,-4.407651e-07,-90
626,43.48154,1657948443.0,0.374669,-90.00031,136,8,-4.431448e-07,-90
627,43.55076,1657948443.0,0.443889,-90.00031,136,8,-4.416527e-07,-90
628,43.61999,1657948443.0,0.513119,-90.00031,136,8,-4.401236e-07,-90
629,43.6892,1657948443.0,0.582335,-90.0004,136,8,-4.407644e-07,-90
630,43.75842,1657948443.0,0.651554,-90.00031,136,8,-4.404529e-07,-90
631,43.82763,1657948443.0,0.72076,-90.0004,136,8,-4.400096e-07,-90
632,43.89683,1657948443.0,0.789965,-90.00027,136,8,-4.390455e-07,-90
633,43.96606,1657948443.0,0.859189,-90.00027,136,8,-4.392377e-07,-90
634,44.03527,1657948443.0,0.928401,-90.00029,136,8,-4.413313e-07,-90
635,44.10449,1657948443.0,0.997625,-90.00037,136,8,-4.40772e-07,-90
636,44.17371,1657948444.0,0.0668436,-90.00031,136,8,-4.391936e-07,-90
637,44.24293,1657948444.0,0.136065,-90.00024,136,8,-4.406824e-07,-90
638,44.31215,1657948444.0,0.205282,-90.00027,136,8,-4.407856e-07,-90
639,44.38137,1657948444.0,0.274502,-90.00024,136,8,-4.404343e-07,-90
640,44.45057,1657948444.0,0.343708,-90.00027,136,8,-4.410111e-07,-90
641,44.51978,1657948444.0,0.412911,-90.00031,136,8,-4.414628e-07,-90
642,44.58901,1657948444.0,0.482143,-90.00027,136,8,-4.397498e-07,-90
643,44.65822,1657948444.0,0.551351,-90.00035,136,8,-4.403819e-07,-90
644,44.72743,1657948444.0,0.62056,-90.00037,136,8,-4.389862e-07,-90
645,44.79664,1657948444.0,0.689775,-90.00033,136,8,-4.394092e-07,-90
646,44.86586,1657948444.0,0.758992,-90.00031,136,8,-4.39705e-07,-90
647,44.93507,1657948444.0,0.828207,-90.00027,136,8,-4.407637e-07,-90
648,45.00428,1657948444.0,0.897411,-90.0004,136,8,-4.392213e-07,-90
649,45.07349,1657948444.0,0.966627,-90.00032,136,8,-4.415519e-07,-90
650,45.14271,1657948445.0,0.0358448,-90.00034,136,8,-4.414969e-07,-90
651,45.21193,1657948445.0,0.105061,-90.00031,136,8,-4.397555e-07,-90
652,45.28116,1657948445.0,0.174289,-90.00029,136,8,-4.431903e-07,-90
653,45.35037,1657948445.0,0.243499,-90.00028,136,8,-4.4025e-07,-90
654,45.41959,1657948445.0,0.312721,-90.00027,136,8,-4.400038e-07,-90
655,45.48881,1657948445.0,0.38194,-90.00024,136,8,-4.406498e-07,-90
656,45.55802,1657948445.0,0.451154,-90.00036,136,8,-4.401463e-07,-90
657,45.62724,1657948445.0,0.520369,-90.00024,136,8,-4.407642e-07,-90
658,45.69646,1657948445.0,0.589591,-90.00026,136,8,-4.425201e-07,-90
659,45.76567,1657948445.0,0.658801,-90.00014,136,8,-4.407987e-07,-90
660,45.83489,1657948445.0,0.728019,-90.00032,136,8,-4.394487e-07,-90
661,45.90409,1657948445.0,0.797227,-90.00034,136,8,-4.405026e-07,-90
662,45.9733,1657948445.0,0.866438,-90.00022,136,8,-4.414273e-07,-90
663,46.04252,1657948445.0,0.935649,-90.00029,136,8,-4.4015e-07,-90
664,46.11174,1657948446.0,0.00487106,-90.00026,136,8,-4.416753e-07,-90
665,46.18096,1657948446.0,0.0740961,-90.00019,136,8,-4.422798e-07,-90
666,46.25017,1657948446.0,0.143306,-90.00039,136,8,-4.408762e-07,-90
667,46.31938,1657948446.0,0.212517,-90.00024,136,8,-4.403289e-07,-90
668,46.38861,1657948446.0,0.28174,-90.00024,136,8,-4.400449e-07,-90
669,46.45783,1657948446.0,0.350966,-90.00029,136,8,-4.396275e-07,-90
670,46.52705,1657948446.0,0.420185,-90.00024,136,8,-4.39784e-07,-90
671,46.59627,1657948446.0,0.489404,-90.00027,136,8,-4.394699e-07,-90
672,46.66549,1657948446.0,0.558622,-90.00029,136,8,-4.399222e-07,-90
673,46.73471,1657948446.0,0.62784,-90.00027,136,8,-4.409433e-07,-90
674,46.80393,1657948446.0,0.697067,-90.00035,136,8,-4.41417e-07,-90
675,46.87314,1657948446.0,0.766277,-90.00034,136,8,-4.407985e-07,-90
676,46.94236,1657948446.0,0.835493,-90.0004,136,8,-4.395262e-07,-90
677,47.01158,1657948446.0,0.904708,-90.00044,136,8,-4.405667e-07,-90
678,47.08078,1657948446.0,0.973914,-90.00034,136,8,-4.4172e-07,-90
679,47.15,1657948447.0,0.0431322,-90.00036,136,8,-4.397945e-07,-90
680,47.21921,1657948447.0,0.112347,-90.00024,136,8,-4.408417e-07,-90
681,47.28844,1657948447.0,0.181571,-90.00024,136,8,-4.397098e-07,-90
682,47.35765,1657948447.0,0.250779,-90.00023,136,8,-4.407964e-07,-90
683,47.42686,1657948447.0,0.319994,-90.00029,136,8,-4.407635e-07,-90
684,47.49607,1657948447.0,0.389202,-90.00026,136,8,-4.41091e-07,-90
685,47.56528,1657948447.0,0.458411,-90.00018,136,8,-4.394803e-07,-90
686,47.63449,1657948447.0,0.527626,-90.00018,136,8,-4.412565e-07,-90
687,47.70371,1657948447.0,0.596847,-90.00033,136,8,-4.390788e-07,-90
688,47.77293,1657948447.0,0.666063,-90.00024,136,8,-4.404617e-07,-90
689,47.84214,1657948447.0,0.735276,-90.00032,136,8,-4.400738e-07,-90
690,47.91136,1657948447.0,0.804491,-90.00031,136,8,-4.404494e-07,-90
691,47.98057,1657948447.0,0.873706,-90.00033,136,8,-4.390343e-07,-90
