,REL,SEC,FRAC,SOUR,SOURSTAT,STAT,READ,VOLTAGE
0,0.0,1657948128.0,0.963814,-10.00003,136,8,-1.287645e-07,-10
1,0.06920538,1657948129.0,0.0330197,-10.00004,136,8,-1.25294e-07,-10
2,0.1384005,1657948129.0,0.102215,-10.00003,136,8,-1.228826e-07,-10
3,0.2076119,1657948129.0,0.171426,-10.00002,136,8,-1.206599e-07,-10
4,0.2768064,1657948129.0,0.240621,-10.00003,136,8,-1.192653e-07,-10
5,0.3460026,1657948129.0,0.309817,-10.00003,136,8,-1.182832e-07,-10
6,0.4152096,1657948129.0,0.379024,-10.00002,136,8,-1.172999e-07,-10
7,0.4843971,1657948129.0,0.448211,-10.00002,136,8,-1.163287e-07,-10
8,0.5535969,1657948129.0,0.517411,-10.00003,136,8,-1.156705e-07,-10
9,0.6227834,1657948129.0,0.586598,-10.00002,136,8,-1.147721e-07,-10
10,0.6919824,1657948129.0,0.655797,-10.00003,136,8,-1.145093e-07,-10
11,0.7611846,1657948129.0,0.724999,-10.00003,136,8,-1.14101e-07,-10
12,0.8303803,1657948129.0,0.794195,-10.00003,136,8,-1.137208e-07,-10
13,0.8995628,1657948129.0,0.863377,-10.00003,136,8,-1.131376e-07,-10
14,0.9687501,1657948129.0,0.932564,-10.00003,136,8,-1.127698e-07,-10
15,1.037942,1657948130.0,0.00175632,-10.00002,136,8,-1.126165e-07,-10
16,1.107132,1657948130.0,0.0709459,-10.00003,136,8,-1.124968e-07,-10
17,1.176336,1657948130.0,0.14015,-10.00003,136,8,-1.11736e-07,-10
18,1.245535,1657948130.0,0.20935,-10.00003,136,8,-1.117192e-07,-10
19,1.314738,1657948130.0,0.278552,-10.00002,136,8,-1.112884e-07,-10
20,1.383932,1657948130.0,0.347747,-10.00003,136,8,-1.113388e-07,-10
21,1.453127,1657948130.0,0.416941,-10.00002,136,8,-1.109458e-07,-10
22,1.52233,1657948130.0,0.486145,-10.00002,136,8,-1.11243e-07,-10
23,1.59152,1657948130.0,0.555335,-10.00002,136,8,-1.10651e-07,-10
24,1.660704,1657948130.0,0.624519,-10.00002,136,8,-1.105088e-07,-10
25,1.729896,1657948130.0,0.69371,-10.00002,136,8,-1.104568e-07,-10
26,1.799105,1657948130.0,0.762919,-10.00002,136,8,-1.105115e-07,-10
27,1.868328,1657948130.0,0.832142,-10.00003,136,8,-1.101432e-07,-10
28,1.93753,1657948130.0,0.901345,-10.00003,136,8,-1.10053e-07,-10
29,2.006748,1657948130.0,0.970563,-10.00003,136,8,-1.098714e-07,-10
30,2.07596,1657948131.0,0.0397747,-10.00003,136,8,-1.098846e-07,-10
31,2.145177,1657948131.0,0.108991,-10.00002,136,8,-1.098294e-07,-10
32,2.214388,1657948131.0,0.178202,-10.00002,136,8,-1.098594e-07,-10
33,2.283605,1657948131.0,0.247419,-10.00003,136,8,-1.097332e-07,-10
34,2.352821,1657948131.0,0.316636,-10.00003,136,8,-1.095539e-07,-10
35,2.422025,1657948131.0,0.385839,-10.00003,136,8,-1.094448e-07,-10
36,2.491248,1657948131.0,0.455063,-10.00003,136,8,-1.093806e-07,-10
37,2.560459,1657948131.0,0.524274,-10.00003,136,8,-1.091963e-07,-10
38,2.629669,1657948131.0,0.593483,-10.00002,136,8,-1.092343e-07,-10
39,2.698881,1657948131.0,0.662695,-10.00003,136,8,-1.089211e-07,-10
40,2.768093,1657948131.0,0.731908,-10.00002,136,8,-1.090206e-07,-10
41,2.837283,1657948131.0,0.801098,-10.00002,136,8,-1.090107e-07,-10
42,2.906482,1657948131.0,0.870296,-10.00002,136,8,-1.089083e-07,-10
43,2.975668,1657948131.0,0.939483,-10.00002,136,8,-1.0876e-07,-10
44,3.044861,1657948132.0,0.0086758,-10.00002,136,8,-1.088441e-07,-10
45,3.114063,1657948132.0,0.0778773,-10.00003,136,8,-1.087723e-07,-10
46,3.183275,1657948132.0,0.14709,-10.00004,136,8,-1.08816e-07,-10
47,3.252486,1657948132.0,0.2163,-10.00003,136,8,-1.085449e-07,-10
48,3.321695,1657948132.0,0.28551,-10.00003,136,8,-1.08408e-07,-10
49,3.390893,1657948132.0,0.354707,-10.00002,136,8,-1.08632e-07,-10
50,3.460079,1657948132.0,0.423893,-10.00003,136,8,-1.085028e-07,-10
51,3.529279,1657948132.0,0.493093,-10.00003,136,8,-1.084095e-07,-10
52,3.598471,1657948132.0,0.562285,-10.00002,136,8,-1.083293e-07,-10
53,3.667662,1657948132.0,0.631476,-10.00003,136,8,-1.082912e-07,-10
54,3.736854,1657948132.0,0.700669,-10.00003,136,8,-1.0831e-07,-10
55,3.806048,1657948132.0,0.769862,-10.00002,136,8,-1.08213e-07,-10
56,3.87524,1657948132.0,0.839055,-10.00002,136,8,-1.08148e-07,-10
57,3.94443,1657948132.0,0.908244,-10.00003,136,8,-1.079949e-07,-10
58,4.013647,1657948132.0,0.977461,-10.00003,136,8,-1.081188e-07,-10
59,4.082839,1657948133.0,0.0466531,-10.00004,136,8,-1.079563e-07,-10
60,4.152024,1657948133.0,0.115839,-10.00003,136,8,-1.080287e-07,-10
61,4.221213,1657948133.0,0.185027,-10.00002,136,8,-1.078938e-07,-10
62,4.290411,1657948133.0,0.254226,-10.00003,136,8,-1.078455e-07,-10
63,4.359594,1657948133.0,0.323408,-10.00003,136,8,-1.078108e-07,-10
64,4.428782,1657948133.0,0.392596,-10.00003,136,8,-1.079349e-07,-10
65,4.497982,1657948133.0,0.461796,-10.00003,136,8,-1.077879e-07,-10
66,4.567184,1657948133.0,0.530998,-10.00002,136,8,-1.077095e-07,-10
67,4.636394,1657948133.0,0.600208,-10.00002,136,8,-1.07808e-07,-10
68,4.705581,1657948133.0,0.669396,-10.00001,136,8,-1.075982e-07,-10
69,4.774769,1657948133.0,0.738584,-10.00002,136,8,-1.076775e-07,-10
70,4.843958,1657948133.0,0.807772,-10.00001,136,8,-1.077171e-07,-10
71,4.913148,1657948133.0,0.876962,-10.00002,136,8,-1.075229e-07,-10
72,4.98235,1657948133.0,0.946165,-10.00003,136,8,-1.076452e-07,-10
73,5.051546,1657948134.0,0.0153607,-10.00002,136,8,-1.07627e-07,-10
74,5.120747,1657948134.0,0.0845609,-10.00003,136,8,-1.073164e-07,-10
75,5.189935,1657948134.0,0.15375,-10.00002,136,8,-1.073641e-07,-10
76,5.259135,1657948134.0,0.22295,-10.00002,136,8,-1.076297e-07,-10
77,5.328325,1657948134.0,0.29214,-10.00003,136,8,-1.074757e-07,-10
78,5.397534,1657948134.0,0.361349,-10.00002,136,8,-1.072976e-07,-10
79,5.466719,1657948134.0,0.430533,-10.00002,136,8,-1.075567e-07,-10
80,5.535912,1657948134.0,0.499727,-10.00001,136,8,-1.074063e-07,-10
81,5.605099,1657948134.0,0.568914,-10.00001,136,8,-1.07421e-07,-10
82,5.674291,1657948134.0,0.638106,-10.00002,136,8,-1.073615e-07,-10
83,5.743486,1657948134.0,0.7073,-10.00003,136,8,-1.073895e-07,-10
84,5.812674,1657948134.0,0.776488,-10.00003,136,8,-1.073829e-07,-10
85,5.881869,1657948134.0,0.845684,-10.00002,136,8,-1.071539e-07,-10
86,5.951064,1657948134.0,0.914879,-10.00002,136,8,-1.070164e-07,-10
87,6.020286,1657948134.0,0.9841,-10.00001,136,8,-1.072592e-07,-10
88,6.089506,1657948135.0,0.0533206,-10.00002,136,8,-1.074153e-07,-10
89,6.158699,1657948135.0,0.122513,-10.00001,136,8,-1.071524e-07,-10
90,6.227899,1657948135.0,0.191713,-10.00002,136,8,-1.07295e-07,-10
91,6.297085,1657948135.0,0.2609,-10.00002,136,8,-1.073017e-07,-10
92,6.366269,1657948135.0,0.330083,-10.00001,136,8,-1.067893e-07,-10
93,6.435458,1657948135.0,0.399273,-10.00001,136,8,-1.072469e-07,-10
94,6.504649,1657948135.0,0.468463,-10.00001,136,8,-1.072698e-07,-10
95,6.573864,1657948135.0,0.537678,-10.00002,136,8,-1.06899e-07,-10
96,6.643062,1657948135.0,0.606877,-10.00001,136,8,-1.071409e-07,-10
97,6.712252,1657948135.0,0.676066,-10.0,136,8,-1.071082e-07,-10
98,6.781438,1657948135.0,0.745252,-10.00002,136,8,-1.072234e-07,-10
99,6.850628,1657948135.0,0.814443,-10.00002,136,8,-1.06834e-07,-10
100,6.91981,1657948135.0,0.883624,-10.00002,136,8,-1.068863e-07,-10
101,6.989,1657948135.0,0.952815,-10.00002,136,8,-1.070505e-07,-10
102,7.058202,1657948136.0,0.0220161,-10.00003,136,8,-1.068654e-07,-10
103,7.127401,1657948136.0,0.0912154,-10.00002,136,8,-1.070726e-07,-10
104,7.196589,1657948136.0,0.160403,-10.00002,136,8,-1.068721e-07,-10
105,7.26579,1657948136.0,0.229604,-10.00001,136,8,-1.070814e-07,-10
106,7.334982,1657948136.0,0.298796,-10.00001,136,8,-1.069343e-07,-10
107,7.40418,1657948136.0,0.367994,-10.00002,136,8,-1.067032e-07,-10
108,7.473379,1657948136.0,0.437193,-10.00002,136,8,-1.067569e-07,-10
109,7.542567,1657948136.0,0.506381,-10.00002,136,8,-1.06952e-07,-10
110,7.611751,1657948136.0,0.575565,-10.00002,136,8,-1.06829e-07,-10
111,7.680941,1657948136.0,0.644756,-10.00002,136,8,-1.066183e-07,-10
112,7.750128,1657948136.0,0.713942,-10.00001,136,8,-1.066147e-07,-10
113,7.819319,1657948136.0,0.783133,-10.00002,136,8,-1.066534e-07,-10
114,7.888522,1657948136.0,0.852336,-10.00002,136,8,-1.068452e-07,-10
115,7.95771,1657948136.0,0.921524,-10.00001,136,8,-1.066164e-07,-10
116,8.026902,1657948136.0,0.990717,-10.00001,136,8,-1.066597e-07,-10
117,8.09609,1657948137.0,0.0599043,-10.00001,136,8,-1.064778e-07,-10
118,8.165281,1657948137.0,0.129095,-10.00002,136,8,-1.067578e-07,-10
119,8.234473,1657948137.0,0.198287,-10.00002,136,8,-1.0666e-07,-10
120,8.303656,1657948137.0,0.26747,-10.00002,136,8,-1.065925e-07,-10
121,8.372854,1657948137.0,0.336668,-10.00001,136,8,-1.066447e-07,-10
122,8.44204,1657948137.0,0.405854,-10.00002,136,8,-1.064378e-07,-10
123,8.511235,1657948137.0,0.47505,-10.00001,136,8,-1.06663e-07,-10
124,8.580435,1657948137.0,0.54425,-10.00002,136,8,-1.066194e-07,-10
125,8.649625,1657948137.0,0.613439,-10.00002,136,8,-1.066762e-07,-10
126,8.718814,1657948137.0,0.682628,-10.00001,136,8,-1.065189e-07,-10
127,8.788013,1657948137.0,0.751828,-10.0,136,8,-1.065394e-07,-10
128,8.857208,1657948137.0,0.821022,-10.00002,136,8,-1.066431e-07,-10
129,8.926403,1657948137.0,0.890217,-10.00002,136,8,-1.064168e-07,-10
130,8.995587,1657948137.0,0.959402,-10.00002,136,8,-1.063962e-07,-10
131,9.064788,1657948138.0,0.028602,-10.00002,136,8,-1.064125e-07,-10
132,9.133982,1657948138.0,0.0977967,-10.00002,136,8,-1.063479e-07,-10
133,9.203174,1657948138.0,0.166988,-10.00002,136,8,-1.065814e-07,-10
134,9.272366,1657948138.0,0.236181,-10.00002,136,8,-1.063969e-07,-10
135,9.341556,1657948138.0,0.30537,-10.00002,136,8,-1.065586e-07,-10
136,9.410751,1657948138.0,0.374565,-10.00002,136,8,-1.063276e-07,-10
137,9.47994,1657948138.0,0.443755,-10.00002,136,8,-1.062233e-07,-10
138,9.549142,1657948138.0,0.512956,-10.00002,136,8,-1.065692e-07,-10
139,9.618341,1657948138.0,0.582156,-10.00002,136,8,-1.064817e-07,-10
140,9.687539,1657948138.0,0.651353,-10.00002,136,8,-1.063506e-07,-10
141,9.756739,1657948138.0,0.720554,-10.00002,136,8,-1.064716e-07,-10
142,9.825929,1657948138.0,0.789743,-10.00002,136,8,-1.063435e-07,-10
143,9.895109,1657948138.0,0.858924,-10.00002,136,8,-1.06315e-07,-10
144,9.964297,1657948138.0,0.928111,-10.00002,136,8,-1.063745e-07,-10
145,10.03349,1657948138.0,0.997304,-10.00002,136,8,-1.062477e-07,-10
146,10.10268,1657948139.0,0.0664911,-10.00002,136,8,-1.065549e-07,-10
147,10.17187,1657948139.0,0.135684,-10.00002,136,8,-1.064833e-07,-10
148,10.24107,1657948139.0,0.204882,-10.00002,136,8,-1.064278e-07,-10
149,10.31027,1657948139.0,0.274081,-10.00002,136,8,-1.065264e-07,-10
150,10.37946,1657948139.0,0.343271,-10.00002,136,8,-1.06461e-07,-10
151,10.44865,1657948139.0,0.412461,-10.00002,136,8,-1.062042e-07,-10
152,10.51785,1657948139.0,0.481662,-10.00002,136,8,-1.061947e-07,-10
153,10.58703,1657948139.0,0.550849,-10.00003,136,8,-1.063776e-07,-10
154,10.65623,1657948139.0,0.620042,-10.00003,136,8,-1.060885e-07,-10
155,10.72542,1657948139.0,0.689233,-10.00003,136,8,-1.061988e-07,-10
156,10.7946,1657948139.0,0.758415,-10.00003,136,8,-1.063151e-07,-10
157,10.8638,1657948139.0,0.827617,-10.00002,136,8,-1.059004e-07,-10
158,10.93299,1657948139.0,0.896806,-10.00002,136,8,-1.06244e-07,-10
159,11.00218,1657948139.0,0.965993,-10.00003,136,8,-1.063023e-07,-10
160,11.07138,1657948140.0,0.0351959,-10.00002,136,8,-1.061876e-07,-10
161,11.14057,1657948140.0,0.104386,-10.00002,136,8,-1.061278e-07,-10
162,11.20975,1657948140.0,0.173569,-10.00002,136,8,-1.06199e-07,-10
163,11.27894,1657948140.0,0.242757,-10.00003,136,8,-1.06243e-07,-10
164,11.34813,1657948140.0,0.311947,-10.00002,136,8,-1.060077e-07,-10
165,11.41731,1657948140.0,0.381129,-10.00002,136,8,-1.061969e-07,-10
166,11.4865,1657948140.0,0.450311,-10.00002,136,8,-1.060221e-07,-10
167,11.55568,1657948140.0,0.51949,-10.00002,136,8,-1.061774e-07,-10
168,11.62487,1657948140.0,0.588682,-10.00001,136,8,-1.06279e-07,-10
169,11.69405,1657948140.0,0.657864,-10.0,136,8,-1.062783e-07,-10
170,11.76324,1657948140.0,0.727056,-10.00002,136,8,-1.061293e-07,-10
171,11.83244,1657948140.0,0.796254,-10.00002,136,8,-1.062034e-07,-10
172,11.90163,1657948140.0,0.865447,-10.00001,136,8,-1.061105e-07,-10
173,11.97082,1657948140.0,0.934637,-10.00002,136,8,-1.061053e-07,-10
174,12.04001,1657948141.0,0.00381944,-10.00002,136,8,-1.061601e-07,-10
175,12.1092,1657948141.0,0.0730096,-10.00003,136,8,-1.058323e-07,-10
176,12.17839,1657948141.0,0.1422,-10.00002,136,8,-1.060391e-07,-10
177,12.24757,1657948141.0,0.211386,-10.00002,136,8,-1.061623e-07,-10
178,12.31676,1657948141.0,0.28057,-10.00002,136,8,-1.061991e-07,-10
179,12.38594,1657948141.0,0.349754,-10.00002,136,8,-1.060812e-07,-10
180,12.45513,1657948141.0,0.418943,-10.00002,136,8,-1.060686e-07,-10
181,12.52431,1657948141.0,0.488123,-10.00003,136,8,-1.060013e-07,-10
182,12.5935,1657948141.0,0.557315,-10.00001,136,8,-1.0599e-07,-10
183,12.66268,1657948141.0,0.626495,-10.00001,136,8,-1.060589e-07,-10
184,12.73188,1657948141.0,0.695693,-10.00001,136,8,-1.058988e-07,-10
185,12.80106,1657948141.0,0.764872,-10.00001,136,8,-1.060784e-07,-10
186,12.87024,1657948141.0,0.834055,-10.00001,136,8,-1.060021e-07,-10
187,12.93943,1657948141.0,0.903247,-10.00001,136,8,-1.059235e-07,-10
188,13.00863,1657948141.0,0.972444,-10.00002,136,8,-1.059159e-07,-10
189,13.07781,1657948142.0,0.0416274,-10.00001,136,8,-1.060234e-07,-10
190,13.14701,1657948142.0,0.11082,-10.00002,136,8,-1.058537e-07,-10
191,13.2162,1657948142.0,0.180018,-10.00002,136,8,-1.060735e-07,-10
192,13.2854,1657948142.0,0.249209,-10.00003,136,8,-1.059636e-07,-10
193,13.35459,1657948142.0,0.318408,-10.00002,136,8,-1.0584e-07,-10
194,13.42378,1657948142.0,0.387596,-10.00002,136,8,-1.060068e-07,-10
195,13.49297,1657948142.0,0.456782,-10.00002,136,8,-1.059847e-07,-10
196,13.56218,1657948142.0,0.525991,-10.00002,136,8,-1.057146e-07,-10
197,13.63138,1657948142.0,0.595199,-10.00002,136,8,-1.060234e-07,-10
198,13.7006,1657948142.0,0.664414,-10.00002,136,8,-1.058578e-07,-10
199,13.76982,1657948142.0,0.733635,-10.00002,136,8,-1.058014e-07,-10
200,13.83904,1657948142.0,0.802854,-10.00001,136,8,-1.060572e-07,-10
201,13.90826,1657948142.0,0.872071,-10.00002,136,8,-1.059777e-07,-10
202,13.97747,1657948142.0,0.941282,-10.00002,136,8,-1.057861e-07,-10
203,14.04667,1657948143.0,0.0104869,-10.00001,136,8,-1.059277e-07,-10
204,14.11589,1657948143.0,0.0797028,-10.00002,136,8,-1.058789e-07,-10
205,14.18511,1657948143.0,0.148922,-10.00002,136,8,-1.057421e-07,-10
206,14.25429,1657948143.0,0.218104,-10.00001,136,8,-1.059445e-07,-10
207,14.32349,1657948143.0,0.287305,-10.00001,136,8,-1.057161e-07,-10
208,14.39268,1657948143.0,0.356497,-10.00002,136,8,-1.057154e-07,-10
209,14.46187,1657948143.0,0.425681,-10.00002,136,8,-1.060024e-07,-10
210,14.53105,1657948143.0,0.494865,-10.00002,136,8,-1.056485e-07,-10
211,14.60025,1657948143.0,0.56406,-10.00002,136,8,-1.058753e-07,-10
212,14.66944,1657948143.0,0.633253,-10.00002,136,8,-1.05827e-07,-10
213,14.73864,1657948143.0,0.702451,-10.00001,136,8,-1.056419e-07,-10
214,14.80783,1657948143.0,0.771649,-10.00002,136,8,-1.058974e-07,-10
215,14.87703,1657948143.0,0.840843,-10.00002,136,8,-1.058342e-07,-10
216,14.94621,1657948143.0,0.910028,-10.00002,136,8,-1.056903e-07,-10
217,15.01542,1657948143.0,0.979238,-10.00002,136,8,-1.056829e-07,-10
218,15.08462,1657948144.0,0.0484374,-10.00003,136,8,-1.058988e-07,-10
219,15.15381,1657948144.0,0.117627,-10.00002,136,8,-1.058694e-07,-10
220,15.22301,1657948144.0,0.186829,-10.00001,136,8,-1.058222e-07,-10
221,15.2922,1657948144.0,0.25601,-10.00001,136,8,-1.05862e-07,-10
222,15.3614,1657948144.0,0.325218,-10.00002,136,8,-1.058791e-07,-10
223,15.43059,1657948144.0,0.394406,-10.00001,136,8,-1.058633e-07,-10
224,15.49978,1657948144.0,0.463599,-10.00002,136,8,-1.058151e-07,-10
225,15.56897,1657948144.0,0.532785,-10.00002,136,8,-1.057493e-07,-10
226,15.63817,1657948144.0,0.601987,-10.00001,136,8,-1.057423e-07,-10
227,15.70736,1657948144.0,0.671177,-10.00002,136,8,-1.057532e-07,-10
228,15.77655,1657948144.0,0.740366,-10.00002,136,8,-1.055339e-07,-10
229,15.84574,1657948144.0,0.809554,-10.00001,136,8,-1.056529e-07,-10
230,15.91493,1657948144.0,0.878742,-10.00003,136,8,-1.057323e-07,-10
231,15.98413,1657948144.0,0.94794,-10.00002,136,8,-1.060749e-07,-10
232,16.05333,1657948145.0,0.0171414,-10.00002,136,8,-1.056849e-07,-10
233,16.12253,1657948145.0,0.0863484,-10.00003,136,8,-1.0573e-07,-10
234,16.19173,1657948145.0,0.155546,-10.00002,136,8,-1.056225e-07,-10
235,16.26093,1657948145.0,0.224748,-10.00002,136,8,-1.057225e-07,-10
236,16.33013,1657948145.0,0.293945,-10.00002,136,8,-1.057414e-07,-10
237,16.39933,1657948145.0,0.363145,-10.00002,136,8,-1.052899e-07,-10
238,16.46851,1657948145.0,0.432326,-10.00002,136,8,-1.055675e-07,-10
239,16.5377,1657948145.0,0.501514,-10.00002,136,8,-1.057134e-07,-10
240,16.60688,1657948145.0,0.570695,-10.00002,136,8,-1.056266e-07,-10
241,16.67609,1657948145.0,0.6399,-10.00003,136,8,-1.056052e-07,-10
242,16.74528,1657948145.0,0.709092,-10.00002,136,8,-1.054786e-07,-10
243,16.81448,1657948145.0,0.778295,-10.00002,136,8,-1.055825e-07,-10
244,16.88368,1657948145.0,0.847492,-10.00002,136,8,-1.056224e-07,-10
245,16.95288,1657948145.0,0.916695,-10.00001,136,8,-1.054645e-07,-10
246,17.02207,1657948145.0,0.985887,-10.00002,136,8,-1.056556e-07,-10
247,17.09126,1657948146.0,0.0550698,-10.00002,136,8,-1.055486e-07,-10
248,17.16046,1657948146.0,0.124276,-10.00001,136,8,-1.056633e-07,-10
249,17.22965,1657948146.0,0.193467,-10.00002,136,8,-1.05419e-07,-10
250,17.29884,1657948146.0,0.262654,-10.00002,136,8,-1.056904e-07,-10
251,17.36804,1657948146.0,0.331852,-10.00002,136,8,-1.054455e-07,-10
252,17.43723,1657948146.0,0.401041,-10.00003,136,8,-1.054968e-07,-10
253,17.50642,1657948146.0,0.470235,-10.00002,136,8,-1.056116e-07,-10
254,17.57561,1657948146.0,0.539427,-10.00001,136,8,-1.059096e-07,-10
255,17.6448,1657948146.0,0.60861,-10.00001,136,8,-1.050565e-07,-10
256,17.71398,1657948146.0,0.677792,-10.00001,136,8,-1.059429e-07,-10
257,17.78318,1657948146.0,0.746993,-10.00003,136,8,-1.056446e-07,-10
258,17.85237,1657948146.0,0.816184,-10.00001,136,8,-1.054532e-07,-10
259,17.92156,1657948146.0,0.885377,-10.00001,136,8,-1.055607e-07,-10
260,17.99075,1657948146.0,0.954561,-10.00002,136,8,-1.056275e-07,-10
261,18.05994,1657948147.0,0.0237535,-10.00002,136,8,-1.053033e-07,-10
262,18.12912,1657948147.0,0.0929359,-10.00001,136,8,-1.058231e-07,-10
263,18.19831,1657948147.0,0.162122,-10.00001,136,8,-1.054142e-07,-10
264,18.2675,1657948147.0,0.231314,-10.00001,136,8,-1.053332e-07,-10
265,18.33669,1657948147.0,0.300509,-10.00001,136,8,-1.053819e-07,-10
266,18.4059,1657948147.0,0.369712,-10.00002,136,8,-1.052129e-07,-10
267,18.47509,1657948147.0,0.438904,-10.00002,136,8,-1.052043e-07,-10
268,18.54429,1657948147.0,0.508103,-10.00003,136,8,-1.054841e-07,-10
269,18.61349,1657948147.0,0.577303,-10.00003,136,8,-1.053605e-07,-10
270,18.68267,1657948147.0,0.646486,-10.00002,136,8,-1.053135e-07,-10
271,18.75186,1657948147.0,0.715674,-10.00001,136,8,-1.055565e-07,-10
272,18.82104,1657948147.0,0.784858,-10.00002,136,8,-1.053557e-07,-10
273,18.89023,1657948147.0,0.854048,-10.00002,136,8,-1.052006e-07,-10
274,18.95943,1657948147.0,0.923244,-10.00002,136,8,-1.053361e-07,-10
275,19.02862,1657948147.0,0.99243,-10.00001,136,8,-1.055341e-07,-10
276,19.09782,1657948148.0,0.0616302,-10.00001,136,8,-1.054666e-07,-10
277,19.167,1657948148.0,0.130816,-10.00001,136,8,-1.052983e-07,-10
278,19.2362,1657948148.0,0.200014,-10.00001,136,8,-1.053886e-07,-10
279,19.30539,1657948148.0,0.2692,-10.00001,136,8,-1.054492e-07,-10
280,19.37459,1657948148.0,0.338402,-10.00002,136,8,-1.053508e-07,-10
281,19.44377,1657948148.0,0.407589,-10.00001,136,8,-1.052768e-07,-10
282,19.51296,1657948148.0,0.476779,-10.00001,136,8,-1.053401e-07,-10
283,19.58215,1657948148.0,0.54596,-10.0,136,8,-1.052131e-07,-10
284,19.65133,1657948148.0,0.615141,-10.00001,136,8,-1.053915e-07,-10
285,19.72053,1657948148.0,0.684344,-10.00002,136,8,-1.053463e-07,-10
286,19.78971,1657948148.0,0.753526,-10.0,136,8,-1.054312e-07,-10
287,19.85891,1657948148.0,0.822723,-10.00001,136,8,-1.055151e-07,-10
288,19.9281,1657948148.0,0.891917,-10.00001,136,8,-1.055603e-07,-10
289,19.99729,1657948148.0,0.9611,-10.00001,136,8,-1.051962e-07,-10
290,20.06649,1657948149.0,0.0302998,-10.00001,136,8,-1.052412e-07,-10
291,20.13568,1657948149.0,0.0994916,-10.00002,136,8,-1.055024e-07,-10
292,20.20487,1657948149.0,0.168688,-10.00001,136,8,-1.054263e-07,-10
293,20.27407,1657948149.0,0.237886,-10.00001,136,8,-1.050324e-07,-10
294,20.34327,1657948149.0,0.307081,-10.00002,136,8,-1.055593e-07,-10
295,20.41247,1657948149.0,0.376287,-10.00001,136,8,-1.052889e-07,-10
296,20.48167,1657948149.0,0.445489,-10.00002,136,8,-1.050101e-07,-10
297,20.55088,1657948149.0,0.514692,-10.00002,136,8,-1.052125e-07,-10
298,20.62008,1657948149.0,0.58389,-10.00002,136,8,-1.052885e-07,-10
299,20.68927,1657948149.0,0.65308,-10.00002,136,8,-1.050843e-07,-10
300,20.75846,1657948149.0,0.722272,-10.00002,136,8,-1.051595e-07,-10
301,20.82766,1657948149.0,0.791477,-10.00001,136,8,-1.053962e-07,-10
302,20.89685,1657948149.0,0.860665,-10.00001,136,8,-1.051424e-07,-10
303,20.96604,1657948149.0,0.929857,-10.00002,136,8,-1.052831e-07,-10
304,21.03524,1657948149.0,0.999054,-10.00002,136,8,-1.052283e-07,-10
305,21.10443,1657948150.0,0.0682454,-10.00001,136,8,-1.053728e-07,-10
306,21.17363,1657948150.0,0.137445,-10.00001,136,8,-1.052694e-07,-10
307,21.24283,1657948150.0,0.20664,-10.00002,136,8,-1.052665e-07,-10
308,21.31201,1657948150.0,0.275825,-10.00001,136,8,-1.051203e-07,-10
309,21.38123,1657948150.0,0.345045,-10.00001,136,8,-1.050556e-07,-10
310,21.45044,1657948150.0,0.41425,-10.0,136,8,-1.051903e-07,-10
311,21.51963,1657948150.0,0.483444,-10.00001,136,8,-1.051499e-07,-10
312,21.58883,1657948150.0,0.552649,-10.00001,136,8,-1.053556e-07,-10
313,21.65803,1657948150.0,0.621849,-10.00001,136,8,-1.051167e-07,-10
314,21.72723,1657948150.0,0.691049,-10.00002,136,8,-1.052151e-07,-10
315,21.79646,1657948150.0,0.760277,-10.00001,136,8,-1.052126e-07,-10
316,21.86566,1657948150.0,0.829473,-9.999998,136,8,-1.053679e-07,-10
317,21.93485,1657948150.0,0.898667,-10.0,136,8,-1.051877e-07,-10
318,22.00405,1657948150.0,0.967868,-10.00002,136,8,-1.053294e-07,-10
319,22.07325,1657948151.0,0.0370644,-10.00002,136,8,-1.052258e-07,-10
320,22.14244,1657948151.0,0.106259,-10.00002,136,8,-1.052e-07,-10
321,22.21163,1657948151.0,0.175444,-10.00002,136,8,-1.052566e-07,-10
322,22.28083,1657948151.0,0.244642,-10.00001,136,8,-1.051322e-07,-10
323,22.35001,1657948151.0,0.313824,-10.00001,136,8,-1.050166e-07,-10
324,22.41921,1657948151.0,0.383023,-9.999998,136,8,-1.051049e-07,-10
325,22.4884,1657948151.0,0.452211,-10.00001,136,8,-1.050047e-07,-10
326,22.55759,1657948151.0,0.521408,-10.00001,136,8,-1.04912e-07,-10
327,22.62679,1657948151.0,0.590608,-10.00002,136,8,-1.052326e-07,-10
328,22.69599,1657948151.0,0.659808,-10.00002,136,8,-1.049795e-07,-10
329,22.7652,1657948151.0,0.729012,-10.00002,136,8,-1.049831e-07,-10
330,22.83441,1657948151.0,0.798223,-10.00001,136,8,-1.050678e-07,-10
331,22.90361,1657948151.0,0.867426,-10.00002,136,8,-1.051005e-07,-10
332,22.97282,1657948151.0,0.936636,-10.00002,136,8,-1.049503e-07,-10
333,23.04203,1657948152.0,0.00584514,-10.00002,136,8,-1.053027e-07,-10
334,23.11123,1657948152.0,0.0750478,-10.00001,136,8,-1.050775e-07,-10
335,23.18044,1657948152.0,0.144254,-10.00002,136,8,-1.051392e-07,-10
336,23.24965,1657948152.0,0.21346,-10.00002,136,8,-1.051227e-07,-10
337,23.31884,1657948152.0,0.282659,-10.00002,136,8,-1.048239e-07,-10
338,23.38805,1657948152.0,0.351867,-10.00002,136,8,-1.050844e-07,-10
339,23.45725,1657948152.0,0.42106,-10.0,136,8,-1.052486e-07,-10
340,23.52644,1657948152.0,0.490257,-10.0,136,8,-1.050557e-07,-10
341,23.59567,1657948152.0,0.559481,-10.0,136,8,-1.053872e-07,-10
342,23.66487,1657948152.0,0.628683,-10.00001,136,8,-1.050609e-07,-10
343,23.73407,1657948152.0,0.697883,-10.00002,136,8,-1.04685e-07,-10
344,23.80327,1657948152.0,0.767089,-10.00001,136,8,-1.050041e-07,-10
345,23.87249,1657948152.0,0.836302,-10.00001,136,8,-1.049049e-07,-10
346,23.94169,1657948152.0,0.905505,-10.00001,136,8,-1.050205e-07,-10
347,24.01089,1657948152.0,0.974708,-10.00001,136,8,-1.051206e-07,-10
348,24.08011,1657948153.0,0.0439201,-10.00002,136,8,-1.05189e-07,-10
349,24.14931,1657948153.0,0.113124,-10.00001,136,8,-1.048258e-07,-10
350,24.21853,1657948153.0,0.182343,-10.00001,136,8,-1.048921e-07,-10
351,24.28774,1657948153.0,0.251554,-10.00001,136,8,-1.051463e-07,-10
352,24.35694,1657948153.0,0.320753,-10.00001,136,8,-1.050002e-07,-10
353,24.42616,1657948153.0,0.389973,-10.00001,136,8,-1.049527e-07,-10
354,24.49538,1657948153.0,0.459189,-10.00001,136,8,-1.050949e-07,-10
355,24.56459,1657948153.0,0.528403,-10.00001,136,8,-1.05065e-07,-10
356,24.63381,1657948153.0,0.59762,-9.999996,136,8,-1.049773e-07,-10
357,24.70303,1657948153.0,0.66684,-10.0,136,8,-1.048024e-07,-10
358,24.77224,1657948153.0,0.73605,-10.00001,136,8,-1.047535e-07,-10
359,24.84144,1657948153.0,0.805258,-10.00001,136,8,-1.048901e-07,-10
360,24.91065,1657948153.0,0.874461,-10.00001,136,8,-1.052387e-07,-10
361,24.97986,1657948153.0,0.943678,-10.00001,136,8,-1.050943e-07,-10
362,25.04908,1657948154.0,0.0128925,-10.00001,136,8,-1.047773e-07,-10
363,25.11829,1657948154.0,0.0820995,-9.999999,136,8,-1.047699e-07,-10
364,25.18751,1657948154.0,0.151327,-10.00001,136,8,-1.049768e-07,-10
365,25.25674,1657948154.0,0.22055,-10.00001,136,8,-1.051133e-07,-10
366,25.32595,1657948154.0,0.289763,-10.0,136,8,-1.049131e-07,-10
367,25.39517,1657948154.0,0.358981,-10.00001,136,8,-1.049915e-07,-10
368,25.46437,1657948154.0,0.428187,-10.00001,136,8,-1.050647e-07,-10
369,25.53358,1657948154.0,0.497395,-10.00001,136,8,-1.048825e-07,-10
370,25.6028,1657948154.0,0.566609,-10.00002,136,8,-1.046973e-07,-10
371,25.672,1657948154.0,0.63581,-10.00001,136,8,-1.047846e-07,-10
372,25.7412,1657948154.0,0.705018,-10.00001,136,8,-1.047312e-07,-10
373,25.81042,1657948154.0,0.774237,-10.00001,136,8,-1.049962e-07,-10
374,25.87963,1657948154.0,0.843447,-10.00001,136,8,-1.048901e-07,-10
375,25.94883,1657948154.0,0.912649,-10.00002,136,8,-1.050411e-07,-10
376,26.01805,1657948154.0,0.981863,-10.00001,136,8,-1.048559e-07,-10
377,26.08726,1657948155.0,0.051075,-10.00001,136,8,-1.049455e-07,-10
378,26.15647,1657948155.0,0.120287,-10.00002,136,8,-1.051097e-07,-10
379,26.22569,1657948155.0,0.189506,-10.00002,136,8,-1.046243e-07,-10
380,26.29491,1657948155.0,0.258722,-10.00001,136,8,-1.051132e-07,-10
381,26.36412,1657948155.0,0.327935,-10.00001,136,8,-1.049735e-07,-10
382,26.43333,1657948155.0,0.39714,-10.00001,136,8,-1.0473e-07,-10
383,26.50254,1657948155.0,0.466351,-10.00001,136,8,-1.050212e-07,-10
384,26.57175,1657948155.0,0.535563,-10.00001,136,8,-1.049444e-07,-10
385,26.64096,1657948155.0,0.604771,-10.00001,136,8,-1.047345e-07,-10
386,26.71018,1657948155.0,0.673993,-10.00001,136,8,-1.049921e-07,-10
387,26.7794,1657948155.0,0.74321,-10.00001,136,8,-1.048007e-07,-10
388,26.84861,1657948155.0,0.812424,-10.00001,136,8,-1.049267e-07,-10
389,26.91781,1657948155.0,0.881626,-10.0,136,8,-1.048439e-07,-10
390,26.98701,1657948155.0,0.950829,-10.00001,136,8,-1.048236e-07,-10
391,27.05621,1657948156.0,0.020027,-10.00001,136,8,-1.050784e-07,-10
392,27.12542,1657948156.0,0.0892369,-10.0,136,8,-1.05009e-07,-10
393,27.19463,1657948156.0,0.158449,-10.0,136,8,-1.04971e-07,-10
394,27.26384,1657948156.0,0.227654,-10.0,136,8,-1.047501e-07,-10
395,27.33304,1657948156.0,0.296859,-10.0,136,8,-1.048654e-07,-10
396,27.40224,1657948156.0,0.366056,-10.00001,136,8,-1.046813e-07,-10
397,27.47146,1657948156.0,0.43527,-10.00001,136,8,-1.049334e-07,-10
398,27.54065,1657948156.0,0.504466,-10.0,136,8,-1.048399e-07,-10
399,27.60987,1657948156.0,0.573685,-10.00001,136,8,-1.04818e-07,-10
400,27.67908,1657948156.0,0.642899,-10.00001,136,8,-1.04581e-07,-10
401,27.74827,1657948156.0,0.712081,-9.999991,136,8,-1.047666e-07,-10
402,27.81745,1657948156.0,0.781263,-10.0,136,8,-1.048257e-07,-10
403,27.88665,1657948156.0,0.850467,-10.0,136,8,-1.047869e-07,-10
404,27.95586,1657948156.0,0.919679,-10.00001,136,8,-1.049713e-07,-10
405,28.02507,1657948156.0,0.988888,-10.0,136,8,-1.048915e-07,-10
406,28.09428,1657948157.0,0.0580944,-10.00001,136,8,-1.049999e-07,-10
407,28.16349,1657948157.0,0.127301,-10.00001,136,8,-1.050583e-07,-10
408,28.23267,1657948157.0,0.196481,-10.0,136,8,-1.046478e-07,-10
409,28.30188,1657948157.0,0.265692,-10.00001,136,8,-1.045162e-07,-10
410,28.37109,1657948157.0,0.334902,-10.00001,136,8,-1.047339e-07,-10
411,28.4403,1657948157.0,0.404115,-10.00001,136,8,-1.046781e-07,-10
412,28.50953,1657948157.0,0.473344,-10.00002,136,8,-1.048224e-07,-10
413,28.57873,1657948157.0,0.542548,-10.0,136,8,-1.049058e-07,-10
414,28.64794,1657948157.0,0.611754,-10.00001,136,8,-1.046714e-07,-10
415,28.71716,1657948157.0,0.680972,-10.0,136,8,-1.048399e-07,-10
416,28.78637,1657948157.0,0.750189,-10.00001,136,8,-1.048786e-07,-10
417,28.85559,1657948157.0,0.819402,-10.00001,136,8,-1.047492e-07,-10
418,28.9248,1657948157.0,0.888615,-10.00001,136,8,-1.04934e-07,-10
419,28.99401,1657948157.0,0.957825,-10.00001,136,8,-1.04653e-07,-10
420,29.06321,1657948158.0,0.0270271,-10.00002,136,8,-1.046298e-07,-10
421,29.13242,1657948158.0,0.0962381,-10.0,136,8,-1.049331e-07,-10
422,29.20165,1657948158.0,0.165461,-10.00002,136,8,-1.046023e-07,-10
423,29.27086,1657948158.0,0.234671,-10.00002,136,8,-1.044206e-07,-10
424,29.34006,1657948158.0,0.303879,-10.00001,136,8,-1.045547e-07,-10
425,29.40927,1657948158.0,0.373086,-10.00001,136,8,-1.047286e-07,-10
426,29.47847,1657948158.0,0.442285,-10.00001,136,8,-1.046457e-07,-10
427,29.54767,1657948158.0,0.511482,-10.0,136,8,-1.045621e-07,-10
428,29.61688,1657948158.0,0.580696,-9.999999,136,8,-1.047765e-07,-10
429,29.68609,1657948158.0,0.649905,-10.00001,136,8,-1.045555e-07,-10
430,29.7553,1657948158.0,0.719115,-10.00001,136,8,-1.047144e-07,-10
431,29.82452,1657948158.0,0.788333,-10.00001,136,8,-1.045245e-07,-10
432,29.89374,1657948158.0,0.857552,-10.00002,136,8,-1.047412e-07,-10
433,29.96293,1657948158.0,0.926744,-10.0,136,8,-1.046361e-07,-10
434,30.03212,1657948158.0,0.995933,-10.0,136,8,-1.048294e-07,-10
435,30.10131,1657948159.0,0.0651276,-10.00001,136,8,-1.046396e-07,-10
436,30.1705,1657948159.0,0.134319,-9.999996,136,8,-1.044508e-07,-10
437,30.23971,1657948159.0,0.203527,-10.00001,136,8,-1.046319e-07,-10
438,30.30892,1657948159.0,0.272731,-10.00002,136,8,-1.045897e-07,-10
439,30.37813,1657948159.0,0.341948,-10.00002,136,8,-1.046218e-07,-10
440,30.44735,1657948159.0,0.411166,-10.00002,136,8,-1.045819e-07,-10
441,30.51657,1657948159.0,0.48038,-10.00003,136,8,-1.045937e-07,-10
442,30.58577,1657948159.0,0.549582,-10.00002,136,8,-1.047838e-07,-10
443,30.65498,1657948159.0,0.618799,-10.00002,136,8,-1.047997e-07,-10
444,30.7242,1657948159.0,0.688017,-10.00002,136,8,-1.044643e-07,-10
445,30.79341,1657948159.0,0.757222,-10.00001,136,8,-1.047288e-07,-10
446,30.86262,1657948159.0,0.826431,-10.0,136,8,-1.046861e-07,-10
447,30.93183,1657948159.0,0.895649,-10.00001,136,8,-1.044831e-07,-10
448,31.00103,1657948159.0,0.964849,-10.00001,136,8,-1.048029e-07,-10
449,31.07024,1657948160.0,0.0340588,-10.00002,136,8,-1.044772e-07,-10
450,31.13946,1657948160.0,0.103274,-10.00002,136,8,-1.046136e-07,-10
451,31.20864,1657948160.0,0.172457,-10.00001,136,8,-1.046664e-07,-10
452,31.27784,1657948160.0,0.241655,-10.00001,136,8,-1.044248e-07,-10
453,31.34704,1657948160.0,0.310859,-10.00002,136,8,-1.045316e-07,-10
454,31.41625,1657948160.0,0.38006,-10.00001,136,8,-1.046676e-07,-10
455,31.48546,1657948160.0,0.449277,-10.00003,136,8,-1.046562e-07,-10
456,31.55467,1657948160.0,0.518484,-10.00001,136,8,-1.044956e-07,-10
457,31.62388,1657948160.0,0.587694,-10.00002,136,8,-1.045747e-07,-10
458,31.69308,1657948160.0,0.656894,-10.00002,136,8,-1.044295e-07,-10
459,31.76229,1657948160.0,0.726101,-10.00001,136,8,-1.046523e-07,-10
460,31.8315,1657948160.0,0.795314,-10.00002,136,8,-1.046174e-07,-10
461,31.90071,1657948160.0,0.864525,-10.00002,136,8,-1.045185e-07,-10
462,31.96991,1657948160.0,0.933728,-10.00003,136,8,-1.046874e-07,-10
463,32.03912,1657948161.0,0.00293292,-10.00002,136,8,-1.046702e-07,-10
464,32.10833,1657948161.0,0.0721461,-10.00002,136,8,-1.045198e-07,-10
465,32.17756,1657948161.0,0.141374,-10.00003,136,8,-1.045065e-07,-10
466,32.24677,1657948161.0,0.210584,-10.00002,136,8,-1.046326e-07,-10
467,32.31595,1657948161.0,0.279764,-10.00001,136,8,-1.04429e-07,-10
468,32.38516,1657948161.0,0.348972,-10.00001,136,8,-1.045551e-07,-10
469,32.45436,1657948161.0,0.418172,-10.00001,136,8,-1.047047e-07,-10
470,32.52357,1657948161.0,0.487383,-10.00002,136,8,-1.045102e-07,-10
471,32.59277,1657948161.0,0.556583,-10.00003,136,8,-1.045272e-07,-10
472,32.66197,1657948161.0,0.625784,-10.00002,136,8,-1.043705e-07,-10
473,32.73116,1657948161.0,0.694977,-10.00002,136,8,-1.046184e-07,-10
474,32.80037,1657948161.0,0.764187,-10.00002,136,8,-1.043213e-07,-10
475,32.8696,1657948161.0,0.833412,-10.00002,136,8,-1.044241e-07,-10
476,32.93881,1657948161.0,0.902627,-10.00002,136,8,-1.04562e-07,-10
477,33.00802,1657948161.0,0.971839,-10.00002,136,8,-1.044194e-07,-10
478,33.07722,1657948162.0,0.0410333,-10.0,136,8,-1.045612e-07,-10
479,33.14644,1657948162.0,0.110252,-10.0,136,8,-1.044864e-07,-10
480,33.21565,1657948162.0,0.179466,-10.00002,136,8,-1.045157e-07,-10
481,33.28485,1657948162.0,0.248663,-10.0,136,8,-1.042875e-07,-10
482,33.35405,1657948162.0,0.317867,-10.00002,136,8,-1.047264e-07,-10
483,33.42327,1657948162.0,0.38708,-10.00002,136,8,-1.045195e-07,-10
484,33.49247,1657948162.0,0.456283,-10.00001,136,8,-1.045315e-07,-10
485,33.56169,1657948162.0,0.525501,-10.0,136,8,-1.045361e-07,-10
486,33.6309,1657948162.0,0.594718,-10.0,136,8,-1.044439e-07,-10
487,33.70011,1657948162.0,0.663922,-10.0,136,8,-1.045126e-07,-10
488,33.7693,1657948162.0,0.733114,-9.999992,136,8,-1.043422e-07,-10
489,33.8385,1657948162.0,0.802315,-9.999996,136,8,-1.047252e-07,-10
490,33.90771,1657948162.0,0.87152,-10.00001,136,8,-1.045698e-07,-10
491,33.97692,1657948162.0,0.940734,-10.00001,136,8,-1.043644e-07,-10
492,34.04613,1657948163.0,0.00994072,-10.00001,136,8,-1.043373e-07,-10
493,34.11534,1657948163.0,0.0791571,-9.999999,136,8,-1.045039e-07,-10
494,34.18456,1657948163.0,0.148378,-9.999998,136,8,-1.045272e-07,-10
495,34.25377,1657948163.0,0.21758,-9.999998,136,8,-1.043902e-07,-10
496,34.32298,1657948163.0,0.286794,-9.999996,136,8,-1.046408e-07,-10
497,34.39219,1657948163.0,0.356006,-10.00001,136,8,-1.044413e-07,-10
498,34.4614,1657948163.0,0.425217,-10.00001,136,8,-1.043412e-07,-10
499,34.53061,1657948163.0,0.494427,-10.00001,136,8,-1.044138e-07,-10
500,34.59983,1657948163.0,0.563643,-10.00001,136,8,-1.045021e-07,-10
501,34.66904,1657948163.0,0.632853,-10.0,136,8,-1.042231e-07,-10
502,34.73825,1657948163.0,0.702067,-10.00001,136,8,-1.045755e-07,-10
503,34.80746,1657948163.0,0.771276,-10.00001,136,8,-1.043016e-07,-10
504,34.87668,1657948163.0,0.840491,-10.00001,136,8,-1.043577e-07,-10
505,34.94589,1657948163.0,0.909704,-10.00001,136,8,-1.042832e-07,-10
506,35.0151,1657948163.0,0.978918,-10.00001,136,8,-1.044163e-07,-10
507,35.08431,1657948164.0,0.0481272,-10.00001,136,8,-1.043008e-07,-10
508,35.15353,1657948164.0,0.117341,-10.00002,136,8,-1.042861e-07,-10
509,35.22275,1657948164.0,0.18656,-10.00001,136,8,-1.042318e-07,-10
510,35.29195,1657948164.0,0.25576,-10.00002,136,8,-1.041362e-07,-10
511,35.36116,1657948164.0,0.324971,-10.00001,136,8,-1.044004e-07,-10
512,35.43037,1657948164.0,0.394187,-10.00001,136,8,-1.042286e-07,-10
513,35.49958,1657948164.0,0.463395,-10.00001,136,8,-1.044497e-07,-10
514,35.56879,1657948164.0,0.5326,-10.00001,136,8,-1.042971e-07,-10
515,35.638,1657948164.0,0.601819,-10.00001,136,8,-1.041913e-07,-10
516,35.70721,1657948164.0,0.671025,-10.00001,136,8,-1.045532e-07,-10
517,35.77642,1657948164.0,0.740232,-10.00002,136,8,-1.0432e-07,-10
518,35.84564,1657948164.0,0.809458,-10.00001,136,8,-1.041123e-07,-10
519,35.91486,1657948164.0,0.878677,-10.00001,136,8,-1.044084e-07,-10
520,35.98408,1657948164.0,0.947897,-10.00001,136,8,-1.043297e-07,-10
521,36.05329,1657948165.0,0.0171009,-10.00001,136,8,-1.042956e-07,-10
522,36.12249,1657948165.0,0.0863001,-9.999999,136,8,-1.043316e-07,-10
523,36.19171,1657948165.0,0.155521,-10.00001,136,8,-1.044421e-07,-10
524,36.26092,1657948165.0,0.22473,-10.00001,136,8,-1.043984e-07,-10
525,36.33013,1657948165.0,0.293943,-10.00001,136,8,-1.045022e-07,-10
526,36.39933,1657948165.0,0.363144,-10.00002,136,8,-1.043911e-07,-10
527,36.46854,1657948165.0,0.43235,-10.00002,136,8,-1.042596e-07,-10
528,36.53775,1657948165.0,0.50156,-10.0,136,8,-1.040843e-07,-10
529,36.60695,1657948165.0,0.570766,-10.00001,136,8,-1.04002e-07,-10
530,36.67616,1657948165.0,0.639977,-10.00001,136,8,-1.043214e-07,-10
531,36.74537,1657948165.0,0.709182,-10.00001,136,8,-1.042987e-07,-10
532,36.81459,1657948165.0,0.778402,-10.00001,136,8,-1.04192e-07,-10
533,36.8838,1657948165.0,0.847615,-10.00001,136,8,-1.042263e-07,-10
534,36.95302,1657948165.0,0.916835,-10.00001,136,8,-1.044664e-07,-10
535,37.02223,1657948165.0,0.986039,-10.00001,136,8,-1.043942e-07,-10
536,37.09143,1657948166.0,0.0552397,-10.0,136,8,-1.044282e-07,-10
537,37.16062,1657948166.0,0.124434,-9.999994,136,8,-1.041607e-07,-10
538,37.22984,1657948166.0,0.19365,-10.0,136,8,-1.044245e-07,-10
539,37.29904,1657948166.0,0.262859,-10.0,136,8,-1.041409e-07,-10
540,37.36824,1657948166.0,0.332059,-9.999996,136,8,-1.045084e-07,-10
541,37.43744,1657948166.0,0.40125,-9.999998,136,8,-1.043624e-07,-10
542,37.50665,1657948166.0,0.470468,-10.00001,136,8,-1.042229e-07,-10
543,37.57587,1657948166.0,0.539686,-10.0,136,8,-1.043684e-07,-10
544,37.64509,1657948166.0,0.608908,-10.0,136,8,-1.043698e-07,-10
545,37.71429,1657948166.0,0.678107,-10.00001,136,8,-1.042915e-07,-10
546,37.78351,1657948166.0,0.747325,-10.0,136,8,-1.042503e-07,-10
547,37.85273,1657948166.0,0.81654,-10.00001,136,8,-1.042782e-07,-10
548,37.92193,1657948166.0,0.885747,-10.00001,136,8,-1.044151e-07,-10
549,37.99114,1657948166.0,0.954958,-10.00001,136,8,-1.043992e-07,-10
550,38.06035,1657948167.0,0.0241611,-10.00001,136,8,-1.041588e-07,-10
551,38.12953,1657948167.0,0.0933428,-9.999999,136,8,-1.042355e-07,-10
552,38.19873,1657948167.0,0.162544,-10.0,136,8,-1.041551e-07,-10
553,38.26795,1657948167.0,0.231764,-10.0,136,8,-1.044874e-07,-10
554,38.33717,1657948167.0,0.300982,-10.00001,136,8,-1.044463e-07,-10
555,38.40636,1657948167.0,0.370171,-9.999997,136,8,-1.044566e-07,-10
556,38.47556,1657948167.0,0.439376,-10.00001,136,8,-1.043372e-07,-10
557,38.54477,1657948167.0,0.508589,-10.00001,136,8,-1.040303e-07,-10
558,38.61398,1657948167.0,0.577794,-10.00002,136,8,-1.039812e-07,-10
559,38.68318,1657948167.0,0.646994,-10.00001,136,8,-1.03959e-07,-10
560,38.75238,1657948167.0,0.716194,-10.00001,136,8,-1.042721e-07,-10
561,38.8216,1657948167.0,0.785412,-10.00001,136,8,-1.041899e-07,-10
562,38.89081,1657948167.0,0.854621,-10.00002,136,8,-1.042348e-07,-10
563,38.96002,1657948167.0,0.923837,-10.00001,136,8,-1.041483e-07,-10
564,39.02923,1657948167.0,0.99304,-10.0,136,8,-1.041566e-07,-10
565,39.09844,1657948168.0,0.0622538,-10.00001,136,8,-1.042061e-07,-10
566,39.16765,1657948168.0,0.131467,-10.00001,136,8,-1.04378e-07,-10
567,39.23687,1657948168.0,0.20068,-10.00001,136,8,-1.041861e-07,-10
568,39.30607,1657948168.0,0.26988,-10.0,136,8,-1.041164e-07,-10
569,39.37528,1657948168.0,0.339092,-10.00001,136,8,-1.042849e-07,-10
570,39.44449,1657948168.0,0.408303,-10.00002,136,8,-1.041451e-07,-10
571,39.5137,1657948168.0,0.47751,-10.00001,136,8,-1.039193e-07,-10
572,39.58291,1657948168.0,0.546721,-9.999999,136,8,-1.040482e-07,-10
573,39.65211,1657948168.0,0.615927,-10.0,136,8,-1.045355e-07,-10
574,39.72132,1657948168.0,0.685139,-10.00001,136,8,-1.041042e-07,-10
575,39.79054,1657948168.0,0.754353,-10.00001,136,8,-1.044596e-07,-10
576,39.85974,1657948168.0,0.823552,-10.00001,136,8,-1.040756e-07,-10
577,39.92895,1657948168.0,0.892762,-10.00001,136,8,-1.039889e-07,-10
578,39.99815,1657948168.0,0.961965,-10.0,136,8,-1.041585e-07,-10
579,40.06733,1657948169.0,0.0311488,-9.99999,136,8,-1.040825e-07,-10
580,40.13655,1657948169.0,0.100364,-10.00001,136,8,-1.040898e-07,-10
581,40.20576,1657948169.0,0.169576,-10.0,136,8,-1.04205e-07,-10
582,40.27496,1657948169.0,0.238778,-10.00001,136,8,-1.041748e-07,-10
583,40.34417,1657948169.0,0.307989,-10.0,136,8,-1.042045e-07,-10
584,40.41338,1657948169.0,0.377191,-10.0,136,8,-1.042739e-07,-10
585,40.48258,1657948169.0,0.446396,-10.0,136,8,-1.042184e-07,-10
586,40.55179,1657948169.0,0.515609,-10.00001,136,8,-1.042651e-07,-10
587,40.621,1657948169.0,0.584812,-10.00001,136,8,-1.040591e-07,-10
588,40.69022,1657948169.0,0.654029,-10.0,136,8,-1.039739e-07,-10
589,40.75941,1657948169.0,0.723224,-9.999996,136,8,-1.038334e-07,-10
590,40.82863,1657948169.0,0.792442,-9.999997,136,8,-1.041653e-07,-10
591,40.89784,1657948169.0,0.861656,-10.00001,136,8,-1.040702e-07,-10
592,40.96704,1657948169.0,0.930857,-10.00001,136,8,-1.040171e-07,-10
593,41.03626,1657948170.0,7.54e-05,-10.0,136,8,-1.041725e-07,-10
594,41.10547,1657948170.0,0.0692805,-10.00002,136,8,-1.0406e-07,-10
595,41.17466,1657948170.0,0.138477,-9.999998,136,8,-1.039064e-07,-10
596,41.24386,1657948170.0,0.207676,-10.0,136,8,-1.044107e-07,-10
597,41.31307,1657948170.0,0.276885,-10.0,136,8,-1.040456e-07,-10
598,41.38226,1657948170.0,0.346079,-10.0,136,8,-1.041299e-07,-10
599,41.45148,1657948170.0,0.415299,-10.0,136,8,-1.043101e-07,-10
600,41.5207,1657948170.0,0.484518,-10.00001,136,8,-1.041054e-07,-10
601,41.58991,1657948170.0,0.553722,-10.00002,136,8,-1.039809e-07,-10
602,41.65912,1657948170.0,0.622939,-10.00001,136,8,-1.040144e-07,-10
603,41.72833,1657948170.0,0.69214,-10.00002,136,8,-1.039983e-07,-10
604,41.79754,1657948170.0,0.761358,-10.00002,136,8,-1.039336e-07,-10
605,41.86675,1657948170.0,0.830568,-10.00001,136,8,-1.042345e-07,-10
606,41.93596,1657948170.0,0.899779,-10.00001,136,8,-1.040653e-07,-10
607,42.00518,1657948170.0,0.968992,-10.00001,136,8,-1.042451e-07,-10
608,42.07438,1657948171.0,0.0381926,-10.00001,136,8,-1.040764e-07,-10
609,42.14358,1657948171.0,0.107396,-10.00001,136,8,-1.0416e-07,-10
610,42.2128,1657948171.0,0.176616,-10.00001,136,8,-1.04074e-07,-10
611,42.282,1657948171.0,0.245816,-10.0,136,8,-1.039183e-07,-10
612,42.35122,1657948171.0,0.315031,-10.00001,136,8,-1.039923e-07,-10
613,42.42043,1657948171.0,0.384248,-10.0,136,8,-1.038954e-07,-10
614,42.48966,1657948171.0,0.453475,-10.0,136,8,-1.040721e-07,-10
615,42.55887,1657948171.0,0.522685,-10.00002,136,8,-1.040257e-07,-10
616,42.62808,1657948171.0,0.591893,-10.00001,136,8,-1.041435e-07,-10
617,42.69729,1657948171.0,0.661106,-10.0,136,8,-1.040886e-07,-10
618,42.76649,1657948171.0,0.730308,-10.0,136,8,-1.043345e-07,-10
619,42.83572,1657948171.0,0.79953,-10.00001,136,8,-1.039911e-07,-10
620,42.90493,1657948171.0,0.868743,-10.00001,136,8,-1.040081e-07,-10
621,42.97414,1657948171.0,0.937951,-10.00001,136,8,-1.040555e-07,-10
622,43.04335,1657948172.0,0.00716004,-10.00001,136,8,-1.039272e-07,-10
623,43.11255,1657948172.0,0.0763671,-10.00001,136,8,-1.039647e-07,-10
624,43.18177,1657948172.0,0.145587,-10.00001,136,8,-1.038902e-07,-10
625,43.25099,1657948172.0,0.2148,-10.00001,136,8,-1.041857e-07,-10
626,43.32018,1657948172.0,0.283996,-10.0,136,8,-1.039939e-07,-10
627,43.38938,1657948172.0,0.353199,-10.00001,136,8,-1.040766e-07,-10
628,43.45858,1657948172.0,0.422398,-9.999994,136,8,-1.038367e-07,-10
629,43.52778,1657948172.0,0.491594,-9.999994,136,8,-1.039922e-07,-10
630,43.59699,1657948172.0,0.560804,-10.00001,136,8,-1.039864e-07,-10
631,43.66621,1657948172.0,0.630021,-10.00001,136,8,-1.038931e-07,-10
632,43.73542,1657948172.0,0.699234,-10.00001,136,8,-1.039242e-07,-10
633,43.80463,1657948172.0,0.768441,-10.00002,136,8,-1.041166e-07,-10
634,43.87385,1657948172.0,0.837666,-10.00001,136,8,-1.038176e-07,-10
635,43.94307,1657948172.0,0.906882,-10.00002,136,8,-1.039146e-07,-10
636,44.01229,1657948172.0,0.976102,-10.00003,136,8,-1.039945e-07,-10
637,44.0815,1657948173.0,0.0453135,-10.00002,136,8,-1.041079e-07,-10
638,44.15072,1657948173.0,0.114538,-10.00002,136,8,-1.041285e-07,-10
639,44.21992,1657948173.0,0.183739,-10.00002,136,8,-1.04017e-07,-10
640,44.28913,1657948173.0,0.252942,-10.00002,136,8,-1.037233e-07,-10
641,44.35834,1657948173.0,0.322153,-10.00002,136,8,-1.040831e-07,-10
642,44.42756,1657948173.0,0.391371,-10.00002,136,8,-1.038354e-07,-10
643,44.49679,1657948173.0,0.4606,-10.00002,136,8,-1.038782e-07,-10
644,44.56599,1657948173.0,0.529804,-10.00002,136,8,-1.039627e-07,-10
645,44.63519,1657948173.0,0.599009,-10.00001,136,8,-1.039207e-07,-10
646,44.70438,1657948173.0,0.668195,-10.0,136,8,-1.041036e-07,-10
647,44.7736,1657948173.0,0.737416,-10.00001,136,8,-1.039168e-07,-10
648,44.84282,1657948173.0,0.806637,-10.00001,136,8,-1.038972e-07,-10
649,44.91203,1657948173.0,0.875842,-10.00002,136,8,-1.037655e-07,-10
650,44.98125,1657948173.0,0.945062,-10.00001,136,8,-1.041135e-07,-10
651,45.05046,1657948174.0,0.0142717,-10.00002,136,8,-1.040255e-07,-10
652,45.11968,1657948174.0,0.0834919,-10.00002,136,8,-1.039489e-07,-10
653,45.1889,1657948174.0,0.15271,-10.00002,136,8,-1.03995e-07,-10
654,45.25812,1657948174.0,0.221931,-10.00002,136,8,-1.038967e-07,-10
655,45.32732,1657948174.0,0.291136,-10.00003,136,8,-1.038835e-07,-10
656,45.39654,1657948174.0,0.360353,-10.00002,136,8,-1.039136e-07,-10
657,45.46575,1657948174.0,0.42956,-10.00002,136,8,-1.038591e-07,-10
658,45.53496,1657948174.0,0.498779,-10.00003,136,8,-1.038366e-07,-10
659,45.60417,1657948174.0,0.567986,-10.00003,136,8,-1.037269e-07,-10
660,45.67338,1657948174.0,0.637191,-10.00003,136,8,-1.040015e-07,-10
661,45.74259,1657948174.0,0.706406,-10.00001,136,8,-1.038673e-07,-10
662,45.81181,1657948174.0,0.775625,-10.00002,136,8,-1.040148e-07,-10
663,45.88103,1657948174.0,0.844841,-10.00002,136,8,-1.038739e-07,-10
664,45.95023,1657948174.0,0.914047,-10.00002,136,8,-1.039646e-07,-10
665,46.01945,1657948174.0,0.983264,-10.00002,136,8,-1.04013e-07,-10
666,46.08866,1657948175.0,0.0524773,-10.00001,136,8,-1.039474e-07,-10
667,46.15787,1657948175.0,0.121686,-10.00001,136,8,-1.041385e-07,-10
668,46.22709,1657948175.0,0.190905,-10.00001,136,8,-1.039926e-07,-10
669,46.29629,1657948175.0,0.260106,-10.0,136,8,-1.039772e-07,-10
670,46.36549,1657948175.0,0.3293,-10.0,136,8,-1.037947e-07,-10
671,46.4347,1657948175.0,0.398511,-10.00001,136,8,-1.040973e-07,-10
672,46.5039,1657948175.0,0.467713,-10.0,136,8,-1.037599e-07,-10
673,46.5731,1657948175.0,0.536914,-10.00002,136,8,-1.037243e-07,-10
674,46.6423,1657948175.0,0.606112,-10.00001,136,8,-1.039964e-07,-10
675,46.7115,1657948175.0,0.675313,-10.00001,136,8,-1.039783e-07,-10
676,46.78073,1657948175.0,0.744541,-10.00001,136,8,-1.039167e-07,-10
677,46.84992,1657948175.0,0.813734,-10.0,136,8,-1.039898e-07,-10
678,46.91914,1657948175.0,0.882954,-10.00001,136,8,-1.03917e-07,-10
679,46.98835,1657948175.0,0.952165,-10.00001,136,8,-1.037126e-07,-10
680,47.05755,1657948176.0,0.0213677,-10.00002,136,8,-1.037049e-07,-10
681,47.12677,1657948176.0,0.0905868,-10.00002,136,8,-1.04007e-07,-10
682,47.19598,1657948176.0,0.159798,-10.00002,136,8,-1.039074e-07,-10
683,47.26519,1657948176.0,0.229,-10.00002,136,8,-1.03823e-07,-10
684,47.3344,1657948176.0,0.298216,-10.00001,136,8,-1.038145e-07,-10
685,47.40361,1657948176.0,0.367429,-10.00001,136,8,-1.040476e-07,-10
686,47.47283,1657948176.0,0.436646,-10.00001,136,8,-1.03739e-07,-10
687,47.54205,1657948176.0,0.50586,-10.00002,136,8,-1.038547e-07,-10
688,47.61126,1657948176.0,0.575072,-10.00002,136,8,-1.039092e-07,-10
689,47.68044,1657948176.0,0.644253,-10.00001,136,8,-1.035858e-07,-10
690,47.74965,1657948176.0,0.713464,-10.00001,136,8,-1.038305e-07,-10
691,47.81886,1657948176.0,0.782674,-10.00001,136,8,-1.039288e-07,-10
692,47.88806,1657948176.0,0.851879,-10.00002,136,8,-1.035096e-07,-10
693,47.95727,1657948176.0,0.921085,-10.00001,136,8,-1.03864e-07,-10
694,48.02648,1657948176.0,0.990296,-10.00001,136,8,-1.040073e-07,-10
695,48.09567,1657948177.0,0.0594884,-10.00001,136,8,-1.038069e-07,-10
696,48.16489,1657948177.0,0.128706,-10.00001,136,8,-1.038316e-07,-10
697,48.2341,1657948177.0,0.197915,-10.00002,136,8,-1.03869e-07,-10
698,48.30331,1657948177.0,0.267121,-10.00002,136,8,-1.038271e-07,-10
699,48.37251,1657948177.0,0.336327,-10.00002,136,8,-1.037885e-07,-10
700,48.44173,1657948177.0,0.405545,-10.00002,136,8,-1.038899e-07,-10
701,48.51093,1657948177.0,0.474747,-10.00002,136,8,-1.041576e-07,-10
702,48.58012,1657948177.0,0.543939,-10.00001,136,8,-1.039305e-07,-10
703,48.64933,1657948177.0,0.613142,-10.00001,136,8,-1.039597e-07,-10
704,48.71853,1657948177.0,0.682347,-10.00001,136,8,-1.037666e-07,-10
705,48.78776,1657948177.0,0.751573,-10.00001,136,8,-1.039359e-07,-10
706,48.85696,1657948177.0,0.820777,-10.00002,136,8,-1.037461e-07,-10
707,48.92617,1657948177.0,0.889987,-10.00003,136,8,-1.037115e-07,-10
708,48.99538,1657948177.0,0.959196,-10.00003,136,8,-1.037283e-07,-10
709,49.06459,1657948178.0,0.0284071,-10.00003,136,8,-1.039106e-07,-10
710,49.13381,1657948178.0,0.0976219,-10.00002,136,8,-1.036691e-07,-10
711,49.20302,1657948178.0,0.16683,-10.00001,136,8,-1.037884e-07,-10
712,49.27224,1657948178.0,0.23605,-10.00002,136,8,-1.037993e-07,-10
713,49.34144,1657948178.0,0.305251,-10.00002,136,8,-1.037443e-07,-10
714,49.41063,1657948178.0,0.374441,-10.00001,136,8,-1.039461e-07,-10
715,49.47984,1657948178.0,0.443652,-10.00001,136,8,-1.037701e-07,-10
716,49.54904,1657948178.0,0.512852,-9.999999,136,8,-1.036804e-07,-10
717,49.61824,1657948178.0,0.582057,-10.0,136,8,-1.034287e-07,-10
718,49.68745,1657948178.0,0.651267,-10.00001,136,8,-1.036731e-07,-10
719,49.75666,1657948178.0,0.720474,-10.00001,136,8,-1.039647e-07,-10
720,49.82588,1657948178.0,0.789692,-10.00001,136,8,-1.034637e-07,-10
721,49.89509,1657948178.0,0.858906,-10.00001,136,8,-1.038519e-07,-10
722,49.96431,1657948178.0,0.928124,-10.00002,136,8,-1.037203e-07,-10
723,50.03351,1657948178.0,0.997322,-10.00001,136,8,-1.035453e-07,-10
724,50.10272,1657948179.0,0.0665359,-10.00001,136,8,-1.038449e-07,-10
725,50.17194,1657948179.0,0.135755,-10.00001,136,8,-1.036011e-07,-10
726,50.24116,1657948179.0,0.20497,-10.00002,136,8,-1.038539e-07,-10
727,50.31037,1657948179.0,0.274184,-10.00002,136,8,-1.036956e-07,-10
728,50.37957,1657948179.0,0.343385,-10.00002,136,8,-1.037625e-07,-10
729,50.44879,1657948179.0,0.412602,-10.00002,136,8,-1.038867e-07,-10
730,50.518,1657948179.0,0.481811,-10.00001,136,8,-1.037691e-07,-10
731,50.58721,1657948179.0,0.551025,-10.00002,136,8,-1.039128e-07,-10
732,50.65642,1657948179.0,0.620232,-10.00002,136,8,-1.034333e-07,-10
733,50.72562,1657948179.0,0.689434,-10.00002,136,8,-1.037827e-07,-10
734,50.79484,1657948179.0,0.758652,-10.00002,136,8,-1.036344e-07,-10
735,50.86403,1657948179.0,0.827844,-10.0,136,8,-1.035934e-07,-10
736,50.93321,1657948179.0,0.897029,-10.0,136,8,-1.03629e-07,-10
737,51.00243,1657948179.0,0.966246,-10.00002,136,8,-1.035416e-07,-10
738,51.07164,1657948180.0,0.0354561,-10.00003,136,8,-1.035667e-07,-10
739,51.14085,1657948180.0,0.104664,-10.00001,136,8,-1.036912e-07,-10
740,51.21006,1657948180.0,0.17387,-10.00001,136,8,-1.038256e-07,-10
741,51.27926,1657948180.0,0.243074,-10.00002,136,8,-1.037848e-07,-10
742,51.34847,1657948180.0,0.312287,-10.00002,136,8,-1.037748e-07,-10
743,51.41767,1657948180.0,0.381486,-10.00002,136,8,-1.036833e-07,-10
744,51.48687,1657948180.0,0.450686,-10.00002,136,8,-1.039001e-07,-10
745,51.55607,1657948180.0,0.519887,-10.00001,136,8,-1.038424e-07,-10
746,51.62528,1657948180.0,0.589093,-10.00001,136,8,-1.03904e-07,-10
747,51.6945,1657948180.0,0.65831,-10.00001,136,8,-1.036747e-07,-10
748,51.7637,1657948180.0,0.727516,-10.0,136,8,-1.035293e-07,-10
749,51.8329,1657948180.0,0.796712,-9.999995,136,8,-1.036394e-07,-10
750,51.90212,1657948180.0,0.865931,-10.0,136,8,-1.037792e-07,-10
751,51.97133,1657948180.0,0.935148,-10.00001,136,8,-1.036209e-07,-10
752,52.04054,1657948181.0,0.00435606,-10.00001,136,8,-1.036139e-07,-10
753,52.10975,1657948181.0,0.0735688,-10.00002,136,8,-1.036484e-07,-10
754,52.17897,1657948181.0,0.142781,-10.00001,136,8,-1.03832e-07,-10
755,52.24818,1657948181.0,0.211991,-10.00001,136,8,-1.035916e-07,-10
756,52.3174,1657948181.0,0.28121,-10.00001,136,8,-1.03681e-07,-10
757,52.3866,1657948181.0,0.350411,-10.0,136,8,-1.035849e-07,-10
758,52.45581,1657948181.0,0.419628,-10.00001,136,8,-1.03651e-07,-10
759,52.52503,1657948181.0,0.488844,-10.00002,136,8,-1.036383e-07,-10
760,52.59424,1657948181.0,0.558054,-10.00002,136,8,-1.03495e-07,-10
761,52.66345,1657948181.0,0.627267,-10.00001,136,8,-1.035772e-07,-10
762,52.73266,1657948181.0,0.696472,-10.0,136,8,-1.037467e-07,-10
763,52.80187,1657948181.0,0.765685,-10.00001,136,8,-1.037147e-07,-10
764,52.87109,1657948181.0,0.834903,-10.0,136,8,-1.035801e-07,-10
765,52.94029,1657948181.0,0.904105,-10.00001,136,8,-1.038235e-07,-10
766,53.00951,1657948181.0,0.973322,-10.00001,136,8,-1.038768e-07,-10
767,53.07872,1657948182.0,0.0425338,-10.0,136,8,-1.03714e-07,-10
768,53.14794,1657948182.0,0.111752,-10.0,136,8,-1.037332e-07,-10
769,53.21715,1657948182.0,0.180963,-10.0,136,8,-1.037894e-07,-10
770,53.28636,1657948182.0,0.250179,-10.00001,136,8,-1.037182e-07,-10
771,53.35557,1657948182.0,0.319385,-10.00001,136,8,-1.038858e-07,-10
772,53.42478,1657948182.0,0.388593,-10.0,136,8,-1.037225e-07,-10
773,53.49399,1657948182.0,0.457808,-10.00001,136,8,-1.035379e-07,-10
774,53.56319,1657948182.0,0.527008,-10.00001,136,8,-1.038218e-07,-10
775,53.63241,1657948182.0,0.596221,-10.00001,136,8,-1.036364e-07,-10
776,53.70161,1657948182.0,0.665424,-10.00002,136,8,-1.038227e-07,-10
777,53.77083,1657948182.0,0.734649,-10.00001,136,8,-1.036794e-07,-10
778,53.84005,1657948182.0,0.803865,-10.00001,136,8,-1.036772e-07,-10
779,53.90926,1657948182.0,0.873076,-10.00001,136,8,-1.038709e-07,-10
780,53.97848,1657948182.0,0.942293,-10.0,136,8,-1.038187e-07,-10
781,54.04769,1657948183.0,0.0115057,-10.0,136,8,-1.036375e-07,-10
782,54.11691,1657948183.0,0.0807239,-10.00001,136,8,-1.034635e-07,-10
783,54.18612,1657948183.0,0.149932,-10.0,136,8,-1.034942e-07,-10
784,54.25533,1657948183.0,0.219144,-10.00001,136,8,-1.035943e-07,-10
785,54.32451,1657948183.0,0.288327,-9.999997,136,8,-1.036475e-07,-10
786,54.39371,1657948183.0,0.357528,-10.00001,136,8,-1.036837e-07,-10
787,54.46292,1657948183.0,0.426738,-10.00002,136,8,-1.036725e-07,-10
788,54.53214,1657948183.0,0.495952,-10.0,136,8,-1.036571e-07,-10
789,54.60134,1657948183.0,0.565158,-10.00001,136,8,-1.034127e-07,-10
790,54.67056,1657948183.0,0.634373,-10.00001,136,8,-1.035206e-07,-10
791,54.73977,1657948183.0,0.703585,-10.00001,136,8,-1.036682e-07,-10
792,54.80897,1657948183.0,0.772787,-10.00002,136,8,-1.036059e-07,-10
793,54.87815,1657948183.0,0.841968,-10.0,136,8,-1.036233e-07,-10
794,54.94737,1657948183.0,0.911188,-10.0,136,8,-1.034834e-07,-10
795,55.01657,1657948183.0,0.980387,-10.0,136,8,-1.035637e-07,-10
796,55.0858,1657948184.0,0.0496095,-10.00001,136,8,-1.034404e-07,-10
797,55.15501,1657948184.0,0.118828,-10.00001,136,8,-1.036593e-07,-10
798,55.22422,1657948184.0,0.188031,-10.00001,136,8,-1.037253e-07,-10
799,55.29343,1657948184.0,0.257244,-10.00002,136,8,-1.032815e-07,-10
800,55.36265,1657948184.0,0.326462,-10.00001,136,8,-1.036201e-07,-10
801,55.43185,1657948184.0,0.395669,-10.00001,136,8,-1.036428e-07,-10
802,55.50107,1657948184.0,0.46488,-10.00001,136,8,-1.035944e-07,-10
803,55.57025,1657948184.0,0.534068,-10.0,136,8,-1.034556e-07,-10
804,55.63947,1657948184.0,0.603284,-10.00002,136,8,-1.03502e-07,-10
805,55.70869,1657948184.0,0.6725,-10.00002,136,8,-1.031634e-07,-10
806,55.77789,1657948184.0,0.741707,-10.00001,136,8,-1.035323e-07,-10
807,55.8471,1657948184.0,0.810917,-10.00002,136,8,-1.035733e-07,-10
808,55.91631,1657948184.0,0.880123,-10.00001,136,8,-1.036307e-07,-10
809,55.98552,1657948184.0,0.94933,-10.00002,136,8,-1.036892e-07,-10
810,56.05472,1657948185.0,0.0185372,-10.00001,136,8,-1.034136e-07,-10
811,56.12392,1657948185.0,0.087738,-10.00002,136,8,-1.035067e-07,-10
812,56.19314,1657948185.0,0.156953,-10.00001,136,8,-1.035996e-07,-10
813,56.26234,1657948185.0,0.226154,-10.00003,136,8,-1.036236e-07,-10
814,56.33155,1657948185.0,0.295368,-10.00002,136,8,-1.035386e-07,-10
815,56.40076,1657948185.0,0.364579,-10.00002,136,8,-1.037457e-07,-10
816,56.46997,1657948185.0,0.433784,-10.00002,136,8,-1.036481e-07,-10
817,56.53919,1657948185.0,0.503,-10.00002,136,8,-1.032845e-07,-10
818,56.60839,1657948185.0,0.572209,-10.00002,136,8,-1.035734e-07,-10
819,56.6776,1657948185.0,0.641411,-10.00003,136,8,-1.033897e-07,-10
820,56.74681,1657948185.0,0.710625,-10.00003,136,8,-1.036109e-07,-10
821,56.81603,1657948185.0,0.779844,-10.00002,136,8,-1.035621e-07,-10
822,56.88525,1657948185.0,0.849062,-10.00002,136,8,-1.037991e-07,-10
823,56.95446,1657948185.0,0.91827,-10.00003,136,8,-1.035058e-07,-10
824,57.02366,1657948185.0,0.987473,-10.00002,136,8,-1.035474e-07,-10
825,57.09287,1657948186.0,0.0566815,-10.00002,136,8,-1.034281e-07,-10
826,57.16207,1657948186.0,0.125884,-10.00003,136,8,-1.034097e-07,-10
827,57.23128,1657948186.0,0.195091,-10.00003,136,8,-1.035718e-07,-10
828,57.30048,1657948186.0,0.264299,-10.00002,136,8,-1.036885e-07,-10
829,57.3697,1657948186.0,0.333517,-10.00002,136,8,-1.034821e-07,-10
830,57.43891,1657948186.0,0.402721,-10.00003,136,8,-1.032523e-07,-10
831,57.50811,1657948186.0,0.471928,-10.00002,136,8,-1.036301e-07,-10
832,57.57733,1657948186.0,0.541143,-10.00002,136,8,-1.034022e-07,-10
833,57.64655,1657948186.0,0.610365,-10.00002,136,8,-1.035429e-07,-10
834,57.71577,1657948186.0,0.679583,-10.00002,136,8,-1.035813e-07,-10
835,57.78497,1657948186.0,0.748786,-10.00001,136,8,-1.034099e-07,-10
836,57.85419,1657948186.0,0.818002,-10.00002,136,8,-1.038945e-07,-10
837,57.92339,1657948186.0,0.887207,-10.00003,136,8,-1.035691e-07,-10
838,57.9926,1657948186.0,0.956414,-10.00002,136,8,-1.032759e-07,-10
839,58.06183,1657948187.0,0.0256395,-10.00002,136,8,-1.033043e-07,-10
840,58.13103,1657948187.0,0.0948441,-10.00001,136,8,-1.03489e-07,-10
841,58.20024,1657948187.0,0.164058,-10.00001,136,8,-1.033986e-07,-10
842,58.26945,1657948187.0,0.233266,-10.00002,136,8,-1.035934e-07,-10
843,58.33866,1657948187.0,0.302477,-10.00001,136,8,-1.032796e-07,-10
844,58.40788,1657948187.0,0.371691,-10.00002,136,8,-1.035104e-07,-10
845,58.47708,1657948187.0,0.440896,-10.00002,136,8,-1.03667e-07,-10
846,58.54626,1657948187.0,0.510077,-10.00001,136,8,-1.034468e-07,-10
847,58.61547,1657948187.0,0.579287,-10.00002,136,8,-1.036298e-07,-10
848,58.68468,1657948187.0,0.648498,-10.00001,136,8,-1.034372e-07,-10
849,58.75391,1657948187.0,0.71772,-10.00002,136,8,-1.034782e-07,-10
850,58.82312,1657948187.0,0.786936,-10.00003,136,8,-1.034425e-07,-10
851,58.89232,1657948187.0,0.856137,-10.00002,136,8,-1.035866e-07,-10
852,58.96151,1657948187.0,0.925325,-10.00001,136,8,-1.032389e-07,-10
853,59.03071,1657948187.0,0.99452,-10.00001,136,8,-1.034013e-07,-10
854,59.09993,1657948188.0,0.0637473,-10.00002,136,8,-1.032868e-07,-10
855,59.16915,1657948188.0,0.132963,-10.00002,136,8,-1.034803e-07,-10
856,59.23836,1657948188.0,0.202178,-10.00002,136,8,-1.032635e-07,-10
857,59.30755,1657948188.0,0.271365,-10.0,136,8,-1.032767e-07,-10
858,59.37673,1657948188.0,0.340545,-10.00001,136,8,-1.035063e-07,-10
859,59.44593,1657948188.0,0.409744,-10.0,136,8,-1.034636e-07,-10
860,59.51513,1657948188.0,0.478947,-10.00001,136,8,-1.035881e-07,-10
861,59.58432,1657948188.0,0.54813,-10.0,136,8,-1.033114e-07,-10
862,59.65352,1657948188.0,0.61733,-10.00001,136,8,-1.034863e-07,-10
863,59.72272,1657948188.0,0.686538,-10.00002,136,8,-1.037256e-07,-10
864,59.79193,1657948188.0,0.755749,-10.00002,136,8,-1.034368e-07,-10
865,59.86114,1657948188.0,0.824956,-10.00002,136,8,-1.03746e-07,-10
866,59.93035,1657948188.0,0.894168,-10.00002,136,8,-1.036558e-07,-10
867,59.99956,1657948188.0,0.963374,-10.00003,136,8,-1.034135e-07,-10
868,60.06876,1657948189.0,0.0325769,-10.00002,136,8,-1.035089e-07,-10
869,60.13796,1657948189.0,0.101772,-9.999991,136,8,-1.033824e-07,-10
870,60.20717,1657948189.0,0.170982,-10.00002,136,8,-1.034548e-07,-10
871,60.27638,1657948189.0,0.240194,-10.00002,136,8,-1.037162e-07,-10
872,60.34559,1657948189.0,0.309402,-10.00002,136,8,-1.035915e-07,-10
873,60.4148,1657948189.0,0.378618,-10.00002,136,8,-1.035402e-07,-10
874,60.48402,1657948189.0,0.447835,-10.00002,136,8,-1.033653e-07,-10
875,60.55322,1657948189.0,0.517038,-10.00002,136,8,-1.035285e-07,-10
876,60.62243,1657948189.0,0.586243,-10.00001,136,8,-1.035092e-07,-10
877,60.69165,1657948189.0,0.655462,-10.00001,136,8,-1.031287e-07,-10
878,60.76086,1657948189.0,0.724674,-10.00002,136,8,-1.035686e-07,-10
879,60.83006,1657948189.0,0.793878,-10.00002,136,8,-1.032549e-07,-10
880,60.89927,1657948189.0,0.863086,-10.00003,136,8,-1.031993e-07,-10
881,60.96849,1657948189.0,0.932308,-10.00002,136,8,-1.033444e-07,-10
882,61.0377,1657948190.0,0.0015151,-10.00001,136,8,-1.034164e-07,-10
883,61.10692,1657948190.0,0.0707327,-10.00002,136,8,-1.033197e-07,-10
884,61.17613,1657948190.0,0.13994,-10.00002,136,8,-1.033942e-07,-10
885,61.24535,1657948190.0,0.20916,-10.00001,136,8,-1.033859e-07,-10
886,61.31455,1657948190.0,0.27836,-10.00001,136,8,-1.036251e-07,-10
887,61.38375,1657948190.0,0.347561,-10.00001,136,8,-1.034866e-07,-10
888,61.45296,1657948190.0,0.416771,-10.0,136,8,-1.033782e-07,-10
889,61.52216,1657948190.0,0.485976,-10.00001,136,8,-1.033532e-07,-10
890,61.59137,1657948190.0,0.55518,-10.00002,136,8,-1.03392e-07,-10
891,61.66056,1657948190.0,0.624379,-10.00001,136,8,-1.032897e-07,-10
892,61.72978,1657948190.0,0.693598,-10.00001,136,8,-1.033465e-07,-10
893,61.79899,1657948190.0,0.762805,-10.00001,136,8,-1.034158e-07,-10
894,61.86819,1657948190.0,0.832005,-10.00002,136,8,-1.032909e-07,-10
895,61.93739,1657948190.0,0.901208,-10.00002,136,8,-1.035285e-07,-10
896,62.00661,1657948190.0,0.970425,-10.00001,136,8,-1.034626e-07,-10
897,62.07582,1657948191.0,0.0396363,-10.00001,136,8,-1.032508e-07,-10
898,62.14504,1657948191.0,0.108852,-10.00002,136,8,-1.034611e-07,-10
899,62.21424,1657948191.0,0.178053,-10.00002,136,8,-1.03369e-07,-10
900,62.28345,1657948191.0,0.247261,-10.00001,136,8,-1.032774e-07,-10
901,62.35265,1657948191.0,0.316463,-10.00001,136,8,-1.036044e-07,-10
902,62.42187,1657948191.0,0.385687,-10.00002,136,8,-1.035405e-07,-10
903,62.49108,1657948191.0,0.454895,-10.00001,136,8,-1.032389e-07,-10
904,62.56029,1657948191.0,0.524101,-10.00002,136,8,-1.034714e-07,-10
905,62.62949,1657948191.0,0.593309,-10.00002,136,8,-1.03199e-07,-10
906,62.6987,1657948191.0,0.662515,-10.00001,136,8,-1.032954e-07,-10
907,62.76792,1657948191.0,0.731733,-10.00002,136,8,-1.033772e-07,-10
908,62.83712,1657948191.0,0.800934,-10.00002,136,8,-1.031736e-07,-10
909,62.90632,1657948191.0,0.870139,-10.00002,136,8,-1.030568e-07,-10
910,62.97553,1657948191.0,0.939346,-10.00002,136,8,-1.032979e-07,-10
911,63.04475,1657948192.0,0.00856836,-10.00002,136,8,-1.032229e-07,-10
912,63.11397,1657948192.0,0.0777862,-10.00002,136,8,-1.035412e-07,-10
913,63.18318,1657948192.0,0.14699,-10.00001,136,8,-1.033136e-07,-10
914,63.25238,1657948192.0,0.216196,-10.00002,136,8,-1.032957e-07,-10
915,63.32158,1657948192.0,0.285399,-10.00002,136,8,-1.032708e-07,-10
916,63.39079,1657948192.0,0.354601,-10.00003,136,8,-1.032134e-07,-10
917,63.46,1657948192.0,0.423813,-10.00002,136,8,-1.034584e-07,-10
918,63.52921,1657948192.0,0.493028,-10.00001,136,8,-1.031069e-07,-10
919,63.59842,1657948192.0,0.562235,-10.00001,136,8,-1.033947e-07,-10
920,63.66764,1657948192.0,0.63145,-10.00001,136,8,-1.033015e-07,-10
921,63.73685,1657948192.0,0.700668,-10.00001,136,8,-1.032589e-07,-10
922,63.80606,1657948192.0,0.769875,-10.00001,136,8,-1.034319e-07,-10
923,63.87528,1657948192.0,0.83909,-10.00002,136,8,-1.033839e-07,-10
924,63.94448,1657948192.0,0.908291,-10.00002,136,8,-1.032898e-07,-10
925,64.0137,1657948192.0,0.97751,-10.00001,136,8,-1.035042e-07,-10
926,64.08292,1657948193.0,0.0467298,-10.00001,136,8,-1.032215e-07,-10
927,64.15212,1657948193.0,0.115932,-10.00002,136,8,-1.03155e-07,-10
928,64.22132,1657948193.0,0.185132,-10.00001,136,8,-1.032903e-07,-10
929,64.29052,1657948193.0,0.254331,-10.00001,136,8,-1.03308e-07,-10
930,64.35972,1657948193.0,0.323535,-10.00001,136,8,-1.034282e-07,-10
931,64.42893,1657948193.0,0.392746,-10.00001,136,8,-1.033907e-07,-10
932,64.49815,1657948193.0,0.461964,-10.00002,136,8,-1.031488e-07,-10
933,64.56735,1657948193.0,0.531167,-10.00001,136,8,-1.033711e-07,-10
934,64.63657,1657948193.0,0.60038,-10.00002,136,8,-1.032621e-07,-10
935,64.70577,1657948193.0,0.669588,-10.00001,136,8,-1.032766e-07,-10
936,64.77499,1657948193.0,0.738807,-10.00002,136,8,-1.031488e-07,-10
937,64.8442,1657948193.0,0.808016,-10.00001,136,8,-1.031802e-07,-10
938,64.91341,1657948193.0,0.877227,-10.00001,136,8,-1.033767e-07,-10
939,64.98262,1657948193.0,0.946436,-10.00001,136,8,-1.034365e-07,-10
940,65.05181,1657948194.0,0.0156214,-10.0,136,8,-1.031716e-07,-10
941,65.12101,1657948194.0,0.0848213,-10.00001,136,8,-1.031526e-07,-10
942,65.19023,1657948194.0,0.154039,-10.00001,136,8,-1.030882e-07,-10
943,65.25943,1657948194.0,0.223246,-10.00002,136,8,-1.03119e-07,-10
944,65.32864,1657948194.0,0.292455,-10.00002,136,8,-1.033159e-07,-10
945,65.39787,1657948194.0,0.361684,-10.00002,136,8,-1.030916e-07,-10
946,65.46708,1657948194.0,0.430894,-10.00001,136,8,-1.032009e-07,-10
947,65.53629,1657948194.0,0.500106,-10.00002,136,8,-1.030847e-07,-10
948,65.6055,1657948194.0,0.569319,-10.00002,136,8,-1.031646e-07,-10
949,65.67471,1657948194.0,0.638522,-10.00002,136,8,-1.033314e-07,-10
950,65.74392,1657948194.0,0.70773,-10.00001,136,8,-1.029552e-07,-10
951,65.81312,1657948194.0,0.776934,-10.0,136,8,-1.034106e-07,-10
952,65.8823,1657948194.0,0.846113,-10.00001,136,8,-1.032308e-07,-10
953,65.95151,1657948194.0,0.915323,-10.00001,136,8,-1.031806e-07,-10
954,66.02072,1657948194.0,0.984533,-10.00001,136,8,-1.033961e-07,-10
955,66.08995,1657948195.0,0.0537608,-10.00002,136,8,-1.032871e-07,-10
956,66.15915,1657948195.0,0.122966,-10.00002,136,8,-1.032554e-07,-10
957,66.22836,1657948195.0,0.192171,-10.00001,136,8,-1.029938e-07,-10
958,66.29757,1657948195.0,0.261385,-10.00001,136,8,-1.033821e-07,-10
959,66.36679,1657948195.0,0.330602,-10.00001,136,8,-1.032228e-07,-10
960,66.436,1657948195.0,0.399813,-10.00001,136,8,-1.034359e-07,-10
961,66.5052,1657948195.0,0.469019,-10.00002,136,8,-1.032565e-07,-10
962,66.57442,1657948195.0,0.538236,-10.00002,136,8,-1.029518e-07,-10
963,66.64364,1657948195.0,0.607451,-10.00002,136,8,-1.032383e-07,-10
964,66.71285,1657948195.0,0.676661,-10.00002,136,8,-1.031229e-07,-10
965,66.78206,1657948195.0,0.74587,-10.00002,136,8,-1.032019e-07,-10
966,66.85128,1657948195.0,0.815091,-10.00002,136,8,-1.033079e-07,-10
967,66.92049,1657948195.0,0.8843,-10.00002,136,8,-1.030432e-07,-10
968,66.98969,1657948195.0,0.953506,-10.00002,136,8,-1.029783e-07,-10
969,67.05891,1657948196.0,0.0227219,-10.00003,136,8,-1.032577e-07,-10
970,67.12811,1657948196.0,0.0919222,-10.00003,136,8,-1.031512e-07,-10
971,67.19732,1657948196.0,0.161135,-10.00001,136,8,-1.028688e-07,-10
972,67.26652,1657948196.0,0.230338,-10.00002,136,8,-1.031743e-07,-10
973,67.33572,1657948196.0,0.299539,-10.00002,136,8,-1.032313e-07,-10
974,67.40494,1657948196.0,0.36875,-10.00003,136,8,-1.032331e-07,-10
975,67.47414,1657948196.0,0.437954,-10.00001,136,8,-1.031148e-07,-10
976,67.54333,1657948196.0,0.507146,-10.00002,136,8,-1.032622e-07,-10
977,67.61255,1657948196.0,0.576359,-10.00001,136,8,-1.033225e-07,-10
978,67.68176,1657948196.0,0.645573,-10.00001,136,8,-1.030472e-07,-10
979,67.75096,1657948196.0,0.714772,-10.0,136,8,-1.03122e-07,-10
980,67.82016,1657948196.0,0.783972,-10.00002,136,8,-1.033476e-07,-10
981,67.88936,1657948196.0,0.853175,-10.00002,136,8,-1.033705e-07,-10
982,67.95857,1657948196.0,0.922384,-10.00002,136,8,-1.031014e-07,-10
983,68.02777,1657948196.0,0.991586,-10.00002,136,8,-1.033298e-07,-10
984,68.097,1657948197.0,0.0608096,-10.00002,136,8,-1.03186e-07,-10
985,68.16621,1657948197.0,0.130027,-10.00001,136,8,-1.030291e-07,-10
986,68.23542,1657948197.0,0.199239,-10.00001,136,8,-1.031234e-07,-10
987,68.30464,1657948197.0,0.268453,-10.00002,136,8,-1.033226e-07,-10
988,68.37385,1657948197.0,0.337661,-10.0,136,8,-1.031796e-07,-10
989,68.44306,1657948197.0,0.40687,-10.00002,136,8,-1.029825e-07,-10
990,68.51227,1657948197.0,0.476084,-10.00002,136,8,-1.031859e-07,-10
991,68.58149,1657948197.0,0.545303,-10.00002,136,8,-1.029714e-07,-10
992,68.6507,1657948197.0,0.614518,-10.00001,136,8,-1.034022e-07,-10
993,68.71992,1657948197.0,0.683731,-10.00002,136,8,-1.031971e-07,-10
994,68.78913,1657948197.0,0.75294,-10.00002,136,8,-1.031406e-07,-10
995,68.85834,1657948197.0,0.82215,-10.00001,136,8,-1.029248e-07,-10
996,68.92755,1657948197.0,0.891367,-10.00001,136,8,-1.032448e-07,-10
997,68.99676,1657948197.0,0.960578,-10.00001,136,8,-1.031008e-07,-10
998,69.06598,1657948198.0,0.0297906,-10.00002,136,8,-1.029979e-07,-10
999,69.13519,1657948198.0,0.0989998,-10.00001,136,8,-1.032193e-07,-10
1000,69.20439,1657948198.0,0.168202,-10.00001,136,8,-1.031943e-07,-10
1001,69.2736,1657948198.0,0.23741,-10.00002,136,8,-1.032365e-07,-10
1002,69.34282,1657948198.0,0.306631,-10.00003,136,8,-1.029526e-07,-10
1003,69.41203,1657948198.0,0.375849,-10.00003,136,8,-1.032083e-07,-10
1004,69.48125,1657948198.0,0.445059,-10.00003,136,8,-1.029062e-07,-10
1005,69.55046,1657948198.0,0.514277,-10.00002,136,8,-1.031309e-07,-10
1006,69.61968,1657948198.0,0.583496,-10.00003,136,8,-1.031285e-07,-10
1007,69.6889,1657948198.0,0.652717,-10.00002,136,8,-1.030654e-07,-10
1008,69.75811,1657948198.0,0.721925,-10.00002,136,8,-1.032773e-07,-10
1009,69.82729,1657948198.0,0.791104,-10.00001,136,8,-1.03092e-07,-10
1010,69.8965,1657948198.0,0.860318,-10.00001,136,8,-1.031851e-07,-10
1011,69.96572,1657948198.0,0.929533,-10.00003,136,8,-1.032445e-07,-10
1012,70.03494,1657948198.0,0.998758,-10.00003,136,8,-1.030305e-07,-10
1013,70.10416,1657948199.0,0.0679766,-10.00002,136,8,-1.031482e-07,-10
1014,70.17338,1657948199.0,0.137196,-10.00002,136,8,-1.031891e-07,-10
1015,70.2426,1657948199.0,0.206412,-10.00002,136,8,-1.032443e-07,-10
1016,70.3118,1657948199.0,0.27561,-10.00002,136,8,-1.031517e-07,-10
1017,70.38102,1657948199.0,0.344835,-10.00001,136,8,-1.030892e-07,-10
1018,70.45023,1657948199.0,0.414047,-10.00002,136,8,-1.029456e-07,-10
1019,70.51944,1657948199.0,0.483253,-10.00002,136,8,-1.031966e-07,-10
1020,70.58864,1657948199.0,0.552452,-10.00001,136,8,-1.030919e-07,-10
1021,70.65784,1657948199.0,0.621655,-10.00001,136,8,-1.031546e-07,-10
1022,70.72705,1657948199.0,0.690867,-10.00001,136,8,-1.03183e-07,-10
1023,70.79625,1657948199.0,0.760069,-10.00001,136,8,-1.031523e-07,-10
1024,70.86546,1657948199.0,0.829277,-10.00002,136,8,-1.030614e-07,-10
1025,70.93466,1657948199.0,0.898478,-10.00001,136,8,-1.030359e-07,-10
1026,71.00387,1657948199.0,0.967689,-10.00002,136,8,-1.033212e-07,-10
1027,71.07308,1657948200.0,0.0368967,-10.00002,136,8,-1.028457e-07,-10
1028,71.14228,1657948200.0,0.106096,-10.00001,136,8,-1.030927e-07,-10
1029,71.21149,1657948200.0,0.175306,-10.00001,136,8,-1.029434e-07,-10
1030,71.2807,1657948200.0,0.244517,-10.00002,136,8,-1.031031e-07,-10
1031,71.34992,1657948200.0,0.313738,-10.00001,136,8,-1.033419e-07,-10
1032,71.41914,1657948200.0,0.382953,-10.00002,136,8,-1.030489e-07,-10
1033,71.48834,1657948200.0,0.452156,-10.00002,136,8,-1.028204e-07,-10
1034,71.55755,1657948200.0,0.521361,-10.00002,136,8,-1.031177e-07,-10
1035,71.62676,1657948200.0,0.590578,-10.0,136,8,-1.031295e-07,-10
1036,71.69598,1657948200.0,0.659795,-9.999997,136,8,-1.029817e-07,-10
1037,71.76518,1657948200.0,0.728995,-10.00002,136,8,-1.030926e-07,-10
1038,71.83438,1657948200.0,0.798195,-10.00002,136,8,-1.030725e-07,-10
1039,71.90359,1657948200.0,0.8674,-10.00001,136,8,-1.027641e-07,-10
1040,71.97279,1657948200.0,0.936608,-10.0,136,8,-1.032609e-07,-10
1041,72.04201,1657948201.0,0.00582282,-10.00001,136,8,-1.029807e-07,-10
1042,72.11122,1657948201.0,0.0750355,-10.00002,136,8,-1.029473e-07,-10
1043,72.18041,1657948201.0,0.144223,-10.00001,136,8,-1.031415e-07,-10
1044,72.24961,1657948201.0,0.213421,-10.00001,136,8,-1.029927e-07,-10
1045,72.31883,1657948201.0,0.28264,-10.00001,136,8,-1.031505e-07,-10
1046,72.38804,1657948201.0,0.351858,-10.00002,136,8,-1.030814e-07,-10
1047,72.45725,1657948201.0,0.421064,-10.00001,136,8,-1.029031e-07,-10
1048,72.52647,1657948201.0,0.490281,-10.00001,136,8,-1.03148e-07,-10
1049,72.5957,1657948201.0,0.55951,-10.00002,136,8,-1.030128e-07,-10
1050,72.66491,1657948201.0,0.628724,-10.00001,136,8,-1.029097e-07,-10
1051,72.73411,1657948201.0,0.697923,-10.00001,136,8,-1.028775e-07,-10
1052,72.80333,1657948201.0,0.76714,-10.00002,136,8,-1.030884e-07,-10
1053,72.87254,1657948201.0,0.836353,-10.00002,136,8,-1.030835e-07,-10
1054,72.94174,1657948201.0,0.905553,-10.00001,136,8,-1.031346e-07,-10
1055,73.01095,1657948201.0,0.974769,-10.00001,136,8,-1.030801e-07,-10
1056,73.08013,1657948202.0,0.0439474,-10.0,136,8,-1.029566e-07,-10
1057,73.14931,1657948202.0,0.113126,-10.00001,136,8,-1.030338e-07,-10
1058,73.21853,1657948202.0,0.182347,-10.00001,136,8,-1.030127e-07,-10
1059,73.28772,1657948202.0,0.251531,-10.0,136,8,-1.029609e-07,-10
1060,73.35691,1657948202.0,0.32072,-10.0,136,8,-1.030369e-07,-10
1061,73.42611,1657948202.0,0.389927,-10.00001,136,8,-1.030394e-07,-10
1062,73.49532,1657948202.0,0.459129,-10.0,136,8,-1.029552e-07,-10
1063,73.56452,1657948202.0,0.52833,-10.00002,136,8,-1.02719e-07,-10
1064,73.63372,1657948202.0,0.597538,-10.00002,136,8,-1.029427e-07,-10
1065,73.70294,1657948202.0,0.66675,-10.00002,136,8,-1.029962e-07,-10
1066,73.77214,1657948202.0,0.735959,-10.00002,136,8,-1.030217e-07,-10
1067,73.84135,1657948202.0,0.805162,-10.00001,136,8,-1.029773e-07,-10
1068,73.91055,1657948202.0,0.874369,-10.00002,136,8,-1.029615e-07,-10
1069,73.97976,1657948202.0,0.943578,-10.00003,136,8,-1.03081e-07,-10
1070,74.04898,1657948203.0,0.0127939,-10.00001,136,8,-1.030197e-07,-10
1071,74.11818,1657948203.0,0.0819894,-10.00001,136,8,-1.027729e-07,-10
1072,74.18738,1657948203.0,0.151194,-10.00002,136,8,-1.029389e-07,-10
1073,74.25658,1657948203.0,0.220398,-10.00002,136,8,-1.030169e-07,-10
1074,74.32579,1657948203.0,0.289607,-10.00002,136,8,-1.028836e-07,-10
1075,74.395,1657948203.0,0.358816,-10.00002,136,8,-1.02839e-07,-10
1076,74.46421,1657948203.0,0.428027,-10.00003,136,8,-1.031024e-07,-10
1077,74.53342,1657948203.0,0.497233,-10.00002,136,8,-1.027444e-07,-10
1078,74.60263,1657948203.0,0.566442,-10.00003,136,8,-1.027988e-07,-10
1079,74.67183,1657948203.0,0.635648,-10.00002,136,8,-1.03078e-07,-10
1080,74.74105,1657948203.0,0.704865,-10.00002,136,8,-1.029643e-07,-10
1081,74.81026,1657948203.0,0.774077,-10.00002,136,8,-1.031624e-07,-10
1082,74.87948,1657948203.0,0.84329,-10.00003,136,8,-1.028683e-07,-10
1083,74.94868,1657948203.0,0.912495,-10.00002,136,8,-1.027435e-07,-10
1084,75.01789,1657948203.0,0.981705,-10.00001,136,8,-1.030618e-07,-10
1085,75.08711,1657948204.0,0.0509195,-10.00001,136,8,-1.029884e-07,-10
1086,75.15631,1657948204.0,0.120129,-10.00003,136,8,-1.027277e-07,-10
1087,75.22552,1657948204.0,0.189339,-10.00002,136,8,-1.02884e-07,-10
1088,75.29472,1657948204.0,0.258537,-10.00001,136,8,-1.02836e-07,-10
1089,75.36393,1657948204.0,0.327742,-10.00002,136,8,-1.027573e-07,-10
1090,75.43313,1657948204.0,0.396949,-10.00001,136,8,-1.030414e-07,-10
1091,75.50234,1657948204.0,0.466159,-10.00002,136,8,-1.031026e-07,-10
1092,75.57156,1657948204.0,0.535374,-10.00002,136,8,-1.029297e-07,-10
1093,75.64078,1657948204.0,0.604592,-10.00002,136,8,-1.031882e-07,-10
1094,75.71,1657948204.0,0.673816,-10.00001,136,8,-1.028338e-07,-10
1095,75.77921,1657948204.0,0.743027,-10.00002,136,8,-1.029847e-07,-10
1096,75.84842,1657948204.0,0.81223,-10.00002,136,8,-1.029767e-07,-10
1097,75.91763,1657948204.0,0.881441,-10.00001,136,8,-1.029265e-07,-10
1098,75.98683,1657948204.0,0.950644,-10.00002,136,8,-1.030554e-07,-10
1099,76.05605,1657948205.0,0.0198686,-10.00001,136,8,-1.030684e-07,-10
1100,76.12525,1657948205.0,0.0890671,-10.00001,136,8,-1.026991e-07,-10
1101,76.19446,1657948205.0,0.158279,-10.00001,136,8,-1.02887e-07,-10
1102,76.26368,1657948205.0,0.227495,-10.0,136,8,-1.028896e-07,-10
1103,76.33288,1657948205.0,0.296697,-10.00002,136,8,-1.03013e-07,-10
1104,76.40208,1657948205.0,0.365898,-10.00001,136,8,-1.028561e-07,-10
1105,76.4713,1657948205.0,0.43511,-10.00001,136,8,-1.030269e-07,-10
1106,76.5405,1657948205.0,0.504316,-10.00002,136,8,-1.027632e-07,-10
1107,76.60971,1657948205.0,0.573529,-10.00002,136,8,-1.028685e-07,-10
1108,76.67892,1657948205.0,0.642737,-10.00003,136,8,-1.030023e-07,-10
1109,76.74813,1657948205.0,0.711942,-10.00002,136,8,-1.02861e-07,-10
1110,76.81732,1657948205.0,0.781139,-10.00002,136,8,-1.030334e-07,-10
1111,76.88654,1657948205.0,0.850353,-10.00001,136,8,-1.030675e-07,-10
1112,76.95575,1657948205.0,0.919562,-10.00002,136,8,-1.032001e-07,-10
1113,77.02497,1657948205.0,0.988788,-10.00001,136,8,-1.028932e-07,-10
1114,77.09418,1657948206.0,0.0579924,-10.00001,136,8,-1.029794e-07,-10
1115,77.16339,1657948206.0,0.1272,-10.00001,136,8,-1.028642e-07,-10
1116,77.23259,1657948206.0,0.196404,-10.00001,136,8,-1.027612e-07,-10
1117,77.30179,1657948206.0,0.265603,-10.00002,136,8,-1.028752e-07,-10
1118,77.37101,1657948206.0,0.334829,-10.00002,136,8,-1.026961e-07,-10
1119,77.44023,1657948206.0,0.404044,-10.00001,136,8,-1.03106e-07,-10
1120,77.50943,1657948206.0,0.473245,-10.00002,136,8,-1.029545e-07,-10
1121,77.57864,1657948206.0,0.54245,-10.00002,136,8,-1.030958e-07,-10
1122,77.64785,1657948206.0,0.611666,-10.00001,136,8,-1.028312e-07,-10
1123,77.71706,1657948206.0,0.680874,-10.00001,136,8,-1.028761e-07,-10
1124,77.78627,1657948206.0,0.750083,-10.00001,136,8,-1.029231e-07,-10
1125,77.85549,1657948206.0,0.819305,-10.00001,136,8,-1.030916e-07,-10
1126,77.9247,1657948206.0,0.888517,-10.00001,136,8,-1.028892e-07,-10
1127,77.99392,1657948206.0,0.957735,-10.00002,136,8,-1.027549e-07,-10
1128,78.06313,1657948207.0,0.0269434,-10.00001,136,8,-1.029237e-07,-10
1129,78.13234,1657948207.0,0.0961543,-10.00001,136,8,-1.030036e-07,-10
1130,78.20156,1657948207.0,0.165373,-10.00002,136,8,-1.027546e-07,-10
1131,78.27077,1657948207.0,0.234588,-10.00002,136,8,-1.028316e-07,-10
1132,78.34,1657948207.0,0.303812,-10.00002,136,8,-1.029714e-07,-10
1133,78.40921,1657948207.0,0.373024,-10.00001,136,8,-1.030249e-07,-10
1134,78.47841,1657948207.0,0.442226,-10.00002,136,8,-1.02879e-07,-10
1135,78.54762,1657948207.0,0.511434,-10.00001,136,8,-1.031594e-07,-10
1136,78.61682,1657948207.0,0.580638,-10.00001,136,8,-1.029778e-07,-10
1137,78.68604,1657948207.0,0.649853,-10.00002,136,8,-1.028831e-07,-10
1138,78.75525,1657948207.0,0.719063,-10.00001,136,8,-1.030641e-07,-10
1139,78.82446,1657948207.0,0.788271,-10.00002,136,8,-1.02845e-07,-10
1140,78.89365,1657948207.0,0.857467,-9.999985,136,8,-1.027152e-07,-10
1141,78.96284,1657948207.0,0.926652,-9.999995,136,8,-1.03157e-07,-10
1142,79.03205,1657948207.0,0.995867,-10.0,136,8,-1.030198e-07,-10
1143,79.10127,1657948208.0,0.06508,-10.00002,136,8,-1.030055e-07,-10
1144,79.17048,1657948208.0,0.134293,-10.00002,136,8,-1.028451e-07,-10
1145,79.23969,1657948208.0,0.203503,-10.00002,136,8,-1.026709e-07,-10
1146,79.30891,1657948208.0,0.272725,-10.00002,136,8,-1.029491e-07,-10
1147,79.37811,1657948208.0,0.341927,-10.00002,136,8,-1.029345e-07,-10
1148,79.44729,1657948208.0,0.411106,-10.0,136,8,-1.027007e-07,-10
1149,79.5165,1657948208.0,0.480315,-10.00001,136,8,-1.026279e-07,-10
1150,79.5857,1657948208.0,0.549514,-10.0,136,8,-1.029332e-07,-10
1151,79.65492,1657948208.0,0.618731,-10.00001,136,8,-1.028525e-07,-10
1152,79.72412,1657948208.0,0.687935,-10.00002,136,8,-1.026051e-07,-10
1153,79.79333,1657948208.0,0.757147,-10.00001,136,8,-1.029084e-07,-10
1154,79.86254,1657948208.0,0.826356,-10.00001,136,8,-1.027477e-07,-10
1155,79.93174,1657948208.0,0.895558,-10.00001,136,8,-1.029778e-07,-10
1156,80.00096,1657948208.0,0.964774,-10.00002,136,8,-1.028321e-07,-10
1157,80.07016,1657948209.0,0.0339738,-10.00001,136,8,-1.025815e-07,-10
1158,80.13938,1657948209.0,0.103195,-10.0,136,8,-1.029137e-07,-10
1159,80.20858,1657948209.0,0.17239,-9.999993,136,8,-1.029102e-07,-10
1160,80.27777,1657948209.0,0.241587,-10.0,136,8,-1.028918e-07,-10
1161,80.34699,1657948209.0,0.310803,-10.00002,136,8,-1.030663e-07,-10
1162,80.4162,1657948209.0,0.380012,-10.00001,136,8,-1.030016e-07,-10
1163,80.48538,1657948209.0,0.449196,-10.00001,136,8,-1.030191e-07,-10
1164,80.55457,1657948209.0,0.518384,-10.00001,136,8,-1.030805e-07,-10
1165,80.62377,1657948209.0,0.587583,-10.00001,136,8,-1.027162e-07,-10
1166,80.69298,1657948209.0,0.656795,-10.00001,136,8,-1.028089e-07,-10
1167,80.76217,1657948209.0,0.725981,-10.0,136,8,-1.027648e-07,-10
1168,80.83137,1657948209.0,0.795187,-10.0,136,8,-1.029599e-07,-10
1169,80.90058,1657948209.0,0.864399,-10.00002,136,8,-1.027888e-07,-10
1170,80.96979,1657948209.0,0.933601,-10.00001,136,8,-1.028201e-07,-10
1171,81.03899,1657948210.0,0.00280878,-10.0,136,8,-1.028769e-07,-10
1172,81.10821,1657948210.0,0.0720272,-10.00001,136,8,-1.028347e-07,-10
1173,81.17742,1657948210.0,0.141231,-10.0,136,8,-1.029599e-07,-10
1174,81.24663,1657948210.0,0.210448,-10.00001,136,8,-1.026961e-07,-10
1175,81.31584,1657948210.0,0.279655,-10.00001,136,8,-1.025295e-07,-10
1176,81.38503,1657948210.0,0.348842,-10.0,136,8,-1.02838e-07,-10
1177,81.45423,1657948210.0,0.418043,-10.00002,136,8,-1.029745e-07,-10
1178,81.52344,1657948210.0,0.487249,-10.00001,136,8,-1.02647e-07,-10
1179,81.59263,1657948210.0,0.556449,-10.00001,136,8,-1.02858e-07,-10
1180,81.66184,1657948210.0,0.625659,-10.00001,136,8,-1.026311e-07,-10
1181,81.73106,1657948210.0,0.694871,-10.00002,136,8,-1.027626e-07,-10
1182,81.80026,1657948210.0,0.764078,-10.00001,136,8,-1.029626e-07,-10
1183,81.86947,1657948210.0,0.833282,-10.00002,136,8,-1.02547e-07,-10
1184,81.93867,1657948210.0,0.902481,-10.00002,136,8,-1.027203e-07,-10
1185,82.00787,1657948210.0,0.971689,-10.00002,136,8,-1.028461e-07,-10
1186,82.0771,1657948211.0,0.0409103,-10.00001,136,8,-1.027319e-07,-10
1187,82.1463,1657948211.0,0.110116,-10.00001,136,8,-1.028039e-07,-10
1188,82.21551,1657948211.0,0.179325,-10.00001,136,8,-1.028457e-07,-10
1189,82.28471,1657948211.0,0.248521,-10.00002,136,8,-1.027367e-07,-10
1190,82.35392,1657948211.0,0.317736,-10.00001,136,8,-1.026741e-07,-10
1191,82.42314,1657948211.0,0.38695,-10.00001,136,8,-1.026853e-07,-10
1192,82.49234,1657948211.0,0.456158,-10.00002,136,8,-1.028059e-07,-10
1193,82.56156,1657948211.0,0.525371,-10.00002,136,8,-1.025932e-07,-10
1194,82.63076,1657948211.0,0.594575,-10.00001,136,8,-1.029008e-07,-10
1195,82.69996,1657948211.0,0.663778,-10.00001,136,8,-1.028028e-07,-10
1196,82.76917,1657948211.0,0.732987,-10.00001,136,8,-1.026882e-07,-10
1197,82.83839,1657948211.0,0.802204,-10.00001,136,8,-1.027754e-07,-10
1198,82.9076,1657948211.0,0.871416,-10.00001,136,8,-1.026911e-07,-10
1199,82.97679,1657948211.0,0.940609,-10.0,136,8,-1.02772e-07,-10
1200,83.04598,1657948212.0,0.00979856,-9.999999,136,8,-1.024528e-07,-10
1201,83.1152,1657948212.0,0.0790098,-10.00002,136,8,-1.026899e-07,-10
1202,83.18441,1657948212.0,0.148222,-10.00001,136,8,-1.026124e-07,-10
1203,83.25362,1657948212.0,0.217435,-10.00001,136,8,-1.028693e-07,-10
1204,83.32282,1657948212.0,0.286635,-10.00001,136,8,-1.029743e-07,-10
1205,83.39204,1657948212.0,0.355857,-10.0,136,8,-1.028323e-07,-10
1206,83.46125,1657948212.0,0.425068,-9.999995,136,8,-1.029056e-07,-10
1207,83.53047,1657948212.0,0.494282,-10.00001,136,8,-1.027137e-07,-10
1208,83.59965,1657948212.0,0.563469,-9.999988,136,8,-1.027473e-07,-10
1209,83.66887,1657948212.0,0.632683,-9.999997,136,8,-1.029507e-07,-10
1210,83.73809,1657948212.0,0.701904,-10.0,136,8,-1.029687e-07,-10
1211,83.80728,1657948212.0,0.771093,-9.999996,136,8,-1.025707e-07,-10
1212,83.87649,1657948212.0,0.840302,-9.999996,136,8,-1.026109e-07,-10
1213,83.9457,1657948212.0,0.909514,-10.00001,136,8,-1.028281e-07,-10
1214,84.01491,1657948212.0,0.978727,-9.999999,136,8,-1.025142e-07,-10
1215,84.08414,1657948213.0,0.0479502,-9.999996,136,8,-1.029308e-07,-10
1216,84.15335,1657948213.0,0.11716,-10.0,136,8,-1.026883e-07,-10
1217,84.22255,1657948213.0,0.186362,-9.999997,136,8,-1.028396e-07,-10
1218,84.29177,1657948213.0,0.25558,-10.0,136,8,-1.026576e-07,-10
1219,84.36097,1657948213.0,0.324786,-10.0,136,8,-1.026879e-07,-10
1220,84.43019,1657948213.0,0.394,-10.00002,136,8,-1.025751e-07,-10
1221,84.49939,1657948213.0,0.463206,-10.0,136,8,-1.027843e-07,-10
1222,84.56861,1657948213.0,0.532422,-10.00001,136,8,-1.02616e-07,-10
1223,84.63782,1657948213.0,0.601635,-9.999997,136,8,-1.028107e-07,-10
1224,84.70704,1657948213.0,0.670851,-10.00001,136,8,-1.026552e-07,-10
1225,84.77624,1657948213.0,0.740054,-10.00001,136,8,-1.028977e-07,-10
1226,84.84546,1657948213.0,0.809273,-9.999993,136,8,-1.027149e-07,-10
1227,84.91467,1657948213.0,0.878486,-9.999999,136,8,-1.027304e-07,-10
1228,84.98386,1657948213.0,0.947673,-9.999986,136,8,-1.026081e-07,-10
1229,85.05308,1657948214.0,0.0168914,-9.999989,136,8,-1.02611e-07,-10
1230,85.12229,1657948214.0,0.0861006,-10.00001,136,8,-1.027277e-07,-10
1231,85.1915,1657948214.0,0.155315,-10.0,136,8,-1.024398e-07,-10
1232,85.26071,1657948214.0,0.22452,-10.0,136,8,-1.027051e-07,-10
1233,85.32992,1657948214.0,0.293736,-10.0,136,8,-1.02734e-07,-10
1234,85.39914,1657948214.0,0.362953,-10.0,136,8,-1.026877e-07,-10
1235,85.46835,1657948214.0,0.432161,-10.00001,136,8,-1.028445e-07,-10
1236,85.53756,1657948214.0,0.501376,-10.00001,136,8,-1.027522e-07,-10
1237,85.60676,1657948214.0,0.570578,-9.999998,136,8,-1.027608e-07,-10
1238,85.67597,1657948214.0,0.639786,-9.999996,136,8,-1.029199e-07,-10
1239,85.74517,1657948214.0,0.708987,-10.00001,136,8,-1.025057e-07,-10
1240,85.81438,1657948214.0,0.778194,-9.999998,136,8,-1.026282e-07,-10
1241,85.88359,1657948214.0,0.847408,-9.999995,136,8,-1.028123e-07,-10
1242,85.95281,1657948214.0,0.916623,-10.0,136,8,-1.029889e-07,-10
1243,86.02203,1657948214.0,0.985842,-10.00001,136,8,-1.02499e-07,-10
1244,86.09123,1657948215.0,0.0550473,-10.00001,136,8,-1.027235e-07,-10
1245,86.16041,1657948215.0,0.124224,-9.99999,136,8,-1.024428e-07,-10
1246,86.22963,1657948215.0,0.193442,-9.999999,136,8,-1.026774e-07,-10
1247,86.29883,1657948215.0,0.262643,-10.00001,136,8,-1.028369e-07,-10
1248,86.36803,1657948215.0,0.331848,-10.00001,136,8,-1.027646e-07,-10
1249,86.43724,1657948215.0,0.401059,-9.999997,136,8,-1.026709e-07,-10
1250,86.50646,1657948215.0,0.470273,-10.00001,136,8,-1.026546e-07,-10
1251,86.57567,1657948215.0,0.539482,-10.00002,136,8,-1.026306e-07,-10
1252,86.64488,1657948215.0,0.608699,-10.00002,136,8,-1.028348e-07,-10
1253,86.7141,1657948215.0,0.67791,-10.00001,136,8,-1.027033e-07,-10
1254,86.7833,1657948215.0,0.747111,-10.00001,136,8,-1.027014e-07,-10
1255,86.8525,1657948215.0,0.816314,-10.00002,136,8,-1.024889e-07,-10
1256,86.92171,1657948215.0,0.885529,-10.00001,136,8,-1.025574e-07,-10
1257,86.99092,1657948215.0,0.954736,-10.00001,136,8,-1.025693e-07,-10
1258,87.06013,1657948216.0,0.0239429,-10.00001,136,8,-1.028763e-07,-10
1259,87.12935,1657948216.0,0.0931596,-10.00001,136,8,-1.026552e-07,-10
1260,87.19855,1657948216.0,0.16236,-10.00001,136,8,-1.025834e-07,-10
1261,87.26776,1657948216.0,0.231575,-10.00002,136,8,-1.027353e-07,-10
1262,87.33697,1657948216.0,0.300785,-10.0,136,8,-1.027094e-07,-10
1263,87.40618,1657948216.0,0.369993,-10.00001,136,8,-1.026822e-07,-10
1264,87.47538,1657948216.0,0.439195,-10.00001,136,8,-1.027615e-07,-10
1265,87.54458,1657948216.0,0.508394,-10.00001,136,8,-1.025242e-07,-10
1266,87.61378,1657948216.0,0.57759,-10.00001,136,8,-1.02816e-07,-10
1267,87.68299,1657948216.0,0.646805,-10.00002,136,8,-1.025095e-07,-10
1268,87.7522,1657948216.0,0.716013,-10.00001,136,8,-1.026679e-07,-10
1269,87.8214,1657948216.0,0.785215,-10.00001,136,8,-1.02465e-07,-10
1270,87.89061,1657948216.0,0.854424,-10.00002,136,8,-1.026092e-07,-10
1271,87.95982,1657948216.0,0.923636,-10.00001,136,8,-1.028106e-07,-10
1272,88.02902,1657948216.0,0.992838,-10.00002,136,8,-1.028179e-07,-10
1273,88.09823,1657948217.0,0.0620395,-10.00001,136,8,-1.027429e-07,-10
1274,88.16744,1657948217.0,0.131255,-10.00002,136,8,-1.027728e-07,-10
1275,88.23665,1657948217.0,0.200463,-10.00002,136,8,-1.026083e-07,-10
1276,88.30585,1657948217.0,0.269664,-10.00002,136,8,-1.028393e-07,-10
1277,88.37505,1657948217.0,0.338868,-10.00002,136,8,-1.024695e-07,-10
1278,88.44427,1657948217.0,0.408089,-10.00001,136,8,-1.026731e-07,-10
1279,88.51348,1657948217.0,0.477294,-10.00002,136,8,-1.027627e-07,-10
1280,88.58267,1657948217.0,0.54648,-10.0,136,8,-1.026865e-07,-10
1281,88.65188,1657948217.0,0.615695,-10.0,136,8,-1.027143e-07,-10
1282,88.7211,1657948217.0,0.684918,-10.00001,136,8,-1.025145e-07,-10
1283,88.79032,1657948217.0,0.754138,-10.00002,136,8,-1.026773e-07,-10
1284,88.85954,1657948217.0,0.823352,-10.00002,136,8,-1.027711e-07,-10
1285,88.92873,1657948217.0,0.892539,-10.00001,136,8,-1.026297e-07,-10
1286,88.99794,1657948217.0,0.961752,-10.00001,136,8,-1.027303e-07,-10
1287,89.06713,1657948218.0,0.030944,-10.00001,136,8,-1.024492e-07,-10
1288,89.13634,1657948218.0,0.100152,-10.00001,136,8,-1.025701e-07,-10
1289,89.20554,1657948218.0,0.169355,-10.00001,136,8,-1.025661e-07,-10
1290,89.27476,1657948218.0,0.23857,-10.00001,136,8,-1.02477e-07,-10
1291,89.34395,1657948218.0,0.307766,-10.00001,136,8,-1.027566e-07,-10
1292,89.41316,1657948218.0,0.376973,-10.00001,136,8,-1.02699e-07,-10
1293,89.48236,1657948218.0,0.446172,-10.00001,136,8,-1.026995e-07,-10
1294,89.55156,1657948218.0,0.515374,-10.0,136,8,-1.026432e-07,-10
1295,89.62078,1657948218.0,0.58459,-10.00001,136,8,-1.028121e-07,-10
1296,89.68998,1657948218.0,0.653799,-10.00001,136,8,-1.024907e-07,-10
1297,89.75919,1657948218.0,0.723005,-10.00001,136,8,-1.025796e-07,-10
1298,89.82839,1657948218.0,0.792206,-10.00002,136,8,-1.027021e-07,-10
1299,89.89759,1657948218.0,0.861403,-10.00002,136,8,-1.023438e-07,-10
1300,89.96681,1657948218.0,0.93062,-10.00001,136,8,-1.025582e-07,-10
1301,90.03602,1657948218.0,0.999833,-10.00002,136,8,-1.024554e-07,-10
1302,90.10523,1657948219.0,0.0690421,-10.00001,136,8,-1.023746e-07,-10
1303,90.17444,1657948219.0,0.138259,-10.00001,136,8,-1.025382e-07,-10
1304,90.24365,1657948219.0,0.207463,-10.00002,136,8,-1.027615e-07,-10
1305,90.31287,1657948219.0,0.27668,-10.00002,136,8,-1.023612e-07,-10
1306,90.38207,1657948219.0,0.345884,-10.00001,136,8,-1.027032e-07,-10
1307,90.45127,1657948219.0,0.415086,-10.00001,136,8,-1.026629e-07,-10
1308,90.52045,1657948219.0,0.484266,-10.0,136,8,-1.025427e-07,-10
1309,90.58964,1657948219.0,0.553459,-9.999994,136,8,-1.024774e-07,-10
1310,90.65883,1657948219.0,0.622643,-10.0,136,8,-1.025266e-07,-10
1311,90.72804,1657948219.0,0.691858,-10.00001,136,8,-1.025355e-07,-10
1312,90.79726,1657948219.0,0.76107,-10.00002,136,8,-1.027299e-07,-10
1313,90.86644,1657948219.0,0.830256,-10.00001,136,8,-1.023897e-07,-10
1314,90.93562,1657948219.0,0.899436,-10.00001,136,8,-1.026018e-07,-10
1315,91.00481,1657948219.0,0.968627,-10.00001,136,8,-1.026905e-07,-10
1316,91.07401,1657948220.0,0.0378263,-10.00001,136,8,-1.027176e-07,-10
1317,91.14323,1657948220.0,0.107042,-10.00001,136,8,-1.027076e-07,-10
1318,91.21243,1657948220.0,0.176247,-10.00002,136,8,-1.029191e-07,-10
1319,91.28165,1657948220.0,0.24546,-10.00002,136,8,-1.026123e-07,-10
1320,91.35087,1657948220.0,0.314686,-10.00001,136,8,-1.025594e-07,-10
1321,91.42008,1657948220.0,0.383893,-10.00001,136,8,-1.027646e-07,-10
1322,91.48926,1657948220.0,0.453072,-10.00001,136,8,-1.026416e-07,-10
1323,91.55846,1657948220.0,0.522275,-10.00001,136,8,-1.027221e-07,-10
1324,91.62767,1657948220.0,0.591479,-10.00001,136,8,-1.028993e-07,-10
1325,91.69687,1657948220.0,0.660689,-10.00001,136,8,-1.026504e-07,-10
1326,91.76606,1657948220.0,0.729874,-10.0,136,8,-1.027214e-07,-10
1327,91.83527,1657948220.0,0.799083,-10.00001,136,8,-1.027677e-07,-10
1328,91.90447,1657948220.0,0.868288,-10.00002,136,8,-1.026272e-07,-10
1329,91.97367,1657948220.0,0.937488,-10.00001,136,8,-1.024828e-07,-10
1330,92.04288,1657948221.0,0.0066937,-10.00001,136,8,-1.026872e-07,-10
1331,92.11208,1657948221.0,0.0758979,-10.00002,136,8,-1.025065e-07,-10
1332,92.18128,1657948221.0,0.145098,-10.00001,136,8,-1.025227e-07,-10
1333,92.25048,1657948221.0,0.214294,-10.00001,136,8,-1.028364e-07,-10
1334,92.31968,1657948221.0,0.283497,-10.00002,136,8,-1.027028e-07,-10
1335,92.38889,1657948221.0,0.352702,-10.00001,136,8,-1.026468e-07,-10
1336,92.4581,1657948221.0,0.42191,-10.00002,136,8,-1.027262e-07,-10
1337,92.52731,1657948221.0,0.491127,-10.00002,136,8,-1.024912e-07,-10
1338,92.59651,1657948221.0,0.560328,-10.00002,136,8,-1.02623e-07,-10
1339,92.66573,1657948221.0,0.629542,-10.00002,136,8,-1.025147e-07,-10
1340,92.73493,1657948221.0,0.698748,-10.00003,136,8,-1.026051e-07,-10
1341,92.80415,1657948221.0,0.767967,-10.00002,136,8,-1.02552e-07,-10
1342,92.87336,1657948221.0,0.837171,-10.00002,136,8,-1.027416e-07,-10
1343,92.94257,1657948221.0,0.906383,-10.00002,136,8,-1.02454e-07,-10
1344,93.01177,1657948221.0,0.975585,-10.00002,136,8,-1.026614e-07,-10
1345,93.08097,1657948222.0,0.044788,-10.00003,136,8,-1.027024e-07,-10
1346,93.1502,1657948222.0,0.114011,-10.00002,136,8,-1.025168e-07,-10
1347,93.21938,1657948222.0,0.183192,-10.00001,136,8,-1.024838e-07,-10
1348,93.28858,1657948222.0,0.252391,-10.00001,136,8,-1.02678e-07,-10
1349,93.35778,1657948222.0,0.321597,-10.00002,136,8,-1.02686e-07,-10
1350,93.42699,1657948222.0,0.3908,-10.00002,136,8,-1.023475e-07,-10
1351,93.4962,1657948222.0,0.460016,-10.00002,136,8,-1.027086e-07,-10
1352,93.5654,1657948222.0,0.529219,-10.00002,136,8,-1.027617e-07,-10
1353,93.63462,1657948222.0,0.598431,-10.00001,136,8,-1.024889e-07,-10
1354,93.70382,1657948222.0,0.667636,-10.00002,136,8,-1.02744e-07,-10
1355,93.77302,1657948222.0,0.736834,-10.00002,136,8,-1.026588e-07,-10
1356,93.84223,1657948222.0,0.806045,-10.00002,136,8,-1.026034e-07,-10
1357,93.91144,1657948222.0,0.875258,-10.00002,136,8,-1.023571e-07,-10
1358,93.98066,1657948222.0,0.944471,-10.00002,136,8,-1.02595e-07,-10
1359,94.04987,1657948223.0,0.0136837,-10.00001,136,8,-1.026339e-07,-10
1360,94.11908,1657948223.0,0.082893,-10.00001,136,8,-1.027074e-07,-10
1361,94.18829,1657948223.0,0.152104,-10.00002,136,8,-1.025709e-07,-10
1362,94.25751,1657948223.0,0.221323,-10.00002,136,8,-1.02579e-07,-10
1363,94.32671,1657948223.0,0.290525,-10.00002,136,8,-1.026824e-07,-10
1364,94.39592,1657948223.0,0.359735,-10.00003,136,8,-1.025325e-07,-10
1365,94.46514,1657948223.0,0.428959,-10.00002,136,8,-1.026544e-07,-10
1366,94.53436,1657948223.0,0.498174,-10.00001,136,8,-1.023998e-07,-10
1367,94.60357,1657948223.0,0.567382,-10.00002,136,8,-1.025095e-07,-10
1368,94.67278,1657948223.0,0.636591,-10.00002,136,8,-1.024144e-07,-10
1369,94.74199,1657948223.0,0.705808,-10.00001,136,8,-1.026162e-07,-10
1370,94.8112,1657948223.0,0.775016,-10.00002,136,8,-1.025029e-07,-10
1371,94.88041,1657948223.0,0.844223,-10.00001,136,8,-1.026476e-07,-10
1372,94.94963,1657948223.0,0.913443,-10.00002,136,8,-1.024563e-07,-10
1373,95.01883,1657948223.0,0.982649,-10.00002,136,8,-1.024496e-07,-10
1374,95.08804,1657948224.0,0.0518556,-10.00002,136,8,-1.025674e-07,-10
1375,95.15725,1657948224.0,0.121068,-10.00002,136,8,-1.026054e-07,-10
1376,95.22646,1657948224.0,0.190273,-10.00003,136,8,-1.02645e-07,-10
1377,95.29568,1657948224.0,0.259491,-10.00003,136,8,-1.02474e-07,-10
1378,95.36489,1657948224.0,0.3287,-10.00002,136,8,-1.026297e-07,-10
1379,95.4341,1657948224.0,0.397915,-10.00001,136,8,-1.024976e-07,-10
1380,95.50331,1657948224.0,0.467126,-10.00002,136,8,-1.025919e-07,-10
1381,95.57251,1657948224.0,0.536327,-10.00002,136,8,-1.024058e-07,-10
1382,95.64173,1657948224.0,0.605541,-10.00001,136,8,-1.026524e-07,-10
1383,95.71091,1657948224.0,0.674721,-10.00001,136,8,-1.025825e-07,-10
1384,95.78012,1657948224.0,0.743937,-10.00001,136,8,-1.025375e-07,-10
1385,95.84934,1657948224.0,0.813158,-10.00002,136,8,-1.025592e-07,-10
1386,95.91854,1657948224.0,0.882353,-10.0,136,8,-1.023815e-07,-10
1387,95.98774,1657948224.0,0.951558,-10.00001,136,8,-1.02705e-07,-10
1388,96.05694,1657948225.0,0.0207589,-10.00002,136,8,-1.024249e-07,-10
1389,96.12617,1657948225.0,0.0899806,-10.00002,136,8,-1.023776e-07,-10
1390,96.19538,1657948225.0,0.159194,-10.00001,136,8,-1.024162e-07,-10
1391,96.26456,1657948225.0,0.228374,-10.00001,136,8,-1.025043e-07,-10
1392,96.33378,1657948225.0,0.297591,-10.00001,136,8,-1.023632e-07,-10
1393,96.403,1657948225.0,0.36681,-10.00001,136,8,-1.02539e-07,-10
1394,96.47221,1657948225.0,0.43602,-10.00001,136,8,-1.024069e-07,-10
1395,96.54139,1657948225.0,0.505202,-9.999997,136,8,-1.025855e-07,-10
1396,96.6106,1657948225.0,0.574413,-10.00002,136,8,-1.026509e-07,-10
1397,96.67981,1657948225.0,0.643626,-10.00002,136,8,-1.022984e-07,-10
1398,96.74902,1657948225.0,0.712833,-10.00002,136,8,-1.024878e-07,-10
1399,96.81824,1657948225.0,0.782051,-10.00002,136,8,-1.024536e-07,-10
1400,96.88745,1657948225.0,0.851268,-10.00002,136,8,-1.022227e-07,-10
1401,96.95667,1657948225.0,0.92048,-10.00002,136,8,-1.023576e-07,-10
1402,97.02586,1657948225.0,0.989677,-10.00002,136,8,-1.025205e-07,-10
1403,97.09504,1657948226.0,0.0588588,-10.00001,136,8,-1.022903e-07,-10
1404,97.16426,1657948226.0,0.128072,-10.00001,136,8,-1.024694e-07,-10
1405,97.23347,1657948226.0,0.197281,-10.00001,136,8,-1.024925e-07,-10
1406,97.30268,1657948226.0,0.266494,-10.00001,136,8,-1.024159e-07,-10
1407,97.37189,1657948226.0,0.335704,-10.00002,136,8,-1.02532e-07,-10
1408,97.44109,1657948226.0,0.404904,-10.00001,136,8,-1.025215e-07,-10
1409,97.51028,1657948226.0,0.474098,-9.999998,136,8,-1.025347e-07,-10
1410,97.5795,1657948226.0,0.543314,-10.00001,136,8,-1.025589e-07,-10
1411,97.64872,1657948226.0,0.612531,-10.00002,136,8,-1.02302e-07,-10
1412,97.71792,1657948226.0,0.681734,-10.00001,136,8,-1.025443e-07,-10
1413,97.78712,1657948226.0,0.750933,-10.00001,136,8,-1.025184e-07,-10
1414,97.85632,1657948226.0,0.820134,-10.00001,136,8,-1.025833e-07,-10
1415,97.92552,1657948226.0,0.889333,-10.00002,136,8,-1.023437e-07,-10
1416,97.99473,1657948226.0,0.958541,-10.00001,136,8,-1.026687e-07,-10
1417,98.06394,1657948227.0,0.027751,-10.00001,136,8,-1.024903e-07,-10
1418,98.13314,1657948227.0,0.096956,-10.00001,136,8,-1.023857e-07,-10
1419,98.20235,1657948227.0,0.166164,-10.00002,136,8,-1.024692e-07,-10
1420,98.27157,1657948227.0,0.235384,-10.00001,136,8,-1.023036e-07,-10
1421,98.34079,1657948227.0,0.3046,-10.00002,136,8,-1.024371e-07,-10
1422,98.41,1657948227.0,0.37381,-10.00001,136,8,-1.024531e-07,-10
1423,98.47921,1657948227.0,0.443022,-10.00001,136,8,-1.024097e-07,-10
1424,98.54842,1657948227.0,0.512236,-10.00002,136,8,-1.026349e-07,-10
1425,98.61764,1657948227.0,0.581451,-10.00002,136,8,-1.024777e-07,-10
1426,98.68685,1657948227.0,0.650668,-10.00002,136,8,-1.020802e-07,-10
1427,98.75606,1657948227.0,0.719873,-10.00002,136,8,-1.025478e-07,-10
1428,98.82526,1657948227.0,0.789079,-10.00001,136,8,-1.026007e-07,-10
1429,98.89447,1657948227.0,0.858283,-10.00002,136,8,-1.024283e-07,-10
1430,98.96367,1657948227.0,0.927489,-10.00001,136,8,-1.026058e-07,-10
1431,99.03288,1657948227.0,0.996691,-10.00002,136,8,-1.025654e-07,-10
1432,99.10208,1657948228.0,0.0658928,-10.00002,136,8,-1.022881e-07,-10
1433,99.1713,1657948228.0,0.13511,-10.00001,136,8,-1.022772e-07,-10
1434,99.2405,1657948228.0,0.204317,-10.00001,136,8,-1.023732e-07,-10
1435,99.30972,1657948228.0,0.273538,-10.00002,136,8,-1.025199e-07,-10
1436,99.37894,1657948228.0,0.34275,-10.00002,136,8,-1.025537e-07,-10
1437,99.44815,1657948228.0,0.411969,-10.00002,136,8,-1.024615e-07,-10
1438,99.51736,1657948228.0,0.481172,-10.00002,136,8,-1.024656e-07,-10
1439,99.58656,1657948228.0,0.550374,-10.00002,136,8,-1.024865e-07,-10
1440,99.65577,1657948228.0,0.619585,-10.00002,136,8,-1.026889e-07,-10
1441,99.72499,1657948228.0,0.688802,-10.00002,136,8,-1.022628e-07,-10
1442,99.79421,1657948228.0,0.758028,-10.00002,136,8,-1.025392e-07,-10
1443,99.86342,1657948228.0,0.827234,-10.00002,136,8,-1.024884e-07,-10
1444,99.93263,1657948228.0,0.896443,-10.00002,136,8,-1.023936e-07,-10
1445,100.0018,1657948228.0,0.965658,-10.00001,136,8,-1.027344e-07,-10
1446,100.071,1657948229.0,0.0348601,-10.00002,136,8,-1.023093e-07,-10
1447,100.1403,1657948229.0,0.10408,-10.00001,136,8,-1.024559e-07,-10
1448,100.2095,1657948229.0,0.173296,-10.00002,136,8,-1.024e-07,-10
1449,100.2787,1657948229.0,0.242503,-10.00002,136,8,-1.02531e-07,-10
1450,100.3479,1657948229.0,0.311719,-10.00003,136,8,-1.024184e-07,-10
1451,100.4171,1657948229.0,0.380928,-10.00002,136,8,-1.027474e-07,-10
1452,100.4863,1657948229.0,0.450116,-10.00001,136,8,-1.025515e-07,-10
1453,100.5555,1657948229.0,0.519318,-10.00002,136,8,-1.024062e-07,-10
1454,100.6247,1657948229.0,0.588528,-10.00002,136,8,-1.024911e-07,-10
