,REL,SEC,FRAC,SOUR,SOURSTAT,STAT,READ,VOLTAGE
0,0.0,1657948309.0,0.864812,-49.99879,136,8,-5.174549e-07,-50
1,0.22216,1657948310.0,0.0869723,-49.9984,136,8,-4.786157e-07,-50
2,0.291369,1657948310.0,0.156181,-49.99832,136,8,-4.716897e-07,-50
3,0.3605681,1657948310.0,0.225381,-49.99828,136,8,-4.682836e-07,-50
4,0.4297701,1657948310.0,0.294583,-49.99832,136,8,-4.66261e-07,-50
5,0.4990004,1657948310.0,0.363813,-49.99821,136,8,-4.630729e-07,-50
6,0.5682238,1657948310.0,0.433036,-49.99821,136,8,-4.625239e-07,-50
7,0.6374615,1657948310.0,0.502274,-49.99826,136,8,-4.598843e-07,-50
8,0.7066693,1657948310.0,0.571482,-49.99834,136,8,-4.576728e-07,-50
9,0.7759071,1657948310.0,0.640719,-49.99824,136,8,-4.554978e-07,-50
10,0.8451195,1657948310.0,0.709932,-49.99833,136,8,-4.547681e-07,-50
11,0.9143435,1657948310.0,0.779156,-49.99824,136,8,-4.544052e-07,-50
12,0.9835601,1657948310.0,0.848372,-49.99837,136,8,-4.518033e-07,-50
13,1.052765,1657948310.0,0.917577,-49.99829,136,8,-4.524796e-07,-50
14,1.121976,1657948310.0,0.986788,-49.99835,136,8,-4.53462e-07,-50
15,1.191202,1657948311.0,0.056014,-49.9982,136,8,-4.499627e-07,-50
16,1.260437,1657948311.0,0.125249,-49.99825,136,8,-4.475527e-07,-50
17,1.329632,1657948311.0,0.194445,-49.99828,136,8,-4.475575e-07,-50
18,1.398847,1657948311.0,0.26366,-49.99833,136,8,-4.469644e-07,-50
19,1.468084,1657948311.0,0.332897,-49.99822,136,8,-4.479012e-07,-50
20,1.53731,1657948311.0,0.402122,-49.99828,136,8,-4.478002e-07,-50
21,1.606514,1657948311.0,0.471326,-49.99831,136,8,-4.463253e-07,-50
22,1.675752,1657948311.0,0.540564,-49.99817,136,8,-4.457262e-07,-50
23,1.744953,1657948311.0,0.609765,-49.99829,136,8,-4.449749e-07,-50
24,1.814167,1657948311.0,0.678979,-49.99826,136,8,-4.465107e-07,-50
25,1.883403,1657948311.0,0.748216,-49.99816,136,8,-4.425194e-07,-50
26,1.952631,1657948311.0,0.817443,-49.99825,136,8,-4.43711e-07,-50
27,2.021859,1657948311.0,0.886671,-49.99825,136,8,-4.455411e-07,-50
28,2.091102,1657948311.0,0.955914,-49.99819,136,8,-4.431103e-07,-50
29,2.160315,1657948312.0,0.025127,-49.99828,136,8,-4.418712e-07,-50
30,2.229539,1657948312.0,0.094351,-49.9982,136,8,-4.431393e-07,-50
31,2.298767,1657948312.0,0.163579,-49.99819,136,8,-4.441455e-07,-50
32,2.367997,1657948312.0,0.232809,-49.9982,136,8,-4.429804e-07,-50
33,2.437218,1657948312.0,0.302031,-49.99821,136,8,-4.408962e-07,-50
34,2.506454,1657948312.0,0.371266,-49.99829,136,8,-4.420291e-07,-50
35,2.57569,1657948312.0,0.440502,-49.99827,136,8,-4.417725e-07,-50
36,2.644923,1657948312.0,0.509735,-49.99815,136,8,-4.426171e-07,-50
37,2.714149,1657948312.0,0.578961,-49.99825,136,8,-4.417835e-07,-50
38,2.783375,1657948312.0,0.648187,-49.99821,136,8,-4.403107e-07,-50
39,2.852611,1657948312.0,0.717423,-49.99823,136,8,-4.423052e-07,-50
40,2.921843,1657948312.0,0.786655,-49.99822,136,8,-4.398815e-07,-50
41,2.991075,1657948312.0,0.855887,-49.99824,136,8,-4.396772e-07,-50
42,3.060284,1657948312.0,0.925096,-49.99825,136,8,-4.388376e-07,-50
43,3.129501,1657948312.0,0.994314,-49.99821,136,8,-4.406569e-07,-50
44,3.198734,1657948313.0,0.0635464,-49.99819,136,8,-4.42282e-07,-50
45,3.267969,1657948313.0,0.132782,-49.9982,136,8,-4.408477e-07,-50
46,3.33718,1657948313.0,0.201993,-49.99832,136,8,-4.388583e-07,-50
47,3.406381,1657948313.0,0.271194,-49.99832,136,8,-4.410336e-07,-50
48,3.475601,1657948313.0,0.340413,-49.99825,136,8,-4.381199e-07,-50
49,3.544798,1657948313.0,0.409611,-49.99831,136,8,-4.401061e-07,-50
50,3.61404,1657948313.0,0.478852,-49.99816,136,8,-4.394884e-07,-50
51,3.683272,1657948313.0,0.548085,-49.99827,136,8,-4.400001e-07,-50
52,3.752503,1657948313.0,0.617316,-49.99825,136,8,-4.393116e-07,-50
53,3.821728,1657948313.0,0.68654,-49.99823,136,8,-4.393829e-07,-50
54,3.890944,1657948313.0,0.755756,-49.99829,136,8,-4.390009e-07,-50
55,3.96014,1657948313.0,0.824952,-49.99829,136,8,-4.392399e-07,-50
56,4.029358,1657948313.0,0.89417,-49.9982,136,8,-4.386687e-07,-50
57,4.098586,1657948313.0,0.963398,-49.99823,136,8,-4.360445e-07,-50
58,4.167821,1657948314.0,0.032633,-49.9982,136,8,-4.36169e-07,-50
59,4.237051,1657948314.0,0.101863,-49.99827,136,8,-4.387134e-07,-50
60,4.306284,1657948314.0,0.171096,-49.9982,136,8,-4.377202e-07,-50
61,4.375517,1657948314.0,0.24033,-49.99825,136,8,-4.374834e-07,-50
62,4.44472,1657948314.0,0.309533,-49.99829,136,8,-4.390091e-07,-50
63,4.513921,1657948314.0,0.378733,-49.99829,136,8,-4.375319e-07,-50
64,4.583123,1657948314.0,0.447935,-49.99834,136,8,-4.369248e-07,-50
65,4.652359,1657948314.0,0.517172,-49.99825,136,8,-4.367782e-07,-50
66,4.721554,1657948314.0,0.586367,-49.99828,136,8,-4.390426e-07,-50
67,4.790766,1657948314.0,0.655578,-49.99828,136,8,-4.371673e-07,-50
68,4.859974,1657948314.0,0.724787,-49.99832,136,8,-4.368515e-07,-50
69,4.929182,1657948314.0,0.793994,-49.99827,136,8,-4.381276e-07,-50
70,4.998393,1657948314.0,0.863205,-49.99829,136,8,-4.378175e-07,-50
71,5.067599,1657948314.0,0.932411,-49.99833,136,8,-4.360239e-07,-50
72,5.136806,1657948315.0,0.00161876,-49.99826,136,8,-4.362397e-07,-50
73,5.206047,1657948315.0,0.070859,-49.99823,136,8,-4.371275e-07,-50
74,5.275281,1657948315.0,0.140093,-49.99826,136,8,-4.371709e-07,-50
75,5.344499,1657948315.0,0.209311,-49.99821,136,8,-4.369793e-07,-50
76,5.413723,1657948315.0,0.278535,-49.99817,136,8,-4.356469e-07,-50
77,5.482936,1657948315.0,0.347748,-49.99829,136,8,-4.351068e-07,-50
78,5.552137,1657948315.0,0.416949,-49.99806,136,8,-4.36961e-07,-50
79,5.621374,1657948315.0,0.486187,-49.99821,136,8,-4.379807e-07,-50
80,5.690595,1657948315.0,0.555407,-49.99821,136,8,-4.375917e-07,-50
81,5.759813,1657948315.0,0.624625,-49.9982,136,8,-4.3513e-07,-50
82,5.829058,1657948315.0,0.69387,-49.99821,136,8,-4.363666e-07,-50
83,5.898288,1657948315.0,0.7631,-49.99825,136,8,-4.372647e-07,-50
84,5.9675,1657948315.0,0.832313,-49.99823,136,8,-4.363389e-07,-50
85,6.036704,1657948315.0,0.901516,-49.99828,136,8,-4.363941e-07,-50
86,6.105935,1657948315.0,0.970747,-49.99825,136,8,-4.343185e-07,-50
87,6.175159,1657948316.0,0.0399715,-49.99825,136,8,-4.370642e-07,-50
88,6.244367,1657948316.0,0.109179,-49.99831,136,8,-4.357506e-07,-50
89,6.31357,1657948316.0,0.178382,-49.99818,136,8,-4.364113e-07,-50
90,6.382777,1657948316.0,0.24759,-49.99817,136,8,-4.34722e-07,-50
91,6.45198,1657948316.0,0.316793,-49.99816,136,8,-4.362547e-07,-50
92,6.52116,1657948316.0,0.385973,-49.99825,136,8,-4.366655e-07,-50
93,6.590387,1657948316.0,0.4552,-49.99823,136,8,-4.370254e-07,-50
94,6.659599,1657948316.0,0.524412,-49.99824,136,8,-4.337477e-07,-50
95,6.728808,1657948316.0,0.59362,-49.99828,136,8,-4.335481e-07,-50
96,6.798035,1657948316.0,0.662847,-49.99825,136,8,-4.342877e-07,-50
97,6.867235,1657948316.0,0.732047,-49.9983,136,8,-4.351937e-07,-50
98,6.936466,1657948316.0,0.801278,-49.9982,136,8,-4.363034e-07,-50
99,7.005689,1657948316.0,0.870502,-49.99824,136,8,-4.343701e-07,-50
100,7.074911,1657948316.0,0.939723,-49.99825,136,8,-4.352922e-07,-50
101,7.144146,1657948317.0,0.00895816,-49.9982,136,8,-4.358861e-07,-50
102,7.213378,1657948317.0,0.0781899,-49.99822,136,8,-4.348494e-07,-50
103,7.282575,1657948317.0,0.147388,-49.99826,136,8,-4.350917e-07,-50
104,7.351809,1657948317.0,0.216621,-49.99829,136,8,-4.34962e-07,-50
105,7.421053,1657948317.0,0.285866,-49.99824,136,8,-4.369966e-07,-50
106,7.490273,1657948317.0,0.355085,-49.99826,136,8,-4.340496e-07,-50
107,7.559495,1657948317.0,0.424308,-49.99819,136,8,-4.351347e-07,-50
108,7.628719,1657948317.0,0.493531,-49.99816,136,8,-4.359625e-07,-50
109,7.697952,1657948317.0,0.562764,-49.99819,136,8,-4.360702e-07,-50
110,7.767173,1657948317.0,0.631986,-49.99821,136,8,-4.340747e-07,-50
111,7.836407,1657948317.0,0.701219,-49.99821,136,8,-4.351841e-07,-50
112,7.905639,1657948317.0,0.770451,-49.99823,136,8,-4.347506e-07,-50
113,7.974849,1657948317.0,0.839661,-49.99831,136,8,-4.348671e-07,-50
114,8.044077,1657948317.0,0.908889,-49.99814,136,8,-4.334617e-07,-50
115,8.113308,1657948317.0,0.97812,-49.99816,136,8,-4.343375e-07,-50
116,8.182511,1657948318.0,0.0473229,-49.99832,136,8,-4.337992e-07,-50
117,8.251711,1657948318.0,0.116523,-49.99832,136,8,-4.347573e-07,-50
118,8.320915,1657948318.0,0.185727,-49.99832,136,8,-4.343509e-07,-50
119,8.390151,1657948318.0,0.254963,-49.99821,136,8,-4.354757e-07,-50
120,8.459389,1657948318.0,0.324201,-49.99821,136,8,-4.360735e-07,-50
121,8.528617,1657948318.0,0.393429,-49.99821,136,8,-4.346107e-07,-50
122,8.597844,1657948318.0,0.462656,-49.99828,136,8,-4.347457e-07,-50
123,8.667088,1657948318.0,0.531901,-49.99823,136,8,-4.352656e-07,-50
124,8.7363,1657948318.0,0.601113,-49.99828,136,8,-4.358922e-07,-50
125,8.8055,1657948318.0,0.670312,-49.99829,136,8,-4.350931e-07,-50
126,8.874717,1657948318.0,0.739529,-49.99817,136,8,-4.352472e-07,-50
127,8.943957,1657948318.0,0.80877,-49.99818,136,8,-4.341414e-07,-50
128,9.013185,1657948318.0,0.877998,-49.99822,136,8,-4.348051e-07,-50
129,9.082404,1657948318.0,0.947216,-49.99821,136,8,-4.344432e-07,-50
130,9.151635,1657948319.0,0.0164469,-49.99823,136,8,-4.32724e-07,-50
131,9.220872,1657948319.0,0.0856844,-49.99825,136,8,-4.355599e-07,-50
132,9.290103,1657948319.0,0.154915,-49.99818,136,8,-4.358218e-07,-50
133,9.359325,1657948319.0,0.224137,-49.99817,136,8,-4.334822e-07,-50
134,9.428546,1657948319.0,0.293358,-49.99826,136,8,-4.34622e-07,-50
135,9.497774,1657948319.0,0.362587,-49.99825,136,8,-4.342969e-07,-50
136,9.567004,1657948319.0,0.431817,-49.99828,136,8,-4.355344e-07,-50
137,9.63622,1657948319.0,0.501032,-49.99828,136,8,-4.367603e-07,-50
138,9.70546,1657948319.0,0.570272,-49.9982,136,8,-4.337323e-07,-50
139,9.774683,1657948319.0,0.639495,-49.99814,136,8,-4.322815e-07,-50
140,9.843912,1657948319.0,0.708724,-49.99812,136,8,-4.357912e-07,-50
141,9.913146,1657948319.0,0.777958,-49.99817,136,8,-4.341142e-07,-50
142,9.982381,1657948319.0,0.847194,-49.9982,136,8,-4.328057e-07,-50
143,10.0516,1657948319.0,0.91641,-49.99808,136,8,-4.344208e-07,-50
144,10.12084,1657948319.0,0.985647,-49.99823,136,8,-4.343768e-07,-50
145,10.19008,1657948320.0,0.054894,-49.99821,136,8,-4.333986e-07,-50
146,10.2593,1657948320.0,0.124117,-49.99825,136,8,-4.329527e-07,-50
147,10.32852,1657948320.0,0.193336,-49.9982,136,8,-4.333023e-07,-50
148,10.39773,1657948320.0,0.262545,-49.99827,136,8,-4.343753e-07,-50
149,10.46693,1657948320.0,0.331743,-49.99832,136,8,-4.359179e-07,-50
150,10.53617,1657948320.0,0.400978,-49.99825,136,8,-4.344125e-07,-50
151,10.60538,1657948320.0,0.47019,-49.99838,136,8,-4.3418e-07,-50
152,10.67461,1657948320.0,0.539425,-49.99823,136,8,-4.34379e-07,-50
153,10.74382,1657948320.0,0.608631,-49.99831,136,8,-4.343084e-07,-50
154,10.81304,1657948320.0,0.677852,-49.99821,136,8,-4.335025e-07,-50
155,10.88226,1657948320.0,0.747074,-49.99823,136,8,-4.346037e-07,-50
156,10.95146,1657948320.0,0.816271,-49.99817,136,8,-4.323779e-07,-50
157,11.0207,1657948320.0,0.88551,-49.99819,136,8,-4.326132e-07,-50
158,11.0899,1657948320.0,0.954714,-49.99817,136,8,-4.337188e-07,-50
159,11.15914,1657948321.0,0.02395,-49.99824,136,8,-4.34767e-07,-50
160,11.22835,1657948321.0,0.0931646,-49.99828,136,8,-4.341633e-07,-50
161,11.29758,1657948321.0,0.162389,-49.99824,136,8,-4.342699e-07,-50
162,11.36678,1657948321.0,0.23159,-49.99825,136,8,-4.330293e-07,-50
163,11.43602,1657948321.0,0.300831,-49.99827,136,8,-4.343232e-07,-50
164,11.50523,1657948321.0,0.370046,-49.99828,136,8,-4.334571e-07,-50
165,11.57447,1657948321.0,0.439279,-49.99814,136,8,-4.345529e-07,-50
166,11.64367,1657948321.0,0.508485,-49.99825,136,8,-4.331332e-07,-50
167,11.7129,1657948321.0,0.577716,-49.99823,136,8,-4.331361e-07,-50
168,11.78212,1657948321.0,0.646928,-49.99825,136,8,-4.34979e-07,-50
169,11.85134,1657948321.0,0.716149,-49.99819,136,8,-4.337165e-07,-50
170,11.92056,1657948321.0,0.785377,-49.99819,136,8,-4.326437e-07,-50
171,11.98976,1657948321.0,0.854575,-49.99825,136,8,-4.323385e-07,-50
172,12.05897,1657948321.0,0.923787,-49.99825,136,8,-4.328419e-07,-50
173,12.12821,1657948321.0,0.993023,-49.9982,136,8,-4.348059e-07,-50
174,12.19745,1657948322.0,0.0622624,-49.99824,136,8,-4.329475e-07,-50
175,12.26668,1657948322.0,0.131488,-49.99819,136,8,-4.341931e-07,-50
176,12.3359,1657948322.0,0.200709,-49.9982,136,8,-4.333858e-07,-50
177,12.40511,1657948322.0,0.269927,-49.99829,136,8,-4.327222e-07,-50
178,12.47434,1657948322.0,0.339151,-49.99819,136,8,-4.35564e-07,-50
179,12.54358,1657948322.0,0.408387,-49.99824,136,8,-4.336928e-07,-50
180,12.6128,1657948322.0,0.477613,-49.99816,136,8,-4.320694e-07,-50
181,12.68202,1657948322.0,0.54683,-49.99828,136,8,-4.33261e-07,-50
182,12.7512,1657948322.0,0.616013,-49.99823,136,8,-4.318324e-07,-50
183,12.82039,1657948322.0,0.685204,-49.99826,136,8,-4.330395e-07,-50
184,12.88963,1657948322.0,0.754445,-49.99819,136,8,-4.33335e-07,-50
185,12.95887,1657948322.0,0.823679,-49.99823,136,8,-4.317028e-07,-50
186,13.02811,1657948322.0,0.89292,-49.99823,136,8,-4.301503e-07,-50
187,13.09732,1657948322.0,0.962136,-49.99828,136,8,-4.318978e-07,-50
188,13.16654,1657948323.0,0.031357,-49.99828,136,8,-4.327737e-07,-50
189,13.23577,1657948323.0,0.100582,-49.99822,136,8,-4.334847e-07,-50
190,13.305,1657948323.0,0.169817,-49.99817,136,8,-4.320793e-07,-50
191,13.37422,1657948323.0,0.239037,-49.99814,136,8,-4.328906e-07,-50
192,13.44344,1657948323.0,0.308257,-49.99825,136,8,-4.333039e-07,-50
193,13.51267,1657948323.0,0.377477,-49.99815,136,8,-4.341294e-07,-50
194,13.58188,1657948323.0,0.446689,-49.99828,136,8,-4.353622e-07,-50
195,13.6511,1657948323.0,0.515915,-49.9982,136,8,-4.336582e-07,-50
196,13.72033,1657948323.0,0.585145,-49.9982,136,8,-4.341371e-07,-50
197,13.78954,1657948323.0,0.654348,-49.9982,136,8,-4.32185e-07,-50
198,13.85877,1657948323.0,0.723578,-49.99821,136,8,-4.324657e-07,-50
199,13.92797,1657948323.0,0.792786,-49.99833,136,8,-4.325055e-07,-50
200,13.99719,1657948323.0,0.862004,-49.99832,136,8,-4.345924e-07,-50
201,14.0664,1657948323.0,0.931209,-49.99831,136,8,-4.32465e-07,-50
202,14.1356,1657948324.0,0.00041352,-49.99833,136,8,-4.319718e-07,-50
203,14.20484,1657948324.0,0.0696479,-49.99829,136,8,-4.320797e-07,-50
204,14.27406,1657948324.0,0.138873,-49.99831,136,8,-4.316533e-07,-50
205,14.34329,1657948324.0,0.208098,-49.99824,136,8,-4.339372e-07,-50
206,14.41249,1657948324.0,0.277303,-49.99846,136,8,-4.33623e-07,-50
207,14.48171,1657948324.0,0.346525,-49.99822,136,8,-4.315167e-07,-50
208,14.55092,1657948324.0,0.415733,-49.99835,136,8,-4.343347e-07,-50
209,14.62013,1657948324.0,0.48494,-49.99838,136,8,-4.324576e-07,-50
210,14.68934,1657948324.0,0.554155,-49.99838,136,8,-4.325106e-07,-50
211,14.75854,1657948324.0,0.623357,-49.99829,136,8,-4.329322e-07,-50
212,14.82777,1657948324.0,0.692585,-49.99831,136,8,-4.313034e-07,-50
213,14.897,1657948324.0,0.761815,-49.99826,136,8,-4.314047e-07,-50
214,14.96622,1657948324.0,0.831034,-49.99834,136,8,-4.315838e-07,-50
215,15.03543,1657948324.0,0.900244,-49.99834,136,8,-4.31526e-07,-50
216,15.10463,1657948324.0,0.969442,-49.99831,136,8,-4.324579e-07,-50
217,15.17387,1657948325.0,0.038678,-49.99821,136,8,-4.313913e-07,-50
218,15.24309,1657948325.0,0.107897,-49.99821,136,8,-4.31397e-07,-50
219,15.31231,1657948325.0,0.177127,-49.99827,136,8,-4.326633e-07,-50
220,15.3815,1657948325.0,0.246313,-49.99827,136,8,-4.321885e-07,-50
221,15.4507,1657948325.0,0.315514,-49.99836,136,8,-4.315756e-07,-50
222,15.51992,1657948325.0,0.384733,-49.99821,136,8,-4.330271e-07,-50
223,15.58914,1657948325.0,0.453948,-49.99831,136,8,-4.33154e-07,-50
224,15.65837,1657948325.0,0.523183,-49.99822,136,8,-4.328861e-07,-50
225,15.72759,1657948325.0,0.592406,-49.99829,136,8,-4.335765e-07,-50
226,15.79682,1657948325.0,0.661633,-49.99828,136,8,-4.318568e-07,-50
227,15.86604,1657948325.0,0.730857,-49.99825,136,8,-4.33484e-07,-50
228,15.93527,1657948325.0,0.800086,-49.99823,136,8,-4.320531e-07,-50
229,16.00451,1657948325.0,0.869318,-49.9983,136,8,-4.314501e-07,-50
230,16.07373,1657948325.0,0.93854,-49.99821,136,8,-4.31517e-07,-50
231,16.14295,1657948326.0,0.0077644,-49.99825,136,8,-4.298272e-07,-50
232,16.21219,1657948326.0,0.0770027,-49.99824,136,8,-4.308362e-07,-50
233,16.28143,1657948326.0,0.146242,-49.99829,136,8,-4.323966e-07,-50
234,16.35067,1657948326.0,0.215481,-49.99823,136,8,-4.308415e-07,-50
235,16.4199,1657948326.0,0.284708,-49.9982,136,8,-4.305783e-07,-50
236,16.4891,1657948326.0,0.353916,-49.99828,136,8,-4.305735e-07,-50
237,16.55833,1657948326.0,0.423139,-49.99825,136,8,-4.324795e-07,-50
238,16.62753,1657948326.0,0.492342,-49.99826,136,8,-4.32563e-07,-50
239,16.69677,1657948326.0,0.561579,-49.99825,136,8,-4.331816e-07,-50
240,16.766,1657948326.0,0.630812,-49.99821,136,8,-4.313495e-07,-50
241,16.83524,1657948326.0,0.700049,-49.99823,136,8,-4.309323e-07,-50
242,16.90446,1657948326.0,0.769271,-49.99825,136,8,-4.334634e-07,-50
243,16.97368,1657948326.0,0.838494,-49.99828,136,8,-4.31006e-07,-50
244,17.0429,1657948326.0,0.907716,-49.99826,136,8,-4.338567e-07,-50
245,17.11214,1657948326.0,0.976949,-49.99821,136,8,-4.319697e-07,-50
246,17.18134,1657948327.0,0.0461515,-49.99834,136,8,-4.297683e-07,-50
247,17.25055,1657948327.0,0.115363,-49.99829,136,8,-4.330176e-07,-50
248,17.31978,1657948327.0,0.184595,-49.99828,136,8,-4.307774e-07,-50
249,17.38902,1657948327.0,0.253831,-49.99818,136,8,-4.297201e-07,-50
250,17.45823,1657948327.0,0.323042,-49.9982,136,8,-4.308269e-07,-50
251,17.52743,1657948327.0,0.392246,-49.99824,136,8,-4.315772e-07,-50
252,17.59667,1657948327.0,0.461481,-49.99825,136,8,-4.311744e-07,-50
253,17.66589,1657948327.0,0.530698,-49.99831,136,8,-4.312685e-07,-50
254,17.73513,1657948327.0,0.599937,-49.99826,136,8,-4.293297e-07,-50
255,17.80433,1657948327.0,0.669142,-49.99808,136,8,-4.324613e-07,-50
256,17.87356,1657948327.0,0.738372,-49.99812,136,8,-4.294794e-07,-50
257,17.9428,1657948327.0,0.807615,-49.99815,136,8,-4.29034e-07,-50
258,18.01203,1657948327.0,0.876844,-49.9982,136,8,-4.319547e-07,-50
259,18.08127,1657948327.0,0.946079,-49.99823,136,8,-4.318168e-07,-50
260,18.15048,1657948328.0,0.015288,-49.99826,136,8,-4.309923e-07,-50
261,18.21969,1657948328.0,0.0844987,-49.99832,136,8,-4.319772e-07,-50
262,18.28889,1657948328.0,0.153702,-49.99833,136,8,-4.3e-07,-50
263,18.35812,1657948328.0,0.222929,-49.9982,136,8,-4.294369e-07,-50
264,18.42734,1657948328.0,0.292155,-49.99819,136,8,-4.31127e-07,-50
265,18.49656,1657948328.0,0.361367,-49.99826,136,8,-4.31055e-07,-50
266,18.56575,1657948328.0,0.430566,-49.9983,136,8,-4.31121e-07,-50
267,18.63497,1657948328.0,0.499779,-49.99833,136,8,-4.318429e-07,-50
268,18.70421,1657948328.0,0.569026,-49.99824,136,8,-4.328872e-07,-50
269,18.77344,1657948328.0,0.638257,-49.99823,136,8,-4.330203e-07,-50
270,18.84268,1657948328.0,0.707497,-49.99821,136,8,-4.310321e-07,-50
271,18.9119,1657948328.0,0.776711,-49.99816,136,8,-4.297497e-07,-50
272,18.9811,1657948328.0,0.845908,-49.99825,136,8,-4.311385e-07,-50
273,19.05033,1657948328.0,0.915143,-49.99823,136,8,-4.321896e-07,-50
274,19.11954,1657948328.0,0.984351,-49.99828,136,8,-4.291231e-07,-50
275,19.18877,1657948329.0,0.053579,-49.99821,136,8,-4.31067e-07,-50
276,19.258,1657948329.0,0.122814,-49.99817,136,8,-4.304064e-07,-50
277,19.32722,1657948329.0,0.192034,-49.99825,136,8,-4.309536e-07,-50
278,19.3964,1657948329.0,0.261215,-49.99821,136,8,-4.290374e-07,-50
279,19.46561,1657948329.0,0.330424,-49.99828,136,8,-4.32426e-07,-50
280,19.53485,1657948329.0,0.39966,-49.9982,136,8,-4.324928e-07,-50
281,19.60408,1657948329.0,0.468893,-49.99822,136,8,-4.33001e-07,-50
282,19.67328,1657948329.0,0.538091,-49.99823,136,8,-4.299983e-07,-50
283,19.74252,1657948329.0,0.607328,-49.99819,136,8,-4.313137e-07,-50
284,19.81175,1657948329.0,0.676567,-49.99823,136,8,-4.295061e-07,-50
285,19.88098,1657948329.0,0.745788,-49.99829,136,8,-4.305917e-07,-50
286,19.95018,1657948329.0,0.814997,-49.99833,136,8,-4.298652e-07,-50
287,20.01939,1657948329.0,0.884201,-49.99837,136,8,-4.293747e-07,-50
288,20.08861,1657948329.0,0.953422,-49.99819,136,8,-4.291154e-07,-50
289,20.15783,1657948330.0,0.022638,-49.99823,136,8,-4.309412e-07,-50
290,20.22706,1657948330.0,0.0918768,-49.99823,136,8,-4.312889e-07,-50
291,20.29629,1657948330.0,0.1611,-49.9982,136,8,-4.291185e-07,-50
292,20.36552,1657948330.0,0.230328,-49.99821,136,8,-4.317159e-07,-50
293,20.43473,1657948330.0,0.299543,-49.9983,136,8,-4.289928e-07,-50
294,20.50393,1657948330.0,0.368747,-49.99827,136,8,-4.298291e-07,-50
295,20.57316,1657948330.0,0.437975,-49.99823,136,8,-4.297044e-07,-50
296,20.64236,1657948330.0,0.507173,-49.99829,136,8,-4.305499e-07,-50
297,20.71156,1657948330.0,0.57637,-49.99833,136,8,-4.300204e-07,-50
298,20.78078,1657948330.0,0.645588,-49.99826,136,8,-4.296242e-07,-50
299,20.84999,1657948330.0,0.714798,-49.99833,136,8,-4.30954e-07,-50
300,20.9192,1657948330.0,0.784009,-49.99827,136,8,-4.31597e-07,-50
301,20.98842,1657948330.0,0.853233,-49.99818,136,8,-4.317313e-07,-50
302,21.05763,1657948330.0,0.922442,-49.99833,136,8,-4.297349e-07,-50
303,21.12687,1657948330.0,0.991682,-49.99825,136,8,-4.298599e-07,-50
304,21.19608,1657948331.0,0.0608971,-49.99826,136,8,-4.310976e-07,-50
305,21.26529,1657948331.0,0.130102,-49.99825,136,8,-4.288068e-07,-50
306,21.33451,1657948331.0,0.199321,-49.99833,136,8,-4.297809e-07,-50
307,21.40373,1657948331.0,0.26854,-49.99825,136,8,-4.306658e-07,-50
308,21.47294,1657948331.0,0.337757,-49.99823,136,8,-4.301169e-07,-50
309,21.54217,1657948331.0,0.406978,-49.99825,136,8,-4.304659e-07,-50
310,21.6114,1657948331.0,0.476208,-49.99819,136,8,-4.293212e-07,-50
311,21.68061,1657948331.0,0.545427,-49.99823,136,8,-4.321408e-07,-50
312,21.74981,1657948331.0,0.614625,-49.99826,136,8,-4.3171e-07,-50
313,21.81902,1657948331.0,0.68383,-49.99828,136,8,-4.300464e-07,-50
314,21.88826,1657948331.0,0.753071,-49.99827,136,8,-4.323912e-07,-50
315,21.95746,1657948331.0,0.82227,-49.99831,136,8,-4.324975e-07,-50
316,22.02667,1657948331.0,0.891486,-49.99829,136,8,-4.31489e-07,-50
317,22.09589,1657948331.0,0.960707,-49.99827,136,8,-4.307287e-07,-50
318,22.1651,1657948332.0,0.0299163,-49.99828,136,8,-4.305012e-07,-50
319,22.23431,1657948332.0,0.0991267,-49.99833,136,8,-4.314859e-07,-50
320,22.30354,1657948332.0,0.16835,-49.99827,136,8,-4.308686e-07,-50
321,22.37276,1657948332.0,0.23757,-49.9982,136,8,-4.316727e-07,-50
322,22.44197,1657948332.0,0.306778,-49.99825,136,8,-4.306938e-07,-50
323,22.51118,1657948332.0,0.375994,-49.99833,136,8,-4.306186e-07,-50
324,22.5804,1657948332.0,0.44521,-49.99827,136,8,-4.287783e-07,-50
325,22.6496,1657948332.0,0.514417,-49.99833,136,8,-4.31797e-07,-50
326,22.71881,1657948332.0,0.583618,-49.99828,136,8,-4.315762e-07,-50
327,22.788,1657948332.0,0.652817,-49.99833,136,8,-4.306108e-07,-50
328,22.85724,1657948332.0,0.722047,-49.99821,136,8,-4.317137e-07,-50
329,22.92648,1657948332.0,0.791288,-49.99821,136,8,-4.291131e-07,-50
330,22.9957,1657948332.0,0.860511,-49.99824,136,8,-4.296482e-07,-50
331,23.0649,1657948332.0,0.929711,-49.99828,136,8,-4.296653e-07,-50
332,23.1341,1657948332.0,0.998914,-49.99826,136,8,-4.298258e-07,-50
333,23.20332,1657948333.0,0.0681328,-49.99827,136,8,-4.307077e-07,-50
334,23.27253,1657948333.0,0.137341,-49.99836,136,8,-4.308553e-07,-50
335,23.34177,1657948333.0,0.206581,-49.99824,136,8,-4.291724e-07,-50
336,23.411,1657948333.0,0.275814,-49.99825,136,8,-4.285363e-07,-50
337,23.4802,1657948333.0,0.345017,-49.99826,136,8,-4.283852e-07,-50
338,23.54941,1657948333.0,0.41422,-49.99835,136,8,-4.293535e-07,-50
339,23.61862,1657948333.0,0.483435,-49.99829,136,8,-4.285418e-07,-50
340,23.68783,1657948333.0,0.552643,-49.99833,136,8,-4.28279e-07,-50
341,23.75703,1657948333.0,0.621842,-49.99826,136,8,-4.292523e-07,-50
342,23.82626,1657948333.0,0.691069,-49.99826,136,8,-4.300368e-07,-50
343,23.89545,1657948333.0,0.760262,-49.99826,136,8,-4.296203e-07,-50
344,23.96466,1657948333.0,0.82947,-49.99826,136,8,-4.314643e-07,-50
345,24.03386,1657948333.0,0.898673,-49.99819,136,8,-4.291148e-07,-50
346,24.10304,1657948333.0,0.967849,-49.99824,136,8,-4.290169e-07,-50
347,24.17222,1657948334.0,0.0370345,-49.99823,136,8,-4.309425e-07,-50
348,24.24143,1657948334.0,0.106247,-49.99832,136,8,-4.307412e-07,-50
349,24.31063,1657948334.0,0.175445,-49.99834,136,8,-4.299805e-07,-50
350,24.37987,1657948334.0,0.244678,-49.99826,136,8,-4.295998e-07,-50
351,24.44908,1657948334.0,0.313897,-49.99829,136,8,-4.298019e-07,-50
352,24.5183,1657948334.0,0.383111,-49.99833,136,8,-4.302214e-07,-50
353,24.58754,1657948334.0,0.45235,-49.99822,136,8,-4.323575e-07,-50
354,24.65674,1657948334.0,0.521552,-49.99828,136,8,-4.301595e-07,-50
355,24.72595,1657948334.0,0.590767,-49.99832,136,8,-4.305257e-07,-50
356,24.79516,1657948334.0,0.659974,-49.99828,136,8,-4.294951e-07,-50
357,24.86438,1657948334.0,0.729197,-49.99829,136,8,-4.30623e-07,-50
358,24.93361,1657948334.0,0.798426,-49.99826,136,8,-4.286128e-07,-50
359,25.00283,1657948334.0,0.867645,-49.9983,136,8,-4.292705e-07,-50
360,25.07205,1657948334.0,0.936865,-49.99823,136,8,-4.294906e-07,-50
361,25.14127,1657948335.0,0.00607808,-49.99827,136,8,-4.305157e-07,-50
362,25.2105,1657948335.0,0.0753076,-49.99826,136,8,-4.295169e-07,-50
363,25.27972,1657948335.0,0.144529,-49.99826,136,8,-4.281547e-07,-50
364,25.34893,1657948335.0,0.213742,-49.99827,136,8,-4.303277e-07,-50
365,25.41814,1657948335.0,0.28295,-49.99835,136,8,-4.317194e-07,-50
366,25.48735,1657948335.0,0.352163,-49.99832,136,8,-4.289519e-07,-50
367,25.55656,1657948335.0,0.421373,-49.99831,136,8,-4.292635e-07,-50
368,25.62576,1657948335.0,0.490573,-49.99827,136,8,-4.291174e-07,-50
369,25.69497,1657948335.0,0.559787,-49.99829,136,8,-4.292457e-07,-50
370,25.76419,1657948335.0,0.629,-49.99835,136,8,-4.311126e-07,-50
371,25.83342,1657948335.0,0.698229,-49.99823,136,8,-4.31071e-07,-50
372,25.90262,1657948335.0,0.767433,-49.99829,136,8,-4.297695e-07,-50
373,25.97186,1657948335.0,0.836672,-49.9982,136,8,-4.289363e-07,-50
374,26.04107,1657948335.0,0.905878,-49.99825,136,8,-4.307144e-07,-50
375,26.1103,1657948335.0,0.975111,-49.99824,136,8,-4.292577e-07,-50
376,26.1795,1657948336.0,0.0443119,-49.99829,136,8,-4.301387e-07,-50
377,26.24871,1657948336.0,0.113526,-49.99828,136,8,-4.305857e-07,-50
378,26.31793,1657948336.0,0.182745,-49.99836,136,8,-4.289158e-07,-50
379,26.38715,1657948336.0,0.25196,-49.99828,136,8,-4.294058e-07,-50
380,26.45638,1657948336.0,0.321197,-49.99823,136,8,-4.306253e-07,-50
381,26.52562,1657948336.0,0.39043,-49.99817,136,8,-4.301311e-07,-50
382,26.59484,1657948336.0,0.459654,-49.99816,136,8,-4.282147e-07,-50
383,26.66405,1657948336.0,0.528858,-49.99832,136,8,-4.27331e-07,-50
384,26.73328,1657948336.0,0.59809,-49.99821,136,8,-4.283329e-07,-50
385,26.80251,1657948336.0,0.667322,-49.9982,136,8,-4.306006e-07,-50
386,26.87173,1657948336.0,0.736538,-49.99826,136,8,-4.320018e-07,-50
387,26.94093,1657948336.0,0.805741,-49.99823,136,8,-4.295125e-07,-50
388,27.01014,1657948336.0,0.874949,-49.99834,136,8,-4.302439e-07,-50
389,27.07933,1657948336.0,0.944142,-49.99826,136,8,-4.286757e-07,-50
390,27.14852,1657948337.0,0.0133283,-49.99825,136,8,-4.280204e-07,-50
391,27.2177,1657948337.0,0.0825135,-49.99826,136,8,-4.29178e-07,-50
392,27.2869,1657948337.0,0.151712,-49.99825,136,8,-4.301971e-07,-50
393,27.35611,1657948337.0,0.220924,-49.99832,136,8,-4.300514e-07,-50
394,27.42533,1657948337.0,0.290145,-49.99832,136,8,-4.285972e-07,-50
395,27.49456,1657948337.0,0.359373,-49.99823,136,8,-4.277851e-07,-50
396,27.56376,1657948337.0,0.428577,-49.99825,136,8,-4.286293e-07,-50
397,27.63298,1657948337.0,0.497791,-49.99826,136,8,-4.281825e-07,-50
398,27.70221,1657948337.0,0.567026,-49.99823,136,8,-4.303305e-07,-50
399,27.77142,1657948337.0,0.636235,-49.99831,136,8,-4.298515e-07,-50
400,27.84063,1657948337.0,0.70544,-49.99841,136,8,-4.281577e-07,-50
401,27.90984,1657948337.0,0.774654,-49.99828,136,8,-4.269266e-07,-50
402,27.97908,1657948337.0,0.84389,-49.99825,136,8,-4.286785e-07,-50
403,28.0483,1657948337.0,0.913111,-49.99816,136,8,-4.282624e-07,-50
404,28.1175,1657948337.0,0.982308,-49.99824,136,8,-4.293645e-07,-50
405,28.18671,1657948338.0,0.0515267,-49.99821,136,8,-4.283265e-07,-50
406,28.25592,1657948338.0,0.120736,-49.99824,136,8,-4.287503e-07,-50
407,28.32513,1657948338.0,0.189941,-49.99828,136,8,-4.296701e-07,-50
408,28.39435,1657948338.0,0.259166,-49.99834,136,8,-4.317263e-07,-50
409,28.46356,1657948338.0,0.328373,-49.99839,136,8,-4.29515e-07,-50
410,28.53276,1657948338.0,0.397572,-49.9983,136,8,-4.288213e-07,-50
411,28.60198,1657948338.0,0.466791,-49.99821,136,8,-4.293713e-07,-50
412,28.67118,1657948338.0,0.535994,-49.99818,136,8,-4.287061e-07,-50
413,28.74039,1657948338.0,0.605198,-49.99827,136,8,-4.279383e-07,-50
414,28.8096,1657948338.0,0.674417,-49.99825,136,8,-4.279933e-07,-50
415,28.87882,1657948338.0,0.743631,-49.99829,136,8,-4.281274e-07,-50
416,28.94804,1657948338.0,0.812853,-49.99823,136,8,-4.295289e-07,-50
417,29.01724,1657948338.0,0.882049,-49.99824,136,8,-4.294574e-07,-50
418,29.08646,1657948338.0,0.951275,-49.99823,136,8,-4.295739e-07,-50
419,29.15569,1657948339.0,0.0205006,-49.99823,136,8,-4.296893e-07,-50
420,29.22491,1657948339.0,0.0897223,-49.99821,136,8,-4.296095e-07,-50
421,29.29412,1657948339.0,0.158928,-49.99828,136,8,-4.274888e-07,-50
422,29.36333,1657948339.0,0.228145,-49.9983,136,8,-4.270207e-07,-50
423,29.43253,1657948339.0,0.297346,-49.99827,136,8,-4.29117e-07,-50
424,29.50174,1657948339.0,0.366554,-49.99824,136,8,-4.290062e-07,-50
425,29.57097,1657948339.0,0.435786,-49.99819,136,8,-4.299126e-07,-50
426,29.64019,1657948339.0,0.505007,-49.99824,136,8,-4.283888e-07,-50
427,29.70942,1657948339.0,0.574232,-49.99827,136,8,-4.286875e-07,-50
428,29.77864,1657948339.0,0.643449,-49.99833,136,8,-4.295843e-07,-50
429,29.84785,1657948339.0,0.712658,-49.99832,136,8,-4.268653e-07,-50
430,29.91705,1657948339.0,0.781863,-49.99833,136,8,-4.287072e-07,-50
431,29.98627,1657948339.0,0.851079,-49.99837,136,8,-4.288277e-07,-50
432,30.05548,1657948339.0,0.920297,-49.99829,136,8,-4.28338e-07,-50
433,30.1247,1657948339.0,0.989509,-49.99828,136,8,-4.295603e-07,-50
434,30.19392,1657948340.0,0.0587315,-49.99835,136,8,-4.28344e-07,-50
435,30.26314,1657948340.0,0.127949,-49.99833,136,8,-4.269293e-07,-50
436,30.33233,1657948340.0,0.19714,-49.99827,136,8,-4.294941e-07,-50
437,30.40154,1657948340.0,0.266351,-49.99833,136,8,-4.293604e-07,-50
438,30.47076,1657948340.0,0.335567,-49.99834,136,8,-4.295635e-07,-50
439,30.53998,1657948340.0,0.404788,-49.9982,136,8,-4.306121e-07,-50
440,30.60918,1657948340.0,0.473995,-49.9982,136,8,-4.305974e-07,-50
441,30.67838,1657948340.0,0.543192,-49.99825,136,8,-4.301741e-07,-50
442,30.74759,1657948340.0,0.612398,-49.99826,136,8,-4.29318e-07,-50
443,30.81681,1657948340.0,0.681619,-49.99826,136,8,-4.288814e-07,-50
444,30.88601,1657948340.0,0.750824,-49.99822,136,8,-4.277212e-07,-50
445,30.95523,1657948340.0,0.820045,-49.99821,136,8,-4.292725e-07,-50
446,31.02444,1657948340.0,0.889255,-49.99825,136,8,-4.269579e-07,-50
447,31.09366,1657948340.0,0.958473,-49.99844,136,8,-4.281292e-07,-50
448,31.16288,1657948341.0,0.0276907,-49.99828,136,8,-4.28328e-07,-50
449,31.23208,1657948341.0,0.0968937,-49.99832,136,8,-4.289625e-07,-50
450,31.30129,1657948341.0,0.166107,-49.99831,136,8,-4.279239e-07,-50
451,31.37051,1657948341.0,0.235322,-49.99831,136,8,-4.30724e-07,-50
452,31.43975,1657948341.0,0.304559,-49.99827,136,8,-4.289936e-07,-50
453,31.50897,1657948341.0,0.373786,-49.99816,136,8,-4.276061e-07,-50
454,31.5782,1657948341.0,0.443011,-49.99821,136,8,-4.285116e-07,-50
455,31.64742,1657948341.0,0.512235,-49.99827,136,8,-4.284701e-07,-50
456,31.71662,1657948341.0,0.581429,-49.99831,136,8,-4.285234e-07,-50
457,31.78584,1657948341.0,0.650657,-49.99829,136,8,-4.302824e-07,-50
458,31.85506,1657948341.0,0.719875,-49.99823,136,8,-4.268344e-07,-50
459,31.92427,1657948341.0,0.789081,-49.99829,136,8,-4.28229e-07,-50
460,31.99349,1657948341.0,0.858303,-49.99826,136,8,-4.286862e-07,-50
461,32.06271,1657948341.0,0.927525,-49.99818,136,8,-4.288009e-07,-50
462,32.13192,1657948341.0,0.996729,-49.99826,136,8,-4.280175e-07,-50
463,32.20113,1657948342.0,0.0659439,-49.99828,136,8,-4.294449e-07,-50
464,32.27035,1657948342.0,0.135166,-49.99825,136,8,-4.30387e-07,-50
465,32.33959,1657948342.0,0.204404,-49.99826,136,8,-4.307841e-07,-50
466,32.40882,1657948342.0,0.273631,-49.99821,136,8,-4.287495e-07,-50
467,32.47802,1657948342.0,0.342836,-49.99835,136,8,-4.274884e-07,-50
468,32.54723,1657948342.0,0.412047,-49.99836,136,8,-4.267802e-07,-50
469,32.61643,1657948342.0,0.481246,-49.99835,136,8,-4.27896e-07,-50
470,32.68564,1657948342.0,0.550456,-49.99828,136,8,-4.293815e-07,-50
471,32.75487,1657948342.0,0.619686,-49.99821,136,8,-4.272358e-07,-50
472,32.82408,1657948342.0,0.688889,-49.99832,136,8,-4.298085e-07,-50
473,32.89329,1657948342.0,0.758102,-49.99828,136,8,-4.270757e-07,-50
474,32.96249,1657948342.0,0.827306,-49.99829,136,8,-4.251097e-07,-50
475,33.03172,1657948342.0,0.896536,-49.99828,136,8,-4.278868e-07,-50
476,33.10092,1657948342.0,0.965732,-49.99837,136,8,-4.278938e-07,-50
477,33.17014,1657948343.0,0.0349515,-49.99841,136,8,-4.291714e-07,-50
478,33.23936,1657948343.0,0.104169,-49.9983,136,8,-4.300689e-07,-50
479,33.30857,1657948343.0,0.173383,-49.99837,136,8,-4.276551e-07,-50
480,33.37781,1657948343.0,0.242619,-49.99827,136,8,-4.281273e-07,-50
481,33.44703,1657948343.0,0.31184,-49.99818,136,8,-4.274441e-07,-50
482,33.51626,1657948343.0,0.381074,-49.99826,136,8,-4.278506e-07,-50
483,33.58547,1657948343.0,0.45028,-49.99829,136,8,-4.292343e-07,-50
484,33.65471,1657948343.0,0.519521,-49.99818,136,8,-4.304706e-07,-50
485,33.72393,1657948343.0,0.588742,-49.99827,136,8,-4.270344e-07,-50
486,33.79316,1657948343.0,0.657972,-49.99825,136,8,-4.281423e-07,-50
487,33.8624,1657948343.0,0.72721,-49.99817,136,8,-4.283188e-07,-50
488,33.93162,1657948343.0,0.796436,-49.99817,136,8,-4.262713e-07,-50
489,34.00084,1657948343.0,0.86565,-49.99831,136,8,-4.277559e-07,-50
490,34.07006,1657948343.0,0.934872,-49.99828,136,8,-4.286656e-07,-50
491,34.13929,1657948344.0,0.0041041,-49.99824,136,8,-4.279585e-07,-50
492,34.20852,1657948344.0,0.0733302,-49.9982,136,8,-4.292992e-07,-50
493,34.27774,1657948344.0,0.142551,-49.99815,136,8,-4.263445e-07,-50
494,34.34697,1657948344.0,0.211782,-49.9982,136,8,-4.270417e-07,-50
495,34.4162,1657948344.0,0.281009,-49.9982,136,8,-4.299834e-07,-50
496,34.48542,1657948344.0,0.35023,-49.99809,136,8,-4.29667e-07,-50
497,34.55464,1657948344.0,0.419452,-49.99828,136,8,-4.28508e-07,-50
498,34.62387,1657948344.0,0.488681,-49.99811,136,8,-4.286725e-07,-50
499,34.6931,1657948344.0,0.55791,-49.99819,136,8,-4.281993e-07,-50
500,34.76234,1657948344.0,0.627155,-49.99823,136,8,-4.288952e-07,-50
501,34.83157,1657948344.0,0.696381,-49.99822,136,8,-4.277638e-07,-50
502,34.90079,1657948344.0,0.765604,-49.99817,136,8,-4.277019e-07,-50
503,34.97002,1657948344.0,0.834837,-49.9982,136,8,-4.279465e-07,-50
504,35.03923,1657948344.0,0.904044,-49.99828,136,8,-4.278644e-07,-50
505,35.10844,1657948344.0,0.973256,-49.99826,136,8,-4.283986e-07,-50
506,35.17766,1657948345.0,0.0424701,-49.99826,136,8,-4.273602e-07,-50
507,35.24687,1657948345.0,0.111686,-49.99816,136,8,-4.28071e-07,-50
508,35.31611,1657948345.0,0.180926,-49.99825,136,8,-4.290338e-07,-50
509,35.38535,1657948345.0,0.250164,-49.99823,136,8,-4.279053e-07,-50
510,35.45458,1657948345.0,0.31939,-49.99819,136,8,-4.294359e-07,-50
511,35.52378,1657948345.0,0.388592,-49.99829,136,8,-4.282321e-07,-50
512,35.59299,1657948345.0,0.457799,-49.99829,136,8,-4.289466e-07,-50
513,35.6622,1657948345.0,0.527008,-49.99829,136,8,-4.285527e-07,-50
514,35.73142,1657948345.0,0.59623,-49.99828,136,8,-4.272812e-07,-50
515,35.80063,1657948345.0,0.66544,-49.99827,136,8,-4.28379e-07,-50
516,35.86986,1657948345.0,0.734676,-49.9982,136,8,-4.27873e-07,-50
517,35.93909,1657948345.0,0.803898,-49.99823,136,8,-4.279192e-07,-50
518,36.00831,1657948345.0,0.873124,-49.99817,136,8,-4.277167e-07,-50
519,36.07752,1657948345.0,0.942331,-49.99827,136,8,-4.28848e-07,-50
520,36.14673,1657948346.0,0.0115404,-49.99826,136,8,-4.273365e-07,-50
521,36.21593,1657948346.0,0.0807382,-49.99832,136,8,-4.28269e-07,-50
522,36.28513,1657948346.0,0.149938,-49.99831,136,8,-4.26934e-07,-50
523,36.35435,1657948346.0,0.219165,-49.9983,136,8,-4.264385e-07,-50
524,36.42357,1657948346.0,0.28838,-49.99825,136,8,-4.270858e-07,-50
525,36.4928,1657948346.0,0.357612,-49.9982,136,8,-4.296369e-07,-50
526,36.56202,1657948346.0,0.426834,-49.99826,136,8,-4.293715e-07,-50
527,36.63126,1657948346.0,0.496072,-49.9982,136,8,-4.250628e-07,-50
528,36.70047,1657948346.0,0.565283,-49.99832,136,8,-4.292241e-07,-50
529,36.76967,1657948346.0,0.634485,-49.99829,136,8,-4.270758e-07,-50
530,36.8389,1657948346.0,0.703708,-49.9982,136,8,-4.26972e-07,-50
531,36.90812,1657948346.0,0.772936,-49.99825,136,8,-4.268799e-07,-50
532,36.97734,1657948346.0,0.842148,-49.99829,136,8,-4.271344e-07,-50
533,37.04656,1657948346.0,0.911371,-49.99825,136,8,-4.287238e-07,-50
534,37.11579,1657948346.0,0.980606,-49.99818,136,8,-4.282401e-07,-50
535,37.18501,1657948347.0,0.0498231,-49.99831,136,8,-4.268112e-07,-50
536,37.25421,1657948347.0,0.119024,-49.99825,136,8,-4.268175e-07,-50
537,37.32343,1657948347.0,0.188238,-49.99831,136,8,-4.269589e-07,-50
538,37.39262,1657948347.0,0.257437,-49.99837,136,8,-4.265972e-07,-50
539,37.46186,1657948347.0,0.326673,-49.99825,136,8,-4.283377e-07,-50
540,37.53109,1657948347.0,0.395906,-49.99821,136,8,-4.257054e-07,-50
541,37.60034,1657948347.0,0.465148,-49.99817,136,8,-4.254319e-07,-50
542,37.66956,1657948347.0,0.534373,-49.99823,136,8,-4.270565e-07,-50
543,37.7388,1657948347.0,0.603611,-49.99821,136,8,-4.274515e-07,-50
544,37.80801,1657948347.0,0.67282,-49.99827,136,8,-4.269226e-07,-50
545,37.87723,1657948347.0,0.74204,-49.99825,136,8,-4.255087e-07,-50
546,37.94643,1657948347.0,0.811241,-49.9984,136,8,-4.272302e-07,-50
547,38.01563,1657948347.0,0.880445,-49.99829,136,8,-4.28431e-07,-50
548,38.08487,1657948347.0,0.949684,-49.9982,136,8,-4.262787e-07,-50
549,38.1541,1657948348.0,0.0189123,-49.99813,136,8,-4.266819e-07,-50
550,38.22331,1657948348.0,0.0881176,-49.99838,136,8,-4.264793e-07,-50
551,38.29253,1657948348.0,0.157342,-49.99818,136,8,-4.271547e-07,-50
552,38.36171,1657948348.0,0.226525,-49.99825,136,8,-4.265233e-07,-50
553,38.43093,1657948348.0,0.295746,-49.99816,136,8,-4.265391e-07,-50
554,38.50014,1657948348.0,0.364954,-49.99829,136,8,-4.28001e-07,-50
555,38.56938,1657948348.0,0.434195,-49.99822,136,8,-4.292068e-07,-50
556,38.63858,1657948348.0,0.503396,-49.99825,136,8,-4.279766e-07,-50
557,38.70782,1657948348.0,0.572632,-49.99827,136,8,-4.270854e-07,-50
558,38.77705,1657948348.0,0.641863,-49.99822,136,8,-4.267856e-07,-50
559,38.84625,1657948348.0,0.711062,-49.99828,136,8,-4.258915e-07,-50
560,38.91545,1657948348.0,0.780266,-49.99828,136,8,-4.300243e-07,-50
561,38.98468,1657948348.0,0.849488,-49.99821,136,8,-4.282916e-07,-50
562,39.05389,1657948348.0,0.918698,-49.99828,136,8,-4.281818e-07,-50
563,39.12309,1657948348.0,0.987903,-49.99831,136,8,-4.267218e-07,-50
564,39.19231,1657948349.0,0.0571252,-49.99819,136,8,-4.272298e-07,-50
565,39.26153,1657948349.0,0.126343,-49.99823,136,8,-4.275597e-07,-50
566,39.33074,1657948349.0,0.19555,-49.99831,136,8,-4.255446e-07,-50
567,39.39995,1657948349.0,0.264766,-49.99833,136,8,-4.278144e-07,-50
568,39.46917,1657948349.0,0.333983,-49.99828,136,8,-4.26065e-07,-50
569,39.53841,1657948349.0,0.40322,-49.9982,136,8,-4.264501e-07,-50
570,39.60763,1657948349.0,0.472447,-49.9982,136,8,-4.258969e-07,-50
571,39.67684,1657948349.0,0.541652,-49.99836,136,8,-4.28138e-07,-50
572,39.74608,1657948349.0,0.61089,-49.99823,136,8,-4.27479e-07,-50
573,39.8153,1657948349.0,0.680117,-49.99823,136,8,-4.269192e-07,-50
574,39.88454,1657948349.0,0.749349,-49.99827,136,8,-4.270024e-07,-50
575,39.95375,1657948349.0,0.818566,-49.99817,136,8,-4.272461e-07,-50
576,40.02298,1657948349.0,0.887794,-49.99828,136,8,-4.277076e-07,-50
577,40.09219,1657948349.0,0.957001,-49.99828,136,8,-4.280817e-07,-50
578,40.16141,1657948350.0,0.0262186,-49.99831,136,8,-4.276697e-07,-50
579,40.23063,1657948350.0,0.0954389,-49.99823,136,8,-4.286447e-07,-50
580,40.29985,1657948350.0,0.16466,-49.99823,136,8,-4.263845e-07,-50
581,40.36906,1657948350.0,0.233875,-49.99813,136,8,-4.27422e-07,-50
582,40.43829,1657948350.0,0.303099,-49.99814,136,8,-4.281376e-07,-50
583,40.50753,1657948350.0,0.372343,-49.99823,136,8,-4.273989e-07,-50
584,40.57677,1657948350.0,0.441583,-49.99825,136,8,-4.290935e-07,-50
585,40.64601,1657948350.0,0.510827,-49.99816,136,8,-4.261246e-07,-50
586,40.71524,1657948350.0,0.58005,-49.99818,136,8,-4.271723e-07,-50
587,40.78447,1657948350.0,0.649284,-49.99818,136,8,-4.263085e-07,-50
588,40.85369,1657948350.0,0.718501,-49.99817,136,8,-4.276978e-07,-50
589,40.92291,1657948350.0,0.787725,-49.99823,136,8,-4.278603e-07,-50
590,40.99214,1657948350.0,0.856957,-49.9982,136,8,-4.278892e-07,-50
591,41.06137,1657948350.0,0.926185,-49.99823,136,8,-4.279172e-07,-50
592,41.13061,1657948350.0,0.995424,-49.99824,136,8,-4.288185e-07,-50
593,41.19983,1657948351.0,0.0646432,-49.99826,136,8,-4.267873e-07,-50
594,41.26905,1657948351.0,0.133864,-49.99827,136,8,-4.24928e-07,-50
595,41.33825,1657948351.0,0.203064,-49.99826,136,8,-4.256561e-07,-50
596,41.40747,1657948351.0,0.27228,-49.99829,136,8,-4.2755e-07,-50
597,41.4767,1657948351.0,0.34151,-49.99823,136,8,-4.270396e-07,-50
598,41.54591,1657948351.0,0.410722,-49.99827,136,8,-4.262353e-07,-50
599,41.61513,1657948351.0,0.479938,-49.9983,136,8,-4.267335e-07,-50
600,41.68435,1657948351.0,0.549165,-49.99824,136,8,-4.266786e-07,-50
601,41.75356,1657948351.0,0.61837,-49.99835,136,8,-4.258781e-07,-50
602,41.82279,1657948351.0,0.6876,-49.99816,136,8,-4.278848e-07,-50
603,41.89203,1657948351.0,0.756838,-49.99825,136,8,-4.275768e-07,-50
604,41.96125,1657948351.0,0.826058,-49.99817,136,8,-4.285256e-07,-50
605,42.03048,1657948351.0,0.895297,-49.99826,136,8,-4.276903e-07,-50
606,42.09972,1657948351.0,0.964532,-49.9982,136,8,-4.260831e-07,-50
607,42.16894,1657948352.0,0.0337497,-49.9982,136,8,-4.249845e-07,-50
608,42.23816,1657948352.0,0.102976,-49.99815,136,8,-4.26545e-07,-50
609,42.30739,1657948352.0,0.172207,-49.99812,136,8,-4.254982e-07,-50
610,42.37662,1657948352.0,0.241432,-49.99818,136,8,-4.277974e-07,-50
611,42.44582,1657948352.0,0.310636,-49.99829,136,8,-4.27352e-07,-50
612,42.51506,1657948352.0,0.379875,-49.99821,136,8,-4.266946e-07,-50
613,42.58428,1657948352.0,0.449095,-49.99812,136,8,-4.283081e-07,-50
614,42.6535,1657948352.0,0.518313,-49.99825,136,8,-4.276002e-07,-50
615,42.72274,1657948352.0,0.587551,-49.99822,136,8,-4.25771e-07,-50
616,42.79196,1657948352.0,0.656776,-49.99813,136,8,-4.264441e-07,-50
617,42.86119,1657948352.0,0.726001,-49.99819,136,8,-4.27509e-07,-50
618,42.93042,1657948352.0,0.795234,-49.99823,136,8,-4.266626e-07,-50
619,42.99965,1657948352.0,0.864459,-49.9982,136,8,-4.27763e-07,-50
620,43.06888,1657948352.0,0.93369,-49.9982,136,8,-4.282429e-07,-50
621,43.1381,1657948353.0,0.0029083,-49.99815,136,8,-4.272653e-07,-50
622,43.2073,1657948353.0,0.0721094,-49.99819,136,8,-4.275427e-07,-50
623,43.27652,1657948353.0,0.141336,-49.99819,136,8,-4.253094e-07,-50
624,43.34575,1657948353.0,0.21056,-49.99826,136,8,-4.271521e-07,-50
625,43.41496,1657948353.0,0.279773,-49.99831,136,8,-4.269464e-07,-50
626,43.48418,1657948353.0,0.348993,-49.99821,136,8,-4.261466e-07,-50
627,43.55343,1657948353.0,0.41824,-49.99826,136,8,-4.251009e-07,-50
628,43.62265,1657948353.0,0.487466,-49.99827,136,8,-4.254244e-07,-50
629,43.69188,1657948353.0,0.556689,-49.99817,136,8,-4.260724e-07,-50
630,43.7611,1657948353.0,0.625916,-49.9982,136,8,-4.248763e-07,-50
631,43.83034,1657948353.0,0.695149,-49.99819,136,8,-4.271233e-07,-50
632,43.89957,1657948353.0,0.76438,-49.99819,136,8,-4.276116e-07,-50
633,43.96879,1657948353.0,0.833607,-49.99816,136,8,-4.260945e-07,-50
634,44.03802,1657948353.0,0.902832,-49.99818,136,8,-4.26916e-07,-50
635,44.10724,1657948353.0,0.972056,-49.99821,136,8,-4.268994e-07,-50
636,44.17646,1657948354.0,0.041277,-49.99806,136,8,-4.270241e-07,-50
637,44.24569,1657948354.0,0.1105,-49.99811,136,8,-4.27604e-07,-50
638,44.31492,1657948354.0,0.179735,-49.9982,136,8,-4.258227e-07,-50
639,44.38414,1657948354.0,0.248954,-49.99821,136,8,-4.249078e-07,-50
640,44.45338,1657948354.0,0.318191,-49.99814,136,8,-4.261042e-07,-50
641,44.5226,1657948354.0,0.387413,-49.99813,136,8,-4.255603e-07,-50
