,REL,SEC,FRAC,SOUR,SOURSTAT,STAT,READ,VOLTAGE
0,0.0,1657950234.0,0.696427,-10.00003,136,8,-1.316145e-07,-10
1,0.06921792,1657950234.0,0.765645,-10.00002,136,8,-1.274186e-07,-10
2,0.1384263,1657950234.0,0.834853,-10.00002,136,8,-1.246884e-07,-10
3,0.2076455,1657950234.0,0.904072,-10.00003,136,8,-1.22674e-07,-10
4,0.2768511,1657950234.0,0.973278,-10.00002,136,8,-1.208917e-07,-10
5,0.3460706,1657950235.0,0.0424972,-10.00003,136,8,-1.197176e-07,-10
6,0.4152788,1657950235.0,0.111705,-10.00003,136,8,-1.18554e-07,-10
7,0.4844812,1657950235.0,0.180908,-10.00002,136,8,-1.175475e-07,-10
8,0.5537018,1657950235.0,0.250128,-10.00003,136,8,-1.168726e-07,-10
9,0.6229139,1657950235.0,0.319341,-10.00002,136,8,-1.160021e-07,-10
10,0.6921321,1657950235.0,0.388559,-10.00001,136,8,-1.157246e-07,-10
11,0.7613485,1657950235.0,0.457775,-10.00001,136,8,-1.150626e-07,-10
12,0.8305693,1657950235.0,0.526996,-10.00001,136,8,-1.14613e-07,-10
13,0.8997935,1657950235.0,0.59622,-10.00001,136,8,-1.140806e-07,-10
14,0.9690093,1657950235.0,0.665436,-10.00002,136,8,-1.138424e-07,-10
15,1.038205,1657950235.0,0.734632,-10.00003,136,8,-1.132554e-07,-10
16,1.107405,1657950235.0,0.803831,-10.00002,136,8,-1.129408e-07,-10
17,1.176618,1657950235.0,0.873044,-10.00001,136,8,-1.129561e-07,-10
18,1.245836,1657950235.0,0.942263,-10.00001,136,8,-1.125266e-07,-10
19,1.315048,1657950236.0,0.0114751,-10.00001,136,8,-1.123766e-07,-10
20,1.384266,1657950236.0,0.0806923,-10.00001,136,8,-1.123887e-07,-10
21,1.45348,1657950236.0,0.149907,-10.00002,136,8,-1.118757e-07,-10
22,1.52268,1657950236.0,0.219106,-10.00002,136,8,-1.11586e-07,-10
23,1.591879,1657950236.0,0.288305,-10.00002,136,8,-1.115868e-07,-10
24,1.661104,1657950236.0,0.357531,-10.00002,136,8,-1.113671e-07,-10
25,1.730321,1657950236.0,0.426747,-10.00001,136,8,-1.11189e-07,-10
26,1.799536,1657950236.0,0.495963,-10.00001,136,8,-1.111313e-07,-10
27,1.868751,1657950236.0,0.565178,-10.00001,136,8,-1.108345e-07,-10
28,1.937955,1657950236.0,0.634382,-10.0,136,8,-1.109233e-07,-10
29,2.007165,1657950236.0,0.703591,-10.00001,136,8,-1.107091e-07,-10
30,2.076363,1657950236.0,0.77279,-10.00001,136,8,-1.105238e-07,-10
31,2.145583,1657950236.0,0.84201,-10.00001,136,8,-1.103656e-07,-10
32,2.214805,1657950236.0,0.911232,-10.00001,136,8,-1.103816e-07,-10
33,2.284012,1657950236.0,0.980439,-10.00001,136,8,-1.100733e-07,-10
34,2.353224,1657950237.0,0.0496509,-9.999999,136,8,-1.102425e-07,-10
35,2.422432,1657950237.0,0.118858,-10.00001,136,8,-1.098841e-07,-10
36,2.491648,1657950237.0,0.188074,-10.00001,136,8,-1.09813e-07,-10
37,2.560858,1657950237.0,0.257285,-10.00002,136,8,-1.097882e-07,-10
38,2.630066,1657950237.0,0.326492,-10.0,136,8,-1.097373e-07,-10
39,2.699274,1657950237.0,0.395701,-9.999999,136,8,-1.095901e-07,-10
40,2.768491,1657950237.0,0.464918,-10.00001,136,8,-1.094397e-07,-10
41,2.837689,1657950237.0,0.534116,-10.00001,136,8,-1.093667e-07,-10
42,2.906888,1657950237.0,0.603315,-10.00002,136,8,-1.093838e-07,-10
43,2.976111,1657950237.0,0.672538,-10.00001,136,8,-1.093404e-07,-10
44,3.045322,1657950237.0,0.741749,-10.00001,136,8,-1.092965e-07,-10
45,3.114524,1657950237.0,0.81095,-10.00001,136,8,-1.090708e-07,-10
46,3.183728,1657950237.0,0.880155,-9.999994,136,8,-1.090877e-07,-10
47,3.252932,1657950237.0,0.949359,-10.00001,136,8,-1.088974e-07,-10
48,3.322153,1657950238.0,0.0185795,-10.0,136,8,-1.090015e-07,-10
49,3.391364,1657950238.0,0.0877911,-10.00001,136,8,-1.087855e-07,-10
50,3.460581,1657950238.0,0.157007,-10.00001,136,8,-1.087133e-07,-10
51,3.52978,1657950238.0,0.226207,-10.00001,136,8,-1.088139e-07,-10
52,3.598991,1657950238.0,0.295418,-10.00001,136,8,-1.087668e-07,-10
53,3.668199,1657950238.0,0.364626,-10.00002,136,8,-1.087448e-07,-10
54,3.737408,1657950238.0,0.433835,-10.00001,136,8,-1.086656e-07,-10
55,3.806608,1657950238.0,0.503034,-10.00001,136,8,-1.087748e-07,-10
56,3.875824,1657950238.0,0.57225,-10.0,136,8,-1.085548e-07,-10
57,3.945039,1657950238.0,0.641466,-10.00001,136,8,-1.085746e-07,-10
58,4.014241,1657950238.0,0.710667,-10.00002,136,8,-1.083434e-07,-10
59,4.08346,1657950238.0,0.779887,-10.00002,136,8,-1.083991e-07,-10
60,4.152672,1657950238.0,0.849098,-10.00002,136,8,-1.084512e-07,-10
61,4.221887,1657950238.0,0.918314,-10.00001,136,8,-1.081813e-07,-10
62,4.291097,1657950238.0,0.987524,-10.00002,136,8,-1.083079e-07,-10
63,4.360307,1657950239.0,0.0567339,-10.00001,136,8,-1.083897e-07,-10
64,4.42952,1657950239.0,0.125946,-10.00002,136,8,-1.083137e-07,-10
65,4.498731,1657950239.0,0.195157,-10.00002,136,8,-1.079412e-07,-10
66,4.567938,1657950239.0,0.264365,-10.00002,136,8,-1.083108e-07,-10
67,4.63715,1657950239.0,0.333577,-10.00002,136,8,-1.082466e-07,-10
68,4.70636,1657950239.0,0.402786,-10.00001,136,8,-1.080161e-07,-10
69,4.775557,1657950239.0,0.471984,-10.00001,136,8,-1.081069e-07,-10
70,4.844766,1657950239.0,0.541192,-10.00002,136,8,-1.081352e-07,-10
71,4.91397,1657950239.0,0.610397,-10.00002,136,8,-1.078744e-07,-10
72,4.983176,1657950239.0,0.679603,-10.00002,136,8,-1.079484e-07,-10
73,5.052386,1657950239.0,0.748813,-10.00002,136,8,-1.080971e-07,-10
74,5.12159,1657950239.0,0.818016,-10.00002,136,8,-1.079498e-07,-10
75,5.190798,1657950239.0,0.887224,-10.00002,136,8,-1.07858e-07,-10
76,5.260007,1657950239.0,0.956433,-10.00002,136,8,-1.080368e-07,-10
77,5.329222,1657950240.0,0.0256484,-10.00002,136,8,-1.079235e-07,-10
78,5.39844,1657950240.0,0.0948669,-10.00001,136,8,-1.077703e-07,-10
79,5.467654,1657950240.0,0.164081,-10.00001,136,8,-1.077658e-07,-10
80,5.536872,1657950240.0,0.233298,-10.00002,136,8,-1.076709e-07,-10
81,5.606092,1657950240.0,0.302518,-10.00003,136,8,-1.07746e-07,-10
82,5.67529,1657950240.0,0.371717,-10.00002,136,8,-1.077334e-07,-10
83,5.744506,1657950240.0,0.440933,-10.00002,136,8,-1.076107e-07,-10
84,5.813716,1657950240.0,0.510142,-10.00002,136,8,-1.073296e-07,-10
85,5.882926,1657950240.0,0.579353,-10.00002,136,8,-1.076654e-07,-10
86,5.952145,1657950240.0,0.648572,-10.00001,136,8,-1.075482e-07,-10
87,6.021344,1657950240.0,0.717771,-10.00002,136,8,-1.076159e-07,-10
88,6.090549,1657950240.0,0.786976,-10.00002,136,8,-1.077379e-07,-10
89,6.159766,1657950240.0,0.856192,-10.00002,136,8,-1.074938e-07,-10
90,6.228981,1657950240.0,0.925408,-10.00001,136,8,-1.073144e-07,-10
91,6.298197,1657950240.0,0.994624,-10.00002,136,8,-1.076031e-07,-10
92,6.367395,1657950241.0,0.0638221,-10.00003,136,8,-1.072403e-07,-10
93,6.43662,1657950241.0,0.133046,-10.00002,136,8,-1.074932e-07,-10
94,6.505827,1657950241.0,0.202254,-10.00002,136,8,-1.073878e-07,-10
95,6.575036,1657950241.0,0.271463,-10.00003,136,8,-1.071333e-07,-10
96,6.644246,1657950241.0,0.340673,-10.00002,136,8,-1.072318e-07,-10
97,6.713454,1657950241.0,0.409881,-10.00002,136,8,-1.072681e-07,-10
98,6.782664,1657950241.0,0.47909,-10.00002,136,8,-1.074477e-07,-10
99,6.851879,1657950241.0,0.548305,-10.00002,136,8,-1.071586e-07,-10
100,6.921098,1657950241.0,0.617525,-10.00002,136,8,-1.072726e-07,-10
101,6.9903,1657950241.0,0.686726,-10.00002,136,8,-1.072629e-07,-10
102,7.0595,1657950241.0,0.755927,-10.00002,136,8,-1.072816e-07,-10
103,7.128707,1657950241.0,0.825133,-10.00002,136,8,-1.070904e-07,-10
104,7.197924,1657950241.0,0.894351,-10.00002,136,8,-1.070423e-07,-10
105,7.267139,1657950241.0,0.963565,-10.00002,136,8,-1.072491e-07,-10
106,7.336354,1657950242.0,0.0327802,-10.00002,136,8,-1.071379e-07,-10
107,7.405555,1657950242.0,0.101982,-10.00001,136,8,-1.071237e-07,-10
108,7.474755,1657950242.0,0.171182,-10.00002,136,8,-1.070464e-07,-10
109,7.543964,1657950242.0,0.24039,-10.00002,136,8,-1.071127e-07,-10
110,7.61318,1657950242.0,0.309606,-10.00002,136,8,-1.068959e-07,-10
111,7.68239,1657950242.0,0.378817,-10.00002,136,8,-1.071155e-07,-10
112,7.751607,1657950242.0,0.448033,-10.00002,136,8,-1.071189e-07,-10
113,7.820812,1657950242.0,0.517238,-10.00002,136,8,-1.070104e-07,-10
114,7.890024,1657950242.0,0.58645,-10.00002,136,8,-1.070764e-07,-10
115,7.959232,1657950242.0,0.655659,-10.00002,136,8,-1.069934e-07,-10
116,8.028449,1657950242.0,0.724876,-10.00002,136,8,-1.070218e-07,-10
117,8.097661,1657950242.0,0.794087,-10.00003,136,8,-1.066449e-07,-10
118,8.166872,1657950242.0,0.863298,-10.00001,136,8,-1.068593e-07,-10
119,8.236089,1657950242.0,0.932516,-10.00002,136,8,-1.068447e-07,-10
120,8.305294,1657950243.0,0.00172108,-10.00001,136,8,-1.06751e-07,-10
121,8.37451,1657950243.0,0.0709365,-10.00002,136,8,-1.069202e-07,-10
122,8.443726,1657950243.0,0.140152,-10.00001,136,8,-1.068642e-07,-10
123,8.512934,1657950243.0,0.209361,-10.00002,136,8,-1.068163e-07,-10
124,8.58215,1657950243.0,0.278577,-10.00002,136,8,-1.06659e-07,-10
125,8.65136,1657950243.0,0.347786,-10.00003,136,8,-1.069933e-07,-10
126,8.720574,1657950243.0,0.417001,-10.00002,136,8,-1.06942e-07,-10
127,8.789782,1657950243.0,0.486209,-10.00003,136,8,-1.068318e-07,-10
128,8.858988,1657950243.0,0.555415,-10.00002,136,8,-1.069147e-07,-10
129,8.928213,1657950243.0,0.62464,-10.00002,136,8,-1.070407e-07,-10
130,8.997429,1657950243.0,0.693856,-10.00002,136,8,-1.069429e-07,-10
131,9.066642,1657950243.0,0.763069,-10.00002,136,8,-1.067625e-07,-10
132,9.135855,1657950243.0,0.832281,-10.00003,136,8,-1.068402e-07,-10
133,9.205058,1657950243.0,0.901485,-10.00002,136,8,-1.067335e-07,-10
134,9.274267,1657950243.0,0.970693,-10.00002,136,8,-1.066611e-07,-10
135,9.343471,1657950244.0,0.0398973,-10.00002,136,8,-1.06735e-07,-10
136,9.41268,1657950244.0,0.109107,-10.00003,136,8,-1.065435e-07,-10
137,9.481879,1657950244.0,0.178306,-10.00002,136,8,-1.063571e-07,-10
138,9.551091,1657950244.0,0.247517,-10.00002,136,8,-1.065642e-07,-10
139,9.620308,1657950244.0,0.316735,-10.00002,136,8,-1.064899e-07,-10
140,9.689525,1657950244.0,0.385952,-10.00002,136,8,-1.067469e-07,-10
141,9.758734,1657950244.0,0.45516,-10.00002,136,8,-1.065625e-07,-10
142,9.827949,1657950244.0,0.524376,-10.00002,136,8,-1.067265e-07,-10
143,9.897163,1657950244.0,0.59359,-10.00001,136,8,-1.06637e-07,-10
144,9.966363,1657950244.0,0.662789,-10.00002,136,8,-1.067098e-07,-10
145,10.03556,1657950244.0,0.73199,-10.00003,136,8,-1.062589e-07,-10
146,10.10478,1657950244.0,0.801207,-10.00001,136,8,-1.065298e-07,-10
147,10.17399,1657950244.0,0.870413,-10.00001,136,8,-1.067376e-07,-10
148,10.24319,1657950244.0,0.939619,-10.00001,136,8,-1.064731e-07,-10
149,10.31241,1657950245.0,0.0088376,-10.00001,136,8,-1.065895e-07,-10
150,10.38163,1657950245.0,0.0780553,-10.00002,136,8,-1.066869e-07,-10
151,10.45085,1657950245.0,0.147274,-10.00001,136,8,-1.064698e-07,-10
152,10.52006,1657950245.0,0.216488,-10.00001,136,8,-1.065267e-07,-10
153,10.58928,1657950245.0,0.285703,-10.00002,136,8,-1.064269e-07,-10
154,10.65848,1657950245.0,0.354908,-10.00002,136,8,-1.063031e-07,-10
155,10.72768,1657950245.0,0.424106,-10.00002,136,8,-1.064939e-07,-10
156,10.79689,1657950245.0,0.493314,-10.00002,136,8,-1.064016e-07,-10
157,10.86609,1657950245.0,0.562521,-10.00001,136,8,-1.065532e-07,-10
158,10.93531,1657950245.0,0.631733,-10.00002,136,8,-1.065261e-07,-10
159,11.0045,1657950245.0,0.700931,-10.00002,136,8,-1.06337e-07,-10
160,11.07371,1657950245.0,0.770138,-10.00003,136,8,-1.064832e-07,-10
161,11.14292,1657950245.0,0.839345,-10.00002,136,8,-1.06423e-07,-10
162,11.21214,1657950245.0,0.908562,-10.00002,136,8,-1.064244e-07,-10
163,11.28134,1657950245.0,0.977769,-10.00002,136,8,-1.060685e-07,-10
164,11.35056,1657950246.0,0.0469833,-10.00003,136,8,-1.065091e-07,-10
165,11.41976,1657950246.0,0.116184,-10.00002,136,8,-1.063775e-07,-10
166,11.48897,1657950246.0,0.185397,-10.00003,136,8,-1.063302e-07,-10
167,11.55818,1657950246.0,0.254603,-10.00002,136,8,-1.063752e-07,-10
168,11.62739,1657950246.0,0.323815,-10.00002,136,8,-1.063095e-07,-10
169,11.6966,1657950246.0,0.393029,-10.00002,136,8,-1.061363e-07,-10
170,11.76581,1657950246.0,0.462238,-10.0,136,8,-1.063993e-07,-10
171,11.83501,1657950246.0,0.531437,-10.00002,136,8,-1.06298e-07,-10
172,11.90423,1657950246.0,0.600654,-10.00002,136,8,-1.063467e-07,-10
173,11.97343,1657950246.0,0.66986,-10.00002,136,8,-1.060506e-07,-10
174,12.04265,1657950246.0,0.739072,-10.00001,136,8,-1.061704e-07,-10
175,12.11186,1657950246.0,0.808287,-10.00002,136,8,-1.06155e-07,-10
176,12.18107,1657950246.0,0.877492,-10.00002,136,8,-1.060091e-07,-10
177,12.25027,1657950246.0,0.946695,-10.00002,136,8,-1.063006e-07,-10
178,12.31948,1657950247.0,0.0159046,-10.00002,136,8,-1.060909e-07,-10
179,12.38869,1657950247.0,0.0851159,-10.00002,136,8,-1.063291e-07,-10
180,12.45789,1657950247.0,0.154316,-10.00002,136,8,-1.06319e-07,-10
181,12.5271,1657950247.0,0.223523,-10.00003,136,8,-1.062072e-07,-10
182,12.5963,1657950247.0,0.292722,-10.00002,136,8,-1.061602e-07,-10
183,12.66551,1657950247.0,0.361939,-10.00002,136,8,-1.061171e-07,-10
184,12.73472,1657950247.0,0.431148,-10.00003,136,8,-1.062878e-07,-10
185,12.80393,1657950247.0,0.500361,-10.00002,136,8,-1.060158e-07,-10
186,12.87315,1657950247.0,0.569576,-10.00002,136,8,-1.061463e-07,-10
187,12.94236,1657950247.0,0.638789,-10.00001,136,8,-1.060544e-07,-10
188,13.01157,1657950247.0,0.707997,-10.00003,136,8,-1.063082e-07,-10
189,13.08078,1657950247.0,0.777208,-10.00002,136,8,-1.060941e-07,-10
190,13.14999,1657950247.0,0.846419,-10.00003,136,8,-1.060529e-07,-10
191,13.21922,1657950247.0,0.915643,-10.00002,136,8,-1.063332e-07,-10
192,13.28843,1657950247.0,0.984856,-10.00002,136,8,-1.060939e-07,-10
193,13.35764,1657950248.0,0.054066,-10.00002,136,8,-1.060697e-07,-10
194,13.42685,1657950248.0,0.12328,-10.00001,136,8,-1.063309e-07,-10
195,13.49607,1657950248.0,0.192498,-10.00002,136,8,-1.061965e-07,-10
196,13.56527,1657950248.0,0.2617,-10.00003,136,8,-1.05927e-07,-10
197,13.63448,1657950248.0,0.33091,-10.00003,136,8,-1.059738e-07,-10
198,13.70369,1657950248.0,0.400116,-10.00002,136,8,-1.059889e-07,-10
199,13.77289,1657950248.0,0.469321,-10.00003,136,8,-1.060289e-07,-10
200,13.84209,1657950248.0,0.53852,-10.00003,136,8,-1.060224e-07,-10
201,13.9113,1657950248.0,0.607728,-10.00003,136,8,-1.057964e-07,-10
202,13.98051,1657950248.0,0.676934,-10.00003,136,8,-1.060079e-07,-10
203,14.04971,1657950248.0,0.746139,-10.00001,136,8,-1.059103e-07,-10
204,14.11893,1657950248.0,0.815352,-10.00002,136,8,-1.058977e-07,-10
205,14.18813,1657950248.0,0.884559,-10.00002,136,8,-1.061877e-07,-10
206,14.25734,1657950248.0,0.953769,-10.00003,136,8,-1.060331e-07,-10
207,14.32656,1657950249.0,0.0229845,-10.00002,136,8,-1.060976e-07,-10
208,14.39576,1657950249.0,0.092184,-10.00001,136,8,-1.059064e-07,-10
209,14.46496,1657950249.0,0.161382,-10.00002,136,8,-1.058451e-07,-10
210,14.53418,1657950249.0,0.230602,-10.00003,136,8,-1.057787e-07,-10
211,14.60339,1657950249.0,0.299812,-10.00002,136,8,-1.058558e-07,-10
212,14.67259,1657950249.0,0.369016,-10.00002,136,8,-1.060284e-07,-10
213,14.74179,1657950249.0,0.438221,-10.00001,136,8,-1.058517e-07,-10
214,14.811,1657950249.0,0.507423,-10.00002,136,8,-1.060064e-07,-10
215,14.88022,1657950249.0,0.576645,-10.00002,136,8,-1.058995e-07,-10
216,14.94944,1657950249.0,0.645863,-10.00001,136,8,-1.058407e-07,-10
217,15.01865,1657950249.0,0.715079,-10.00002,136,8,-1.060756e-07,-10
218,15.08786,1657950249.0,0.784291,-10.00001,136,8,-1.058778e-07,-10
219,15.15707,1657950249.0,0.853499,-10.00002,136,8,-1.060901e-07,-10
220,15.22629,1657950249.0,0.92272,-10.00001,136,8,-1.058178e-07,-10
221,15.2955,1657950249.0,0.991924,-10.00001,136,8,-1.057518e-07,-10
222,15.36471,1657950250.0,0.0611322,-10.00002,136,8,-1.059516e-07,-10
223,15.43391,1657950250.0,0.130341,-10.00002,136,8,-1.05776e-07,-10
224,15.50311,1657950250.0,0.199539,-10.00001,136,8,-1.057261e-07,-10
225,15.57233,1657950250.0,0.268752,-10.00001,136,8,-1.058775e-07,-10
226,15.64152,1657950250.0,0.33795,-10.00002,136,8,-1.059414e-07,-10
227,15.71074,1657950250.0,0.407164,-10.00001,136,8,-1.055049e-07,-10
228,15.77995,1657950250.0,0.476375,-10.00001,136,8,-1.056792e-07,-10
229,15.84916,1657950250.0,0.545586,-10.00002,136,8,-1.057189e-07,-10
230,15.91837,1657950250.0,0.6148,-10.00003,136,8,-1.059764e-07,-10
231,15.98759,1657950250.0,0.684013,-10.00003,136,8,-1.055248e-07,-10
232,16.05679,1657950250.0,0.753214,-10.00003,136,8,-1.057886e-07,-10
233,16.126,1657950250.0,0.822422,-10.00002,136,8,-1.054386e-07,-10
234,16.19521,1657950250.0,0.891632,-10.00002,136,8,-1.056513e-07,-10
235,16.2644,1657950250.0,0.960827,-10.00002,136,8,-1.057447e-07,-10
236,16.3336,1657950251.0,0.0300312,-10.00003,136,8,-1.057521e-07,-10
237,16.40281,1657950251.0,0.099237,-10.00002,136,8,-1.057539e-07,-10
238,16.47202,1657950251.0,0.168445,-10.00004,136,8,-1.057539e-07,-10
239,16.54124,1657950251.0,0.237669,-10.00002,136,8,-1.056646e-07,-10
240,16.61045,1657950251.0,0.306878,-10.00002,136,8,-1.057371e-07,-10
241,16.67967,1657950251.0,0.376097,-10.00002,136,8,-1.058018e-07,-10
242,16.74887,1657950251.0,0.445297,-10.00002,136,8,-1.055896e-07,-10
243,16.81808,1657950251.0,0.514505,-10.00003,136,8,-1.054601e-07,-10
244,16.88729,1657950251.0,0.583721,-10.00003,136,8,-1.057971e-07,-10
245,16.95651,1657950251.0,0.652939,-10.00003,136,8,-1.057826e-07,-10
246,17.02573,1657950251.0,0.722154,-10.00002,136,8,-1.056054e-07,-10
247,17.09495,1657950251.0,0.791375,-10.00003,136,8,-1.054295e-07,-10
248,17.16416,1657950251.0,0.860584,-10.00002,136,8,-1.053623e-07,-10
249,17.23337,1657950251.0,0.929796,-10.00001,136,8,-1.055027e-07,-10
250,17.30258,1657950251.0,0.99901,-10.00002,136,8,-1.055661e-07,-10
251,17.3718,1657950252.0,0.0682258,-10.00002,136,8,-1.057838e-07,-10
252,17.441,1657950252.0,0.137431,-10.00002,136,8,-1.055968e-07,-10
253,17.51022,1657950252.0,0.206647,-10.00003,136,8,-1.055405e-07,-10
254,17.57942,1657950252.0,0.27585,-10.00002,136,8,-1.056323e-07,-10
255,17.64863,1657950252.0,0.345059,-10.00002,136,8,-1.051265e-07,-10
256,17.71784,1657950252.0,0.414267,-10.00002,136,8,-1.055393e-07,-10
257,17.78705,1657950252.0,0.48348,-10.00002,136,8,-1.055635e-07,-10
258,17.85627,1657950252.0,0.552693,-10.00003,136,8,-1.054766e-07,-10
259,17.92548,1657950252.0,0.621905,-10.00002,136,8,-1.057202e-07,-10
260,17.99468,1657950252.0,0.69111,-10.00002,136,8,-1.054738e-07,-10
261,18.06389,1657950252.0,0.760319,-10.00003,136,8,-1.053441e-07,-10
262,18.13309,1657950252.0,0.829518,-10.00002,136,8,-1.056497e-07,-10
263,18.20231,1657950252.0,0.898737,-10.00002,136,8,-1.055829e-07,-10
264,18.27152,1657950252.0,0.967945,-10.00002,136,8,-1.054808e-07,-10
265,18.34072,1657950253.0,0.0371433,-10.00001,136,8,-1.055874e-07,-10
266,18.40993,1657950253.0,0.106352,-10.00002,136,8,-1.056182e-07,-10
267,18.47913,1657950253.0,0.175555,-10.00001,136,8,-1.053392e-07,-10
268,18.54833,1657950253.0,0.244754,-10.00002,136,8,-1.055311e-07,-10
269,18.61754,1657950253.0,0.313963,-10.00001,136,8,-1.054612e-07,-10
270,18.68674,1657950253.0,0.383164,-10.00001,136,8,-1.054329e-07,-10
271,18.75595,1657950253.0,0.452381,-10.00001,136,8,-1.055085e-07,-10
272,18.82517,1657950253.0,0.5216,-10.00002,136,8,-1.055044e-07,-10
273,18.89438,1657950253.0,0.590811,-10.00001,136,8,-1.053636e-07,-10
274,18.9636,1657950253.0,0.660022,-10.0,136,8,-1.053419e-07,-10
275,19.03281,1657950253.0,0.729237,-10.00001,136,8,-1.053673e-07,-10
276,19.10203,1657950253.0,0.798453,-10.00002,136,8,-1.055855e-07,-10
277,19.17125,1657950253.0,0.867675,-10.00002,136,8,-1.054282e-07,-10
278,19.24045,1657950253.0,0.936881,-10.00002,136,8,-1.053613e-07,-10
279,19.30966,1657950254.0,0.00608708,-10.00002,136,8,-1.053415e-07,-10
280,19.37886,1657950254.0,0.0752828,-10.00002,136,8,-1.052141e-07,-10
281,19.44807,1657950254.0,0.144494,-10.00001,136,8,-1.052465e-07,-10
282,19.51729,1657950254.0,0.213712,-10.00002,136,8,-1.055001e-07,-10
283,19.5865,1657950254.0,0.282924,-10.00002,136,8,-1.053678e-07,-10
284,19.65571,1657950254.0,0.35214,-10.00002,136,8,-1.055272e-07,-10
285,19.72492,1657950254.0,0.421348,-10.00002,136,8,-1.05698e-07,-10
286,19.79413,1657950254.0,0.49056,-10.00002,136,8,-1.052078e-07,-10
287,19.86334,1657950254.0,0.559766,-10.00001,136,8,-1.055558e-07,-10
288,19.93255,1657950254.0,0.628976,-10.00002,136,8,-1.056208e-07,-10
289,20.00176,1657950254.0,0.698186,-10.00002,136,8,-1.054432e-07,-10
290,20.07096,1657950254.0,0.76739,-10.00003,136,8,-1.052006e-07,-10
291,20.14017,1657950254.0,0.8366,-10.00002,136,8,-1.053646e-07,-10
292,20.20938,1657950254.0,0.905805,-10.00002,136,8,-1.054775e-07,-10
293,20.27857,1657950254.0,0.975001,-10.00002,136,8,-1.053319e-07,-10
294,20.34778,1657950255.0,0.0442082,-10.00003,136,8,-1.050864e-07,-10
295,20.41698,1657950255.0,0.113409,-10.00002,136,8,-1.051178e-07,-10
296,20.48619,1657950255.0,0.182616,-10.00001,136,8,-1.053765e-07,-10
297,20.5554,1657950255.0,0.251824,-10.00002,136,8,-1.051656e-07,-10
298,20.6246,1657950255.0,0.321031,-10.00003,136,8,-1.054993e-07,-10
299,20.69382,1657950255.0,0.390246,-10.00003,136,8,-1.051916e-07,-10
300,20.76303,1657950255.0,0.459457,-10.00002,136,8,-1.052481e-07,-10
301,20.83224,1657950255.0,0.52867,-10.00002,136,8,-1.05359e-07,-10
302,20.90146,1657950255.0,0.597883,-10.00001,136,8,-1.049553e-07,-10
303,20.97067,1657950255.0,0.667093,-10.00002,136,8,-1.052276e-07,-10
304,21.03987,1657950255.0,0.736292,-10.00002,136,8,-1.050199e-07,-10
305,21.10907,1657950255.0,0.805492,-10.00002,136,8,-1.05198e-07,-10
306,21.17828,1657950255.0,0.874702,-10.00002,136,8,-1.052194e-07,-10
307,21.24749,1657950255.0,0.943915,-10.00002,136,8,-1.051101e-07,-10
308,21.3167,1657950256.0,0.0131278,-10.00002,136,8,-1.05189e-07,-10
309,21.38591,1657950256.0,0.0823344,-10.00002,136,8,-1.051654e-07,-10
310,21.45511,1657950256.0,0.151535,-10.00002,136,8,-1.053165e-07,-10
311,21.52431,1657950256.0,0.22074,-10.00002,136,8,-1.05392e-07,-10
312,21.59353,1657950256.0,0.289952,-10.00001,136,8,-1.054053e-07,-10
313,21.66273,1657950256.0,0.359161,-10.00001,136,8,-1.053232e-07,-10
314,21.73194,1657950256.0,0.428367,-10.00001,136,8,-1.051642e-07,-10
315,21.80113,1657950256.0,0.497562,-10.00001,136,8,-1.052737e-07,-10
316,21.87035,1657950256.0,0.566779,-10.00001,136,8,-1.05245e-07,-10
317,21.93956,1657950256.0,0.635987,-10.00001,136,8,-1.05225e-07,-10
318,22.00878,1657950256.0,0.705202,-10.0,136,8,-1.051322e-07,-10
319,22.07798,1657950256.0,0.774409,-10.00001,136,8,-1.049289e-07,-10
320,22.14718,1657950256.0,0.843608,-10.0,136,8,-1.054728e-07,-10
321,22.21639,1657950256.0,0.912813,-10.00001,136,8,-1.052412e-07,-10
322,22.28559,1657950256.0,0.982016,-10.00001,136,8,-1.052985e-07,-10
323,22.35479,1657950257.0,0.0512202,-10.00002,136,8,-1.050847e-07,-10
324,22.424,1657950257.0,0.120427,-10.00001,136,8,-1.052381e-07,-10
325,22.49322,1657950257.0,0.189643,-10.00001,136,8,-1.050756e-07,-10
326,22.56242,1657950257.0,0.258849,-10.0,136,8,-1.053006e-07,-10
327,22.63162,1657950257.0,0.328051,-10.00002,136,8,-1.050428e-07,-10
328,22.70083,1657950257.0,0.39726,-10.00002,136,8,-1.050298e-07,-10
329,22.77004,1657950257.0,0.466469,-10.00001,136,8,-1.051882e-07,-10
330,22.83926,1657950257.0,0.535691,-10.00001,136,8,-1.050916e-07,-10
331,22.90848,1657950257.0,0.604902,-10.00003,136,8,-1.049736e-07,-10
332,22.97768,1657950257.0,0.674112,-10.00001,136,8,-1.050101e-07,-10
333,23.04689,1657950257.0,0.74332,-10.00002,136,8,-1.051477e-07,-10
334,23.11611,1657950257.0,0.812533,-10.00002,136,8,-1.049744e-07,-10
335,23.18533,1657950257.0,0.881758,-10.00002,136,8,-1.052325e-07,-10
336,23.25454,1657950257.0,0.950964,-10.00002,136,8,-1.050462e-07,-10
337,23.32376,1657950258.0,0.0201824,-10.00002,136,8,-1.049383e-07,-10
338,23.39297,1657950258.0,0.0893949,-10.00001,136,8,-1.04972e-07,-10
339,23.46217,1657950258.0,0.1586,-10.0,136,8,-1.048865e-07,-10
340,23.53138,1657950258.0,0.227803,-10.00002,136,8,-1.050629e-07,-10
341,23.60058,1657950258.0,0.297003,-10.00002,136,8,-1.051991e-07,-10
342,23.66979,1657950258.0,0.366215,-10.00002,136,8,-1.053859e-07,-10
343,23.739,1657950258.0,0.435431,-10.00002,136,8,-1.049949e-07,-10
344,23.80822,1657950258.0,0.50465,-10.00002,136,8,-1.049348e-07,-10
345,23.87742,1657950258.0,0.573846,-10.00002,136,8,-1.051562e-07,-10
346,23.94662,1657950258.0,0.643043,-10.00002,136,8,-1.049212e-07,-10
347,24.01582,1657950258.0,0.712244,-10.00002,136,8,-1.049035e-07,-10
348,24.08502,1657950258.0,0.781444,-10.00001,136,8,-1.051183e-07,-10
349,24.15423,1657950258.0,0.850652,-10.00001,136,8,-1.048914e-07,-10
350,24.22342,1657950258.0,0.91985,-10.00001,136,8,-1.04999e-07,-10
351,24.29264,1657950258.0,0.989063,-10.00002,136,8,-1.050919e-07,-10
352,24.36184,1657950259.0,0.0582715,-10.00002,136,8,-1.050674e-07,-10
353,24.43105,1657950259.0,0.127475,-10.00001,136,8,-1.049872e-07,-10
354,24.50027,1657950259.0,0.196693,-10.00001,136,8,-1.048915e-07,-10
355,24.56948,1657950259.0,0.265904,-10.00002,136,8,-1.051104e-07,-10
356,24.63868,1657950259.0,0.335102,-10.00002,136,8,-1.048607e-07,-10
357,24.70789,1657950259.0,0.404318,-10.00002,136,8,-1.048197e-07,-10
358,24.77709,1657950259.0,0.473518,-10.00001,136,8,-1.050594e-07,-10
359,24.84631,1657950259.0,0.542738,-10.00001,136,8,-1.04932e-07,-10
360,24.91552,1657950259.0,0.611951,-10.00002,136,8,-1.049358e-07,-10
361,24.98472,1657950259.0,0.681146,-10.00002,136,8,-1.048803e-07,-10
362,25.05393,1657950259.0,0.750358,-10.00002,136,8,-1.051105e-07,-10
363,25.12313,1657950259.0,0.819561,-10.00002,136,8,-1.048873e-07,-10
364,25.19236,1657950259.0,0.888782,-10.00002,136,8,-1.049743e-07,-10
365,25.26157,1657950259.0,0.957997,-10.00002,136,8,-1.05054e-07,-10
366,25.33077,1657950260.0,0.0271964,-10.00002,136,8,-1.049023e-07,-10
367,25.39998,1657950260.0,0.0964076,-10.00001,136,8,-1.04953e-07,-10
368,25.4692,1657950260.0,0.165623,-10.00001,136,8,-1.050756e-07,-10
369,25.53842,1657950260.0,0.234842,-10.00002,136,8,-1.047414e-07,-10
370,25.60763,1657950260.0,0.304054,-10.00001,136,8,-1.046996e-07,-10
371,25.67684,1657950260.0,0.373262,-10.00001,136,8,-1.051272e-07,-10
372,25.74604,1657950260.0,0.442465,-10.00002,136,8,-1.047878e-07,-10
373,25.81524,1657950260.0,0.511668,-10.00002,136,8,-1.049406e-07,-10
374,25.88445,1657950260.0,0.580874,-10.00001,136,8,-1.048698e-07,-10
375,25.95365,1657950260.0,0.650074,-10.00001,136,8,-1.048445e-07,-10
376,26.02285,1657950260.0,0.719276,-10.00002,136,8,-1.048048e-07,-10
377,26.09205,1657950260.0,0.788481,-10.00002,136,8,-1.049669e-07,-10
378,26.16127,1657950260.0,0.857697,-10.00001,136,8,-1.048923e-07,-10
379,26.23049,1657950260.0,0.926912,-10.00001,136,8,-1.048775e-07,-10
380,26.29968,1657950260.0,0.996111,-10.00002,136,8,-1.048433e-07,-10
381,26.36888,1657950261.0,0.0653089,-10.00001,136,8,-1.04726e-07,-10
382,26.43808,1657950261.0,0.134508,-10.00002,136,8,-1.052155e-07,-10
383,26.5073,1657950261.0,0.203727,-10.00001,136,8,-1.049719e-07,-10
384,26.57651,1657950261.0,0.272935,-10.00001,136,8,-1.049098e-07,-10
385,26.64571,1657950261.0,0.342139,-10.00002,136,8,-1.047909e-07,-10
386,26.71492,1657950261.0,0.411343,-10.00002,136,8,-1.048676e-07,-10
387,26.78413,1657950261.0,0.480554,-10.00001,136,8,-1.047765e-07,-10
388,26.85335,1657950261.0,0.549773,-10.00001,136,8,-1.048343e-07,-10
389,26.92256,1657950261.0,0.618987,-10.00002,136,8,-1.048559e-07,-10
390,26.99177,1657950261.0,0.688198,-10.00002,136,8,-1.046961e-07,-10
391,27.06097,1657950261.0,0.757396,-10.00002,136,8,-1.050015e-07,-10
392,27.13017,1657950261.0,0.826597,-10.00002,136,8,-1.048438e-07,-10
393,27.19938,1657950261.0,0.895803,-10.00001,136,8,-1.049222e-07,-10
394,27.26859,1657950261.0,0.965019,-10.0,136,8,-1.04643e-07,-10
395,27.33781,1657950262.0,0.0342326,-10.00001,136,8,-1.048958e-07,-10
396,27.40702,1657950262.0,0.103446,-10.00001,136,8,-1.048386e-07,-10
397,27.47622,1657950262.0,0.172646,-10.00001,136,8,-1.048834e-07,-10
398,27.54542,1657950262.0,0.241851,-10.00001,136,8,-1.047504e-07,-10
399,27.61463,1657950262.0,0.311054,-10.00001,136,8,-1.048677e-07,-10
400,27.68383,1657950262.0,0.380259,-10.00002,136,8,-1.048478e-07,-10
401,27.75305,1657950262.0,0.449479,-10.00002,136,8,-1.045797e-07,-10
402,27.82225,1657950262.0,0.518677,-10.00002,136,8,-1.047238e-07,-10
403,27.89146,1657950262.0,0.587889,-10.00002,136,8,-1.048548e-07,-10
404,27.96068,1657950262.0,0.657104,-10.00001,136,8,-1.048393e-07,-10
405,28.02988,1657950262.0,0.726312,-9.999999,136,8,-1.049303e-07,-10
406,28.0991,1657950262.0,0.795524,-10.00001,136,8,-1.047375e-07,-10
407,28.16832,1657950262.0,0.864749,-10.0,136,8,-1.04544e-07,-10
408,28.23753,1657950262.0,0.933959,-9.999996,136,8,-1.048131e-07,-10
409,28.30674,1657950263.0,0.00316582,-10.0,136,8,-1.048311e-07,-10
410,28.37594,1657950263.0,0.0723646,-10.00001,136,8,-1.048227e-07,-10
411,28.44515,1657950263.0,0.141575,-10.00001,136,8,-1.047136e-07,-10
412,28.51436,1657950263.0,0.210788,-10.00001,136,8,-1.048887e-07,-10
413,28.58357,1657950263.0,0.280002,-10.00002,136,8,-1.049931e-07,-10
414,28.65279,1657950263.0,0.349215,-10.00001,136,8,-1.046807e-07,-10
415,28.72199,1657950263.0,0.41842,-10.00003,136,8,-1.046526e-07,-10
416,28.79119,1657950263.0,0.487619,-10.00002,136,8,-1.045675e-07,-10
417,28.86041,1657950263.0,0.556838,-10.00001,136,8,-1.048741e-07,-10
418,28.92961,1657950263.0,0.62604,-10.0,136,8,-1.047682e-07,-10
419,28.99882,1657950263.0,0.695244,-10.00001,136,8,-1.045711e-07,-10
420,29.06802,1657950263.0,0.764451,-10.00002,136,8,-1.048505e-07,-10
421,29.13722,1657950263.0,0.833649,-10.00001,136,8,-1.046846e-07,-10
422,29.20642,1657950263.0,0.902849,-10.00001,136,8,-1.046276e-07,-10
423,29.27562,1657950263.0,0.972051,-10.00002,136,8,-1.047871e-07,-10
424,29.34484,1657950264.0,0.0412703,-10.00002,136,8,-1.047594e-07,-10
425,29.41406,1657950264.0,0.110486,-10.00001,136,8,-1.048985e-07,-10
426,29.48328,1657950264.0,0.179705,-10.00001,136,8,-1.046633e-07,-10
427,29.55249,1657950264.0,0.248912,-10.00002,136,8,-1.045381e-07,-10
428,29.6217,1657950264.0,0.318129,-10.0,136,8,-1.04545e-07,-10
429,29.69092,1657950264.0,0.387346,-10.00001,136,8,-1.046046e-07,-10
430,29.76012,1657950264.0,0.456551,-10.00002,136,8,-1.046509e-07,-10
431,29.82934,1657950264.0,0.525767,-10.00002,136,8,-1.046736e-07,-10
432,29.89856,1657950264.0,0.594983,-10.00002,136,8,-1.04778e-07,-10
433,29.96777,1657950264.0,0.664193,-10.00001,136,8,-1.046956e-07,-10
434,30.03699,1657950264.0,0.733417,-10.00001,136,8,-1.046023e-07,-10
435,30.1062,1657950264.0,0.802628,-10.00001,136,8,-1.044605e-07,-10
436,30.17541,1657950264.0,0.871841,-10.00001,136,8,-1.046117e-07,-10
437,30.24461,1657950264.0,0.94104,-10.00002,136,8,-1.045272e-07,-10
438,30.31383,1657950265.0,0.0102569,-10.00001,136,8,-1.044269e-07,-10
439,30.38303,1657950265.0,0.0794531,-10.00002,136,8,-1.047631e-07,-10
440,30.45224,1657950265.0,0.148662,-10.00002,136,8,-1.046171e-07,-10
441,30.52143,1657950265.0,0.21786,-10.00002,136,8,-1.044289e-07,-10
442,30.59065,1657950265.0,0.287077,-10.00001,136,8,-1.047607e-07,-10
443,30.65986,1657950265.0,0.356285,-10.00001,136,8,-1.046158e-07,-10
444,30.72908,1657950265.0,0.42551,-10.00002,136,8,-1.04799e-07,-10
445,30.79829,1657950265.0,0.494718,-10.0,136,8,-1.046518e-07,-10
446,30.8675,1657950265.0,0.563928,-10.00001,136,8,-1.044788e-07,-10
447,30.93671,1657950265.0,0.633137,-10.00002,136,8,-1.044582e-07,-10
448,31.00593,1657950265.0,0.702353,-10.00001,136,8,-1.046439e-07,-10
449,31.07514,1657950265.0,0.771569,-10.00002,136,8,-1.044639e-07,-10
450,31.14435,1657950265.0,0.840775,-10.00001,136,8,-1.046666e-07,-10
451,31.21357,1657950265.0,0.909997,-10.00002,136,8,-1.04702e-07,-10
452,31.28277,1657950265.0,0.979199,-10.00001,136,8,-1.0463e-07,-10
453,31.35199,1657950266.0,0.048414,-10.00002,136,8,-1.045235e-07,-10
454,31.42119,1657950266.0,0.117612,-10.00002,136,8,-1.044488e-07,-10
455,31.4904,1657950266.0,0.18683,-10.00001,136,8,-1.045964e-07,-10
456,31.55962,1657950266.0,0.256045,-10.00001,136,8,-1.045222e-07,-10
457,31.62883,1657950266.0,0.325256,-10.00002,136,8,-1.044425e-07,-10
458,31.69804,1657950266.0,0.394471,-10.00002,136,8,-1.043842e-07,-10
459,31.76725,1657950266.0,0.463677,-10.00002,136,8,-1.044573e-07,-10
460,31.83646,1657950266.0,0.532883,-10.00001,136,8,-1.04575e-07,-10
461,31.90567,1657950266.0,0.602097,-10.00001,136,8,-1.045025e-07,-10
462,31.97487,1657950266.0,0.671301,-10.00001,136,8,-1.045139e-07,-10
463,32.04408,1657950266.0,0.740508,-10.00001,136,8,-1.045548e-07,-10
464,32.11328,1657950266.0,0.809711,-10.00002,136,8,-1.044153e-07,-10
465,32.18249,1657950266.0,0.878921,-10.00001,136,8,-1.044405e-07,-10
466,32.25171,1657950266.0,0.948133,-10.00001,136,8,-1.044065e-07,-10
467,32.32091,1657950267.0,0.0173381,-10.00002,136,8,-1.047712e-07,-10
468,32.39012,1657950267.0,0.0865466,-10.00001,136,8,-1.045377e-07,-10
469,32.45934,1657950267.0,0.155764,-10.00002,136,8,-1.043212e-07,-10
470,32.52856,1657950267.0,0.224983,-10.0,136,8,-1.044475e-07,-10
471,32.59777,1657950267.0,0.294195,-10.00001,136,8,-1.045788e-07,-10
472,32.66698,1657950267.0,0.363407,-10.00001,136,8,-1.044398e-07,-10
473,32.73618,1657950267.0,0.432608,-10.00001,136,8,-1.04274e-07,-10
474,32.8054,1657950267.0,0.501822,-10.00002,136,8,-1.045929e-07,-10
475,32.87461,1657950267.0,0.571039,-10.00001,136,8,-1.043891e-07,-10
476,32.94381,1657950267.0,0.640241,-10.00001,136,8,-1.045311e-07,-10
477,33.01302,1657950267.0,0.709448,-10.00001,136,8,-1.04451e-07,-10
478,33.08223,1657950267.0,0.778658,-10.0,136,8,-1.045374e-07,-10
479,33.15145,1657950267.0,0.847879,-10.0,136,8,-1.045025e-07,-10
480,33.22066,1657950267.0,0.917088,-10.00001,136,8,-1.044777e-07,-10
481,33.28987,1657950267.0,0.986298,-10.00002,136,8,-1.043571e-07,-10
482,33.35908,1657950268.0,0.0555076,-10.00001,136,8,-1.043231e-07,-10
483,33.42829,1657950268.0,0.124718,-10.00001,136,8,-1.045207e-07,-10
484,33.49751,1657950268.0,0.193933,-10.00002,136,8,-1.04287e-07,-10
485,33.56671,1657950268.0,0.263141,-10.00002,136,8,-1.04341e-07,-10
486,33.63592,1657950268.0,0.332352,-10.00002,136,8,-1.043624e-07,-10
487,33.70513,1657950268.0,0.401555,-10.00002,136,8,-1.043172e-07,-10
488,33.77434,1657950268.0,0.470763,-10.00001,136,8,-1.046277e-07,-10
489,33.84355,1657950268.0,0.539978,-10.00001,136,8,-1.044061e-07,-10
490,33.91277,1657950268.0,0.609194,-10.00001,136,8,-1.041318e-07,-10
491,33.98197,1657950268.0,0.678394,-10.00002,136,8,-1.043337e-07,-10
492,34.05118,1657950268.0,0.747606,-10.00002,136,8,-1.045418e-07,-10
493,34.1204,1657950268.0,0.816822,-9.999999,136,8,-1.04381e-07,-10
494,34.1896,1657950268.0,0.886026,-10.0,136,8,-1.044877e-07,-10
495,34.2588,1657950268.0,0.95523,-10.00001,136,8,-1.042575e-07,-10
496,34.328,1657950269.0,0.0244306,-10.00001,136,8,-1.042947e-07,-10
497,34.39722,1657950269.0,0.0936477,-10.00001,136,8,-1.044271e-07,-10
498,34.46644,1657950269.0,0.162864,-10.00001,136,8,-1.042232e-07,-10
499,34.53565,1657950269.0,0.232077,-10.00001,136,8,-1.042074e-07,-10
500,34.60485,1657950269.0,0.301281,-10.00001,136,8,-1.042191e-07,-10
501,34.67406,1657950269.0,0.370487,-10.00002,136,8,-1.043398e-07,-10
502,34.74328,1657950269.0,0.439705,-10.00002,136,8,-1.04212e-07,-10
503,34.81248,1657950269.0,0.508908,-10.00002,136,8,-1.043759e-07,-10
504,34.88169,1657950269.0,0.578115,-10.00001,136,8,-1.044003e-07,-10
505,34.95091,1657950269.0,0.647332,-10.00001,136,8,-1.043278e-07,-10
506,35.02012,1657950269.0,0.716551,-10.00001,136,8,-1.043625e-07,-10
507,35.08933,1657950269.0,0.785758,-10.00002,136,8,-1.042622e-07,-10
508,35.15855,1657950269.0,0.854975,-10.0,136,8,-1.043293e-07,-10
509,35.22776,1657950269.0,0.924185,-10.0,136,8,-1.044996e-07,-10
510,35.29696,1657950269.0,0.993383,-10.00001,136,8,-1.043327e-07,-10
511,35.36616,1657950270.0,0.0625851,-10.00001,136,8,-1.04394e-07,-10
512,35.43537,1657950270.0,0.131798,-10.00002,136,8,-1.041797e-07,-10
513,35.50457,1657950270.0,0.200997,-10.0,136,8,-1.043518e-07,-10
514,35.57377,1657950270.0,0.270199,-10.0,136,8,-1.04473e-07,-10
515,35.64297,1657950270.0,0.339397,-9.999999,136,8,-1.044096e-07,-10
516,35.71219,1657950270.0,0.408613,-10.00002,136,8,-1.041896e-07,-10
517,35.7814,1657950270.0,0.47783,-10.0,136,8,-1.042832e-07,-10
518,35.8506,1657950270.0,0.547031,-10.00001,136,8,-1.04235e-07,-10
519,35.9198,1657950270.0,0.616231,-10.00001,136,8,-1.042938e-07,-10
520,35.98901,1657950270.0,0.685434,-10.00001,136,8,-1.043562e-07,-10
521,36.05822,1657950270.0,0.754645,-10.00002,136,8,-1.042456e-07,-10
522,36.12743,1657950270.0,0.823857,-10.0,136,8,-1.043942e-07,-10
523,36.19665,1657950270.0,0.893077,-10.00001,136,8,-1.043303e-07,-10
524,36.26586,1657950270.0,0.962291,-10.00001,136,8,-1.044449e-07,-10
525,36.33508,1657950271.0,0.0315059,-10.00001,136,8,-1.04249e-07,-10
526,36.40429,1657950271.0,0.100719,-10.00001,136,8,-1.042277e-07,-10
527,36.47351,1657950271.0,0.169934,-10.0,136,8,-1.041306e-07,-10
528,36.54271,1657950271.0,0.239141,-10.00001,136,8,-1.041435e-07,-10
529,36.61193,1657950271.0,0.308352,-10.0,136,8,-1.043814e-07,-10
530,36.68114,1657950271.0,0.377566,-10.0,136,8,-1.042692e-07,-10
531,36.75035,1657950271.0,0.446776,-10.0,136,8,-1.0414e-07,-10
532,36.81955,1657950271.0,0.515977,-10.00001,136,8,-1.039808e-07,-10
533,36.88876,1657950271.0,0.585186,-10.00002,136,8,-1.041651e-07,-10
534,36.95796,1657950271.0,0.654384,-10.00001,136,8,-1.042329e-07,-10
535,37.02717,1657950271.0,0.723598,-10.00001,136,8,-1.042284e-07,-10
536,37.09638,1657950271.0,0.792809,-10.00001,136,8,-1.040022e-07,-10
537,37.16559,1657950271.0,0.86202,-10.00001,136,8,-1.041249e-07,-10
538,37.2348,1657950271.0,0.931223,-10.00001,136,8,-1.040803e-07,-10
539,37.304,1657950272.0,0.00043044,-10.0,136,8,-1.042406e-07,-10
540,37.37321,1657950272.0,0.0696321,-10.00001,136,8,-1.041763e-07,-10
541,37.44241,1657950272.0,0.138838,-10.00001,136,8,-1.043503e-07,-10
542,37.51163,1657950272.0,0.208058,-10.00002,136,8,-1.042062e-07,-10
543,37.58084,1657950272.0,0.277264,-10.00003,136,8,-1.039835e-07,-10
544,37.65005,1657950272.0,0.346476,-10.00002,136,8,-1.039497e-07,-10
545,37.71925,1657950272.0,0.415678,-10.00001,136,8,-1.039582e-07,-10
546,37.78846,1657950272.0,0.484884,-10.00002,136,8,-1.041144e-07,-10
547,37.85766,1657950272.0,0.554088,-10.00002,136,8,-1.040618e-07,-10
548,37.92688,1657950272.0,0.623304,-10.00002,136,8,-1.042875e-07,-10
549,37.9961,1657950272.0,0.692522,-10.00003,136,8,-1.043698e-07,-10
550,38.0653,1657950272.0,0.761723,-10.00002,136,8,-1.042943e-07,-10
551,38.13451,1657950272.0,0.830939,-10.00002,136,8,-1.042643e-07,-10
552,38.20372,1657950272.0,0.900144,-10.00002,136,8,-1.041984e-07,-10
553,38.27292,1657950272.0,0.969351,-10.00001,136,8,-1.043389e-07,-10
554,38.34213,1657950273.0,0.0385564,-10.00002,136,8,-1.043963e-07,-10
555,38.41133,1657950273.0,0.107755,-10.00001,136,8,-1.043135e-07,-10
556,38.48053,1657950273.0,0.176959,-10.00002,136,8,-1.039057e-07,-10
557,38.54974,1657950273.0,0.246169,-10.00002,136,8,-1.041651e-07,-10
558,38.61895,1657950273.0,0.315374,-10.00002,136,8,-1.043954e-07,-10
559,38.68815,1657950273.0,0.384572,-10.00001,136,8,-1.042336e-07,-10
560,38.75735,1657950273.0,0.453781,-10.0,136,8,-1.04204e-07,-10
561,38.82657,1657950273.0,0.522996,-10.00001,136,8,-1.040909e-07,-10
562,38.89577,1657950273.0,0.592194,-10.00001,136,8,-1.042923e-07,-10
563,38.96499,1657950273.0,0.661413,-10.00002,136,8,-1.039172e-07,-10
564,39.03419,1657950273.0,0.730613,-10.00003,136,8,-1.042158e-07,-10
565,39.1034,1657950273.0,0.799831,-10.00001,136,8,-1.040097e-07,-10
566,39.17262,1657950273.0,0.869043,-10.00002,136,8,-1.042459e-07,-10
567,39.24183,1657950273.0,0.938252,-10.00003,136,8,-1.041446e-07,-10
568,39.31103,1657950274.0,0.00745214,-10.00001,136,8,-1.040577e-07,-10
569,39.38024,1657950274.0,0.0766699,-10.00001,136,8,-1.039556e-07,-10
570,39.44946,1657950274.0,0.145884,-10.0,136,8,-1.040828e-07,-10
571,39.51867,1657950274.0,0.215093,-10.0,136,8,-1.042232e-07,-10
572,39.58787,1657950274.0,0.284296,-10.00001,136,8,-1.040981e-07,-10
573,39.65709,1657950274.0,0.353513,-10.00001,136,8,-1.039925e-07,-10
574,39.72629,1657950274.0,0.422717,-10.00002,136,8,-1.042778e-07,-10
575,39.7955,1657950274.0,0.491931,-10.00002,136,8,-1.041411e-07,-10
576,39.86472,1657950274.0,0.561145,-10.00002,136,8,-1.039322e-07,-10
577,39.93393,1657950274.0,0.630354,-10.00001,136,8,-1.043206e-07,-10
578,40.00312,1657950274.0,0.699551,-10.00002,136,8,-1.042131e-07,-10
579,40.07233,1657950274.0,0.768758,-10.00001,136,8,-1.041228e-07,-10
580,40.14153,1657950274.0,0.837961,-10.00001,136,8,-1.041611e-07,-10
581,40.21074,1657950274.0,0.907166,-10.00001,136,8,-1.040446e-07,-10
582,40.27994,1657950274.0,0.976366,-10.0,136,8,-1.040001e-07,-10
583,40.34915,1657950275.0,0.0455758,-10.00002,136,8,-1.042642e-07,-10
584,40.41835,1657950275.0,0.114772,-10.00002,136,8,-1.042138e-07,-10
585,40.48756,1657950275.0,0.183991,-10.00001,136,8,-1.037596e-07,-10
586,40.55677,1657950275.0,0.253196,-10.00002,136,8,-1.040234e-07,-10
587,40.62598,1657950275.0,0.322406,-10.00002,136,8,-1.041867e-07,-10
588,40.69518,1657950275.0,0.391609,-10.00001,136,8,-1.039446e-07,-10
589,40.76438,1657950275.0,0.460806,-10.00002,136,8,-1.042522e-07,-10
590,40.83359,1657950275.0,0.530013,-10.00002,136,8,-1.039453e-07,-10
591,40.90278,1657950275.0,0.599211,-10.00001,136,8,-1.040761e-07,-10
592,40.97199,1657950275.0,0.668414,-10.00001,136,8,-1.04042e-07,-10
593,41.0412,1657950275.0,0.737627,-10.00001,136,8,-1.03953e-07,-10
594,41.11042,1657950275.0,0.806847,-10.00002,136,8,-1.039119e-07,-10
595,41.17963,1657950275.0,0.876056,-10.00002,136,8,-1.037911e-07,-10
596,41.24883,1657950275.0,0.945256,-10.00002,136,8,-1.03978e-07,-10
597,41.31803,1657950276.0,0.0144615,-10.00002,136,8,-1.038272e-07,-10
598,41.38725,1657950276.0,0.0836735,-10.00001,136,8,-1.039716e-07,-10
599,41.45645,1657950276.0,0.152878,-10.00001,136,8,-1.042321e-07,-10
600,41.52567,1657950276.0,0.222098,-10.00001,136,8,-1.042104e-07,-10
601,41.59488,1657950276.0,0.29131,-10.00001,136,8,-1.040091e-07,-10
602,41.66408,1657950276.0,0.36051,-10.00001,136,8,-1.040593e-07,-10
603,41.73329,1657950276.0,0.429712,-10.00001,136,8,-1.040209e-07,-10
604,41.80251,1657950276.0,0.498938,-10.00001,136,8,-1.041335e-07,-10
605,41.87172,1657950276.0,0.56815,-10.00002,136,8,-1.039325e-07,-10
606,41.94094,1657950276.0,0.637367,-10.00001,136,8,-1.041714e-07,-10
607,42.01015,1657950276.0,0.706572,-10.00002,136,8,-1.039244e-07,-10
608,42.07935,1657950276.0,0.775777,-10.00001,136,8,-1.038662e-07,-10
609,42.14856,1657950276.0,0.84499,-10.00001,136,8,-1.039724e-07,-10
610,42.21778,1657950276.0,0.914206,-10.00002,136,8,-1.040735e-07,-10
611,42.28698,1657950276.0,0.983402,-10.00002,136,8,-1.039191e-07,-10
612,42.3562,1657950277.0,0.0526259,-10.00002,136,8,-1.040136e-07,-10
613,42.42542,1657950277.0,0.121843,-10.00001,136,8,-1.04171e-07,-10
614,42.49463,1657950277.0,0.191057,-10.00001,136,8,-1.039264e-07,-10
615,42.56384,1657950277.0,0.260262,-10.00002,136,8,-1.038641e-07,-10
616,42.63303,1657950277.0,0.329461,-10.00001,136,8,-1.03958e-07,-10
617,42.70225,1657950277.0,0.398679,-10.00001,136,8,-1.037797e-07,-10
618,42.77146,1657950277.0,0.467889,-10.00002,136,8,-1.041791e-07,-10
619,42.84066,1657950277.0,0.537087,-10.00001,136,8,-1.039202e-07,-10
620,42.90986,1657950277.0,0.606289,-10.00001,136,8,-1.038617e-07,-10
621,42.97907,1657950277.0,0.6755,-10.0,136,8,-1.039676e-07,-10
622,43.04828,1657950277.0,0.744707,-10.0,136,8,-1.037881e-07,-10
623,43.1175,1657950277.0,0.81393,-10.00001,136,8,-1.03992e-07,-10
624,43.18672,1657950277.0,0.883146,-10.00001,136,8,-1.041303e-07,-10
625,43.25593,1657950277.0,0.952361,-10.0,136,8,-1.038953e-07,-10
626,43.32514,1657950278.0,0.0215672,-10.0,136,8,-1.037116e-07,-10
627,43.39435,1657950278.0,0.0907748,-10.00001,136,8,-1.040447e-07,-10
628,43.46356,1657950278.0,0.159989,-10.00002,136,8,-1.037675e-07,-10
629,43.53278,1657950278.0,0.229202,-10.00001,136,8,-1.039127e-07,-10
630,43.60198,1657950278.0,0.298402,-10.00001,136,8,-1.041571e-07,-10
631,43.67118,1657950278.0,0.367605,-10.00002,136,8,-1.040015e-07,-10
632,43.74038,1657950278.0,0.436803,-10.00002,136,8,-1.040966e-07,-10
633,43.80958,1657950278.0,0.506002,-10.0,136,8,-1.037418e-07,-10
634,43.87877,1657950278.0,0.575199,-10.00001,136,8,-1.038783e-07,-10
635,43.94797,1657950278.0,0.644398,-10.00001,136,8,-1.040552e-07,-10
636,44.01717,1657950278.0,0.7136,-10.00001,136,8,-1.039229e-07,-10
637,44.08638,1657950278.0,0.782805,-10.00001,136,8,-1.037848e-07,-10
638,44.15558,1657950278.0,0.852007,-10.00002,136,8,-1.037059e-07,-10
639,44.22478,1657950278.0,0.921207,-10.00001,136,8,-1.038415e-07,-10
640,44.29399,1657950278.0,0.99042,-10.00001,136,8,-1.039532e-07,-10
641,44.36321,1657950279.0,0.0596332,-10.00001,136,8,-1.03775e-07,-10
642,44.43243,1657950279.0,0.128853,-10.00001,136,8,-1.040143e-07,-10
643,44.50163,1657950279.0,0.198053,-10.00001,136,8,-1.038204e-07,-10
644,44.57082,1657950279.0,0.267249,-10.00002,136,8,-1.037604e-07,-10
645,44.64003,1657950279.0,0.336456,-10.00001,136,8,-1.040041e-07,-10
646,44.70925,1657950279.0,0.405672,-10.00002,136,8,-1.040542e-07,-10
647,44.77845,1657950279.0,0.474879,-10.00001,136,8,-1.037818e-07,-10
648,44.84767,1657950279.0,0.544095,-10.00002,136,8,-1.037969e-07,-10
649,44.91688,1657950279.0,0.613308,-10.00001,136,8,-1.039296e-07,-10
650,44.98609,1657950279.0,0.682514,-10.00001,136,8,-1.035911e-07,-10
651,45.0553,1657950279.0,0.751729,-10.00002,136,8,-1.037962e-07,-10
652,45.12451,1657950279.0,0.820935,-10.00001,136,8,-1.038196e-07,-10
653,45.19371,1657950279.0,0.890136,-10.00001,136,8,-1.037035e-07,-10
654,45.26291,1657950279.0,0.959341,-10.00001,136,8,-1.037079e-07,-10
655,45.33212,1657950280.0,0.0285487,-10.00001,136,8,-1.036508e-07,-10
656,45.40134,1657950280.0,0.0977619,-10.00001,136,8,-1.038336e-07,-10
657,45.47056,1657950280.0,0.166984,-10.00002,136,8,-1.037367e-07,-10
658,45.53976,1657950280.0,0.236186,-10.00002,136,8,-1.036661e-07,-10
659,45.60896,1657950280.0,0.305387,-10.00001,136,8,-1.037244e-07,-10
660,45.67818,1657950280.0,0.374602,-10.00001,136,8,-1.038944e-07,-10
661,45.74739,1657950280.0,0.44382,-10.00001,136,8,-1.037971e-07,-10
662,45.8166,1657950280.0,0.513029,-10.00001,136,8,-1.035542e-07,-10
663,45.8858,1657950280.0,0.58223,-10.00001,136,8,-1.039414e-07,-10
664,45.95501,1657950280.0,0.651437,-10.00001,136,8,-1.03809e-07,-10
665,46.02421,1657950280.0,0.720636,-10.00002,136,8,-1.03743e-07,-10
666,46.09341,1657950280.0,0.789839,-10.00002,136,8,-1.037056e-07,-10
667,46.16261,1657950280.0,0.859041,-10.00002,136,8,-1.038019e-07,-10
668,46.23183,1657950280.0,0.928253,-10.00001,136,8,-1.037748e-07,-10
669,46.30102,1657950280.0,0.997451,-10.00002,136,8,-1.039204e-07,-10
670,46.37024,1657950281.0,0.0666639,-10.00002,136,8,-1.036515e-07,-10
671,46.43945,1657950281.0,0.135873,-10.00002,136,8,-1.037658e-07,-10
672,46.50866,1657950281.0,0.205085,-10.00001,136,8,-1.037159e-07,-10
673,46.57786,1657950281.0,0.274291,-10.00003,136,8,-1.035526e-07,-10
674,46.64708,1657950281.0,0.343504,-10.00001,136,8,-1.038141e-07,-10
675,46.71629,1657950281.0,0.412715,-10.00001,136,8,-1.038311e-07,-10
676,46.7855,1657950281.0,0.48193,-10.00002,136,8,-1.037505e-07,-10
677,46.85471,1657950281.0,0.551137,-10.00002,136,8,-1.038086e-07,-10
678,46.92392,1657950281.0,0.620344,-10.00002,136,8,-1.040845e-07,-10
679,46.99314,1657950281.0,0.689562,-10.00001,136,8,-1.037394e-07,-10
680,47.06233,1657950281.0,0.758761,-10.00002,136,8,-1.039197e-07,-10
681,47.13155,1657950281.0,0.827978,-10.00001,136,8,-1.038511e-07,-10
682,47.20077,1657950281.0,0.897195,-10.00001,136,8,-1.037966e-07,-10
683,47.26998,1657950281.0,0.966408,-10.00002,136,8,-1.038165e-07,-10
684,47.33918,1657950282.0,0.03561,-10.00001,136,8,-1.036679e-07,-10
685,47.4084,1657950282.0,0.104831,-10.00002,136,8,-1.034396e-07,-10
686,47.4776,1657950282.0,0.174031,-10.00002,136,8,-1.038827e-07,-10
687,47.54681,1657950282.0,0.243233,-10.00002,136,8,-1.037655e-07,-10
688,47.61601,1657950282.0,0.312441,-10.00001,136,8,-1.037092e-07,-10
689,47.68523,1657950282.0,0.381654,-10.00001,136,8,-1.037157e-07,-10
690,47.75444,1657950282.0,0.450863,-10.00002,136,8,-1.039089e-07,-10
691,47.82365,1657950282.0,0.520078,-10.00001,136,8,-1.037379e-07,-10
692,47.89285,1657950282.0,0.589281,-10.00002,136,8,-1.037839e-07,-10
693,47.96206,1657950282.0,0.658487,-10.00002,136,8,-1.036892e-07,-10
694,48.03126,1657950282.0,0.727691,-10.00002,136,8,-1.036298e-07,-10
695,48.10048,1657950282.0,0.796902,-10.00001,136,8,-1.037916e-07,-10
696,48.16967,1657950282.0,0.8661,-10.00001,136,8,-1.038207e-07,-10
697,48.23889,1657950282.0,0.935315,-10.00002,136,8,-1.03521e-07,-10
698,48.3081,1657950283.0,0.00452914,-10.00001,136,8,-1.038757e-07,-10
699,48.37731,1657950283.0,0.0737343,-10.0,136,8,-1.037304e-07,-10
700,48.44653,1657950283.0,0.142952,-10.00001,136,8,-1.036323e-07,-10
701,48.51574,1657950283.0,0.21217,-10.00001,136,8,-1.037353e-07,-10
702,48.58496,1657950283.0,0.281388,-10.00001,136,8,-1.03621e-07,-10
703,48.65416,1657950283.0,0.350587,-10.00001,136,8,-1.03544e-07,-10
704,48.72336,1657950283.0,0.419783,-9.999993,136,8,-1.037404e-07,-10
705,48.79258,1657950283.0,0.489008,-10.0,136,8,-1.038185e-07,-10
706,48.8618,1657950283.0,0.558228,-9.999995,136,8,-1.035626e-07,-10
707,48.93101,1657950283.0,0.627435,-9.999994,136,8,-1.038678e-07,-10
708,49.00022,1657950283.0,0.69665,-10.0,136,8,-1.03659e-07,-10
709,49.06943,1657950283.0,0.765856,-10.0,136,8,-1.037303e-07,-10
710,49.13863,1657950283.0,0.835054,-10.0,136,8,-1.036629e-07,-10
711,49.20783,1657950283.0,0.904252,-10.00001,136,8,-1.036449e-07,-10
712,49.27703,1657950283.0,0.973459,-10.0,136,8,-1.03649e-07,-10
713,49.34624,1657950284.0,0.0426673,-10.0,136,8,-1.03751e-07,-10
714,49.41545,1657950284.0,0.111874,-10.00001,136,8,-1.036316e-07,-10
715,49.48465,1657950284.0,0.181074,-10.0,136,8,-1.037223e-07,-10
716,49.55386,1657950284.0,0.250286,-10.0,136,8,-1.036765e-07,-10
717,49.62307,1657950284.0,0.319499,-10.00001,136,8,-1.03598e-07,-10
718,49.69228,1657950284.0,0.388708,-10.00001,136,8,-1.037127e-07,-10
719,49.76149,1657950284.0,0.457914,-9.999999,136,8,-1.036128e-07,-10
720,49.8307,1657950284.0,0.527122,-10.00002,136,8,-1.034762e-07,-10
721,49.89991,1657950284.0,0.596335,-10.00001,136,8,-1.036371e-07,-10
722,49.96911,1657950284.0,0.665534,-10.0,136,8,-1.036039e-07,-10
723,50.03831,1657950284.0,0.734741,-9.999999,136,8,-1.039082e-07,-10
724,50.10752,1657950284.0,0.80395,-10.00001,136,8,-1.036829e-07,-10
725,50.17673,1657950284.0,0.873154,-10.0,136,8,-1.036275e-07,-10
726,50.24594,1657950284.0,0.942365,-10.0,136,8,-1.037736e-07,-10
727,50.31515,1657950285.0,0.0115771,-10.00001,136,8,-1.035577e-07,-10
728,50.38436,1657950285.0,0.0807861,-10.00001,136,8,-1.03966e-07,-10
729,50.45357,1657950285.0,0.149995,-10.0,136,8,-1.034677e-07,-10
730,50.52278,1657950285.0,0.219203,-10.00001,136,8,-1.035723e-07,-10
731,50.59199,1657950285.0,0.288414,-10.0,136,8,-1.038128e-07,-10
732,50.6612,1657950285.0,0.357623,-10.00001,136,8,-1.035702e-07,-10
733,50.7304,1657950285.0,0.426824,-10.0,136,8,-1.03608e-07,-10
734,50.79961,1657950285.0,0.496036,-10.0,136,8,-1.035893e-07,-10
735,50.86881,1657950285.0,0.565233,-10.00001,136,8,-1.033684e-07,-10
736,50.93801,1657950285.0,0.634436,-10.00001,136,8,-1.037626e-07,-10
737,51.00721,1657950285.0,0.703634,-10.00001,136,8,-1.035857e-07,-10
738,51.07641,1657950285.0,0.772836,-10.00001,136,8,-1.033333e-07,-10
739,51.14562,1657950285.0,0.842043,-10.00002,136,8,-1.03544e-07,-10
740,51.21482,1657950285.0,0.911245,-10.00001,136,8,-1.034703e-07,-10
741,51.28402,1657950285.0,0.980444,-10.00001,136,8,-1.034692e-07,-10
742,51.35323,1657950286.0,0.0496608,-10.00001,136,8,-1.036601e-07,-10
743,51.42245,1657950286.0,0.118872,-10.00001,136,8,-1.034977e-07,-10
744,51.49166,1657950286.0,0.188085,-10.0,136,8,-1.034614e-07,-10
745,51.56087,1657950286.0,0.257292,-10.00001,136,8,-1.037713e-07,-10
746,51.63008,1657950286.0,0.326504,-10.00001,136,8,-1.035782e-07,-10
747,51.69929,1657950286.0,0.395719,-10.00001,136,8,-1.036941e-07,-10
748,51.76849,1657950286.0,0.464914,-10.0,136,8,-1.037009e-07,-10
749,51.8377,1657950286.0,0.534123,-10.00001,136,8,-1.035734e-07,-10
750,51.90691,1657950286.0,0.603336,-10.00001,136,8,-1.036367e-07,-10
751,51.97613,1657950286.0,0.672553,-10.0,136,8,-1.033271e-07,-10
752,52.04533,1657950286.0,0.741759,-10.00001,136,8,-1.037105e-07,-10
753,52.11455,1657950286.0,0.810977,-10.00002,136,8,-1.034969e-07,-10
754,52.18376,1657950286.0,0.880188,-10.00001,136,8,-1.036357e-07,-10
755,52.25298,1657950286.0,0.949402,-10.00001,136,8,-1.034629e-07,-10
756,52.32217,1657950287.0,0.0185999,-10.00001,136,8,-1.034663e-07,-10
757,52.39139,1657950287.0,0.0878126,-10.0,136,8,-1.035203e-07,-10
758,52.46061,1657950287.0,0.157036,-10.0,136,8,-1.034024e-07,-10
759,52.52982,1657950287.0,0.226245,-10.00001,136,8,-1.035161e-07,-10
760,52.59903,1657950287.0,0.295461,-10.00001,136,8,-1.034245e-07,-10
761,52.66824,1657950287.0,0.36467,-10.0,136,8,-1.03652e-07,-10
762,52.73746,1657950287.0,0.433884,-10.0,136,8,-1.032962e-07,-10
763,52.80668,1657950287.0,0.503103,-9.999993,136,8,-1.034246e-07,-10
764,52.87589,1657950287.0,0.572315,-10.00001,136,8,-1.035563e-07,-10
765,52.94509,1657950287.0,0.641515,-10.00001,136,8,-1.034083e-07,-10
766,53.01431,1657950287.0,0.710734,-10.00001,136,8,-1.036611e-07,-10
767,53.08352,1657950287.0,0.779948,-10.00002,136,8,-1.035971e-07,-10
768,53.15274,1657950287.0,0.849165,-10.00002,136,8,-1.036187e-07,-10
769,53.22195,1657950287.0,0.918381,-10.00002,136,8,-1.036983e-07,-10
770,53.29117,1657950287.0,0.987594,-10.00001,136,8,-1.035571e-07,-10
771,53.36037,1657950288.0,0.0568014,-10.00001,136,8,-1.033757e-07,-10
772,53.4296,1657950288.0,0.126025,-10.00002,136,8,-1.033638e-07,-10
773,53.49882,1657950288.0,0.195243,-10.00003,136,8,-1.034253e-07,-10
774,53.56804,1657950288.0,0.264462,-10.00002,136,8,-1.035176e-07,-10
775,53.63723,1657950288.0,0.333661,-10.00002,136,8,-1.034662e-07,-10
776,53.70645,1657950288.0,0.402874,-10.00002,136,8,-1.036568e-07,-10
777,53.77567,1657950288.0,0.472095,-10.00002,136,8,-1.035181e-07,-10
778,53.84488,1657950288.0,0.541309,-10.00002,136,8,-1.035387e-07,-10
779,53.91409,1657950288.0,0.610513,-10.00002,136,8,-1.034528e-07,-10
780,53.98329,1657950288.0,0.67972,-10.00002,136,8,-1.035129e-07,-10
781,54.05251,1657950288.0,0.748935,-10.00002,136,8,-1.035206e-07,-10
782,54.12172,1657950288.0,0.818143,-10.00003,136,8,-1.03278e-07,-10
783,54.19093,1657950288.0,0.887357,-10.00002,136,8,-1.032616e-07,-10
784,54.26013,1657950288.0,0.956559,-10.00002,136,8,-1.035684e-07,-10
785,54.32935,1657950289.0,0.0257762,-10.00003,136,8,-1.03286e-07,-10
786,54.39857,1657950289.0,0.0949996,-10.00002,136,8,-1.0352e-07,-10
787,54.46779,1657950289.0,0.164215,-10.00002,136,8,-1.033064e-07,-10
788,54.53701,1657950289.0,0.233435,-10.00002,136,8,-1.034844e-07,-10
789,54.60621,1657950289.0,0.30264,-10.00001,136,8,-1.032545e-07,-10
790,54.67541,1657950289.0,0.371841,-10.00001,136,8,-1.033113e-07,-10
791,54.74463,1657950289.0,0.441056,-10.00002,136,8,-1.03571e-07,-10
792,54.81385,1657950289.0,0.510272,-10.00002,136,8,-1.034235e-07,-10
793,54.88306,1657950289.0,0.579491,-10.00002,136,8,-1.034452e-07,-10
794,54.95228,1657950289.0,0.648705,-10.00002,136,8,-1.03559e-07,-10
795,55.02149,1657950289.0,0.717919,-10.00002,136,8,-1.034421e-07,-10
796,55.09069,1657950289.0,0.78712,-10.00002,136,8,-1.032917e-07,-10
797,55.15989,1657950289.0,0.856319,-10.00002,136,8,-1.033083e-07,-10
798,55.22911,1657950289.0,0.925538,-10.00001,136,8,-1.034632e-07,-10
799,55.29831,1657950289.0,0.99474,-10.00002,136,8,-1.03291e-07,-10
800,55.36752,1657950290.0,0.0639442,-10.00002,136,8,-1.034501e-07,-10
801,55.43672,1657950290.0,0.133146,-10.00001,136,8,-1.035673e-07,-10
802,55.50593,1657950290.0,0.202353,-10.00002,136,8,-1.033174e-07,-10
803,55.57513,1657950290.0,0.271554,-10.00001,136,8,-1.033694e-07,-10
804,55.64434,1657950290.0,0.340771,-10.0,136,8,-1.034641e-07,-10
805,55.71356,1657950290.0,0.409984,-10.00002,136,8,-1.03402e-07,-10
806,55.78277,1657950290.0,0.479193,-9.999996,136,8,-1.035135e-07,-10
807,55.85197,1657950290.0,0.548393,-10.0,136,8,-1.035844e-07,-10
808,55.92118,1657950290.0,0.617608,-10.00001,136,8,-1.036405e-07,-10
809,55.99038,1657950290.0,0.686807,-10.00002,136,8,-1.032317e-07,-10
810,56.05959,1657950290.0,0.756017,-10.00002,136,8,-1.036462e-07,-10
811,56.12881,1657950290.0,0.825234,-10.00001,136,8,-1.035229e-07,-10
812,56.19801,1657950290.0,0.894432,-10.00001,136,8,-1.031511e-07,-10
813,56.26721,1657950290.0,0.96364,-10.00001,136,8,-1.032974e-07,-10
814,56.33643,1657950291.0,0.0328525,-10.0,136,8,-1.036958e-07,-10
815,56.40564,1657950291.0,0.102067,-10.00002,136,8,-1.033564e-07,-10
816,56.47485,1657950291.0,0.17128,-10.00001,136,8,-1.034991e-07,-10
817,56.54407,1657950291.0,0.240494,-10.00001,136,8,-1.035542e-07,-10
818,56.61328,1657950291.0,0.309711,-10.0,136,8,-1.03347e-07,-10
819,56.6825,1657950291.0,0.378925,-10.00001,136,8,-1.032854e-07,-10
820,56.7517,1657950291.0,0.448132,-10.0,136,8,-1.03414e-07,-10
821,56.8209,1657950291.0,0.51733,-10.00001,136,8,-1.034273e-07,-10
822,56.89012,1657950291.0,0.586544,-10.00001,136,8,-1.034009e-07,-10
823,56.95933,1657950291.0,0.655761,-10.00001,136,8,-1.035418e-07,-10
824,57.02854,1657950291.0,0.72497,-10.00002,136,8,-1.033784e-07,-10
825,57.09775,1657950291.0,0.794179,-10.00002,136,8,-1.033003e-07,-10
826,57.16695,1657950291.0,0.863381,-10.00003,136,8,-1.032507e-07,-10
827,57.23615,1657950291.0,0.932578,-10.00002,136,8,-1.034655e-07,-10
828,57.30535,1657950292.0,0.00177806,-10.00001,136,8,-1.035844e-07,-10
829,57.37456,1657950292.0,0.0709842,-10.00001,136,8,-1.03449e-07,-10
830,57.44378,1657950292.0,0.14021,-10.00002,136,8,-1.034246e-07,-10
831,57.51298,1657950292.0,0.209407,-10.00001,136,8,-1.033472e-07,-10
832,57.58218,1657950292.0,0.27861,-10.00001,136,8,-1.033911e-07,-10
833,57.65139,1657950292.0,0.347812,-10.00001,136,8,-1.032746e-07,-10
834,57.72061,1657950292.0,0.417033,-10.00002,136,8,-1.032837e-07,-10
835,57.78983,1657950292.0,0.486254,-10.00002,136,8,-1.034646e-07,-10
836,57.85903,1657950292.0,0.555453,-10.0,136,8,-1.033082e-07,-10
837,57.92825,1657950292.0,0.624672,-10.00002,136,8,-1.03346e-07,-10
838,57.99745,1657950292.0,0.693876,-10.00001,136,8,-1.033716e-07,-10
839,58.06667,1657950292.0,0.763093,-10.00001,136,8,-1.03181e-07,-10
840,58.13587,1657950292.0,0.832298,-10.00001,136,8,-1.034902e-07,-10
841,58.20508,1657950292.0,0.901511,-10.00002,136,8,-1.032794e-07,-10
842,58.27429,1657950292.0,0.970718,-10.00002,136,8,-1.032982e-07,-10
843,58.3435,1657950293.0,0.0399239,-10.00001,136,8,-1.033745e-07,-10
844,58.41272,1657950293.0,0.109148,-10.00001,136,8,-1.03345e-07,-10
845,58.48193,1657950293.0,0.178355,-10.00002,136,8,-1.032192e-07,-10
846,58.55114,1657950293.0,0.24757,-10.00001,136,8,-1.031668e-07,-10
847,58.62035,1657950293.0,0.316781,-10.00002,136,8,-1.033002e-07,-10
848,58.68956,1657950293.0,0.385986,-10.00002,136,8,-1.03216e-07,-10
849,58.75877,1657950293.0,0.455199,-10.00001,136,8,-1.034028e-07,-10
850,58.82798,1657950293.0,0.524411,-10.00001,136,8,-1.032434e-07,-10
851,58.89719,1657950293.0,0.593621,-10.00001,136,8,-1.031999e-07,-10
852,58.9664,1657950293.0,0.662828,-10.00001,136,8,-1.033372e-07,-10
853,59.03562,1657950293.0,0.732044,-10.00002,136,8,-1.030628e-07,-10
854,59.10482,1657950293.0,0.801243,-10.00001,136,8,-1.03251e-07,-10
855,59.17401,1657950293.0,0.870441,-10.00001,136,8,-1.031915e-07,-10
856,59.24323,1657950293.0,0.939654,-10.00001,136,8,-1.034606e-07,-10
857,59.31243,1657950294.0,0.0088571,-10.0,136,8,-1.032759e-07,-10
858,59.38165,1657950294.0,0.0780717,-10.00002,136,8,-1.033367e-07,-10
859,59.45086,1657950294.0,0.147286,-10.00002,136,8,-1.033625e-07,-10
860,59.52006,1657950294.0,0.216485,-10.0,136,8,-1.031131e-07,-10
861,59.58927,1657950294.0,0.285693,-10.00002,136,8,-1.031614e-07,-10
862,59.65847,1657950294.0,0.354895,-10.00002,136,8,-1.031352e-07,-10
863,59.72768,1657950294.0,0.424106,-10.00002,136,8,-1.029965e-07,-10
864,59.79688,1657950294.0,0.493305,-10.00002,136,8,-1.033871e-07,-10
865,59.86609,1657950294.0,0.562517,-9.999998,136,8,-1.031458e-07,-10
866,59.93529,1657950294.0,0.631719,-10.00002,136,8,-1.033913e-07,-10
867,60.00451,1657950294.0,0.700935,-10.00001,136,8,-1.031298e-07,-10
868,60.07372,1657950294.0,0.770149,-10.00001,136,8,-1.029792e-07,-10
869,60.14293,1657950294.0,0.839361,-9.999998,136,8,-1.0336e-07,-10
870,60.21214,1657950294.0,0.908563,-10.00001,136,8,-1.031514e-07,-10
871,60.28135,1657950294.0,0.977772,-10.00001,136,8,-1.032621e-07,-10
872,60.35056,1657950295.0,0.0469911,-10.00001,136,8,-1.03228e-07,-10
873,60.41976,1657950295.0,0.116191,-10.0,136,8,-1.032713e-07,-10
874,60.48898,1657950295.0,0.185404,-10.0,136,8,-1.030069e-07,-10
875,60.55818,1657950295.0,0.25461,-10.00001,136,8,-1.034916e-07,-10
876,60.62738,1657950295.0,0.323808,-10.00001,136,8,-1.032692e-07,-10
877,60.6966,1657950295.0,0.393026,-10.00001,136,8,-1.031294e-07,-10
878,60.76582,1657950295.0,0.462243,-10.00001,136,8,-1.032445e-07,-10
879,60.83502,1657950295.0,0.531443,-10.00001,136,8,-1.029771e-07,-10
880,60.90423,1657950295.0,0.60066,-10.00001,136,8,-1.031494e-07,-10
881,60.97344,1657950295.0,0.669868,-10.00001,136,8,-1.03161e-07,-10
882,61.04266,1657950295.0,0.739086,-10.00001,136,8,-1.03221e-07,-10
883,61.11187,1657950295.0,0.808298,-10.00001,136,8,-1.032569e-07,-10
884,61.18107,1657950295.0,0.877497,-10.00001,136,8,-1.032696e-07,-10
885,61.25028,1657950295.0,0.94671,-10.00001,136,8,-1.033812e-07,-10
886,61.31949,1657950296.0,0.0159193,-10.00001,136,8,-1.033586e-07,-10
887,61.3887,1657950296.0,0.0851275,-10.00001,136,8,-1.033491e-07,-10
888,61.45791,1657950296.0,0.154333,-10.00002,136,8,-1.030997e-07,-10
889,61.52711,1657950296.0,0.223541,-10.00002,136,8,-1.032723e-07,-10
890,61.59632,1657950296.0,0.292749,-10.00002,136,8,-1.033175e-07,-10
891,61.66552,1657950296.0,0.361947,-10.00002,136,8,-1.032697e-07,-10
892,61.73474,1657950296.0,0.431162,-10.00002,136,8,-1.032779e-07,-10
893,61.80394,1657950296.0,0.50037,-10.00001,136,8,-1.031991e-07,-10
894,61.87315,1657950296.0,0.569576,-10.00002,136,8,-1.030228e-07,-10
895,61.94235,1657950296.0,0.638773,-10.00001,136,8,-1.030133e-07,-10
896,62.01157,1657950296.0,0.707992,-10.00002,136,8,-1.033461e-07,-10
897,62.08077,1657950296.0,0.7772,-10.00001,136,8,-1.032001e-07,-10
898,62.14998,1657950296.0,0.846403,-10.00002,136,8,-1.03175e-07,-10
899,62.21919,1657950296.0,0.915613,-10.00001,136,8,-1.032026e-07,-10
900,62.2884,1657950296.0,0.984828,-10.00002,136,8,-1.032038e-07,-10
901,62.35762,1657950297.0,0.0540422,-10.00001,136,8,-1.032857e-07,-10
902,62.42682,1657950297.0,0.123248,-10.00001,136,8,-1.033764e-07,-10
903,62.49604,1657950297.0,0.192464,-10.00002,136,8,-1.031871e-07,-10
904,62.56524,1657950297.0,0.261667,-9.999997,136,8,-1.032751e-07,-10
905,62.63444,1657950297.0,0.330871,-10.00001,136,8,-1.032544e-07,-10
906,62.70366,1657950297.0,0.400083,-10.00001,136,8,-1.030391e-07,-10
907,62.77286,1657950297.0,0.469285,-10.00001,136,8,-1.030163e-07,-10
908,62.84206,1657950297.0,0.538488,-10.00001,136,8,-1.032934e-07,-10
909,62.91128,1657950297.0,0.607707,-10.00001,136,8,-1.033651e-07,-10
910,62.98049,1657950297.0,0.676919,-10.00002,136,8,-1.030077e-07,-10
911,63.04972,1657950297.0,0.746143,-10.00003,136,8,-1.032077e-07,-10
912,63.11893,1657950297.0,0.815358,-10.00002,136,8,-1.031281e-07,-10
913,63.18814,1657950297.0,0.884563,-10.00001,136,8,-1.031961e-07,-10
914,63.25735,1657950297.0,0.953778,-10.0,136,8,-1.030481e-07,-10
915,63.32657,1657950298.0,0.0229922,-10.00001,136,8,-1.030845e-07,-10
916,63.39578,1657950298.0,0.0922092,-10.00001,136,8,-1.033461e-07,-10
917,63.46499,1657950298.0,0.161413,-10.00002,136,8,-1.029201e-07,-10
918,63.53419,1657950298.0,0.230615,-10.00001,136,8,-1.030773e-07,-10
919,63.6034,1657950298.0,0.299828,-10.00001,136,8,-1.032257e-07,-10
920,63.67261,1657950298.0,0.369038,-10.00002,136,8,-1.032986e-07,-10
921,63.74182,1657950298.0,0.438247,-10.00002,136,8,-1.030623e-07,-10
922,63.81103,1657950298.0,0.507452,-10.00002,136,8,-1.029813e-07,-10
923,63.88023,1657950298.0,0.576661,-10.00002,136,8,-1.028288e-07,-10
924,63.94945,1657950298.0,0.645875,-10.00001,136,8,-1.031275e-07,-10
925,64.01867,1657950298.0,0.715097,-10.00002,136,8,-1.03126e-07,-10
926,64.08787,1657950298.0,0.784295,-10.00002,136,8,-1.031703e-07,-10
927,64.15708,1657950298.0,0.853509,-10.00002,136,8,-1.030664e-07,-10
928,64.2263,1657950298.0,0.922729,-10.00001,136,8,-1.032681e-07,-10
929,64.29551,1657950298.0,0.991934,-10.00002,136,8,-1.032354e-07,-10
930,64.36472,1657950299.0,0.0611468,-10.00002,136,8,-1.032958e-07,-10
931,64.43394,1657950299.0,0.130364,-10.00002,136,8,-1.030697e-07,-10
932,64.50315,1657950299.0,0.199574,-10.00003,136,8,-1.029584e-07,-10
933,64.57235,1657950299.0,0.268775,-10.00002,136,8,-1.027614e-07,-10
934,64.64156,1657950299.0,0.337985,-10.00001,136,8,-1.031614e-07,-10
935,64.71077,1657950299.0,0.4072,-10.00002,136,8,-1.031593e-07,-10
936,64.77998,1657950299.0,0.476411,-10.00002,136,8,-1.030443e-07,-10
937,64.84919,1657950299.0,0.545621,-10.00002,136,8,-1.031442e-07,-10
938,64.9184,1657950299.0,0.614828,-10.00002,136,8,-1.031211e-07,-10
939,64.9876,1657950299.0,0.684029,-10.00002,136,8,-1.027796e-07,-10
940,65.05682,1657950299.0,0.753247,-10.00002,136,8,-1.03306e-07,-10
941,65.12602,1657950299.0,0.822445,-10.00003,136,8,-1.030743e-07,-10
942,65.19522,1657950299.0,0.891647,-10.00002,136,8,-1.032121e-07,-10
943,65.26443,1657950299.0,0.960856,-10.00002,136,8,-1.030577e-07,-10
944,65.33364,1657950300.0,0.0300702,-10.00002,136,8,-1.030285e-07,-10
945,65.40285,1657950300.0,0.0992795,-10.00001,136,8,-1.032399e-07,-10
946,65.47205,1657950300.0,0.168481,-10.00001,136,8,-1.032722e-07,-10
947,65.54127,1657950300.0,0.237695,-10.00002,136,8,-1.031245e-07,-10
948,65.61048,1657950300.0,0.306905,-10.00001,136,8,-1.031029e-07,-10
949,65.6797,1657950300.0,0.376123,-10.00002,136,8,-1.031609e-07,-10
950,65.7489,1657950300.0,0.445327,-10.00002,136,8,-1.030968e-07,-10
951,65.81811,1657950300.0,0.514537,-10.00001,136,8,-1.030244e-07,-10
952,65.88733,1657950300.0,0.583753,-10.00001,136,8,-1.031495e-07,-10
953,65.95654,1657950300.0,0.65297,-10.00002,136,8,-1.02953e-07,-10
954,66.02577,1657950300.0,0.722193,-10.00002,136,8,-1.031065e-07,-10
955,66.09498,1657950300.0,0.791409,-10.00001,136,8,-1.03228e-07,-10
956,66.16419,1657950300.0,0.860617,-10.00001,136,8,-1.031012e-07,-10
957,66.2334,1657950300.0,0.929828,-10.00001,136,8,-1.030063e-07,-10
958,66.3026,1657950300.0,0.999027,-10.00001,136,8,-1.031545e-07,-10
959,66.3718,1657950301.0,0.0682239,-10.00001,136,8,-1.030144e-07,-10
960,66.44101,1657950301.0,0.137438,-10.0,136,8,-1.027915e-07,-10
961,66.51021,1657950301.0,0.206642,-10.00001,136,8,-1.029029e-07,-10
962,66.57941,1657950301.0,0.275839,-10.00001,136,8,-1.029154e-07,-10
963,66.64863,1657950301.0,0.345053,-10.00001,136,8,-1.029493e-07,-10
964,66.71784,1657950301.0,0.414268,-9.999999,136,8,-1.028909e-07,-10
965,66.78705,1657950301.0,0.483477,-10.00001,136,8,-1.029456e-07,-10
966,66.85625,1657950301.0,0.552677,-10.00001,136,8,-1.029568e-07,-10
967,66.92546,1657950301.0,0.621883,-10.00001,136,8,-1.0304e-07,-10
968,66.99467,1657950301.0,0.691099,-10.00002,136,8,-1.029725e-07,-10
969,67.06388,1657950301.0,0.760305,-10.00002,136,8,-1.030932e-07,-10
970,67.13308,1657950301.0,0.829504,-10.00002,136,8,-1.029155e-07,-10
971,67.20227,1657950301.0,0.898701,-10.00002,136,8,-1.028753e-07,-10
972,67.27147,1657950301.0,0.967901,-10.00002,136,8,-1.030541e-07,-10
973,67.34068,1657950302.0,0.037108,-10.00002,136,8,-1.029548e-07,-10
974,67.40989,1657950302.0,0.106315,-10.00001,136,8,-1.031991e-07,-10
975,67.4791,1657950302.0,0.175523,-10.00001,136,8,-1.030626e-07,-10
976,67.54831,1657950302.0,0.244738,-10.00001,136,8,-1.02912e-07,-10
977,67.61751,1657950302.0,0.313941,-10.00001,136,8,-1.030172e-07,-10
978,67.68674,1657950302.0,0.383163,-10.0,136,8,-1.029498e-07,-10
979,67.75595,1657950302.0,0.452375,-10.00001,136,8,-1.030867e-07,-10
980,67.82515,1657950302.0,0.521576,-10.00001,136,8,-1.030349e-07,-10
981,67.89437,1657950302.0,0.590795,-9.999999,136,8,-1.029307e-07,-10
982,67.96357,1657950302.0,0.659994,-10.00001,136,8,-1.029953e-07,-10
983,68.03278,1657950302.0,0.729206,-10.00001,136,8,-1.029616e-07,-10
984,68.10199,1657950302.0,0.798412,-10.0,136,8,-1.031777e-07,-10
985,68.17119,1657950302.0,0.867614,-10.00001,136,8,-1.031344e-07,-10
986,68.2404,1657950302.0,0.936824,-10.00001,136,8,-1.029053e-07,-10
987,68.30962,1657950303.0,0.00604322,-10.00001,136,8,-1.029318e-07,-10
988,68.37883,1657950303.0,0.075261,-10.00001,136,8,-1.032283e-07,-10
989,68.44804,1657950303.0,0.144468,-10.00002,136,8,-1.02905e-07,-10
990,68.51725,1657950303.0,0.213678,-10.00002,136,8,-1.03142e-07,-10
991,68.58645,1657950303.0,0.282875,-10.00001,136,8,-1.029354e-07,-10
992,68.65565,1657950303.0,0.352073,-10.00002,136,8,-1.02797e-07,-10
993,68.72485,1657950303.0,0.421275,-10.0,136,8,-1.029755e-07,-10
994,68.79406,1657950303.0,0.490485,-10.00002,136,8,-1.030056e-07,-10
995,68.86327,1657950303.0,0.559697,-10.00001,136,8,-1.029858e-07,-10
996,68.93248,1657950303.0,0.62891,-10.00001,136,8,-1.030842e-07,-10
997,69.0017,1657950303.0,0.698126,-10.00002,136,8,-1.030431e-07,-10
998,69.0709,1657950303.0,0.767324,-10.00002,136,8,-1.03014e-07,-10
999,69.14011,1657950303.0,0.836541,-10.00001,136,8,-1.027546e-07,-10
1000,69.20931,1657950303.0,0.90574,-10.00002,136,8,-1.02897e-07,-10
1001,69.27851,1657950303.0,0.97494,-10.00001,136,8,-1.027602e-07,-10
1002,69.34773,1657950304.0,0.0441558,-10.00002,136,8,-1.029642e-07,-10
1003,69.41694,1657950304.0,0.113366,-10.00002,136,8,-1.028681e-07,-10
1004,69.48614,1657950304.0,0.182563,-10.00001,136,8,-1.028555e-07,-10
1005,69.55534,1657950304.0,0.251769,-10.00001,136,8,-1.029634e-07,-10
1006,69.62456,1657950304.0,0.320985,-10.0,136,8,-1.0299e-07,-10
1007,69.69377,1657950304.0,0.390194,-10.00001,136,8,-1.031348e-07,-10
1008,69.76298,1657950304.0,0.459403,-10.00002,136,8,-1.029051e-07,-10
1009,69.8322,1657950304.0,0.528624,-10.00001,136,8,-1.028724e-07,-10
1010,69.90141,1657950304.0,0.597839,-10.00002,136,8,-1.028141e-07,-10
1011,69.97061,1657950304.0,0.66704,-10.0,136,8,-1.030731e-07,-10
1012,70.03984,1657950304.0,0.736265,-10.0,136,8,-1.031893e-07,-10
1013,70.10904,1657950304.0,0.80547,-10.00001,136,8,-1.028249e-07,-10
1014,70.17826,1657950304.0,0.874688,-10.00001,136,8,-1.031105e-07,-10
1015,70.24748,1657950304.0,0.943903,-10.00001,136,8,-1.027753e-07,-10
1016,70.31669,1657950305.0,0.0131122,-10.00001,136,8,-1.028065e-07,-10
1017,70.38591,1657950305.0,0.0823375,-10.0,136,8,-1.03031e-07,-10
1018,70.45512,1657950305.0,0.151547,-10.00001,136,8,-1.029436e-07,-10
1019,70.52432,1657950305.0,0.220745,-10.00001,136,8,-1.027373e-07,-10
1020,70.59353,1657950305.0,0.289954,-10.00001,136,8,-1.029043e-07,-10
1021,70.66275,1657950305.0,0.359176,-10.00002,136,8,-1.028509e-07,-10
1022,70.73196,1657950305.0,0.428391,-10.00001,136,8,-1.026565e-07,-10
1023,70.80117,1657950305.0,0.497599,-10.0,136,8,-1.029827e-07,-10
1024,70.8704,1657950305.0,0.566824,-10.00002,136,8,-1.029138e-07,-10
1025,70.9396,1657950305.0,0.636026,-10.00001,136,8,-1.029968e-07,-10
1026,71.00882,1657950305.0,0.705248,-10.00001,136,8,-1.029296e-07,-10
1027,71.07802,1657950305.0,0.774445,-10.00001,136,8,-1.027582e-07,-10
1028,71.14723,1657950305.0,0.843652,-10.00001,136,8,-1.029833e-07,-10
1029,71.21644,1657950305.0,0.912864,-10.00002,136,8,-1.028882e-07,-10
1030,71.28564,1657950305.0,0.982068,-10.00001,136,8,-1.025791e-07,-10
1031,71.35484,1657950306.0,0.0512671,-10.00001,136,8,-1.028769e-07,-10
1032,71.42404,1657950306.0,0.120469,-10.00001,136,8,-1.031354e-07,-10
1033,71.49324,1657950306.0,0.189671,-10.00002,136,8,-1.027764e-07,-10
1034,71.56245,1657950306.0,0.25888,-10.00001,136,8,-1.030632e-07,-10
1035,71.63165,1657950306.0,0.328081,-10.00001,136,8,-1.03172e-07,-10
1036,71.70087,1657950306.0,0.397293,-10.00001,136,8,-1.027701e-07,-10
1037,71.77008,1657950306.0,0.466506,-10.00001,136,8,-1.03104e-07,-10
1038,71.83929,1657950306.0,0.535713,-10.00001,136,8,-1.029444e-07,-10
1039,71.9085,1657950306.0,0.604927,-10.00002,136,8,-1.028294e-07,-10
1040,71.97771,1657950306.0,0.67414,-10.00002,136,8,-1.029283e-07,-10
1041,72.04693,1657950306.0,0.743354,-10.00001,136,8,-1.026853e-07,-10
1042,72.11613,1657950306.0,0.812552,-10.00002,136,8,-1.029554e-07,-10
1043,72.18534,1657950306.0,0.881768,-10.00002,136,8,-1.027931e-07,-10
1044,72.25456,1657950306.0,0.950984,-10.00002,136,8,-1.026364e-07,-10
1045,72.32377,1657950307.0,0.0201932,-10.00001,136,8,-1.026246e-07,-10
1046,72.39298,1657950307.0,0.0894059,-10.00002,136,8,-1.029447e-07,-10
1047,72.46218,1657950307.0,0.158611,-10.00002,136,8,-1.028636e-07,-10
1048,72.53138,1657950307.0,0.227806,-10.00002,136,8,-1.026777e-07,-10
1049,72.60059,1657950307.0,0.29702,-10.0,136,8,-1.026539e-07,-10
1050,72.6698,1657950307.0,0.366226,-9.999991,136,8,-1.029544e-07,-10
1051,72.73901,1657950307.0,0.435438,-10.0,136,8,-1.028862e-07,-10
1052,72.80823,1657950307.0,0.504652,-10.00001,136,8,-1.029057e-07,-10
1053,72.87744,1657950307.0,0.573867,-10.0,136,8,-1.029896e-07,-10
1054,72.94666,1657950307.0,0.643086,-10.0,136,8,-1.026562e-07,-10
1055,73.01587,1657950307.0,0.7123,-10.00001,136,8,-1.028925e-07,-10
1056,73.08508,1657950307.0,0.781506,-10.00001,136,8,-1.030626e-07,-10
1057,73.15429,1657950307.0,0.850719,-10.00002,136,8,-1.026548e-07,-10
1058,73.22349,1657950307.0,0.919921,-10.00001,136,8,-1.030382e-07,-10
1059,73.2927,1657950307.0,0.98913,-10.00002,136,8,-1.028851e-07,-10
1060,73.3619,1657950308.0,0.058328,-10.00002,136,8,-1.026406e-07,-10
1061,73.43112,1657950308.0,0.127543,-10.00002,136,8,-1.026968e-07,-10
1062,73.50031,1657950308.0,0.196741,-10.00001,136,8,-1.028553e-07,-10
1063,73.56952,1657950308.0,0.265946,-10.00001,136,8,-1.026843e-07,-10
1064,73.63873,1657950308.0,0.335152,-10.00001,136,8,-1.028252e-07,-10
1065,73.70793,1657950308.0,0.404355,-10.00001,136,8,-1.026817e-07,-10
1066,73.77714,1657950308.0,0.473565,-9.999997,136,8,-1.029052e-07,-10
1067,73.84636,1657950308.0,0.542783,-10.00001,136,8,-1.029522e-07,-10
1068,73.91557,1657950308.0,0.612001,-10.0,136,8,-1.028543e-07,-10
1069,73.98479,1657950308.0,0.681221,-10.00002,136,8,-1.025537e-07,-10
1070,74.05401,1657950308.0,0.750439,-10.00001,136,8,-1.027558e-07,-10
1071,74.12322,1657950308.0,0.819642,-10.00002,136,8,-1.027813e-07,-10
1072,74.19242,1657950308.0,0.888844,-10.00001,136,8,-1.026033e-07,-10
1073,74.26162,1657950308.0,0.958049,-10.00001,136,8,-1.028436e-07,-10
1074,74.33085,1657950309.0,0.0272733,-10.00001,136,8,-1.027338e-07,-10
1075,74.40006,1657950309.0,0.0964846,-10.00001,136,8,-1.026708e-07,-10
1076,74.46927,1657950309.0,0.165698,-9.999996,136,8,-1.027517e-07,-10
1077,74.53848,1657950309.0,0.234907,-10.00001,136,8,-1.028674e-07,-10
1078,74.6077,1657950309.0,0.304122,-10.0,136,8,-1.029111e-07,-10
1079,74.67691,1657950309.0,0.373334,-10.00001,136,8,-1.029649e-07,-10
1080,74.74611,1657950309.0,0.442534,-10.00001,136,8,-1.02701e-07,-10
1081,74.81531,1657950309.0,0.511737,-10.00001,136,8,-1.028021e-07,-10
1082,74.88451,1657950309.0,0.580936,-10.00001,136,8,-1.026987e-07,-10
1083,74.95372,1657950309.0,0.650144,-10.00002,136,8,-1.026275e-07,-10
1084,75.02292,1657950309.0,0.719343,-10.00001,136,8,-1.027391e-07,-10
1085,75.09213,1657950309.0,0.788559,-10.00001,136,8,-1.027144e-07,-10
1086,75.16133,1657950309.0,0.85776,-10.00001,136,8,-1.024442e-07,-10
1087,75.23055,1657950309.0,0.926977,-10.00001,136,8,-1.029531e-07,-10
1088,75.29977,1657950309.0,0.996195,-10.00001,136,8,-1.027099e-07,-10
1089,75.36897,1657950310.0,0.0653947,-10.0,136,8,-1.026789e-07,-10
1090,75.43818,1657950310.0,0.134603,-10.0,136,8,-1.02826e-07,-10
1091,75.50738,1657950310.0,0.203811,-10.00001,136,8,-1.027267e-07,-10
1092,75.57659,1657950310.0,0.273015,-10.00001,136,8,-1.027826e-07,-10
1093,75.6458,1657950310.0,0.342229,-10.00001,136,8,-1.025498e-07,-10
1094,75.71502,1657950310.0,0.411447,-10.0,136,8,-1.030115e-07,-10
1095,75.78424,1657950310.0,0.480662,-10.00001,136,8,-1.028315e-07,-10
1096,75.85345,1657950310.0,0.549874,-10.0,136,8,-1.025865e-07,-10
1097,75.92266,1657950310.0,0.619085,-10.00001,136,8,-1.02829e-07,-10
1098,75.99187,1657950310.0,0.688295,-10.00001,136,8,-1.025661e-07,-10
1099,76.06107,1657950310.0,0.757497,-10.00001,136,8,-1.027026e-07,-10
1100,76.13027,1657950310.0,0.826701,-10.00001,136,8,-1.027846e-07,-10
1101,76.19948,1657950310.0,0.895907,-10.00001,136,8,-1.027263e-07,-10
1102,76.26868,1657950310.0,0.965107,-10.00002,136,8,-1.028367e-07,-10
1103,76.33789,1657950311.0,0.0343195,-10.00002,136,8,-1.025481e-07,-10
1104,76.40711,1657950311.0,0.103536,-10.00002,136,8,-1.02598e-07,-10
1105,76.47631,1657950311.0,0.172736,-10.00002,136,8,-1.026805e-07,-10
1106,76.54551,1657950311.0,0.24194,-10.0,136,8,-1.027246e-07,-10
1107,76.61471,1657950311.0,0.311141,-10.00001,136,8,-1.02898e-07,-10
1108,76.68393,1657950311.0,0.380354,-10.00001,136,8,-1.024782e-07,-10
1109,76.75313,1657950311.0,0.449554,-10.0,136,8,-1.028778e-07,-10
1110,76.82234,1657950311.0,0.518768,-10.0,136,8,-1.028695e-07,-10
1111,76.89155,1657950311.0,0.587972,-10.00001,136,8,-1.027833e-07,-10
1112,76.96076,1657950311.0,0.657183,-10.00002,136,8,-1.025341e-07,-10
1113,77.02998,1657950311.0,0.726403,-10.00002,136,8,-1.028114e-07,-10
1114,77.09917,1657950311.0,0.7956,-10.00001,136,8,-1.027381e-07,-10
1115,77.16839,1657950311.0,0.864813,-10.00001,136,8,-1.027732e-07,-10
1116,77.2376,1657950311.0,0.934022,-10.00001,136,8,-1.027679e-07,-10
1117,77.3068,1657950312.0,0.00323122,-9.999999,136,8,-1.027412e-07,-10
1118,77.37601,1657950312.0,0.0724366,-10.00001,136,8,-1.030596e-07,-10
1119,77.44521,1657950312.0,0.141635,-10.0,136,8,-1.02758e-07,-10
1120,77.51442,1657950312.0,0.210847,-10.00002,136,8,-1.027736e-07,-10
1121,77.58363,1657950312.0,0.280056,-10.00002,136,8,-1.025915e-07,-10
1122,77.65283,1657950312.0,0.349261,-10.00001,136,8,-1.025997e-07,-10
1123,77.72204,1657950312.0,0.418465,-10.00001,136,8,-1.028028e-07,-10
1124,77.79124,1657950312.0,0.487667,-10.00002,136,8,-1.029995e-07,-10
1125,77.86045,1657950312.0,0.556879,-10.00001,136,8,-1.027709e-07,-10
1126,77.92967,1657950312.0,0.626095,-10.00001,136,8,-1.027722e-07,-10
1127,77.99888,1657950312.0,0.695304,-10.00001,136,8,-1.025226e-07,-10
1128,78.06808,1657950312.0,0.764505,-10.00001,136,8,-1.028002e-07,-10
1129,78.13729,1657950312.0,0.833716,-10.0,136,8,-1.025935e-07,-10
1130,78.20651,1657950312.0,0.902932,-10.00002,136,8,-1.026552e-07,-10
1131,78.27571,1657950312.0,0.97214,-10.00002,136,8,-1.024317e-07,-10
1132,78.34492,1657950313.0,0.0413489,-10.0,136,8,-1.027287e-07,-10
1133,78.41413,1657950313.0,0.110555,-10.00001,136,8,-1.025676e-07,-10
1134,78.48333,1657950313.0,0.179762,-10.00001,136,8,-1.024909e-07,-10
1135,78.55255,1657950313.0,0.248975,-10.00001,136,8,-1.027917e-07,-10
1136,78.62175,1657950313.0,0.318172,-10.00001,136,8,-1.026196e-07,-10
1137,78.69095,1657950313.0,0.387373,-10.00001,136,8,-1.026444e-07,-10
1138,78.76015,1657950313.0,0.456579,-10.00001,136,8,-1.026284e-07,-10
1139,78.82936,1657950313.0,0.525784,-10.0,136,8,-1.025094e-07,-10
1140,78.89856,1657950313.0,0.59499,-9.999997,136,8,-1.028247e-07,-10
1141,78.96776,1657950313.0,0.664187,-10.00001,136,8,-1.026593e-07,-10
1142,79.03698,1657950313.0,0.733403,-10.00001,136,8,-1.025976e-07,-10
1143,79.10617,1657950313.0,0.8026,-10.0,136,8,-1.027963e-07,-10
1144,79.17538,1657950313.0,0.871803,-10.0,136,8,-1.028624e-07,-10
1145,79.24459,1657950313.0,0.941017,-10.00001,136,8,-1.026756e-07,-10
1146,79.31381,1657950314.0,0.0102374,-10.00001,136,8,-1.025758e-07,-10
1147,79.38301,1657950314.0,0.0794385,-10.0,136,8,-1.027622e-07,-10
1148,79.45222,1657950314.0,0.148649,-10.0,136,8,-1.025144e-07,-10
1149,79.52142,1657950314.0,0.217848,-10.0,136,8,-1.027976e-07,-10
1150,79.59062,1657950314.0,0.287047,-10.00001,136,8,-1.027184e-07,-10
1151,79.65983,1657950314.0,0.356254,-10.00002,136,8,-1.025608e-07,-10
1152,79.72903,1657950314.0,0.425453,-10.00001,136,8,-1.026786e-07,-10
1153,79.79824,1657950314.0,0.494669,-10.00001,136,8,-1.026747e-07,-10
1154,79.86745,1657950314.0,0.563875,-10.0,136,8,-1.026475e-07,-10
1155,79.93666,1657950314.0,0.633086,-10.00002,136,8,-1.026517e-07,-10
1156,80.00588,1657950314.0,0.702307,-10.00002,136,8,-1.025939e-07,-10
1157,80.07509,1657950314.0,0.77152,-10.00002,136,8,-1.025953e-07,-10
1158,80.1443,1657950314.0,0.840726,-10.00001,136,8,-1.024664e-07,-10
1159,80.21351,1657950314.0,0.909939,-10.0,136,8,-1.024763e-07,-10
1160,80.28271,1657950314.0,0.979141,-10.00001,136,8,-1.023871e-07,-10
1161,80.35193,1657950315.0,0.0483571,-10.00001,136,8,-1.026094e-07,-10
1162,80.42114,1657950315.0,0.117564,-10.00001,136,8,-1.024711e-07,-10
1163,80.49035,1657950315.0,0.186777,-10.00002,136,8,-1.026153e-07,-10
1164,80.55956,1657950315.0,0.255989,-10.00001,136,8,-1.025744e-07,-10
1165,80.62879,1657950315.0,0.325213,-10.00002,136,8,-1.025976e-07,-10
1166,80.69799,1657950315.0,0.394419,-10.00001,136,8,-1.02411e-07,-10
1167,80.76721,1657950315.0,0.463634,-10.00001,136,8,-1.025789e-07,-10
1168,80.8364,1657950315.0,0.532831,-10.00001,136,8,-1.027175e-07,-10
1169,80.90561,1657950315.0,0.602033,-10.00001,136,8,-1.027026e-07,-10
1170,80.97483,1657950315.0,0.671259,-10.00001,136,8,-1.026953e-07,-10
1171,81.04405,1657950315.0,0.740472,-10.0,136,8,-1.025527e-07,-10
1172,81.11325,1657950315.0,0.80968,-10.00002,136,8,-1.024326e-07,-10
1173,81.18247,1657950315.0,0.878893,-10.00001,136,8,-1.026934e-07,-10
1174,81.25168,1657950315.0,0.948103,-10.00001,136,8,-1.026311e-07,-10
1175,81.32089,1657950316.0,0.0173182,-10.00001,136,8,-1.026673e-07,-10
1176,81.39011,1657950316.0,0.0865332,-10.00002,136,8,-1.028708e-07,-10
1177,81.45932,1657950316.0,0.155748,-10.00001,136,8,-1.025564e-07,-10
1178,81.52852,1657950316.0,0.224951,-10.00001,136,8,-1.026842e-07,-10
1179,81.59774,1657950316.0,0.294171,-10.00001,136,8,-1.026761e-07,-10
1180,81.66695,1657950316.0,0.363374,-10.00002,136,8,-1.026067e-07,-10
1181,81.73616,1657950316.0,0.432585,-10.00001,136,8,-1.026315e-07,-10
1182,81.80537,1657950316.0,0.501799,-9.999992,136,8,-1.028124e-07,-10
1183,81.87459,1657950316.0,0.57102,-10.0,136,8,-1.029301e-07,-10
1184,81.9438,1657950316.0,0.640228,-10.00002,136,8,-1.025904e-07,-10
1185,82.013,1657950316.0,0.709431,-10.00001,136,8,-1.02664e-07,-10
1186,82.08222,1657950316.0,0.778643,-10.00001,136,8,-1.02456e-07,-10
1187,82.15143,1657950316.0,0.847859,-10.0,136,8,-1.02598e-07,-10
1188,82.22063,1657950316.0,0.917059,-9.999998,136,8,-1.025233e-07,-10
1189,82.28985,1657950316.0,0.986278,-10.00001,136,8,-1.025922e-07,-10
1190,82.35905,1657950317.0,0.0554756,-10.00001,136,8,-1.025596e-07,-10
1191,82.42825,1657950317.0,0.124673,-10.00001,136,8,-1.025415e-07,-10
1192,82.49745,1657950317.0,0.193874,-10.00001,136,8,-1.024253e-07,-10
1193,82.56666,1657950317.0,0.263086,-10.00001,136,8,-1.026344e-07,-10
1194,82.63588,1657950317.0,0.332303,-10.00001,136,8,-1.028439e-07,-10
1195,82.70509,1657950317.0,0.401519,-10.00002,136,8,-1.026348e-07,-10
1196,82.77429,1657950317.0,0.47072,-10.00001,136,8,-1.026622e-07,-10
1197,82.8435,1657950317.0,0.539931,-10.00001,136,8,-1.026117e-07,-10
1198,82.91272,1657950317.0,0.609148,-10.00002,136,8,-1.025787e-07,-10
1199,82.98193,1657950317.0,0.678359,-10.00001,136,8,-1.025848e-07,-10
1200,83.05115,1657950317.0,0.747572,-10.00001,136,8,-1.025351e-07,-10
1201,83.12035,1657950317.0,0.816773,-10.00002,136,8,-1.024465e-07,-10
1202,83.18956,1657950317.0,0.88599,-10.0,136,8,-1.02736e-07,-10
1203,83.25877,1657950317.0,0.955201,-10.00001,136,8,-1.024739e-07,-10
1204,83.32798,1657950318.0,0.0244113,-10.00001,136,8,-1.024342e-07,-10
1205,83.39719,1657950318.0,0.0936212,-10.0,136,8,-1.025931e-07,-10
1206,83.4664,1657950318.0,0.16283,-9.999996,136,8,-1.026492e-07,-10
1207,83.53561,1657950318.0,0.232038,-9.999997,136,8,-1.026495e-07,-10
1208,83.60483,1657950318.0,0.301254,-9.999996,136,8,-1.025388e-07,-10
1209,83.67403,1657950318.0,0.370458,-10.0,136,8,-1.026051e-07,-10
1210,83.74323,1657950318.0,0.439657,-10.0,136,8,-1.025439e-07,-10
1211,83.81245,1657950318.0,0.508875,-10.00001,136,8,-1.026766e-07,-10
1212,83.88166,1657950318.0,0.578084,-10.00002,136,8,-1.026513e-07,-10
1213,83.95088,1657950318.0,0.647305,-10.00001,136,8,-1.025386e-07,-10
1214,84.02008,1657950318.0,0.716503,-10.0,136,8,-1.026791e-07,-10
1215,84.08929,1657950318.0,0.785719,-10.0,136,8,-1.025585e-07,-10
1216,84.15849,1657950318.0,0.854919,-10.00001,136,8,-1.026818e-07,-10
1217,84.2277,1657950318.0,0.924128,-10.0,136,8,-1.024347e-07,-10
1218,84.29691,1657950318.0,0.993334,-10.00001,136,8,-1.025424e-07,-10
1219,84.36611,1657950319.0,0.062538,-10.00001,136,8,-1.023526e-07,-10
1220,84.43531,1657950319.0,0.131733,-10.00001,136,8,-1.0258e-07,-10
1221,84.50452,1657950319.0,0.200945,-10.00001,136,8,-1.027523e-07,-10
1222,84.57373,1657950319.0,0.270159,-10.00001,136,8,-1.023792e-07,-10
1223,84.64294,1657950319.0,0.339369,-10.00001,136,8,-1.026252e-07,-10
1224,84.71215,1657950319.0,0.408574,-10.0,136,8,-1.026663e-07,-10
1225,84.78135,1657950319.0,0.477775,-10.0,136,8,-1.024844e-07,-10
1226,84.85055,1657950319.0,0.546976,-10.0,136,8,-1.025248e-07,-10
1227,84.91976,1657950319.0,0.616182,-10.00001,136,8,-1.024101e-07,-10
1228,84.98898,1657950319.0,0.685408,-10.0,136,8,-1.022438e-07,-10
1229,85.05818,1657950319.0,0.754608,-10.0,136,8,-1.025611e-07,-10
1230,85.12739,1657950319.0,0.823816,-10.0,136,8,-1.026291e-07,-10
1231,85.19659,1657950319.0,0.89302,-10.00001,136,8,-1.026076e-07,-10
1232,85.2658,1657950319.0,0.962231,-10.00001,136,8,-1.027119e-07,-10
1233,85.33501,1657950320.0,0.0314327,-10.00001,136,8,-1.025615e-07,-10
1234,85.40421,1657950320.0,0.100633,-10.0,136,8,-1.025446e-07,-10
1235,85.47341,1657950320.0,0.169842,-10.00001,136,8,-1.023156e-07,-10
1236,85.54261,1657950320.0,0.239039,-10.00001,136,8,-1.027186e-07,-10
1237,85.61184,1657950320.0,0.308264,-10.0,136,8,-1.023418e-07,-10
1238,85.68104,1657950320.0,0.37747,-10.0,136,8,-1.025482e-07,-10
1239,85.75025,1657950320.0,0.44668,-10.0,136,8,-1.025326e-07,-10
1240,85.81946,1657950320.0,0.515883,-10.0,136,8,-1.023484e-07,-10
1241,85.88866,1657950320.0,0.585086,-10.00001,136,8,-1.021914e-07,-10
1242,85.95788,1657950320.0,0.654304,-10.00001,136,8,-1.019817e-07,-10
1243,86.02708,1657950320.0,0.72351,-10.00001,136,8,-1.021542e-07,-10
1244,86.0963,1657950320.0,0.792722,-10.0,136,8,-1.023591e-07,-10
1245,86.16549,1657950320.0,0.861919,-10.00001,136,8,-1.024428e-07,-10
1246,86.2347,1657950320.0,0.931125,-10.00001,136,8,-1.025693e-07,-10
1247,86.30391,1657950321.0,0.00033168,-10.0,136,8,-1.025629e-07,-10
1248,86.3731,1657950321.0,0.0695303,-10.00001,136,8,-1.02306e-07,-10
1249,86.4423,1657950321.0,0.138728,-10.0,136,8,-1.024636e-07,-10
1250,86.5115,1657950321.0,0.207926,-10.0,136,8,-1.025027e-07,-10
1251,86.5807,1657950321.0,0.277129,-10.00002,136,8,-1.026056e-07,-10
1252,86.64992,1657950321.0,0.346344,-10.00001,136,8,-1.025318e-07,-10
1253,86.71912,1657950321.0,0.415549,-10.00001,136,8,-1.026052e-07,-10
1254,86.78834,1657950321.0,0.484766,-10.00002,136,8,-1.023623e-07,-10
1255,86.85755,1657950321.0,0.553972,-10.00001,136,8,-1.024903e-07,-10
1256,86.92675,1657950321.0,0.62318,-10.00001,136,8,-1.022944e-07,-10
1257,86.99597,1657950321.0,0.692397,-10.00001,136,8,-1.024535e-07,-10
1258,87.06518,1657950321.0,0.761605,-10.00001,136,8,-1.023539e-07,-10
1259,87.13438,1657950321.0,0.830803,-10.00002,136,8,-1.022055e-07,-10
1260,87.20358,1657950321.0,0.900011,-10.00001,136,8,-1.022762e-07,-10
1261,87.2728,1657950321.0,0.969227,-10.00001,136,8,-1.026153e-07,-10
1262,87.34201,1657950322.0,0.0384381,-10.0,136,8,-1.02593e-07,-10
1263,87.41121,1657950322.0,0.107637,-10.00002,136,8,-1.025817e-07,-10
1264,87.48042,1657950322.0,0.176842,-10.00002,136,8,-1.024104e-07,-10
1265,87.54961,1657950322.0,0.246037,-10.00002,136,8,-1.025404e-07,-10
1266,87.61881,1657950322.0,0.31524,-10.00002,136,8,-1.025843e-07,-10
1267,87.68803,1657950322.0,0.384456,-10.00001,136,8,-1.024995e-07,-10
1268,87.75724,1657950322.0,0.453663,-10.00001,136,8,-1.024891e-07,-10
1269,87.82645,1657950322.0,0.522875,-9.999996,136,8,-1.022799e-07,-10
1270,87.89565,1657950322.0,0.592079,-10.0,136,8,-1.025864e-07,-10
1271,87.96486,1657950322.0,0.661288,-10.00002,136,8,-1.023738e-07,-10
1272,88.03407,1657950322.0,0.730501,-10.00001,136,8,-1.025162e-07,-10
1273,88.10329,1657950322.0,0.799716,-10.00001,136,8,-1.024383e-07,-10
1274,88.17249,1657950322.0,0.86892,-10.00001,136,8,-1.024101e-07,-10
1275,88.24169,1657950322.0,0.938117,-10.00001,136,8,-1.023238e-07,-10
1276,88.31091,1657950323.0,0.00733972,-10.00001,136,8,-1.025956e-07,-10
1277,88.38011,1657950323.0,0.0765382,-10.00001,136,8,-1.025031e-07,-10
1278,88.44931,1657950323.0,0.145739,-10.00002,136,8,-1.02583e-07,-10
1279,88.51853,1657950323.0,0.214954,-10.00002,136,8,-1.025378e-07,-10
1280,88.58773,1657950323.0,0.28416,-10.00001,136,8,-1.024907e-07,-10
1281,88.65695,1657950323.0,0.35338,-10.00002,136,8,-1.023976e-07,-10
1282,88.72615,1657950323.0,0.422576,-10.00001,136,8,-1.025416e-07,-10
1283,88.79536,1657950323.0,0.491789,-9.999999,136,8,-1.02398e-07,-10
1284,88.86456,1657950323.0,0.560989,-10.00001,136,8,-1.024838e-07,-10
1285,88.93377,1657950323.0,0.630193,-10.0,136,8,-1.024503e-07,-10
1286,89.00298,1657950323.0,0.699411,-10.00001,136,8,-1.022569e-07,-10
1287,89.07219,1657950323.0,0.768613,-10.0,136,8,-1.021519e-07,-10
1288,89.14139,1657950323.0,0.837818,-10.00001,136,8,-1.022919e-07,-10
1289,89.2106,1657950323.0,0.907025,-10.00001,136,8,-1.024932e-07,-10
1290,89.2798,1657950323.0,0.976229,-10.00001,136,8,-1.024678e-07,-10
1291,89.34901,1657950324.0,0.0454336,-10.00001,136,8,-1.024223e-07,-10
1292,89.41821,1657950324.0,0.11464,-10.00001,136,8,-1.023737e-07,-10
1293,89.48741,1657950324.0,0.183839,-10.00001,136,8,-1.021893e-07,-10
1294,89.55662,1657950324.0,0.253047,-10.00001,136,8,-1.025129e-07,-10
1295,89.62583,1657950324.0,0.322259,-10.00001,136,8,-1.026347e-07,-10
1296,89.69503,1657950324.0,0.391458,-10.00001,136,8,-1.022867e-07,-10
1297,89.76425,1657950324.0,0.460673,-10.00001,136,8,-1.023822e-07,-10
1298,89.83344,1657950324.0,0.529869,-10.00002,136,8,-1.024432e-07,-10
1299,89.90264,1657950324.0,0.599068,-10.00002,136,8,-1.025816e-07,-10
1300,89.97185,1657950324.0,0.668281,-10.0,136,8,-1.023011e-07,-10
1301,90.04107,1657950324.0,0.737494,-10.00001,136,8,-1.024567e-07,-10
1302,90.11027,1657950324.0,0.806695,-10.0,136,8,-1.023084e-07,-10
1303,90.17947,1657950324.0,0.875894,-10.0,136,8,-1.025035e-07,-10
1304,90.24868,1657950324.0,0.945111,-10.00002,136,8,-1.022838e-07,-10
1305,90.31788,1657950325.0,0.0143081,-10.00001,136,8,-1.022079e-07,-10
1306,90.3871,1657950325.0,0.0835226,-10.00001,136,8,-1.025785e-07,-10
1307,90.45631,1657950325.0,0.152736,-9.999996,136,8,-1.0228e-07,-10
1308,90.52553,1657950325.0,0.221952,-10.00001,136,8,-1.026552e-07,-10
1309,90.59472,1657950325.0,0.29115,-10.00001,136,8,-1.023254e-07,-10
1310,90.66395,1657950325.0,0.360375,-10.00001,136,8,-1.020481e-07,-10
1311,90.73316,1657950325.0,0.429589,-10.00001,136,8,-1.022783e-07,-10
1312,90.80237,1657950325.0,0.4988,-10.00001,136,8,-1.02535e-07,-10
1313,90.87157,1657950325.0,0.568,-10.00002,136,8,-1.023868e-07,-10
1314,90.94077,1657950325.0,0.637198,-10.00001,136,8,-1.025231e-07,-10
1315,91.00999,1657950325.0,0.70642,-10.00002,136,8,-1.024397e-07,-10
1316,91.07921,1657950325.0,0.775634,-10.00001,136,8,-1.023003e-07,-10
1317,91.14842,1657950325.0,0.84485,-10.00002,136,8,-1.025577e-07,-10
1318,91.21762,1657950325.0,0.914047,-10.00002,136,8,-1.023054e-07,-10
1319,91.28683,1657950325.0,0.983254,-10.00002,136,8,-1.022748e-07,-10
1320,91.35605,1657950326.0,0.0524737,-10.00001,136,8,-1.025933e-07,-10
1321,91.42526,1657950326.0,0.121682,-10.00001,136,8,-1.02433e-07,-10
1322,91.49447,1657950326.0,0.190895,-10.00001,136,8,-1.023976e-07,-10
1323,91.56368,1657950326.0,0.260104,-10.00002,136,8,-1.022761e-07,-10
1324,91.63288,1657950326.0,0.329305,-10.00002,136,8,-1.025266e-07,-10
1325,91.70209,1657950326.0,0.398518,-10.00001,136,8,-1.023383e-07,-10
1326,91.77131,1657950326.0,0.467733,-10.00001,136,8,-1.024986e-07,-10
1327,91.84052,1657950326.0,0.536942,-10.00001,136,8,-1.02473e-07,-10
1328,91.90973,1657950326.0,0.606153,-10.00001,136,8,-1.023195e-07,-10
1329,91.97894,1657950326.0,0.675367,-10.00001,136,8,-1.021557e-07,-10
1330,92.04814,1657950326.0,0.744563,-10.00001,136,8,-1.024809e-07,-10
1331,92.11735,1657950326.0,0.813777,-10.00002,136,8,-1.022444e-07,-10
1332,92.18656,1657950326.0,0.882988,-10.0,136,8,-1.023005e-07,-10
1333,92.25577,1657950326.0,0.952194,-10.0,136,8,-1.021744e-07,-10
1334,92.32499,1657950327.0,0.0214149,-10.00001,136,8,-1.023007e-07,-10
1335,92.3942,1657950327.0,0.0906287,-10.00001,136,8,-1.023799e-07,-10
1336,92.46342,1657950327.0,0.15985,-10.00001,136,8,-1.022412e-07,-10
1337,92.53264,1657950327.0,0.229065,-10.00001,136,8,-1.020656e-07,-10
1338,92.60185,1657950327.0,0.298281,-10.00001,136,8,-1.02474e-07,-10
1339,92.67105,1657950327.0,0.367477,-10.00001,136,8,-1.022645e-07,-10
1340,92.74025,1657950327.0,0.43668,-9.999999,136,8,-1.022714e-07,-10
1341,92.80947,1657950327.0,0.5059,-10.0,136,8,-1.023372e-07,-10
1342,92.87869,1657950327.0,0.575113,-10.00001,136,8,-1.022811e-07,-10
1343,92.94789,1657950327.0,0.644314,-10.00001,136,8,-1.02271e-07,-10
1344,93.0171,1657950327.0,0.713531,-10.00001,136,8,-1.024594e-07,-10
1345,93.08631,1657950327.0,0.782734,-10.0,136,8,-1.026052e-07,-10
1346,93.15551,1657950327.0,0.851935,-10.00001,136,8,-1.026623e-07,-10
1347,93.22471,1657950327.0,0.921133,-9.999994,136,8,-1.028753e-07,-10
1348,93.29392,1657950327.0,0.99035,-10.00001,136,8,-1.022043e-07,-10
1349,93.36313,1657950328.0,0.0595558,-10.00001,136,8,-1.024892e-07,-10
1350,93.43233,1657950328.0,0.128757,-10.00001,136,8,-1.023275e-07,-10
1351,93.50154,1657950328.0,0.197968,-10.00001,136,8,-1.022588e-07,-10
1352,93.57076,1657950328.0,0.267184,-10.00002,136,8,-1.024217e-07,-10
1353,93.63997,1657950328.0,0.336394,-10.00002,136,8,-1.024281e-07,-10
1354,93.70917,1657950328.0,0.405601,-10.00001,136,8,-1.024531e-07,-10
1355,93.77839,1657950328.0,0.474817,-10.00001,136,8,-1.020864e-07,-10
1356,93.8476,1657950328.0,0.54403,-10.00001,136,8,-1.024572e-07,-10
1357,93.91681,1657950328.0,0.613236,-10.00001,136,8,-1.023528e-07,-10
1358,93.98602,1657950328.0,0.682444,-10.00001,136,8,-1.021909e-07,-10
1359,94.05522,1657950328.0,0.751651,-10.00002,136,8,-1.024124e-07,-10
1360,94.12444,1657950328.0,0.820868,-10.00001,136,8,-1.024013e-07,-10
1361,94.19365,1657950328.0,0.890076,-10.00001,136,8,-1.022174e-07,-10
1362,94.26287,1657950328.0,0.959298,-10.00001,136,8,-1.024016e-07,-10
1363,94.33207,1657950329.0,0.0284941,-10.00003,136,8,-1.019502e-07,-10
1364,94.40128,1657950329.0,0.0977078,-10.00001,136,8,-1.023402e-07,-10
1365,94.47049,1657950329.0,0.166921,-10.00002,136,8,-1.019066e-07,-10
1366,94.53971,1657950329.0,0.236136,-10.00001,136,8,-1.021638e-07,-10
1367,94.60891,1657950329.0,0.305341,-10.00002,136,8,-1.021947e-07,-10
1368,94.67813,1657950329.0,0.374554,-10.00001,136,8,-1.022207e-07,-10
1369,94.74734,1657950329.0,0.443766,-10.00002,136,8,-1.023186e-07,-10
1370,94.81654,1657950329.0,0.512966,-10.00001,136,8,-1.024272e-07,-10
1371,94.88574,1657950329.0,0.582162,-10.00001,136,8,-1.02344e-07,-10
1372,94.95493,1657950329.0,0.65136,-10.00002,136,8,-1.022669e-07,-10
1373,95.02413,1657950329.0,0.720561,-10.00001,136,8,-1.024454e-07,-10
1374,95.09334,1657950329.0,0.78977,-10.00001,136,8,-1.022553e-07,-10
1375,95.16255,1657950329.0,0.858978,-10.00002,136,8,-1.02238e-07,-10
1376,95.23176,1657950329.0,0.928183,-10.00001,136,8,-1.024908e-07,-10
1377,95.30096,1657950329.0,0.997391,-10.00002,136,8,-1.024859e-07,-10
1378,95.37018,1657950330.0,0.0666075,-10.00002,136,8,-1.02284e-07,-10
1379,95.43939,1657950330.0,0.135817,-10.0,136,8,-1.021776e-07,-10
1380,95.5086,1657950330.0,0.205024,-10.00001,136,8,-1.023321e-07,-10
1381,95.57781,1657950330.0,0.274234,-10.00002,136,8,-1.0224e-07,-10
1382,95.64702,1657950330.0,0.343447,-10.00001,136,8,-1.025687e-07,-10
1383,95.71622,1657950330.0,0.41265,-10.00001,136,8,-1.024289e-07,-10
1384,95.78543,1657950330.0,0.481857,-10.00001,136,8,-1.023354e-07,-10
1385,95.85464,1657950330.0,0.551063,-10.0,136,8,-1.022943e-07,-10
1386,95.92384,1657950330.0,0.62027,-10.00001,136,8,-1.022943e-07,-10
1387,95.99306,1657950330.0,0.689483,-10.0,136,8,-1.024298e-07,-10
1388,96.06226,1657950330.0,0.758688,-9.999992,136,8,-1.023722e-07,-10
1389,96.13147,1657950330.0,0.827897,-10.0,136,8,-1.023371e-07,-10
1390,96.20068,1657950330.0,0.897111,-10.00001,136,8,-1.022239e-07,-10
1391,96.26989,1657950330.0,0.966319,-10.00001,136,8,-1.023149e-07,-10
1392,96.33911,1657950331.0,0.0355345,-10.00002,136,8,-1.024017e-07,-10
1393,96.40832,1657950331.0,0.104748,-10.00002,136,8,-1.022813e-07,-10
1394,96.47754,1657950331.0,0.173963,-10.00001,136,8,-1.022425e-07,-10
1395,96.54674,1657950331.0,0.243167,-10.00001,136,8,-1.023679e-07,-10
1396,96.61595,1657950331.0,0.31238,-10.00001,136,8,-1.021228e-07,-10
1397,96.68516,1657950331.0,0.381584,-10.00001,136,8,-1.022729e-07,-10
1398,96.75436,1657950331.0,0.450789,-10.00001,136,8,-1.019197e-07,-10
1399,96.82357,1657950331.0,0.519994,-10.00001,136,8,-1.022738e-07,-10
1400,96.89278,1657950331.0,0.589202,-10.00001,136,8,-1.021379e-07,-10
1401,96.96199,1657950331.0,0.658421,-10.0,136,8,-1.023e-07,-10
1402,97.03119,1657950331.0,0.727621,-10.00001,136,8,-1.021094e-07,-10
1403,97.1004,1657950331.0,0.796828,-10.0,136,8,-1.022177e-07,-10
1404,97.16961,1657950331.0,0.866035,-10.00002,136,8,-1.021378e-07,-10
1405,97.23882,1657950331.0,0.935248,-10.00001,136,8,-1.023412e-07,-10
1406,97.30803,1657950332.0,0.00445582,-10.00001,136,8,-1.021687e-07,-10
1407,97.37723,1657950332.0,0.0736612,-10.00002,136,8,-1.024291e-07,-10
1408,97.44643,1657950332.0,0.142857,-10.0,136,8,-1.023849e-07,-10
1409,97.51562,1657950332.0,0.212051,-10.00001,136,8,-1.022453e-07,-10
1410,97.58483,1657950332.0,0.281259,-10.00001,136,8,-1.023169e-07,-10
1411,97.65404,1657950332.0,0.350467,-10.00001,136,8,-1.023869e-07,-10
1412,97.72325,1657950332.0,0.419679,-10.00001,136,8,-1.022624e-07,-10
1413,97.79245,1657950332.0,0.488881,-10.0,136,8,-1.024076e-07,-10
1414,97.86167,1657950332.0,0.558098,-10.00001,136,8,-1.022055e-07,-10
1415,97.93088,1657950332.0,0.627308,-10.00001,136,8,-1.023565e-07,-10
1416,98.0001,1657950332.0,0.696525,-10.00001,136,8,-1.021421e-07,-10
1417,98.0693,1657950332.0,0.765723,-10.00001,136,8,-1.022882e-07,-10
1418,98.1385,1657950332.0,0.834926,-10.00001,136,8,-1.020366e-07,-10
1419,98.2077,1657950332.0,0.904125,-10.00001,136,8,-1.023098e-07,-10
1420,98.2769,1657950332.0,0.973326,-10.00001,136,8,-1.023096e-07,-10
1421,98.34611,1657950333.0,0.0425351,-10.00001,136,8,-1.023293e-07,-10
1422,98.41531,1657950333.0,0.11174,-10.00001,136,8,-1.021361e-07,-10
1423,98.48452,1657950333.0,0.180944,-10.00001,136,8,-1.019539e-07,-10
1424,98.55372,1657950333.0,0.250143,-10.0,136,8,-1.023093e-07,-10
1425,98.62292,1657950333.0,0.319346,-10.00001,136,8,-1.018004e-07,-10
1426,98.69213,1657950333.0,0.388557,-10.00001,136,8,-1.019856e-07,-10
1427,98.76134,1657950333.0,0.457764,-10.0,136,8,-1.02159e-07,-10
1428,98.83054,1657950333.0,0.526962,-10.00001,136,8,-1.022283e-07,-10
1429,98.89973,1657950333.0,0.596158,-10.0,136,8,-1.022668e-07,-10
1430,98.96893,1657950333.0,0.665355,-10.00001,136,8,-1.021487e-07,-10
1431,99.03814,1657950333.0,0.734567,-10.00001,136,8,-1.021042e-07,-10
1432,99.10734,1657950333.0,0.803771,-10.0,136,8,-1.020562e-07,-10
1433,99.17656,1657950333.0,0.872982,-10.0,136,8,-1.021412e-07,-10
1434,99.24577,1657950333.0,0.942197,-10.00001,136,8,-1.020666e-07,-10
1435,99.31498,1657950334.0,0.0114022,-10.00001,136,8,-1.022117e-07,-10
1436,99.38419,1657950334.0,0.0806155,-10.00002,136,8,-1.023013e-07,-10
1437,99.4534,1657950334.0,0.149831,-10.0,136,8,-1.023226e-07,-10
1438,99.52261,1657950334.0,0.219035,-10.0,136,8,-1.022539e-07,-10
1439,99.59181,1657950334.0,0.288235,-10.00001,136,8,-1.022497e-07,-10
1440,99.66101,1657950334.0,0.357438,-10.0,136,8,-1.02226e-07,-10
1441,99.73022,1657950334.0,0.426648,-10.0,136,8,-1.021989e-07,-10
1442,99.79943,1657950334.0,0.495857,-10.0,136,8,-1.02279e-07,-10
1443,99.86863,1657950334.0,0.565061,-10.00002,136,8,-1.022527e-07,-10
1444,99.93785,1657950334.0,0.634274,-10.0,136,8,-1.023797e-07,-10
1445,100.0071,1657950334.0,0.703482,-10.00002,136,8,-1.019923e-07,-10
1446,100.0763,1657950334.0,0.772686,-10.00001,136,8,-1.020716e-07,-10
1447,100.1455,1657950334.0,0.841885,-10.0,136,8,-1.022487e-07,-10
1448,100.2147,1657950334.0,0.911085,-10.0,136,8,-1.022484e-07,-10
1449,100.2839,1657950334.0,0.98029,-10.00002,136,8,-1.021931e-07,-10
1450,100.3531,1657950335.0,0.0495039,-10.00001,136,8,-1.018608e-07,-10
1451,100.4223,1657950335.0,0.118714,-10.00001,136,8,-1.022972e-07,-10
1452,100.4915,1657950335.0,0.187918,-10.00001,136,8,-1.021541e-07,-10
1453,100.5607,1657950335.0,0.257128,-10.00002,136,8,-1.021614e-07,-10
1454,100.6299,1657950335.0,0.326345,-10.00001,136,8,-1.020267e-07,-10
1455,100.6991,1657950335.0,0.395558,-10.00001,136,8,-1.020774e-07,-10
1456,100.7683,1657950335.0,0.464763,-10.00001,136,8,-1.022348e-07,-10
